# Neural networks weights generated in PyXtal_FF 
# total_species nparams 
1 785 

# NET ndescriptors nlayers activation_func for layer 1, number of nodes for layer 1, ..., ..., ...., 
NET 30 3 tanh 16 tanh 16 linear 1 

# Scale0 
    27.5044113490885      0.0000231927987     -2.7794947607182      2.0127188870576     -5.6931199345794 
    -5.3512428565099     -2.7032459700143     11.0688842435704     -6.6083857887065     -5.3720337828579 
    -0.6381813953800      0.1160800431134      1.0048022244088     25.7960308030662     -4.9081426536666 
    -1.2247223989103     -0.1899397905172      5.9901108466303     -1.4763262035507      3.8370087695539 
    22.7445655914480     -5.1447131487505     -2.0109553508872      3.5773355020465     -0.0962313585731 
     0.9341151890502     23.7410389452925     -3.6478792516615      1.3764942261771     -0.7898661504241 

# Scale1 
   272.3256616792672     18.4132584031954      5.1650476265954     32.9655164702493      8.6848341902428 
    11.4255854303038     12.6012342151183     77.0744039747520     12.3560371755877     14.6800359588283 
    11.8059238695187     18.4466110725879     30.0460607034814    144.3070081029436     15.7964174378799 
    14.9030246414363     13.0736645589684     13.1622875584920     43.4867058119536     39.6531009390502 
   165.6748740672574     16.9944908181793     20.7183677230469     17.5835860777735     32.2360716248913 
    33.9443658682333    162.1181650759409     15.3970697399297     27.7279829528339     31.2349919130139 

# Coefficients
  -0.1685249592909   -0.0711538305044   -0.0581451741302   -0.2300721095465   -0.0817744005063 
  -0.1063423415700    0.0205725195840    0.1456212055339   -0.4301494975097   -0.2006191140363 
   0.1275105852127    0.3305012507234   -0.0755392846205   -0.0540836217624   -0.1794140794433 
  -0.1424769114634    0.0224423247671    0.0934392004394    0.1507047052031   -0.1714531867906 
  -0.2661823200671   -0.2048538313260   -0.1864960237744    0.1072576810071   -0.1467840161904 
  -0.1935095589421   -0.1434216924554   -0.2732529412302    0.1083203784839   -0.1722535487182 
  -0.1728293709532   -0.6761492060964   -0.0070911382857    0.2169368154223    0.0049965978353 
   0.3295746389623    0.5687498747448   -0.1208649578755    0.0041398642755    0.5073076800635 
   0.5099433694530    0.5924569434988    0.0949184501065    0.1893628591167    0.3894278551754 
   0.2162828611257   -0.0177754153893    0.2766344312381    0.0280309907807    0.0150559893467 
  -0.0515285801496   -0.1006912667721    0.1590106584762   -0.0199693105931    0.2697614923537 
   0.1244962480877   -0.2666140307615   -0.0698823423468    0.0685171695989    0.1922403227677 
  -0.3459451398210   -0.0906560657790   -0.4022738732951    0.3833629422618    0.1371694303995 
   0.0997987592787   -0.6230335158338    0.2660712485007   -0.3061513320740    0.0963643796801 
  -0.1935820584435    0.0184712030898    0.0541540693440    0.2239804405332    0.1621224834262 
  -0.0032885309423    0.3182511474500   -0.0855100183368    0.1833541601526   -0.0431815761065 
   0.1716094235797   -0.3315968102535    0.3537178559789    0.2205622048187   -0.0769909477777 
   0.3493090678579    0.3403981874419    0.1414117588869    0.1078761149491    0.4285505957977 
   0.0317509855157    0.0854578972362   -0.1284428844457   -0.3074180364163    0.1999808682639 
  -0.1235067434620    0.0408409154143    0.1710962623409    0.0163383915230   -0.0485854902005 
   0.1792329135063    0.0988098132828   -0.1141127807907   -0.1427106976940   -0.1280160046307 
  -0.2534598363203   -0.0537013965142   -0.0922775002727   -0.1096090828014   -0.1253630645922 
   0.1421548622299   -0.0149140749294   -0.3689355845808   -0.1969371906332    0.0932874872123 
  -0.0682421880180   -0.0159106033237   -0.0810564674323   -0.1618513358203    0.0191167927945 
   0.0999119337682    0.1074214042966   -0.1336146061842   -0.0009668105289   -0.7826209531880 
   0.3152227256394    0.0515971510060    0.0044354110359    0.1135395811678    0.4249227184039 
   0.0342903970055    0.3943417301426    0.1713276426225    0.2291724771245    0.5430507484156 
   0.4004447468505   -0.1173743918160   -0.0973088546908    0.2057227784465    0.1401271799883 
   0.1663204051545    0.1527234995649   -0.3265803230328   -0.5611869929995   -0.2534961044363 
   0.0724977453333    0.0730548115222    0.0398057544296   -0.2621661555603   -0.6476369315852 
  -0.1952227101658   -0.0033016242739    0.0826680876661   -0.2190594781421   -0.0527783945927 
   1.0562924436540    0.2133338098203   -0.0437464878979   -0.2684382282791   -0.4651043987153 
  -0.0618665945221   -0.4025348639336   -0.4356748278837   -0.1908092420805   -0.0360709585951 
   0.2130616082793    0.0159608163456   -0.4809254475747   -0.2609071106022   -0.0127279971275 
  -0.1392819356283    0.1604791828669   -0.1319763708749   -0.4381959881162   -0.4081286679751 
  -0.1374767943998    0.2124186730942   -0.1108067481218   -0.1559572204691   -0.0524687627962 
  -0.4029433814992    0.4180970690914    0.3295613099133    0.2700573809312   -0.2714628943472 
  -0.1459695995911   -0.7221345176236   -0.0173942198556   -0.0539462318665    0.0430358750542 
   0.2558757004208    0.4466746496364    0.1439800412148    0.3439560545422    0.3721306954220 
   0.3087097660917    0.2550844876085    0.2055096344028    0.0670436349959    0.0554818501843 
   0.1095260597289   -0.0738953838463    0.2115005643288    0.1784728853900   -0.1940972627920 
  -0.2614880173901   -0.1566229493517    0.2895747548008    0.0930857157009    0.1040011482667 
   0.1820489199479   -0.3607765419455   -0.1631527434907    0.0005581783542    0.1113726641276 
  -0.2512509319186   -0.0872541450084    0.5977923030360   -0.2212906255596    0.0414472408484 
   0.0972625901410    0.1103642565958   -0.2188194751264   -0.2480402229823   -0.2278055408570 
  -0.3532135137090   -0.1617620109629   -0.0673910046307    0.1997774907437    0.1695795986458 
   0.1307408613944   -0.2183185482109   -0.1617814899082   -0.1224857622430   -0.0507851699042 
   0.2394182900383    0.2714696716943    0.2947598375238    0.0626741726673   -0.0202437080533 
  -0.1246599003075   -0.0267819679387    0.1447177616572   -0.1053041879629   -0.0470924581850 
  -0.1287742509924   -0.0370534788725   -0.3225928428003    0.4882253359559   -0.0287524760947 
   0.1182107114133    0.3781786642448    0.0616580406015    0.2195905367570    0.1250530429250 
   0.1438484461738    0.0980350891979    0.0300677426167    0.3437517712952    0.1783178219799 
   0.4970442251890    0.1369481114422    0.1270721088738   -0.0663211413151    0.3503798862173 
  -0.0195558480165    0.4274231054102    0.3474511346986    0.2692828463161    0.0406275403676 
   0.0656051985284    0.0759374688079    0.0792307147803    0.2793815336846    0.0218453131134 
   0.0875057279343    0.0783251574871    0.1269479840530   -0.0611117250757   -0.0146128174222 
   0.1511775807384    0.1459266927630    0.0721392361560   -0.0324792560431    0.0225413337589 
   0.2297623043393   -0.0997431653140    0.0800819481837    0.0136760840148    0.2732699826715 
  -0.0364685334288    0.2511135423779   -0.0685927460121   -0.0531420932976    0.0449799012412 
   0.2115548110472    0.0924584568633   -0.1052508966086    0.1216674194289    0.0138197373238 
   0.0405032191061   -0.0900025117135    0.1114106524210    0.1517251881387    0.0479810411056 
   0.1566967657525    0.0002366513664   -0.0063854114971    0.0859923737228   -0.0558137051938 
  -0.3247867156642    0.2362901276609   -0.1138813394957   -0.0017155609903    0.1022555479344 
   0.2313689669826   -0.0042375388643    0.3651171595925    0.0192228385001    0.2049975301654 
   0.0745786594168   -0.0833864919522   -0.1212890333264    0.0987700873378    0.2645136273372 
  -0.0197774352120    0.4910049715156    0.0228024774914    0.0096568302345   -0.0923573076144 
  -0.2265003019144   -0.0097849274566    0.1500408185208    0.0974702537067    0.0615876279273 
  -0.1995370960794    0.2035945727166    0.1202510289114    0.0953499350956   -0.3055360323301 
   0.1410420747577   -0.3254030248920    0.1300862569379   -0.0814387173311    0.0333051816824 
  -0.1145897324681    0.0785948448873    0.0858209434832    0.0585057948497    0.1360870529675 
  -0.0237856806781   -0.0853511766042   -0.0493834482814   -0.2083666430017   -0.1698378527743 
   0.0426267283824    0.1303564831527   -0.0916974605488   -0.0363641930359    0.0155490607559 
  -0.1393219624643   -0.1881204295904    0.0735063448353   -0.0872043202650    0.0256860336788 
   0.0609240086072   -0.2085301958540    0.0611914017106   -0.0421464667674    0.2508969308685 
   0.1268711038661    0.1431222422534    0.9993672411120   -0.3159323578686    0.1728662539579 
  -0.3253925481025    0.1141759730798   -0.3728720641707    0.0066269372097   -0.1053307043527 
  -0.5440790606921   -0.1280823958170   -0.0436236014901    0.3023190890274   -0.2100283070917 
  -0.0029140429319   -0.4035322768699   -0.1007268749180   -0.2578442743569    0.0016363987920 
   0.2862718951134    0.5391441266007    0.3843353744711   -0.5656456834391   -0.2571895715072 
   0.0915392924867    0.0252266247859    0.3139137733439   -0.2944212938919   -0.0226405033688 
   0.0317688442167    0.4911470163378    0.0350049610704   -0.0859301242207   -0.0997602496321 
  -0.1851875934007   -0.0070909413791    0.1331756926594   -0.0264556080535    0.0559595292012 
   0.0032820588203    0.1094736430979   -0.1245356501631   -0.0143356304266   -0.0443095858700 
  -0.0362353453381    0.0754871155657   -0.0144932117261   -0.0000917944977    0.0181159119337 
  -0.0936110771152    0.0401738190511   -0.0979164906515   -0.1548474759111   -0.0621872800838 
   0.1147119602834   -0.0289794664355   -0.0590178899459    0.0397525436653    0.0755859578703 
  -0.1286464793557    0.0410090241887   -0.1557140215257    0.0517001643518   -0.2461027865433 
   0.1498324127219   -0.1414136947178    0.0387495781520   -0.2317971210988    0.2578913635567 
   0.5399894754185    0.0666060741615    0.3830733208214    0.2992189287859    1.1639375147090 
   0.1597351184185    0.3438256618547    0.1642561717697    0.2105642575251    0.2333229057848 
   0.3594595007197   -0.1507275780880   -0.5118483841771    0.0071426397297   -0.3780510017209 
   0.8105316452288   -0.0479917655846   -0.3488191104866   -0.6108257248336   -0.5560277619980 
   0.2922405596277    0.3372584996116   -0.1787304138507   -0.1284240814355    0.0122240452556 
   0.4883401874191   -0.1813283366491   -0.0976497997662    0.3002297474225    0.0675327615930 
  -0.3124944522342    0.1590080742895    0.2764737166615    0.0622905493940   -0.4762168788483 
  -1.0481173255897   -0.6041876798555    0.2674406880860    0.2555254399326   -0.3834564911694 
   0.0457739487576    0.1369690569460    0.0192565659574    0.1578750370939   -0.2963149463851 
  -0.1731617504653    0.1218921452251    0.1962503158611    0.3528104428594    0.2304455992977 
   0.2648925151796    0.0240967520712   -0.0670944620934   -0.3284697244703   -0.1872677884100 
   0.2447309536976    0.3640891313442   -0.2825582051267   -0.1915132139717   -0.3969873709679 
   0.1229484362715   -0.2179322819051    0.4264216684152    0.1627388865386    0.0298817869655 
   0.1503015000806   -0.3069558371171   -0.0303293846319    0.0494876913164    0.2532895999798 
  -0.0097048859591   -0.0918287312454    0.0826881591987   -0.5876016758129    0.0576206025642 
   0.2070933508926    0.1621340303980    0.1042391060845   -0.0263947510701   -0.0161746991994 
  -0.1479458249897   -0.2706740520848   -0.1733477923438    0.0692561659553    0.2661794191858 
  -0.1485684236463   -0.1821359020497    0.1075699849992    0.1732757688318    0.1009862409316 
   0.4703700544826   -0.2063410560178   -0.3110135787168   -0.0912955907038   -0.1081155108431 
   0.0865456191072    0.2984125046833    0.0651759781420    0.0341288268955   -0.0554777489361 
  -0.0263041587977    0.0705533964698    0.0165976721957   -0.0217109791247    0.1029531430572 
  -0.2170146240591    0.2823432574563    0.1937358179472   -0.1995170154865   -0.3596937488362 
  -0.0973139560195    0.0788474839105   -0.1939996027017    0.3688382074050    0.0758159300690 
   0.1337715663948    0.0308212942243   -0.1053862367080   -0.0912309602649   -0.1549650833244 
   0.0677826145827   -0.1531413658966   -0.3166623881037    0.2252632183116    0.6077267460287 
  -0.1306099294954   -0.2845675609657    0.1141801828426   -0.0143034533045   -0.1143803522517 
  -0.0566613521886   -0.1681384105278    0.1501785201472    0.1551638256772   -0.2809455942062 
  -0.0064260767059   -0.1134575383283   -0.1669988292388    0.2441698405534   -0.0613804614205 
   0.1259062944813   -0.2470397962567    0.0121131875504   -0.1556889170802    0.0265005755703 
   0.0617582150233    0.0698505650034    0.2107902508272    0.0325822825357   -0.1217113394392 
   0.0507714284016   -0.1121360032962    0.1018900496839   -0.1188464250616   -0.2141173096843 
  -0.0516888652078   -0.2729187317397   -0.3291574203289    0.4706957970398    0.0560926755143 
  -0.0580070743675   -0.3808441582329   -0.1374676112223   -0.0484727588237    0.1645258081049 
  -0.1749149480624   -0.0387107687442    0.2996371653106   -0.1246323353296    0.0724943011647 
   0.0578640540487    0.0306865530967    0.0740078661018   -0.1475916162361    0.3664564820178 
   0.1817219130347    0.0580126011497    0.1807016188409   -0.0401576517985   -0.2069879375352 
   0.0861460680774    0.0030196278146    0.0115151252312   -0.1378360943356    0.0814131041926 
   0.1396598793267   -0.0477754612375   -0.1300441517001   -0.0166433928694    0.0631327189194 
   0.3100420436416    0.1216677188402   -0.5496945988031   -0.0512276667806    0.0513557240324 
   0.0496102970159    0.3341531688223    0.3888549772428   -0.2370707421296    0.4557023756227 
  -0.2942155265908   -0.2472301844202   -0.1230328802206    0.4204538065118    0.4103508521890 
  -0.4377256668063    0.1457020957952    0.1294379875989   -0.1247690611892    0.0104041848893 
   0.0220416886521   -0.1248346365028   -0.0524916143916    0.2153890250643    0.0643661523254 
  -0.0881749051711   -0.1231343533314    0.1352874636443   -0.1621554439167    0.1013273143506 
   0.1804948850948   -0.0043010512668    0.0859222717717    0.0464949307255   -0.1738855964380 
   0.0989063371931    0.4842343013807   -0.1805382983238   -0.2171661242811    0.0090592647732 
  -0.2781881605688   -0.2977165084251    0.0335251934574    0.0654848165542   -0.0206552330856 
   0.1985663026934   -0.0668888306934    0.0177309356160   -0.0106277369624   -0.0958721325718 
  -0.0708500802596    0.1839594402259    0.1909373566863   -0.3212670436562   -0.0385325882925 
   0.4177382594617    0.3958569978468    0.1158198327509   -0.0728850391634   -0.3193826540902 
   0.1085902362541   -0.0692599333734   -0.2244616568324    0.0753563325917    0.1377706514363 
   0.1110040315999   -0.1633045835152    0.0472374901854    0.2769545288631   -0.0165299279632 
  -0.6230600221723    0.2875357437929    0.2290473340187    0.1116799200450   -0.1535512415561 
   0.2698407688433   -0.0866238392069    0.2736740165346   -0.0176356662917    0.1118744274437 
  -0.0144885833769    0.0120893525063    0.0111808272423    0.1390461960259   -0.2086493406270 
   0.2580509840621   -0.3614224816851    0.0021932014252   -0.0412976082006    0.1104752969373 
  -0.1108583222030   -0.0058978600031   -0.1170836832196    0.0830826503330   -0.1338717175631 
   0.0131542373469    0.2888390377779    0.2379262921668    0.2986992598232    0.1189979857427 
   0.1885045273343    0.0205225400318    0.0992173541804    0.1448117597566   -0.5887230107998 
   0.2376626810873    0.1873362594913    0.3718726326688    0.2030280363383    0.4222765592193 
  -0.4218256789757    0.2474997384762   -0.1779369422862   -0.1834033344027    0.0505092077817 
   0.3537911911634    0.0966218382750   -0.3160917639897   -0.0176965826452    0.2622798899313 
  -0.0128820856922    0.9345746941421   -0.3310047290974   -0.1007174075122   -0.2550081163261 
   0.0519705651321   -0.0318047864238    0.5788879282886    0.0796801304016    0.0289561086556 
   0.3605989472379   -0.0754295230395   -0.2843829058464   -0.0256321669737    0.2704368997747 
   0.2327393590109   -0.3718801411052    0.4361459363369   -2.8344598511906   -0.6999958710998 
   0.3388119714197   -0.5175934500591   -0.5215822273782   -0.2932321457110   -0.1336568934385 
  -0.4705276339864    0.1258863078734    0.6724979684890   -0.0670800488133   -0.2896753737018 
   0.5726823791815    0.5465258407364    0.0026296234107    0.7634356530652   -1.1096462329546 

