# Neural networks weights generated in PyXtal_FF 
# total_species nparams 
1 785 

# NET ndescriptors nlayers activation_func for layer 1, number of nodes for layer 1, ..., ..., ...., 
NET 30 3 tanh 16 tanh 16 linear 1 

# Scale0 
    27.5044113490885      0.0000231927987     -2.7794947607182      2.0127188870576     -5.6931199345794 
    -5.3512428565099     -2.7032459700143     11.0688842435704     -6.6083857887065     -5.3720337828579 
    -0.6381813953800      0.1160800431134      1.0048022244088     25.7960308030662     -4.9081426536666 
    -1.2247223989103     -0.1899397905172      5.9901108466303     -1.4763262035507      3.8370087695539 
    22.7445655914480     -5.1447131487505     -2.0109553508872      3.5773355020465     -0.0962313585731 
     0.9341151890502     23.7410389452925     -3.6478792516615      1.3764942261771     -0.7898661504241 

# Scale1 
   272.3256616792672     18.4132584031954      5.1650476265954     32.9655164702493      8.6848341902428 
    11.4255854303038     12.6012342151183     77.0744039747520     12.3560371755877     14.6800359588283 
    11.8059238695187     18.4466110725879     30.0460607034814    144.3070081029436     15.7964174378799 
    14.9030246414363     13.0736645589684     13.1622875584920     43.4867058119536     39.6531009390502 
   165.6748740672574     16.9944908181793     20.7183677230469     17.5835860777735     32.2360716248913 
    33.9443658682333    162.1181650759409     15.3970697399297     27.7279829528339     31.2349919130139 

# Coefficients (Si)
   0.0795960964126   -0.0045614574660    0.1224926005447   -0.6581301924546   -0.2444068197386 
  -0.2108176797562   -0.1834747310345    0.3771312852423   -0.7521820400569   -0.2415554324737 
  -0.3804079728952    0.2729133386513    0.1833943646020    0.2544152495149   -0.8222041300709 
  -0.3785229120048    0.0343387934226    0.2681051302387    0.0091442162656   -0.1579649270941 
  -0.1159851100411   -0.9156937599497    0.0011197184387    0.6081246226379    0.1280877426710 
  -0.0076526201392    0.1144024802335   -0.4472070314730   -0.0577794130055   -0.3057997097271 
  -0.1174864197578   -0.4375388840581   -0.6603307534593   -0.0111206164533   -0.0122897061437 
   0.2781676502324    0.4080221514295    0.1268810308772   -0.2230606473761    0.4479446881997 
   0.4437022436721    0.7572787677966    0.0789240871902    0.1056320543108    0.3038414471609 
  -0.1520382961428   -0.1532039184702    0.1678477344657    0.0244355777593    0.2230439127570 
   0.1209729329172    0.0900066224426   -0.0859080338024   -0.0338230614505    0.2373132936041 
   0.1565199785516   -0.0321753723310    0.0724250160952   -0.1150609132335    0.1215551131520 
  -0.1407686012829   -0.1159945923549    0.3993923286555    1.0777324263161   -0.1217931691731 
   0.3634231568993   -0.3511285354966    0.2219632941176   -0.2807706497267   -0.4213897385310 
  -0.2744833336929   -0.0131739527784   -0.1175838823646   -0.2177045359815    0.0504324182758 
  -0.0335206631158    0.4117205175495    0.1215625104819    0.1575037638452   -0.1769847477754 
   0.1099991520984   -0.2781756837218   -0.0945643425303    0.1295412330926    0.0572291022313 
  -0.1098188743062    0.0901534454377    0.0436090857875    0.0895781644030    0.2009663127014 
   0.2651471369921    0.0817614434054   -0.0261233097281   -0.2977956196691    0.2370454085151 
  -0.0497315041875    0.3093428612264    0.1462332279574   -0.3571364218204    0.3127140427694 
  -0.1767586611287    0.0022625817870   -0.0531748773827   -0.0003231057163   -0.2455765845699 
  -0.1899479012089    0.1582712486954   -0.3511631703453   -0.3338008363036    0.0878927846487 
   0.0398984171479    0.0370367220311   -0.2723162927766   -0.1458465898142   -0.0280962396790 
  -0.1696484144453    0.1030151725394    0.0588888080348   -0.2592033868261   -0.1960893940195 
  -0.0971892030108    0.0494087572752   -0.2074871911427    0.0578090389971   -0.4571795447199 
   0.2737183724658   -0.0961106521951   -0.0734867475817   -0.2893421608509    0.2700053590276 
   0.3923335054278    0.3783534331934   -0.1249190210065    0.4103978578658    0.5885165635883 
   0.4084702193436   -0.4113931451024   -0.1580007811397    0.0996787883394   -0.1279531646622 
  -0.0576230950405   -0.0296857981234   -0.3537471126082   -0.4248330290774   -0.0435168973064 
  -0.2368456519548    0.0273253468363   -0.0654913200628   -0.0043959945094   -0.2865781983649 
  -0.1348203502765   -0.0220905184544   -0.1433896525237   -0.1151124669896    0.0711666971518 
   1.2874940875219    0.1096182027140   -0.1120401484783   -0.5459706752705   -0.5076118584336 
  -0.4197781897095   -0.1525370634618   -0.5410303497316    0.2294944450999   -0.0136652577928 
   0.4003661194290   -0.2834891397162   -0.7762037140564   -0.1894117708117   -0.0435733596615 
   0.0665425201455    0.4209488845668   -0.2453950913185   -0.6621474204303   -0.0829777128191 
  -0.2880461227177    0.0483568282403    0.0505799501322   -0.2054964024800    0.1760297024496 
  -0.2324736366528    0.5396240365241    0.0103501941630    0.2299118848148   -0.2440926506293 
  -0.1098493257962   -0.4946429989932   -0.8264134566294   -0.1829856424346   -0.0194089247431 
   0.0650583634118    0.7054147903455    0.2205639246981    0.4223598983293   -0.2130422775934 
   0.2469238257064    0.2518159278729    0.3533428027951   -0.0612006701840    0.2036424340119 
  -0.5645667538045    0.0926143686251   -0.0389445212554    0.2556309230211    0.3052771159147 
  -0.0823728813763    0.1453010461266   -0.1544424014501    0.1079515163492    0.3629336702107 
   0.0564061334968   -0.2453974110409    0.0026746819744   -0.1162948114184   -0.0334416895896 
  -0.1469468823475   -0.0618010024880    0.4518039795554   -0.2536512550736   -0.0763130651415 
   0.3824287141742    0.0042397642036   -0.6912288774171    0.0291309635409    0.1310886850343 
  -0.3648581218416   -0.2585500554517   -0.1721438526310    0.4191012042796    0.5727754418378 
   0.0484274497961   -0.1509802026145   -0.1814975988039    0.0616237908930   -0.0893114589323 
   0.1872938439167    0.2400689573283    0.1234747681943    0.0164485152405   -0.0053123638435 
  -0.0882251119863   -0.2042228036639   -0.0145052443324   -0.1266089859115    0.2492682898603 
  -0.2598913936232    0.1476927135602   -0.0866728430500    0.3599287797874    0.0022948260320 
   0.1699344472603    0.2331065460858   -0.0456865874172   -0.1411704355725    0.0332186807672 
  -0.0278172299014    0.0273128955857   -0.0587892546396    0.1771214301400    0.0990471157563 
   0.1526552244140    0.0414423941611    0.0527280654238    0.0251287650087    0.1355380345145 
  -0.0146481863477    0.1423470488335    0.1107857045697    0.1263379977519   -0.0166908267054 
  -0.0252080221252   -0.0706113234729    0.0339082035772    0.0129828003130   -0.0061408280670 
   0.1059565125567    0.0486199368760    0.0124961218705    0.0091338325862    0.1902228312410 
  -0.0089248119506    0.0472426716118   -0.2561574555186   -0.0421863553547   -0.2148951283875 
   0.4091257549115    0.1633790617011    0.3390121832369   -0.2540387267108    0.3265368311931 
   0.4645112307202    0.1641207427296    0.0097025327062    0.3448148945871   -0.1689941569602 
  -0.0026680322731   -0.0698533890057   -0.3150486342952    0.0627989720939    0.0560279089722 
  -0.0352002956108    0.0044858432761   -0.0331613244995   -0.0434283169872    0.4745117812450 
   0.0622007526870   -0.0825723489521    0.0356333343667    0.1214891160371   -0.0449838968849 
  -0.2080705371138    0.2730090152812    0.0260941138720    0.0036526035176    0.1917688678211 
  -0.1363583383827    0.0407193665721    0.7349106220126    0.0062465169322    0.0491071122385 
  -0.0665136725568   -0.3867247330779   -0.2295735510576   -0.0101774491978    0.2782099491605 
  -0.2607252282342    0.5912033766637   -0.4151277652911   -0.2349614192647    0.0482282288730 
  -0.1265733941210    0.1184114462158    0.0359778029262    0.2952459423001    0.2640076866734 
  -0.2022172083340    0.0320292754998    0.0214577737771   -0.1805942253209    0.0994782599910 
   0.0374618853374   -0.1949047001079    0.3221016023094   -0.3190811003098    0.0962251121814 
  -0.0070486692853    0.0643001456304    0.5676688291832   -0.1077868455230    0.1419487312485 
   0.1618283132524   -0.0863667728595   -0.1918358296514   -0.3232841186891   -0.1963265318266 
   0.3254742481684   -0.0442397854152   -0.2731029178214   -0.0452491871557   -0.0924138250962 
  -0.0273704098883    0.0435298420888    0.0853532076313   -0.1190130306589    0.0099858487231 
   0.0695687759302   -0.1311727495086   -0.0971083609432   -0.3498835498425    0.1915732054552 
   0.0514105709358   -0.1917049426568    0.9141425355806   -0.1226509151240    0.1029079851526 
  -0.1776239699740   -0.1387984532670   -0.1908489117265    0.2747491682418   -0.0428221988724 
  -0.4892703564352    0.0423770493748    0.1521324867661    0.0576242550468   -0.4460976305004 
  -0.0051138010696   -0.3751883792985   -0.3210532199719   -0.2678185612175   -0.0331767692939 
   0.1250718110458    0.1985608289478    0.3391289824565   -0.5998923935555   -0.3205842052822 
   0.7187067892248    0.0911535264609    0.1621982856059   -0.4597517927259   -0.1305625245319 
  -0.0520176588427    0.0740412540600   -0.0200955777169   -0.1065042954972   -0.2238821105415 
  -0.4691304391625    0.0171535078028    0.1272980453635    0.4526819799440    0.1860663452939 
   0.1795098735384   -0.1065257277867    0.0416623755006   -0.1769070880255   -0.0635837081279 
  -0.0227528713295    0.0189739507383   -0.0744558581326   -0.2145177083720   -0.1763672543633 
  -0.0696268786158    0.0584052451220   -0.0852945516168   -0.1422416872078    0.1034210909601 
   0.2624231259833   -0.1824760659423    0.0686479295030    0.1388114154824    0.1839816798144 
  -0.2045657221245    0.0721958321068    0.0926329380682   -0.0359117011192    0.6517298876042 
   0.2427429866984   -0.2617034744909    0.0424875911190   -0.3994133458329   -0.1678428658811 
   0.2569518466880    0.0560270692612   -0.0911824582731    0.1924772841550    0.8638737613772 
   0.2993999610962    0.3041304001606    0.2114638251127   -0.0705153382607    0.1808962421518 
   0.0975088933755   -0.1340792997595   -0.4421748568310    0.1915208489990   -0.3131016864767 
   0.5808317037002   -0.0819193216958   -0.2562348067399   -0.5488542492069   -0.3651086388723 
  -0.0171126471693    0.3711781137924   -0.2896815117075    0.0559158284604    0.0572991921210 
   0.1671546742698   -0.1902505241151    0.0227298684689    0.4739109430828    0.6362723751014 
  -0.0663398673976    0.3426387933009    0.4356914371626    0.1275720155068   -0.3508107572772 
  -0.9151518728693   -0.5713368879899    0.0018522725120    0.3884021908268   -0.0876150398663 
  -0.2493395607448   -0.0338432549341   -0.1449220693982    0.0860441572052   -0.5262164386720 
   0.0564096049238    0.0926520296469   -0.0963930059167    0.0810612932890    0.1647277442923 
  -0.1002090248633   -0.0086264568994   -0.3132646850860   -0.3448194129169   -0.0233374928841 
   0.1396586235051    0.1998340586535   -0.3772486958324   -0.2779122196860   -0.4049254724457 
  -0.1453039861843   -0.0219338839852    0.2697513667399   -0.0360582692054    0.0414766114162 
  -0.0198211798413   -0.2914960647316   -0.1522098188667    0.0525109887520    0.3130230050511 
   0.3475516610500   -0.0930396940932    0.1840114850404   -0.5216160165416    0.0895060907460 
   0.1857270822881    0.1857557005207    0.1490780383103   -0.0357798119882   -0.0351792128860 
  -0.0442320528765   -0.1519888638198   -0.0464919062006    0.1269172807290    0.1681691677858 
  -0.0346127768011   -0.1831736940535   -0.0896824250602    0.0645674763582    0.0649827465355 
   0.2826150750640   -0.2499064165684   -0.2456064136631   -0.2860986711976   -0.2330821650154 
   0.0729172866830    0.1645337466312    0.0108745296588    0.0238074026915   -0.1151895520530 
  -0.2008605186198   -0.0351460984664    0.0102575658411    0.1875295446845    0.3136595704374 
  -0.1351577783771    0.2172458586828    0.0880614355478   -0.3119521261756   -0.2472034961983 
  -0.2216308316835   -0.1721148486663   -0.0733626169516    0.1646301963629    0.1047086327956 
  -0.0204593742968   -0.0327965073968   -0.2569738197748    0.0008260379379   -0.0113520580275 
   0.1920420705444    0.2375387539075   -0.2152695395834    0.2298204486965    0.5068862082121 
  -0.1359961677228   -0.1871266483003   -0.0933070169901   -0.0830485133845   -0.0595570708072 
  -0.0849089765788   -0.0293089284641    0.1007882218471    0.0066529350461   -0.1429233927125 
  -0.0713855113184   -0.0831994954331   -0.0187262840121    0.2389177387822   -0.0883663074028 
   0.1397454155446   -0.2719132704326   -0.0207806433216   -0.1134247067054   -0.0225727882654 
  -0.0038141997651   -0.0013597704742    0.1106169538862   -0.0077330872617   -0.0471143068237 
   0.0062239190547   -0.0599354444732    0.0518164472782   -0.0565043430528   -0.0970070364738 
   0.0264890955049   -0.1135567943940   -0.1253879468152    0.3396633498726   -0.0386150037051 
  -0.1099042929616   -0.3647991825409   -0.1190476914642   -0.0172072243263    0.0637919876304 
  -0.0710620056434    0.0200053099838    0.0482873303947   -0.1159769665939   -0.0285507848201 
   0.0549283071108    0.2156505950350    0.2440332843996   -0.1741458121952    0.2925034037702 
   0.2006336720581    0.0532321584168    0.0965757515592    0.0034604976451   -0.0445785138677 
   0.0352739422152   -0.0063201654272    0.0071702759149   -0.0468500118865    0.0405384250685 
   0.0688778582268   -0.0124859216840   -0.0406626011496   -0.0167022118168   -0.0065558422713 
   0.1299159126150    0.0242890480198   -0.4774532530908    0.2020072723544    0.0652479447923 
   0.4980928638417    0.4164986737428    0.6420938857741   -0.4437751645965    0.7218059063520 
  -0.5113153419669   -0.1929802118299   -0.0287190240887    0.3665944681881    0.6915044732195 
  -0.5338367916639    0.3100985033925    0.3188332078012   -0.0503939117023    0.0088205492719 
  -0.0143587803154   -0.0549447556325   -0.0391978763450    0.0601164596400    0.0267182307869 
  -0.0401209163798   -0.0421444182141    0.0536630912116   -0.0629895143104    0.0322273700796 
   0.0667573721584   -0.0076388635620    0.0558607762326    0.0388922296706   -0.0660789764028 
   0.0506716250038    0.4153209255774   -0.1168903299574   -0.1336565069872   -0.0775873566378 
  -0.1669310295730   -0.1124685892057   -0.0440242436665    0.0263227426538   -0.0164215714210 
   0.0381662420263   -0.0376456099426   -0.0510850813484   -0.0028548121310   -0.0336411443013 
   0.0418942663371    0.0462705812761    0.1234432032082   -0.2153973759583    0.1987390436851 
   0.2627709969678    0.3986150037033    0.2613617330468   -0.0776359898561   -0.1554018480521 
   0.0708853259840   -0.0257768359179   -0.0390357433713    0.1440392370985    0.1243229662045 
   0.0957100231722   -0.2238409530452   -0.1904766906101    0.1102276182263   -0.0735936406242 
  -0.4708320614310    0.5764930428636    0.2472430705669   -0.0044808633424    0.0703683888580 
   0.6512130054119   -0.0635290553111    0.3270457691093   -0.2516062283470    0.0675495559653 
   0.0974247706379   -0.0551200501762    0.2483531008823    0.2168680543934   -0.4008205455321 
   0.6959891475780   -0.5472563529606    0.0102921192626   -0.0138187537876    0.0477159983229 
  -0.0372631800232    0.0019012270072   -0.0447423506941    0.0371571443060   -0.0529380052010 
   0.0028758353474    0.1165813812898    0.0966009174522    0.1175764586347    0.0480200543592 
   0.0687178599501    0.0011357777789    0.0403556383045    0.0500011648089   -0.4465496099331 
   0.3514693705033    0.1806726362471    0.4092890411394    0.2854475587897    0.2110960874289 
  -0.4046769738228    0.3126177741358   -0.1744545582598   -0.0174117319252    0.2408604358422 
   0.4349983170602    0.1990172053274   -0.3166003787624   -0.1156264319990    0.2220489067702 
  -0.1160964397247    0.8008975228206   -0.6155505931188   -0.2010503900755   -0.3000009244910 
   0.0143414333709    0.2601052445297    0.6969898911485   -0.2322663462834    0.4867152149985 
   0.1435267690987   -0.4488769988032   -0.6315955382076   -0.2076791120261    0.6552070248011 
   0.5139744139805   -0.2797623159480    0.0585203346591   -2.6865860207704   -0.8409095901445 
   0.3805986407898   -0.6714434745670   -0.6100343812511   -0.3461853106708   -0.0724577277081 
  -0.5447662863083    0.0507408783869    1.2719384080219   -0.0487685378862   -0.2341169402319 
   0.6679224951583    0.9885558663849   -0.0182321697883    0.9019385065919   -1.3828711376392 

