# Neural networks weights generated in PyXtal_FF 
# total_species nparams 
1 785 

# NET ndescriptors nlayers activation_func for layer 1, number of nodes for layer 1, ..., ..., ...., 
NET 30 3 tanh 16 tanh 16 linear 1 

# Scale0 
    27.5044113490885      0.0000231927987     -2.7794947607182      2.0127188870576     -5.6931199345794 
    -5.3512428565099     -2.7032459700143     11.0688842435704     -6.6083857887065     -5.3720337828579 
    -0.6381813953800      0.1160800431134      1.0048022244088     25.7960308030662     -4.9081426536666 
    -1.2247223989103     -0.1899397905172      5.9901108466303     -1.4763262035507      3.8370087695539 
    22.7445655914480     -5.1447131487505     -2.0109553508872      3.5773355020465     -0.0962313585731 
     0.9341151890502     23.7410389452925     -3.6478792516615      1.3764942261771     -0.7898661504241 

# Scale1 
   272.3256616792672     18.4132584031954      5.1650476265954     32.9655164702493      8.6848341902428 
    11.4255854303038     12.6012342151183     77.0744039747520     12.3560371755877     14.6800359588283 
    11.8059238695187     18.4466110725879     30.0460607034814    144.3070081029436     15.7964174378799 
    14.9030246414363     13.0736645589684     13.1622875584920     43.4867058119536     39.6531009390502 
   165.6748740672574     16.9944908181793     20.7183677230469     17.5835860777735     32.2360716248913 
    33.9443658682333    162.1181650759409     15.3970697399297     27.7279829528339     31.2349919130139 

# Coefficients (Si)
  -0.0137744053136   -0.0100734351753    0.2853712117663   -0.3300867008122   -0.1314059273262 
  -0.2651800715216    0.0066642457984    0.4299060081991   -0.6455284197836   -0.3147638478920 
  -0.0170311242809    0.3007998788519    0.0919246744090    0.1898214720636   -0.3378714780391 
  -0.3614455380053    0.1258338821554    0.0952982858148   -0.0230089370154   -0.2302808514162 
  -0.4636160184502   -0.3884618606133   -0.2214495917651    0.5535235920227   -0.1561283825140 
  -0.2663226881813   -0.2466217677333   -0.2988411952232   -0.1338963475563   -0.4471409421999 
  -0.0313964794808   -0.6845856157106   -0.0556107568058    0.2725855541812   -0.0728527877417 
   0.3907992179746    0.5078490639980   -0.0171297913015   -0.0308804141121    0.5197899876417 
   0.5477995008604    0.7152743797027    0.1848578211801   -0.0162941366463    0.3770159356562 
   0.0738235164112   -0.1460785230173    0.1323009237646   -0.0115893305399    0.1461477031911 
  -0.0934327301839   -0.0000402213585   -0.0712508629487   -0.1787151091602    0.3081820454824 
   0.1011601194976   -0.3428226664292   -0.0136243602213    0.1155592268933    0.0673797631118 
  -0.2866667984706   -0.0881648209887   -0.0775313289449    0.6323096642829   -0.1386599910070 
   0.3194828408760   -0.6574457683540    0.3406683558934   -0.3418545955580   -0.5885660309262 
  -0.2108674146893    0.0663696499964   -0.2317192993803   -0.0364718799304    0.3946741837471 
   0.0508131712981    0.6691581710189    0.2463039464596    0.1867230512863    0.0148727938689 
   0.2833893886164   -0.4758660861901    0.1624620359012    0.2957968952685    0.1642742638002 
   0.1613811882805    0.2622531004778   -0.0936943090960    0.0785643869489    0.3623220751575 
   0.4382185087458    0.0289220964929   -0.0764770780821   -0.2855329847435    0.2357834443350 
  -0.1759711776771    0.2231005952185    0.1264821359131   -0.0541659809054    0.1217162273339 
   0.0510351909074    0.1306931432430   -0.1275719625845   -0.1020400290604   -0.1324298054797 
  -0.2566801794177    0.0640855643394   -0.0862466065930   -0.2717184776664   -0.2201702222636 
   0.1387428834341    0.0784181498696   -0.2697078768305   -0.2485304525643    0.0822549736076 
  -0.1159900386467    0.0111568382534    0.0141690400401   -0.2347104304191   -0.1003036363411 
   0.0648486610533    0.1665541851406   -0.2129765271235    0.1161712239125   -0.7112882038684 
   0.3381331542567    0.0925624715467   -0.2181115850537   -0.0855471131268    0.2403653121875 
   0.2787527425659    0.4654735454654    0.0340456351449    0.3653532465398    0.5915041640717 
   0.3155329446369   -0.2911765846817   -0.1567227508305    0.2317506620277   -0.0826920126542 
  -0.0450974940280    0.0862221042284   -0.3964253835353   -0.5160927331373   -0.1352664222102 
   0.0376518902547   -0.0031744487866    0.2005475578362   -0.1141027453534   -0.5969130866192 
  -0.1260299341083    0.0692499740310   -0.0389184891876   -0.0898700461445   -0.0088644946952 
   1.2593566280729    0.3155049108819   -0.1961652080559   -0.2674259572498   -0.5895504315881 
  -0.2332220449092   -0.1718864308174   -0.6639277495256   -0.0517840858471    0.0688509064156 
   0.1025054172872   -0.3087601702847   -0.6024044874596   -0.2752648902227    0.0687683277312 
  -0.1860775559493    0.3363890018322   -0.1239556705728   -0.6473802729760   -0.4802544926516 
  -0.3273756007780    0.3203979763299    0.0020071268674   -0.2319080808905    0.0606271043807 
  -0.4086170615794    0.4531519348844    0.2866519362496    0.1969423496257   -0.1851088867867 
  -0.2871541769362   -0.7119357299994   -0.3544866730092   -0.2229390925769    0.0260565007657 
   0.2922713743677    0.4001697279214    0.2537007890946    0.4859732395651    0.2115193523358 
   0.3107881367355    0.3360720628136    0.2838945160264   -0.0388728540542    0.0714000210145 
  -0.0840733195950   -0.1322833738428    0.2392183678392    0.2838335456778   -0.1398928239876 
  -0.2488489284548   -0.0721898479362    0.0441348056897    0.0708199832649    0.2285755507666 
   0.3046620077263   -0.3693081824979   -0.1529675309150   -0.1815601691978    0.2325424535608 
  -0.1372297021778   -0.1542861847598    0.6121252104844   -0.2587483384292    0.0348962475371 
   0.2363844654834    0.1184189193854   -0.3261912053985   -0.2536809703202   -0.1294481572225 
  -0.2763025745961   -0.3112656190982    0.1201871509534    0.2473629288602    0.3151737777231 
   0.2586977480758   -0.2971039800688   -0.2408391709918   -0.0019500682929    0.0756351448709 
   0.1273854588433    0.1681748470348    0.1956246818836   -0.0136498312684   -0.0668341199495 
  -0.2009148582938   -0.0552855865929    0.0521445134951   -0.1113714075026    0.0617925201938 
  -0.0327642436802    0.0127206076667   -0.0390000505294    0.4498708372688    0.0023900682681 
   0.1033862543488    0.3541159973136   -0.0065851181610    0.0782205215837    0.0580255182799 
   0.0341616549915    0.1079927291078   -0.0436161332988    0.2922395999816    0.1207458630749 
   0.4008144702953    0.1385853018717    0.0989797135935   -0.0694062312419    0.2396830336175 
  -0.0288992148350    0.3253336784944    0.2656104791791    0.2053690335418    0.0178960510438 
   0.0298766021164   -0.0286051330347    0.0651783836301    0.1556669940764   -0.0064522587503 
   0.1090439164009    0.0696320822234    0.1031400916098   -0.0053769072870    0.0194488296659 
   0.1815601294595    0.1057550798768   -0.0475366558169    0.0823709891147   -0.0978792680132 
   0.2784691507965    0.0577092444059    0.1118799416333   -0.0926323579197    0.2791448623390 
   0.1751290549593    0.2333380719784   -0.0616268390317    0.0160081153194   -0.0557510053729 
   0.2106841747252    0.0247534181588   -0.3109924664406   -0.0043406699699    0.0777141981481 
   0.0647882683926   -0.0919740117517    0.1961790552927    0.1570231524309    0.2437597056497 
   0.1520636892563   -0.0083488324924    0.0873358322352    0.0976887149667   -0.1765377825605 
  -0.2955811405420    0.2280973495932   -0.2581435123027    0.2582411464135   -0.0036041888929 
   0.1651800496046    0.0528183691935    0.3697115462723   -0.0487081755563    0.1768214057128 
  -0.0561966965036   -0.2901411987900   -0.2275587673860    0.0726928375254    0.3013363429447 
   0.0165143059013    0.7377013896778   -0.1634991836066    0.0688657281864    0.0684785928286 
  -0.1760954127950   -0.0039937686929    0.2101818733260   -0.0026880567947    0.3639073787612 
  -0.1496425557614    0.0958378849811    0.1118003103379    0.0017480836918   -0.2431083375211 
   0.1655758869149   -0.3051296733415    0.2065656969146   -0.2016036286923    0.0495483238074 
  -0.1315521064156    0.0589788044486    0.3033433635477    0.0402275459769    0.1816246637614 
   0.0795903993074   -0.1064497543461   -0.0882389444785   -0.2934233949564   -0.1867265937886 
   0.1767288599862    0.0121543632411   -0.2551495195631   -0.1100997043694    0.0733105833439 
  -0.0777761394106   -0.1196803767311    0.0955297124527   -0.1498886320867    0.0132723251743 
   0.1456050222207   -0.2081185515439   -0.0446633891994   -0.1094360577329    0.2626808888613 
   0.0788460631698   -0.0159344963603    1.1280232143164   -0.2804992600957    0.1436186380534 
  -0.5905066583468   -0.0716897750569   -0.3073351367880   -0.0036365375444    0.1787399787195 
  -0.5197460850186   -0.0878992494948    0.1962022977511    0.3634159924833   -0.2143473078186 
   0.0040833231605   -0.4315404623340   -0.2756278258242   -0.3793905928278   -0.0285477753611 
   0.2229074366041    0.4467874765620    0.4705846079386   -0.5911065135428   -0.3997960300803 
   0.4176980361450   -0.0598617416377    0.1871787986850   -0.3773752660166   -0.0121668611968 
  -0.0611085799762    0.2354420861697    0.0546881870238   -0.0617002822594   -0.1008457498522 
  -0.1773219628683    0.0479952935924    0.1826226583307    0.0423647269967    0.0945206392558 
  -0.0093162399299    0.0924810143641   -0.0556445198689   -0.0094221414350    0.0076866972306 
  -0.0497448349417    0.0699746454824   -0.0616396786622   -0.0182604306621   -0.0331479858425 
  -0.0062666583011    0.0613844641400   -0.0620727316214   -0.1383357484198    0.0209876525486 
   0.1326462456580   -0.0152712791258   -0.0024384943705    0.0971177639641    0.1277576406337 
  -0.0910120743979    0.1421711583389   -0.1164335364387    0.0998714699522    0.0720925402198 
   0.0799648811863   -0.3349526512590   -0.1367963975209   -0.3901964307265   -0.0061963335448 
   0.4423522862923    0.2903343538958    0.2652612699566    0.3168579446829    1.1811872836790 
   0.2760618641088    0.2349049980520    0.0733473218202    0.1388928458836    0.2176469089212 
   0.3776548849862   -0.1355058799976   -0.6679734118686   -0.0143306777164   -0.3255212897328 
   0.7439868599468   -0.0060618064801   -0.1835612255373   -0.6261883882086   -0.5368968217671 
   0.0266673461464    0.3350276132358   -0.2739300848114   -0.0713055566283    0.0521707391182 
   0.3884785132089   -0.1776858702271   -0.2549587600434    0.7583066418898    0.4306075855923 
  -0.2928113663003    0.2713760239244    0.1524064158864    0.1404191332029   -0.3806419139218 
  -1.2220602621089   -0.6300756541847    0.0709645633635    0.2168002489150   -0.2994208446807 
   0.1800083461121    0.0352195245413   -0.1496668132191    0.2020701153944   -0.2774597534052 
  -0.2734589454890    0.1354668330135    0.2554516882935    0.1184440784113    0.3293211303231 
  -0.0889649293646    0.0253833915242   -0.2413868943586   -0.1682107903000   -0.3062253716452 
   0.2931643365241    0.3328214093794   -0.3932110455129   -0.1995180331969   -0.3202252444130 
  -0.0007910763484   -0.0948089594760    0.3660665365427    0.1270508737651   -0.0121985948351 
   0.1032909799505   -0.3194133767600   -0.0846020390848   -0.0023605949228    0.4007336183268 
   0.0607449678819   -0.0714522031856    0.0967573252803   -0.5414711918359    0.0706742898190 
   0.2161549012233    0.1460029716229    0.1111370268631   -0.0305724421779   -0.0620268011918 
  -0.0930618172508   -0.1717061616316   -0.0966461249231    0.1281587777306    0.2130989737957 
  -0.1163407941882   -0.2151731269169    0.0490791345109    0.1680919740321    0.0549620288304 
   0.3805814899776   -0.2334027262500   -0.3235453932790   -0.1409242808376   -0.1494636499813 
   0.0944225899696    0.2465358320760    0.0110628376374    0.0338250615900   -0.1127585181533 
  -0.1351734410962   -0.0166046760741   -0.0189787839272    0.1158057166838    0.1494006497435 
  -0.1940103419534    0.2477009021885    0.1489009251433   -0.2977655404833   -0.3551065192339 
  -0.0385574853122   -0.0422736620735   -0.1972963834891    0.3228271300078    0.0027969836262 
   0.0449062966485   -0.0044861869242   -0.1981573560015   -0.0490836408539   -0.1285788980215 
   0.1257781062769   -0.0680274961765   -0.2732731952887    0.2488083712571    0.5549430487427 
  -0.1583392916431   -0.2544696832633    0.0348000330025   -0.0248911408454   -0.0923375619099 
  -0.0888953449233   -0.1370086509581    0.1267417024751    0.0801114101054   -0.2393263411526 
  -0.0508017756434   -0.1042501872178   -0.1132418675905    0.2303759097728   -0.0998542724960 
   0.1435687971133   -0.2555546490398   -0.0136705439612   -0.1376789227274    0.0229808092162 
   0.0432176533587    0.0343474979496    0.1762926737413    0.0066455624267   -0.0908896885172 
   0.0344310712501   -0.0890987835454    0.0727280697033   -0.0926016118281   -0.1723608974095 
  -0.0278356715993   -0.2141484751232   -0.2395671261443    0.4236455113635   -0.0095617645796 
  -0.1020629436002   -0.3525520675713   -0.1206884451484   -0.0183115160825    0.1368714591209 
  -0.1405175156250   -0.0212636512619    0.1948712320019   -0.1243399303318   -0.0170110882776 
   0.0217275999691    0.1146592243277    0.1090278873029   -0.1828487659424    0.3247344035660 
   0.1931899966720    0.0609596565653    0.1514984335514   -0.0306682831467   -0.1480218570399 
   0.0656444931510   -0.0138178199547    0.0157256167724   -0.0977652507813    0.0718929016213 
   0.1162404104647   -0.0265856762514   -0.0921135644227   -0.0154605716087    0.0445729692627 
   0.2468462600279    0.0842079085777   -0.5313319041047    0.0324138244121    0.0370232831610 
   0.0930031974572    0.3883991349855    0.3076797675098   -0.2984959924625    0.6106026727346 
  -0.3684674293401   -0.1921912439191   -0.1279314937333    0.4299841692214    0.5053242286982 
  -0.5029961530614    0.1548880847694    0.2172354217208   -0.0861671813105    0.0081006928137 
   0.0013819378401   -0.0985022491998   -0.0440504101998    0.1559151683930    0.0516824974635 
  -0.0657261502000   -0.0924413791208    0.0985631095714   -0.1266406605821    0.0723306705684 
   0.1360158988361   -0.0090825082934    0.0781634480136    0.0410868912587   -0.1337769151400 
   0.0782222588148    0.4517741855752   -0.1728132467349   -0.1808831538524   -0.0371382300940 
  -0.2243787969851   -0.2059033164210   -0.0189032266301    0.0622466113404   -0.0205779740809 
   0.1274074800619   -0.0511929210199   -0.0310442387168   -0.0084660294811   -0.0762513234157 
  -0.0344198728945    0.1247404555608    0.1505002744494   -0.3323163366836    0.1629036446588 
   0.3272201236027    0.3534506301807    0.2025727461168   -0.0693823657333   -0.1720330693592 
   0.0234488604492    0.0188976329367   -0.1974887637941    0.0932247094103    0.0873621720404 
   0.1319619315125   -0.2379414913032   -0.0193363364265    0.1917056568885   -0.0901979651763 
  -0.5626997560634    0.4591983710473    0.2481294533824    0.0013514613138   -0.0166227422305 
   0.4783082484279    0.0150127174842    0.3359219813297   -0.1164660518630    0.1202607990370 
   0.1033746416627    0.0020046848878    0.0780734752355    0.0965114434712   -0.2459603600830 
   0.3965555352086   -0.5383010554471    0.0079566308569   -0.0339096854846    0.0854105802864 
  -0.0867494034860   -0.0046275384119   -0.0917666804397    0.0682681364222   -0.1021801223789 
   0.0086992173354    0.2268701728228    0.1859583165114    0.2308348624194    0.0919541182147 
   0.1423916319472    0.0141940045759    0.0753462842070    0.1122305871003   -0.6044589589999 
   0.3856366477286    0.0504859812010    0.2884764475509    0.2528390702538    0.2313497118229 
  -0.4437623971404    0.2220170152406   -0.1082775310339   -0.1711976471343    0.0500805722244 
   0.3796307619654    0.1336460301074   -0.3566732697735   -0.0240060368702    0.2160979366013 
  -0.0824256056850    0.8378423064314   -0.3169712173575   -0.1333445539240   -0.3025120282555 
   0.0440993889853    0.0620125057838    0.7030483140905    0.0316819518941    0.2237672187175 
   0.2007710443064   -0.2189831422174   -0.3897532008933   -0.0981922251733    0.5526300597381 
   0.3506863588796   -0.3341658813638    0.3215130120866   -2.7383076125616   -0.6984606658154 
   0.2679614943878   -0.4932328116722   -0.5262348683079   -0.2519232364334   -0.1100001036035 
  -0.3904230830437    0.1128051719053    0.7767494188418   -0.0376195245669   -0.1986193061311 
   0.5139065367780    0.6276188542319    0.0367078113013    0.7207957588675   -1.0663123601160 

