[{"group": "Surface", "description": "Mo_surface_mp/Mo_mp-129_(2_1_0)", "structure": {"@module": "pymatgen.core.structure", "sites": [{"abc": [0.0, 0.598601, 0.200068], "xyz": [0.0, 4.240970160603, 5.66976906628], "species": [{"occu": 1, "element": "Mo"}], "label": "Mo"}, {"abc": [0.0, 0.197315, 0.150478], "xyz": [0.0, 1.397937903945, 4.26442764238], "species": [{"occu": 1, "element": "Mo"}], "label": "Mo"}, {"abc": [0.0, 0.797763, 0.10099], "xyz": [0.0, 5.651993695689, 2.8619768179], "species": [{"occu": 1, "element": "Mo"}], "label": "Mo"}, {"abc": [0.0, 0.408264, 0.051061], "xyz": [0.0, 2.892470011992, 1.4470284018100001], "species": [{"occu": 1, "element": "Mo"}], "label": "Mo"}, {"abc": [0.0, 0.986798, 0.007255], "xyz": [0.0, 6.9912694307939995, 0.20560096855], "species": [{"occu": 1, "element": "Mo"}], "label": "Mo"}, {"abc": [0.5, 0.497766, 0.123756], "xyz": [1.584218, 3.526574050098, 3.50714727276], "species": [{"occu": 1, "element": "Mo"}], "label": "Mo"}, {"abc": [0.5, 0.101967, 0.073649], "xyz": [1.584218, 0.722416107501, 2.0871544772900004], "species": [{"occu": 1, "element": "Mo"}], "label": "Mo"}, {"abc": [0.5, 0.707715, 0.026824], "xyz": [1.584218, 5.014021355145, 0.76017096904], "species": [{"occu": 1, "element": "Mo"}], "label": "Mo"}, {"abc": [0.5, 0.301538, 0.224304], "xyz": [1.584218, 2.1363373270139996, 6.356598159840001], "species": [{"occu": 1, "element": "Mo"}], "label": "Mo"}, {"abc": [0.5, 0.899631, 0.174991], "xyz": [1.584218, 6.373708407693, 4.95910669711], "species": [{"occu": 1, "element": "Mo"}], "label": "Mo"}, {"abc": [0.0, 0.592285, 0.448176], "xyz": [0.0, 4.196222544855, 12.70095378096], "species": [{"occu": 1, "element": "Mo"}], "label": "Mo"}, {"abc": [0.0, 0.198033, 0.401351], "xyz": [0.0, 1.4030247924989998, 11.37397027271], "species": [{"occu": 1, "element": "Mo"}], "label": "Mo"}, {"abc": [0.0, 0.802234, 0.351244], "xyz": [0.0, 5.683669849902, 9.95397747724], "species": [{"occu": 1, "element": "Mo"}], "label": "Mo"}, {"abc": [0.0, 0.400369, 0.300009], "xyz": [0.0, 2.8365354923069996, 8.502018052890001], "species": [{"occu": 1, "element": "Mo"}], "label": "Mo"}, {"abc": [0.0, 0.998462, 0.250696], "xyz": [0.0, 7.073906572986, 7.10452659016], "species": [{"occu": 1, "element": "Mo"}], "label": "Mo"}, {"abc": [0.5, 0.502237, 0.37401], "xyz": [1.584218, 3.5582502043110003, 10.599147932100001], "species": [{"occu": 1, "element": "Mo"}], "label": "Mo"}, {"abc": [0.5, 0.102685, 0.324522], "xyz": [1.584218, 0.727502996055, 9.19669710762], "species": [{"occu": 1, "element": "Mo"}], "label": "Mo"}, {"abc": [0.5, 0.701399, 0.274932], "xyz": [1.584218, 4.969273739397, 7.791355683720001], "species": [{"occu": 1, "element": "Mo"}], "label": "Mo"}, {"abc": [0.5, 0.313202, 0.467745], "xyz": [1.584218, 2.218974469206, 13.255523781450002], "species": [{"occu": 1, "element": "Mo"}], "label": "Mo"}, {"abc": [0.5, 0.891736, 0.423939], "xyz": [1.584218, 6.317773888007999, 12.014096348190002], "species": [{"occu": 1, "element": "Mo"}], "label": "Mo"}], "lattice": {"beta": 90.0, "c": 28.33921, "a": 3.168436, "gamma": 90.0, "matrix": [[3.168436, 0.0, 0.0], [0.0, 7.084803, 0.0], [0.0, 0.0, 28.33921]], "volume": 636.151356127127, "alpha": 90.0, "b": 7.084803}, "@class": "Structure"}, "data": {"forces": [[0.0, -0.01699373, 0.00209772], [0.0, 0.02759536, 0.00741959], [0.0, -0.02621707, -0.04633367], [0.0, 0.03132237, 0.03109207], [0.0, -0.00699514, 0.04706954], [0.0, -0.00326094, 0.01608451], [0.0, 0.00986883, -0.01647521], [0.0, -0.02081216, 0.01419922], [0.0, 0.02270756, -0.00413121], [0.0, -0.00015196, 0.04248754], [0.0, 0.02081216, -0.01419922], [0.0, -0.00986883, 0.01647521], [0.0, 0.00326094, -0.01608451], [0.0, 0.00015196, -0.04248754], [0.0, -0.02270756, 0.00413121], [0.0, 0.02621707, 0.04633367], [0.0, -0.02759536, -0.00741959], [0.0, 0.01699373, -0.00209772], [0.0, 0.00699514, -0.04706954], [0.0, -0.03132237, -0.03109207]], "energy_per_atom": -10.414543441, "virial_stress": [-17.2381, -17.43636, -2.2529, -0.23058, 0.0, 0.0]}, "weights": {"energy": 1368.8859, "stress": 0, "force": 1.75729569}, "optimized parameters": {"bispectrum coefficients": {"force descriptor": [[0.0, 2.84217e-14, 4.44089e-16, 2.22045e-16, -3.55271e-15, -4.44089e-16, 0.0, 2.22045e-16, 0.0, -4.44089e-16, 0.0, -8.88178e-16, 3.55271e-15, 1.77636e-15, 7.10543e-15, -3.88578e-16, -7.77156e-16, 4.44089e-16, -2.44249e-15, 8.88178e-16, -3.55271e-15, -7.10543e-15, -8.88178e-16, 4.44089e-16, 0.0, -9.99201e-16, -8.88178e-16, 0.0, 1.77636e-15, -3.55271e-15, 8.88178e-16], [0.0, -1.50354, -0.0568366, -0.0114524, 0.474048, 0.0144936, 0.13969, -0.046449, -0.794939, 0.447866, -0.302003, 0.392825, -0.489489, -1.04929, -0.24723, -0.314793, 0.123095, 0.290085, 0.4122, 0.330683, -0.636012, 7.08651, 0.144462, 0.289155, 1.54314, 1.21244, 1.23884, -1.46217, -0.189621, -0.892149, 0.734097], [0.0, 5.27631, -0.108687, 0.282942, 0.901762, -0.277656, -0.00492827, 0.231783, -3.23037, -1.46866, 0.82193, -0.727884, 0.637671, 1.03696, 6.9325, 0.51465, 0.18228, 0.348228, -1.09572, 1.59985, 2.96284, -20.5438, -1.24918, -0.485989, -3.77106, -3.43657, -3.1188, 14.0419, 2.66117, 4.89107, 2.08851], [0.0, 0.0, -2.22045e-16, -2.22045e-16, 0.0, -4.44089e-16, 2.22045e-16, -8.88178e-16, -7.10543e-15, 6.66134e-16, -1.77636e-15, 0.0, 1.77636e-15, 3.55271e-15, 0.0, 3.88578e-16, -3.33067e-16, 4.44089e-16, 0.0, 8.88178e-16, 0.0, 3.55271e-15, 1.77636e-15, 0.0, -1.77636e-15, -8.32667e-16, 8.88178e-16, 0.0, 0.0, -7.10543e-15, 0.0], [0.0, 2.19088, -0.749726, 0.0216522, -0.131193, -0.110793, 0.16102, 1.1412, -0.945355, -0.959666, -0.638585, -0.0289451, 0.499798, -0.408432, 0.925907, 0.895991, 0.077306, 0.186891, 0.338376, 0.594725, 0.625644, 8.22934, -0.159464, 0.103532, 0.762156, 1.05538, 0.0161101, -5.98758, -0.00886366, -0.567726, -1.1729], [0.0, -4.89448, 3.91335, 0.315397, 0.0677862, -1.26803, 0.400772, -0.325027, -6.37522, 0.400262, 2.97472, -1.81919, -1.91718, 0.975222, 14.8402, -0.670843, -0.154298, 1.63472, -1.0539, 2.63467, 4.83517, -34.7444, -2.75396, -0.832236, -4.13825, -5.86554, -3.71717, 11.9395, 3.84687, 5.97048, 0.77403], [0.0, -1.42109e-14, 0.0, -2.22045e-16, 0.0, 0.0, 2.22045e-16, 8.88178e-16, 5.32907e-15, 2.22045e-16, 0.0, 0.0, 0.0, 8.88178e-16, -1.42109e-14, 0.0, -5.55112e-16, -1.77636e-15, -1.11022e-16, 0.0, -7.10543e-15, -8.88178e-16, 8.88178e-16, 0.0, -1.77636e-15, 8.88178e-16, -1.77636e-15, 1.42109e-14, 0.0, -5.32907e-15, 3.55271e-15], [0.0, -3.3814, -0.258081, -0.963428, 1.80324, 0.39207, -0.130107, 0.145789, -2.14632, 1.19336, -0.172828, 0.979843, -2.18098, -1.47174, -4.20146, -0.645472, 0.188601, -0.461803, 2.14488, 0.0710027, -1.32374, 26.2075, 2.40871, 0.132889, 4.16296, 3.15778, 4.78908, -6.22381, 0.0267006, -3.21542, 2.00568], [0.0, -24.8906, 15.5579, -0.64578, -4.90149, -4.01752, -0.408729, 0.553494, -5.37258, 9.67555, 5.54325, -6.56184, -8.41528, -5.98529, 8.59134, 4.04887, -0.424497, -2.83358, 3.40942, 1.69635, -5.82937, 8.93195, 1.53681, -4.53132, -1.11132, 0.0193897, -2.22237, -47.5132, -0.193077, 0.901481, -16.6917], [0.0, -7.10543e-15, 0.0, 1.11022e-16, 1.77636e-15, 4.44089e-16, 0.0, 0.0, 0.0, -1.11022e-16, 0.0, 1.77636e-15, -1.77636e-15, 0.0, -7.10543e-15, 0.0, -3.33067e-16, -8.88178e-16, 1.55431e-15, 8.88178e-16, -1.77636e-15, 1.77636e-15, -1.77636e-15, -1.77636e-15, 2.66454e-15, 4.996e-16, -8.88178e-16, 0.0, -8.88178e-16, 0.0, 8.88178e-16], [0.0, -12.9818, -5.27186, 1.10046, -3.42787, 0.312781, 0.907535, -2.06233, 19.1549, -2.76261, 2.49366, 2.13289, 3.02335, 17.6856, -35.0349, -0.82898, -3.99425, -1.07318, -3.27339, -15.899, -8.90711, -2.43104, -1.96306, 1.51915, 6.1746, -3.35897, 2.99868, 0.552135, 2.30672, -3.56244, 9.11416], [0.0, -126.099, -5.97605, 1.91937, 14.738, -3.25196, 1.18574, 2.1971, -31.8907, -1.59835, 12.115, 11.8466, -13.0245, 4.13898, -43.9509, -1.49747, -0.311169, 5.08549, -0.762484, -8.20139, -19.5576, -15.9231, -10.7861, 5.97465, 5.37799, -7.33297, 4.82252, -132.891, 13.1265, -9.87361, -6.52122], [0.0, -7.10543e-15, 1.11022e-16, -2.22045e-16, 7.77156e-16, 4.44089e-16, 0.0, -4.44089e-16, 3.10862e-15, 2.22045e-16, 0.0, -8.88178e-16, -1.77636e-15, 8.88178e-16, 0.0, -1.05471e-15, 5.55112e-16, -6.66134e-16, 6.66134e-16, 8.88178e-16, -1.77636e-15, 1.77636e-15, 4.44089e-16, -4.44089e-16, 2.77556e-16, 6.66134e-16, 1.11022e-16, 7.10543e-15, 1.11022e-15, 0.0, 8.88178e-16], [0.0, 21.9361, 7.23943, -1.55695, 4.03994, 0.592418, -2.75341, 0.369889, -16.6675, 4.21245, -5.61371, -2.10345, -1.44963, -26.4793, 41.052, 3.67359, 3.28478, -0.0792325, 4.79829, 19.2311, 11.4388, 25.987, 5.49265, 0.813682, -7.09481, 8.88695, 0.760311, -20.3888, -6.18488, -5.02364, -18.1007], [0.0, -132.34, -12.6099, 2.65334, 4.96711, -1.86169, 5.35539, 2.16906, -12.7237, -3.00061, 14.1933, 10.7541, -10.5484, 23.9714, -87.169, -9.49673, -2.58067, 2.6339, -4.33886, -23.3523, -27.7063, -49.7241, -8.13407, 3.4811, 8.32326, -12.1241, -2.64508, -97.6163, 15.5479, -10.8785, 7.25347], [0.0, -3.55271e-15, -2.22045e-16, -8.8124e-16, -2.88658e-15, -4.71845e-16, -2.77556e-17, -7.77156e-16, -3.55271e-15, 0.0, -3.44169e-15, 0.0, 8.43769e-15, 3.55271e-15, 1.19904e-14, 4.16334e-16, 4.44089e-16, 1.9984e-15, 0.0, -3.77476e-15, 4.16334e-15, -1.77636e-15, 4.44089e-16, 6.66134e-16, -1.9984e-15, -4.44089e-16, 8.88178e-16, -1.42109e-14, 0.0, 3.55271e-15, 0.0], [0.0, -6.35556, 0.0449143, 0.0964941, 0.0124121, -0.858371, -0.462906, 1.02591, 0.681556, -0.408696, 1.01421, -0.657988, -0.966675, 2.87169, -4.79541, 1.68926, 0.569162, -0.760244, 0.951295, -0.616154, -1.53311, 8.61109, 1.09545, -1.5765, 1.14384, 0.957336, -0.952309, -13.7168, 0.556174, -1.29811, -3.58489], [0.0, -26.0065, 7.68099, -1.35196, -1.28717, -1.69252, 0.16483, 0.804309, -3.79649, 6.95288, 1.12734, -1.10878, -5.75364, -6.16602, -5.94815, 1.19581, -0.646686, -1.35582, 4.5617, -0.542502, -7.49214, 63.8086, 4.6001, -1.20951, 9.98065, 8.04186, 7.73808, -59.4145, -1.95102, -8.73562, -11.8566], [0.0, -1.06581e-14, 3.33067e-16, 1.66533e-16, -3.44169e-15, -4.996e-16, 4.44089e-16, 1.22125e-15, -7.10543e-15, -6.66134e-16, -8.88178e-16, -2.66454e-15, 1.77636e-15, -1.77636e-15, 3.55271e-15, 9.15934e-16, -1.22125e-15, 6.66134e-16, -1.77636e-15, 1.33227e-15, 3.33067e-16, -7.10543e-15, -9.99201e-16, -6.66134e-16, -1.9984e-15, -3.33067e-16, -8.88178e-16, 0.0, -1.55431e-15, 4.44089e-15, -2.66454e-15], [0.0, 27.0987, 9.45891, 0.299085, -6.40197, -0.736038, 1.91352, -0.718327, 5.89744, 4.32766, -0.893807, -3.08193, -0.227781, 0.133101, 7.4269, 1.78142, -1.30221, -2.27521, -1.87642, -1.3375, -0.224051, -5.31724, 1.53732, 0.428231, -1.17316, 2.871, 3.06504, 44.0545, -0.837342, 7.91213, 0.632464], [0.0, -85.5357, 2.25726, -0.455749, 14.5301, -2.33629, -2.88521, 0.879775, -27.6747, 6.94566, 2.74858, 7.80465, -14.4342, -21.8413, -14.4779, 5.38246, 0.714454, -0.90765, 10.7969, 1.68478, -9.05356, 109.389, 3.93184, 1.63927, 15.7472, 16.7193, 17.1761, -160.56, -0.584917, -26.7264, -23.2782], [0.0, 1.06581e-14, 1.33227e-15, 3.60822e-16, -6.66134e-16, 0.0, -8.88178e-16, -2.77556e-16, -1.77636e-15, -1.11022e-16, 1.55431e-15, 8.88178e-16, -4.44089e-16, 0.0, 6.43929e-15, 1.11022e-16, -1.11022e-16, -5.55112e-17, 1.33227e-15, -4.44089e-15, -6.66134e-16, 0.0, -1.16573e-15, 1.33227e-15, -1.27676e-15, -4.44089e-16, 0.0, -2.4869e-14, 1.77636e-15, 1.77636e-15, -1.77636e-15], [0.0, -30.4977, -10.0442, 0.986243, 4.12557, 0.410284, 0.565249, 0.0500668, -8.70373, -5.45709, 3.27306, 3.3767, 2.13794, 5.15068, -4.76516, -6.67923, 1.2132, 4.90508, -3.08619, -3.05177, -0.585795, -49.7753, -7.7184, -1.14732, -2.7593, -11.9757, -10.6361, -11.9335, 3.02884, 4.19117, 10.1054], [0.0, -142.133, -8.90429, 0.899359, 12.8031, -1.02559, 1.4573, 2.43616, -29.749, -3.20266, 10.2655, 14.3436, -14.9261, 2.51439, -62.6024, 2.01628, -1.36366, 4.59127, 4.56204, -13.2023, -25.6101, 27.9456, -7.88631, 9.20429, 11.1096, 1.03323, 12.355, -181.547, 8.07821, -25.2499, -10.9221], [0.0, -1.06581e-14, 1.33227e-15, 1.66533e-16, -4.44089e-16, 4.16334e-16, -2.77556e-16, 1.38778e-16, 3.55271e-15, -8.88178e-16, -1.55431e-15, -2.88658e-15, 2.22045e-15, -3.55271e-15, 5.10703e-15, 2.22045e-16, 3.33067e-16, -4.44089e-16, 4.44089e-16, 1.44329e-15, -5.32907e-15, 7.10543e-15, 5.55112e-16, 8.88178e-16, 8.88178e-16, 1.60982e-15, 1.33227e-15, 0.0, -3.33067e-15, 4.44089e-15, -3.55271e-15], [0.0, 0.5561, 0.294503, 0.0737216, -1.59004, -0.0697449, -0.168311, -0.0124784, 4.10944, -0.310514, 0.630227, -1.21543, 0.67782, 3.69296, -1.49344, 0.0670918, -0.240448, -0.204787, -0.877215, -0.439455, -0.249051, -18.2932, -0.656883, -0.457578, -2.40533, -2.32983, -2.14052, 9.01371, 0.590656, 1.86703, 0.756446], [0.0, -2.91672, -1.01554, -0.211467, 1.45702, 0.385618, 0.23071, -0.134448, -1.93798, 0.501952, -1.1442, 1.54969, -0.424966, -3.74506, -2.28834, -0.092656, -0.00165478, 0.0555529, 1.08481, 0.131614, -1.71513, 26.3881, 1.0285, 0.634978, 3.71221, 3.15777, 3.26899, -17.0224, -1.52597, -3.39374, -2.87317], [0.0, -3.55271e-15, -4.44089e-16, -8.32667e-17, 1.22125e-15, -4.996e-16, -3.05311e-16, -2.22045e-16, 3.55271e-15, -6.66134e-16, -9.99201e-16, 0.0, -2.22045e-15, -5.32907e-15, -6.66134e-15, -8.32667e-16, 8.88178e-16, 2.22045e-16, 1.77636e-15, 1.11022e-15, -2.9976e-15, 7.10543e-15, -1.05471e-15, 1.11022e-16, 8.88178e-16, 9.99201e-16, -1.33227e-15, -2.84217e-14, 8.88178e-16, 9.76996e-15, -5.32907e-15], [0.0, 3.35868, -0.515381, 0.0458301, 0.597897, -0.0560229, -0.202141, 0.143662, -0.636701, -0.572993, 0.510281, -0.376924, -0.508001, 0.875403, 2.95006, 0.434292, 0.117814, -0.316353, 0.101136, 1.54805, 1.14288, -9.39571, -0.550269, -0.316286, -1.95925, -1.93123, -0.383573, 9.97427, 1.26935, 2.87293, -0.904045], [0.0, -1.56437, -0.58929, 0.143563, 0.989771, 0.219926, 0.99294, -0.241717, -2.04217, 0.358093, -1.66459, 2.13685, 0.597944, -3.74228, 1.64235, -0.912488, -0.666352, 0.70426, -0.187668, -0.0528432, 0.355353, 16.0778, -1.10137, 1.8693, 4.24049, 2.58356, 4.19835, -6.03469, -1.43518, -3.08282, 0.79936], [0.0, -1.42109e-14, -4.44089e-16, 2.22045e-16, 1.77636e-15, 2.22045e-16, 0.0, 0.0, 1.77636e-15, 2.22045e-16, 0.0, 8.88178e-16, -1.77636e-15, -2.66454e-15, 0.0, -2.22045e-16, -1.66533e-16, 8.88178e-16, 8.88178e-16, -1.77636e-15, -1.77636e-15, 0.0, 8.88178e-16, 0.0, 4.44089e-16, 1.33227e-15, -4.44089e-16, 0.0, -1.77636e-15, -8.88178e-16, 3.55271e-15], [0.0, 30.4977, 10.0442, -0.986245, -4.1256, -0.410286, -0.565259, -0.0500604, 8.70376, 5.45709, -3.27306, -3.37673, -2.13791, -5.15065, 4.76521, 6.67921, -1.21319, -4.90508, 3.08618, 3.05178, 0.58582, 49.7751, 7.71838, 1.14729, 2.75927, 11.9756, 10.636, 11.9336, -3.02885, -4.19113, -10.1054], [0.0, 142.133, 8.90428, -0.899362, -12.8031, 1.0256, -1.45731, -2.43616, 29.749, 3.20266, -10.2655, -14.3436, 14.9261, -2.51436, 62.6024, -2.01627, 1.36366, -4.59127, -4.56203, 13.2023, 25.6101, -27.9456, 7.88631, -9.20428, -11.1097, -1.03322, -12.355, 181.547, -8.07822, 25.2499, 10.9221], [0.0, 0.0, 0.0, 1.11022e-16, -8.88178e-16, 8.88178e-16, -4.44089e-16, 0.0, 3.55271e-15, 2.77556e-16, 0.0, 0.0, -3.55271e-15, 3.55271e-15, 0.0, 4.44089e-16, 1.11022e-16, 0.0, 4.996e-16, 0.0, 0.0, 4.44089e-15, 0.0, 0.0, -8.88178e-16, -8.88178e-16, 3.10862e-15, 0.0, 0.0, 0.0, 0.0], [0.0, -27.0986, -9.45889, -0.299084, 6.40197, 0.736034, -1.91352, 0.718327, -5.89743, -4.32765, 0.893804, 3.08193, 0.227771, -0.133122, -7.42688, -1.78142, 1.3022, 2.2752, 1.87642, 1.33751, 0.224061, 5.31724, -1.53732, -0.428217, 1.17316, -2.87098, -3.06501, -44.0544, 0.837333, -7.91213, -0.632459], [0.0, 85.5358, -2.25725, 0.455748, -14.5301, 2.33629, 2.88522, -0.87977, 27.6745, -6.94565, -2.74859, -7.80462, 14.4342, 21.8411, 14.4781, -5.38246, -0.714433, 0.907649, -10.7969, -1.68474, 9.05357, -109.389, -3.93181, -1.63926, -15.7472, -16.7193, -17.1761, 160.56, 0.58493, 26.7264, 23.2782], [0.0, -1.42109e-14, -4.44089e-16, -1.11022e-16, 0.0, 4.44089e-16, -3.88578e-16, -8.88178e-16, 3.55271e-15, -4.996e-16, -1.77636e-15, 1.77636e-15, 0.0, 3.55271e-15, 7.10543e-15, -7.77156e-16, -1.11022e-16, 0.0, -2.83107e-15, 0.0, -3.55271e-15, -2.66454e-15, 8.88178e-16, -4.44089e-16, 0.0, 0.0, 1.33227e-15, -2.84217e-14, 0.0, 1.77636e-15, -4.44089e-15], [0.0, 6.35542, -0.0449429, -0.0964935, -0.0124082, 0.858376, 0.462902, -1.02592, -0.681468, 0.408681, -1.01421, 0.657999, 0.966671, -2.87162, 4.79525, -1.68926, -0.569169, 0.760246, -0.95129, 0.61612, 1.53309, -8.61104, -1.09546, 1.5765, -1.14381, -0.957337, 0.952331, 13.7166, -0.556187, 1.29805, 3.58486], [0.0, 26.0065, -7.68099, 1.35196, 1.28721, 1.69252, -0.164825, -0.804305, 3.79631, -6.95287, -1.12735, 1.1088, 5.75363, 6.16588, 5.9483, -1.19581, 0.646705, 1.35583, -4.56169, 0.542543, 7.49214, -63.8081, -4.60007, 1.20951, -9.98061, -8.04181, -7.73809, 59.4142, 1.95101, 8.73561, 11.8566], [0.0, 0.0, -8.88178e-16, 1.11022e-16, 8.88178e-16, 0.0, -4.44089e-16, 0.0, -3.55271e-15, 0.0, 0.0, 1.77636e-15, -3.55271e-15, 1.77636e-15, 0.0, -2.77556e-17, 1.11022e-16, 0.0, 8.88178e-16, -2.66454e-15, 0.0, 8.88178e-15, 0.0, 0.0, 0.0, 1.94289e-16, 0.0, 1.42109e-14, 0.0, 0.0, -3.55271e-15], [0.0, -3.35857, 0.515399, -0.0458337, -0.597819, 0.0560189, 0.202146, -0.143656, 0.636391, 0.573017, -0.5103, 0.376953, 0.507971, -0.875631, -2.94981, -0.434297, -0.117781, 0.316368, -0.101112, -1.54799, -1.14285, 9.39642, 0.550323, 0.316286, 1.95933, 1.93132, 0.383598, -9.97453, -1.26935, -2.87293, 0.904069], [0.0, 1.5643, 0.58928, -0.143561, -0.989758, -0.219925, -0.99294, 0.241712, 2.04221, -0.358095, 1.6646, -2.13684, -0.597959, 3.74231, -1.64244, 0.912483, 0.666347, -0.70426, 0.187675, 0.0528284, -0.355356, -16.0778, 1.10136, -1.8693, -4.24047, -2.58355, -4.19833, 6.03464, 1.43518, 3.08276, -0.799311], [0.0, 1.42109e-14, 4.44089e-16, 1.11022e-16, 1.77636e-15, -4.44089e-16, -2.22045e-16, 4.44089e-16, 1.77636e-15, 8.88178e-16, 0.0, 0.0, 0.0, -1.77636e-15, 7.10543e-15, -3.46945e-17, -1.11022e-16, 1.33227e-15, -4.44089e-16, -1.77636e-15, 3.55271e-15, -7.10543e-15, 0.0, 4.44089e-16, 3.55271e-15, -1.4988e-15, 8.88178e-16, 2.84217e-14, 1.77636e-15, 0.0, 4.44089e-15], [0.0, -0.556121, -0.294504, -0.0737247, 1.59002, 0.0697494, 0.16831, 0.0124759, -4.10936, 0.31052, -0.630235, 1.21543, -0.677814, -3.69295, 1.49339, -0.0670866, 0.240438, 0.204776, 0.877222, 0.439431, 0.249033, 18.2932, 0.656878, 0.457588, 2.40531, 2.32983, 2.14055, -9.01374, -0.590678, -1.86703, -0.756524], [0.0, 2.91656, 1.01553, 0.211468, -1.45703, -0.385617, -0.230714, 0.134444, 1.93806, -0.501959, 1.14421, -1.54969, 0.424949, 3.74514, 2.28819, 0.0926549, 0.00164943, -0.0555485, -1.0848, -0.131643, 1.71511, -26.3881, -1.02851, -0.634979, -3.71218, -3.15776, -3.26898, 17.0223, 1.52597, 3.39367, 2.87318], [0.0, 7.10543e-15, 2.66454e-15, -3.60822e-16, -8.88178e-16, -5.27356e-16, -2.77556e-16, 5.55112e-16, -3.55271e-15, 1.11022e-15, 1.77636e-15, -1.77636e-15, -4.44089e-16, -3.55271e-15, 0.0, 7.77156e-16, 3.33067e-16, -4.44089e-16, -8.88178e-16, 2.22045e-15, -4.21885e-15, -3.55271e-15, -2.60902e-15, -1.11022e-16, 2.22045e-15, -8.32667e-16, -1.11022e-15, -2.84217e-14, 2.22045e-15, -8.88178e-16, -2.66454e-15], [0.0, 3.38147, 0.258093, 0.963425, -1.80324, -0.392067, 0.13011, -0.145789, 2.14631, -1.19334, 0.172815, -0.979837, 2.18097, 1.4717, 4.20154, 0.645467, -0.188604, 0.461793, -2.14487, -0.0710058, 1.32377, -26.2075, -2.40871, -0.132876, -4.16299, -3.15777, -4.78903, 6.22401, -0.0267074, 3.21546, -2.00569], [0.0, 24.8907, -15.5579, 0.645781, 4.90146, 4.01751, 0.40873, -0.553491, 5.3726, -9.67555, -5.54325, 6.56183, 8.41529, 5.9853, -8.59127, -4.04886, 0.424488, 2.83357, -3.40944, -1.69634, 5.82938, -8.93222, -1.53682, 4.53132, 1.11126, -0.0194233, 2.22236, 47.5134, 0.19308, -0.901423, 16.6916], [0.0, -1.06581e-14, -4.44089e-16, -4.16334e-17, 1.11022e-16, 4.16334e-16, 1.11022e-16, -3.33067e-16, -5.32907e-15, -4.44089e-16, -7.77156e-16, -2.22045e-16, -8.88178e-16, -1.77636e-15, -3.9968e-15, -2.498e-16, 3.33067e-16, -4.44089e-16, -1.33227e-15, -8.88178e-16, -2.44249e-15, 0.0, -5.55112e-16, -4.44089e-16, 4.44089e-16, 4.996e-16, -1.33227e-15, -1.42109e-14, 2.44249e-15, -1.77636e-15, 5.32907e-15], [0.0, -2.19085, 0.749734, -0.0216491, 0.131161, 0.110789, -0.16102, -1.1412, 0.945412, 0.959656, 0.638594, 0.0289179, -0.499773, 0.408499, -0.925922, -0.89599, -0.0773085, -0.186889, -0.338401, -0.594727, -0.625635, -8.22969, 0.159451, -0.103546, -0.762196, -1.05543, -0.0161757, 5.98776, 0.00888349, 0.567758, 1.17295], [0.0, 4.89446, -3.91335, -0.315397, -0.0678081, 1.26803, -0.400774, 0.32502, 6.37531, -0.400268, -2.97471, 1.81919, 1.91718, -0.975156, -14.8402, 0.670844, 0.154287, -1.63472, 1.0539, -2.63469, -4.83519, 34.7441, 2.75394, 0.832241, 4.13822, 5.86551, 3.71719, -11.9394, -3.84687, -5.97046, -0.774094], [0.0, -2.4869e-14, 2.22045e-16, 8.32667e-17, 0.0, -4.996e-16, 4.16334e-16, 6.38378e-16, 5.32907e-15, -6.66134e-16, 8.88178e-16, -6.66134e-16, 0.0, 3.55271e-15, -1.84297e-14, 3.33067e-16, 2.22045e-16, -1.11022e-16, 8.88178e-16, 3.33067e-15, -7.60503e-15, 0.0, -9.99201e-16, 4.44089e-16, 3.9968e-15, -3.33067e-16, 0.0, 2.13163e-14, -5.32907e-15, -8.88178e-16, 1.77636e-15], [0.0, 1.50349, 0.0568268, 0.011458, -0.474073, -0.0144953, -0.139693, 0.0464465, 0.795043, -0.447887, 0.302025, -0.392847, 0.489506, 1.04941, 0.247106, 0.314791, -0.123102, -0.290076, -0.412226, -0.330693, 0.635988, -7.08687, -0.144485, -0.289167, -1.54316, -1.21249, -1.2389, 1.46229, 0.189644, 0.89215, -0.734044], [0.0, -5.27636, 0.108691, -0.282944, -0.901792, 0.277658, 0.00492439, -0.231785, 3.23047, 1.46866, -0.821928, 0.727866, -0.637656, -1.03691, -6.9326, -0.514644, -0.182284, -0.348236, 1.09571, -1.59988, -2.96288, 20.5437, 1.24918, 0.48598, 3.77104, 3.43656, 3.11878, -14.0419, -2.66117, -4.89107, -2.08856], [0.0, 1.77636e-15, -8.88178e-16, -2.77556e-16, -1.11022e-15, -1.11022e-16, 0.0, -2.22045e-16, 0.0, -4.44089e-16, 0.0, -4.44089e-16, 1.77636e-15, -2.66454e-15, -5.55112e-15, 1.11022e-16, 2.22045e-16, -4.44089e-16, -4.44089e-16, -5.55112e-16, -1.9984e-15, -3.55271e-15, -7.21645e-16, -2.22045e-16, 5.55112e-16, 0.0, -1.33227e-15, 0.0, -4.44089e-16, -1.77636e-15, -8.88178e-16], [0.0, -21.9361, -7.23943, 1.55696, -4.03991, -0.59242, 2.75342, -0.369888, 16.6674, -4.21246, 5.61371, 2.10347, 1.4496, 26.4792, -41.0519, -3.67357, -3.28477, 0.0792444, -4.79829, -19.231, -11.4388, -25.9869, -5.49264, -0.813664, 7.09482, -8.88692, -0.760279, 20.3887, 6.18491, 5.02363, 18.1007], [0.0, 132.34, 12.6099, -2.65334, -4.96714, 1.86169, -5.35539, -2.16906, 12.7238, 3.00061, -14.1933, -10.7541, 10.5485, -23.9714, 87.169, 9.4967, 2.58066, -2.6339, 4.33884, 23.3523, 27.7063, 49.7239, 8.13406, -3.48112, -8.32327, 12.124, 2.64502, 97.6166, -15.5479, 10.8785, -7.25339], [0.0, 0.0, 4.44089e-16, -8.32667e-17, 6.66134e-16, -3.33067e-16, 2.22045e-16, 0.0, -1.77636e-15, -2.22045e-16, -1.4988e-15, 4.44089e-16, 3.55271e-15, 8.88178e-16, -5.32907e-15, 2.22045e-16, -4.44089e-16, 1.16573e-15, 4.44089e-16, 2.22045e-15, 6.55032e-15, 4.44089e-15, -9.99201e-16, 4.44089e-16, 3.33067e-16, 6.66134e-16, 2.22045e-16, -2.13163e-14, 3.55271e-15, 4.44089e-15, 0.0], [0.0, 12.9818, 5.27184, -1.10046, 3.42787, -0.312777, -0.90754, 2.06232, -19.1548, 2.7626, -2.49365, -2.13288, -3.02335, -17.6856, 35.0348, 0.828982, 3.99424, 1.07317, 3.2734, 15.899, 8.90707, 2.43113, 1.96307, -1.51916, -6.17458, 3.35897, -2.99868, -0.552308, -2.30673, 3.56241, -9.11418], [0.0, 126.099, 5.97605, -1.91937, -14.738, 3.25196, -1.18574, -2.19709, 31.8906, 1.59835, -12.115, -11.8466, 13.0245, -4.13903, 43.951, 1.49748, 0.311174, -5.08549, 0.762475, 8.20141, 19.5577, 15.9231, 10.7861, -5.97464, -5.378, 7.33296, -4.82253, 132.891, -13.1265, 9.87365, 6.5212]], "energy descriptor": [[1.0, 118.08290500000001, 4.1446765, -0.07299894999999998, 4.6419705, -1.1093055499999998, 0.22964718000000003, 0.6800677000000002, 68.623915, -2.39350225, 6.631417999999999, 3.1131945000000005, 14.50266, 31.640044999999997, 27.270885000000003, -1.0412965, 1.256121, 3.492727, 6.4091949999999995, 4.107497499999999, 11.352511000000003, 14.505408999999997, -1.5554412450000001, 0.7182066500000002, 10.0941345, 1.8838574999999995, 3.274127500000001, 120.63547999999999, 2.9911239999999997, 13.802428999999998, 16.50545]], "stress descriptor": [[0.0, 16450.967892947134, 286.8282215492575, -133.50471218901507, -1181.6239073130225, 371.45598090257545, -279.17959400196315, -272.4952714775948, 3857.541206352068, -296.7822175446812, -1421.3405762152317, -1199.3234193304854, 2005.4453515400362, 260.2967430227381, 6024.459625592042, 58.135540429658825, 103.14899544523666, -332.5752681424842, -490.7723619760345, 1416.871164016567, 2814.836860508465, -2734.4077907863075, 641.6241911893667, -569.7098226738159, -1270.9342904285902, -43.62778209154193, -902.2814892951437, 20550.637351804813, -1015.6299231433372, 2386.347266130035, 1855.7258355411739], [0.0, 16175.280464822792, 253.00608048550572, -130.01320113342342, -1117.808830983428, 411.47895513487606, -254.49243002972122, -306.6910625538262, 3343.115237137752, -296.75386375085014, -1482.32321986085, -1166.7898939734253, 2026.6015179328087, -259.5799622376869, 6595.346722568215, -4.9712282600775355, 179.2535786837716, -252.96981341931584, -464.7726331888301, 1533.7484614799819, 2962.002646152837, -2848.8440351364993, 641.7086456012103, -491.19766636495393, -1418.6408860306033, 4.629742853779673, -994.5769415909683, 19496.671351530797, -1180.5675534538507, 2262.784893096919, 1598.1980862961518], [0.0, 14939.928913786296, 319.7365932282727, -126.45280783753348, -1181.1900171998918, 353.53612379109177, -192.87296642065257, -242.23936321109906, 3093.522542402753, -227.68000237859553, -1312.5721187466572, -1132.268812498932, 1753.0800647802744, -223.2462578321102, 5953.390456016956, 81.03932103736895, 143.06271765918603, -290.0829751522497, -348.7581796010008, 1278.1166378466814, 2572.4636793787636, -2202.784532864872, 643.7415582182967, -485.56864746596546, -1232.7792086251188, 102.78448171118137, -877.8173181646089, 17713.303576800357, -1100.498844886669, 2062.646775753408, 1303.3570350097175], [0.0, 26.759151079037977, 1.1514390547922093, 1.6813411885683383, -54.46785983335765, -14.691316537998787, 14.01377822969275, 23.33978227002781, 206.5290544136808, -3.4269254552182615, 31.318951384542473, -21.591335927404394, -33.92740974933285, 219.5626345861083, -321.2033517566704, 32.22467351025867, -22.818578187626272, -42.45187611536661, 3.2148512671259515, -99.39352915594951, -79.46636296869086, 159.5664778077745, 10.512933441649707, -18.824816117682197, 83.88305443842826, 15.261508863765732, 66.15575882600788, 304.1063893399455, 49.518122832253226, 15.220381003287777, 70.06341331034129], [0.0, 5.279135400176003e-13, 5.515409619303828e-14, -3.0600341379340117e-14, -1.8566422337844994e-13, 4.2641071073640145e-15, -3.369361813681305e-14, 9.367125352592737e-15, 2.4270577783067256e-13, -2.474585995217883e-14, -1.0317784891864629e-13, -8.640110454800869e-14, 8.10855539911224e-15, 2.125070506385361e-14, 4.199819199158971e-13, 4.2169304039548144e-14, 3.7957713407009633e-14, 5.704156150415209e-14, 2.146037076615442e-14, 2.3487653928633357e-13, -3.005852224021047e-14, -9.730514555741617e-14, 1.4651848147653641e-13, 4.208207469343166e-14, 1.2670027968964572e-13, 1.6217715249327656e-14, 1.4819929628893568e-14, -1.4897898532254918e-12, 2.1544315927943696e-13, -1.2750463335052385e-13, 3.019873222922879e-14], [0.0, -3.042220032061573e-13, 6.710792445594532e-15, 1.1883282019092568e-15, 2.62840575490415e-14, -3.033820176564567e-14, -6.99030070988383e-16, 8.388423815517188e-15, -1.2974124850792375e-13, 7.82921084033004e-15, -4.865309033996516e-14, -8.9477148656385e-15, 1.5658439310483925e-13, -1.5993942413842838e-13, 8.947692198722135e-14, -1.5169088290091522e-14, 1.9852680181524542e-14, 3.523130900216758e-14, -3.1037078205312014e-14, 4.5017961702261164e-14, 1.3701161659936733e-13, 4.473832247356617e-14, 5.312644154498555e-15, 2.0691492088666477e-14, -2.981404695444219e-14, 1.0066052666893585e-14, 6.151627322786381e-15, -3.4001180487928066e-13, -5.927834338931457e-14, -1.118460454458104e-13, -8.947437825549557e-15]]}}}, {"group": "Surface", "description": "Mo_surface_mp/Mo_mp-129_(3_2_1)", "structure": {"@module": "pymatgen.core.structure", "sites": [{"abc": [0.299843, 0.281172, 0.2812], "xyz": [0.562117626025, 1.9205686832759998, 7.003559272994], "species": [{"occu": 1, "element": "Mo"}], "label": "Mo"}, {"abc": [0.71838, 0.556782, 0.224121], "xyz": [1.4547156567300001, 3.8031456639059997, 5.375895275862], "species": [{"occu": 1, "element": "Mo"}], "label": "Mo"}, {"abc": [0.520728, 0.919027, 0.253091], "xyz": [0.578293950375, 6.277490202741, 5.958790837749], "species": [{"occu": 1, "element": "Mo"}], "label": "Mo"}, {"abc": [0.68971, 0.382863, 0.382473], "xyz": [1.536803216045, 2.615177499129, 9.498694937133001], "species": [{"occu": 1, "element": "Mo"}], "label": "Mo"}, {"abc": [0.089005, 0.648523, 0.315755], "xyz": [-0.3551642056299999, 4.429790178908999, 7.727615867943], "species": [{"occu": 1, "element": "Mo"}], "label": "Mo"}, {"abc": [0.888243, 0.015269, 0.348925], "xyz": [2.42058135003, 0.10429617182699999, 8.801600168841], "species": [{"occu": 1, "element": "Mo"}], "label": "Mo"}, {"abc": [0.102982, 0.482866, 0.483579], "xyz": [-0.16381330437999997, 3.298256290878, 12.083794121534], "species": [{"occu": 1, "element": "Mo"}], "label": "Mo"}, {"abc": [0.501726, 0.750766, 0.417199], "xyz": [0.68165458428, 5.128169476578, 10.22465852101], "species": [{"occu": 1, "element": "Mo"}], "label": "Mo"}, {"abc": [0.301297, 0.118127, 0.450261], "xyz": [0.71672973941, 0.8068762780409999, 11.391207957475], "species": [{"occu": 1, "element": "Mo"}], "label": "Mo"}, {"abc": [0.498275, 0.582568, 0.582799], "xyz": [0.827582540845, 3.9792790771439996, 14.527038750058], "species": [{"occu": 1, "element": "Mo"}], "label": "Mo"}, {"abc": [0.897018, 0.850467, 0.516419], "xyz": [1.6730486123250001, 5.809185432261, 12.667903726729], "species": [{"occu": 1, "element": "Mo"}], "label": "Mo"}, {"abc": [0.6987, 0.215205, 0.549737], "xyz": [1.716333269325, 1.469975614515, 13.842039659275], "species": [{"occu": 1, "element": "Mo"}], "label": "Mo"}, {"abc": [0.910995, 0.684811, 0.684243], "xyz": [1.8643985897400002, 4.677658374812999, 17.024081498771], "species": [{"occu": 1, "element": "Mo"}], "label": "Mo"}, {"abc": [0.310288, 0.950469, 0.617526], "xyz": [-0.027572466294999987, 6.492257393427, 15.253029073431001], "species": [{"occu": 1, "element": "Mo"}], "label": "Mo"}, {"abc": [0.111758, 0.318064, 0.651074], "xyz": [0.012491698930000017, 2.172562551312, 16.431672073236], "species": [{"occu": 1, "element": "Mo"}], "label": "Mo"}, {"abc": [0.28162, 0.776551, 0.775881], "xyz": [0.05451965121500002, 5.304296059233, 19.375904530241], "species": [{"occu": 1, "element": "Mo"}], "label": "Mo"}, {"abc": [0.700159, 0.052162, 0.718801], "xyz": [1.8709572401149999, 0.356296870446, 18.229763370808], "species": [{"occu": 1, "element": "Mo"}], "label": "Mo"}, {"abc": [0.479273, 0.414308, 0.74691], "xyz": [0.930942250915, 2.829965181564, 18.79298242015], "species": [{"occu": 1, "element": "Mo"}], "label": "Mo"}], "lattice": {"beta": 91.99848943710904, "c": 25.48946, "a": 2.742683245936541, "gamma": 97.53847049537374, "matrix": [[2.741015, 0.0, -0.095646], [-0.923835, 6.830583, -0.481549], [0.0, 0.0, 25.48946]], "volume": 477.23228919543067, "alpha": 93.9963543471809, "b": 6.9095748542522495}, "@class": "Structure"}, "data": {"forces": [[0.03213873, -0.00720351, 0.02939047], [-0.00099061, 0.0018388, -0.00425568], [-0.00670259, 0.01113922, 0.06334451], [-0.00864479, -0.01702502, -0.0070535], [0.02685892, 0.04340386, 0.02727424], [-0.01410883, 0.01790126, 0.00021586], [2.119e-05, 0.00807691, 0.02000867], [0.04014761, 0.00651355, -0.02281954], [-0.00614126, 0.01372812, -0.01585278], [-0.04014761, -0.00651355, 0.02281954], [-2.119e-05, -0.00807691, -0.02000867], [0.00614126, -0.01372812, 0.01585278], [-0.02685892, -0.04340386, -0.02727424], [0.00864479, 0.01702502, 0.0070535], [0.01410883, -0.01790126, -0.00021586], [0.00099061, -0.0018388, 0.00425568], [-0.03213873, 0.00720351, -0.02939047], [0.00670259, -0.01113922, -0.06334451]], "energy_per_atom": -10.459119664444444, "virial_stress": [-20.98296, -21.32154, -5.89742, -0.59115, -0.82876, -3.51878]}, "weights": {"energy": 1368.8859, "stress": 0, "force": 1.75729569}, "optimized parameters": {"bispectrum coefficients": {"force descriptor": [[0.0, 0.620668, -0.274277, -0.12735, -1.86812, 0.20354, -1.11278, -1.38246, 10.3078, -0.321769, 2.01792, -0.812023, 3.28233, 9.82733, -11.154, 0.145341, -0.849265, -0.11525, -5.32907, -6.31689, -6.05017, -15.7545, -1.158, -2.29323, 1.68044, -3.15433, -5.39529, 10.6413, 2.10517, 3.21621, 7.40904], [0.0, -17.9074, -6.10554, 0.220456, 6.39896, 0.121429, -1.27983, 0.322948, -7.47962, -2.81661, 1.81545, 3.2732, -0.594988, 0.300775, -1.5408, -1.23572, 1.03976, 2.10683, -0.92942, 0.569134, -0.821087, -7.06207, -2.21995, 0.0315075, 0.322327, -1.37211, -2.53766, -15.574, 2.941, 1.24568, 1.3199], [0.0, -110.837, -4.63282, 1.0033, 19.7825, -3.09987, -1.89518, 1.493, -37.2333, 1.69987, 7.45561, 12.5239, -12.8987, -11.1935, -26.0214, 1.99503, 1.32559, 2.55665, 4.2978, -2.89587, -16.4431, 51.0841, -5.83658, 3.18363, 11.0927, 3.14346, 8.37367, -155.588, 8.52227, -13.5837, -13.8873], [0.0, -2.80859, 0.185021, -0.22572, 0.174354, 0.857824, 0.517476, -0.0299349, -8.1303, 0.86209, -2.50477, -1.1361, 0.126479, -11.2239, 11.6329, -1.73168, 1.73471, 1.12463, 2.4126, 7.41548, 3.03063, -3.3989, -0.0133367, 1.19475, -3.81677, -0.774209, 0.251877, -14.7542, -3.82633, -4.22717, -5.26524], [0.0, -15.6777, -4.84712, 0.791865, 0.85735, 0.254521, 2.09199, -0.332408, -3.27006, -1.52145, -0.484716, 2.54246, 0.0812761, -0.548378, -8.86751, -0.689755, 1.02787, 0.958723, 0.0326209, -2.65224, -4.07939, -3.38778, -2.03474, 2.00316, -0.549495, -1.75018, 0.939766, -20.818, -0.498234, -1.80645, -1.72026], [0.0, -139.708, -13.5909, 2.36826, 5.34699, -0.454079, 4.84033, 0.406192, -17.1908, -4.48812, 12.4474, 11.1189, -9.51105, 16.6906, -84.2912, -9.25671, -1.46104, 5.29426, -2.55171, -18.0599, -29.0022, -42.7685, -8.87617, 6.08386, 6.24693, -11.9775, 1.17699, -131.075, 10.4843, -23.7115, 2.60277], [0.0, -1.85894, -0.00695496, -0.12538, 0.580441, 0.582228, -0.335064, -1.57959, 2.14644, 0.627108, 0.47362, 0.422934, 1.51456, 1.21511, -2.8355, -2.3263, -0.468459, 0.53616, -2.46738, -1.96957, 1.32008, -14.4895, -0.505202, 0.380962, 0.44632, -1.23442, -1.1442, 15.6339, 0.328718, 0.298162, 5.89349], [0.0, 30.3667, 11.5956, -1.54847, -9.3388, 0.115856, -1.2701, -0.617569, 13.4581, 5.15929, -1.24785, -7.48465, 2.32924, 1.82988, 8.26379, 0.724965, -1.92459, -2.8984, -0.503469, 1.92722, 2.74596, 0.766265, 4.2199, -2.66487, -0.422676, 0.805126, -0.874656, 35.4971, -3.29007, 0.663951, 0.283445], [0.0, -138.822, -6.84073, 1.27145, 10.7979, -1.48163, 1.49681, 1.82254, -29.0726, -2.12783, 12.0291, 11.4465, -13.1919, 6.21287, -57.0985, -2.2501, -1.79558, 5.60621, 1.07562, -10.1751, -23.6409, -12.3709, -9.66431, 6.52389, 7.05048, -5.7612, 5.39534, -152.174, 9.89166, -18.8476, -6.41121], [0.0, 0.734024, -0.0222708, -0.0878547, -1.17502, -0.295189, 0.381665, 1.00046, 1.43089, -0.253304, -0.416376, -1.22342, 0.403463, 1.45686, -2.50555, 0.974186, 0.0990803, -0.443645, 0.821671, 1.02325, -2.06245, 6.55301, 0.883993, -0.699818, -0.650802, -0.671621, 0.00696906, -7.07523, 0.373496, 0.745977, -4.74327], [0.0, -2.80511, 1.2592, -0.124975, -1.48399, -0.274536, 0.188993, 0.125244, 1.39429, 0.75428, 0.171034, -0.600891, -0.2364, 1.16835, -0.643481, -0.181109, -0.143112, -0.105104, 0.279651, -0.31271, -0.0239963, -1.47395, 0.350812, -0.0700349, -0.0951169, 0.0412734, -0.125954, -0.834021, -0.487937, -0.0691284, -0.169022], [0.0, -1.5737, 5.42986, 0.0919766, -2.55642, -1.74021, 2.13309, 1.24241, -2.69569, 1.08765, 0.952211, -1.50238, -1.53875, 0.0900838, 0.571928, -0.215688, -1.44645, 0.319407, 1.47627, 1.70083, -0.138294, 14.1125, -0.610251, 0.106844, 1.0854, 0.0122051, 1.24113, -12.4817, 0.821434, -3.08407, -1.95138], [0.0, 2.70335, 0.150117, 0.429949, 3.21626, -0.780864, 0.233002, 1.09687, -9.80599, -0.975383, 0.379084, 2.73214, -3.51819, -4.23083, 7.33522, 1.79897, 0.0207344, 0.103716, 2.83361, -0.201352, 3.3362, 26.0808, 0.704596, 1.28753, 2.07678, 5.05116, 3.90566, -10.0572, 0.700002, -0.0872669, -2.41071], [0.0, -3.62564, -2.20316, 0.281616, 4.72267, -0.0388262, -1.11588, 0.0308054, -5.18151, -1.22851, 1.20421, 1.70293, -2.02774, -1.85752, 2.47892, 1.0463, 0.685414, 0.932207, 0.459815, -0.163835, 1.18886, 5.70365, -0.359953, -0.0648409, 1.46937, 2.00695, 0.593705, -2.85225, 1.66248, 1.09107, 0.647008], [0.0, -36.5682, 14.0076, -0.874742, 2.33788, -4.02039, -1.21737, 1.86079, -15.7619, 11.6159, 3.67934, -0.721462, -12.8502, -16.9029, 10.3896, 7.90382, -0.0982321, -4.63493, 7.02267, -2.9542, -3.31683, 77.7727, 6.981, -1.32709, 9.41203, 13.8561, 10.4967, -84.4377, -0.692291, -3.26509, -23.897], [0.0, 2.5564, 0.143423, 0.184401, 1.08708, -0.709435, 0.609043, 1.34093, -4.04724, -0.69446, -0.181638, 0.766226, -2.10056, -1.79551, 0.929296, 1.54794, -0.231723, -0.543574, 2.91961, 1.08083, -0.00863452, 22.8881, 0.818679, 0.285194, 0.896988, 2.11697, 3.18446, -12.7134, 0.167058, -1.33646, -4.75113], [0.0, 11.6187, 0.635057, 0.475165, 0.250003, -0.380746, 1.62161, 0.727758, -3.88828, -0.685449, -1.2754, 1.10428, -0.432382, -3.49564, 2.69688, 0.27876, -0.524908, -0.564409, 1.49352, 1.41529, 1.49325, 16.0625, 0.0668295, 1.07602, -0.210633, 1.24609, 2.90368, 1.22357, -0.0513697, -1.94935, -0.0205202], [0.0, -16.8156, 9.18555, -1.17434, 1.5516, -2.42175, 0.281329, 0.985714, -11.9362, 6.41244, 2.39657, -0.762794, -7.834, -10.8601, 10.3209, 2.61804, -0.517306, -1.47042, 4.84559, 0.9864, -0.787412, 43.8993, 3.05453, -0.956294, 4.7308, 6.28571, 5.96145, -42.0009, 0.578136, -2.17287, -11.868], [0.0, -1.10575, -0.18692, -0.0714647, -1.1867, 0.160534, -0.156967, -0.174387, 4.57663, 0.177305, -0.0568783, -0.567101, 0.611888, 2.40677, -2.39863, 0.070718, -0.26918, -0.379015, -0.545729, -0.538809, -0.578493, -10.3232, -0.222496, -0.216856, -0.985953, -1.1198, -0.553255, 3.96862, -0.127757, 0.589815, -0.531877], [0.0, 0.452286, 0.117603, -0.00998172, 0.228825, -0.0314138, 0.0358291, 0.0451076, -1.19276, 0.059985, -0.0622639, 0.115837, -0.102311, -0.874835, 0.937612, -0.00239125, 0.0858466, 0.0581045, 0.148474, 0.159065, 0.0909881, 2.85174, 0.165385, 0.0516337, 0.192219, 0.334489, 0.171844, -1.30669, -0.0225109, 0.0236482, -0.198669], [0.0, -2.03612, -0.425484, 0.0832519, -1.40587, 0.044648, -0.160735, -0.185181, 4.66634, -0.501587, 0.7144, -0.58281, 0.407963, 4.27435, -4.48527, -0.0732879, -0.334381, 0.0430389, -0.865039, -0.419226, -0.703652, -11.4412, -0.689129, -0.338235, -0.263474, -1.60904, -1.38077, 3.13341, 0.136906, -0.371831, 0.938582], [0.0, -1.08454, -0.0654069, -0.0103179, -1.17064, 0.0173188, -0.183069, -0.249706, 3.59755, 0.539571, 0.178708, -0.445524, 0.146322, 2.35606, 0.574192, -0.344025, -0.0413464, -0.294185, -0.716951, 0.0402521, 0.835915, -15.3989, -0.500955, -0.0752665, -0.688441, -1.00047, -0.693476, 13.7344, 0.261245, 2.08952, 2.47001], [0.0, -1.94256, -0.267391, -0.04895, -0.714656, 0.0878725, -0.177126, -0.164232, 2.18522, 0.271656, -0.0460843, -0.123131, 0.235548, 1.22714, -0.0719997, -0.0363258, -0.0307757, -0.213554, -0.299527, -0.250175, 0.16915, -6.33309, -0.15466, -0.0811445, -0.175576, -0.439717, -0.323221, 2.3303, -0.23064, 0.777238, -0.178111], [0.0, -0.0126043, -1.84117, 0.345631, -0.234544, 0.127886, 0.0240517, -0.221964, 5.10172, -1.17643, 0.506662, -0.479028, 0.796267, 6.03271, -1.2893, -0.255251, -0.458146, 0.426178, -1.90298, 1.27665, 1.43732, -25.4668, -2.29575, -0.229838, -0.776635, -3.6902, -1.43833, 20.4625, 2.2335, 2.68199, 4.87095], [0.0, -0.783229, -0.0580013, -0.00520914, -0.759689, 0.036053, -0.131677, -0.204543, 2.44738, 0.325094, 0.121616, -0.278115, 0.147125, 1.46299, -0.0824431, -0.185565, -0.0230888, -0.173988, -0.51036, -0.20579, 0.150863, -9.45412, -0.35156, -0.0957878, -0.342051, -0.606785, -0.405962, 7.96295, 0.128493, 1.13532, 1.62106], [0.0, -0.26106, -0.0287086, -0.0825773, -1.33895, 0.129765, -0.133991, -0.130605, 3.9768, 0.239918, -0.155695, -0.690182, 0.856691, 2.13193, -1.08946, 0.0768792, -0.139692, -0.389584, -0.783411, -0.260246, -0.273924, -10.8994, -0.073263, -0.340767, -0.97899, -1.12261, -1.12483, 4.18231, -0.125618, 1.00486, -0.303295], [0.0, -4.47394, -1.70211, 0.219957, -0.651546, 0.20874, -0.300207, -0.48602, 5.06386, -0.828607, 0.858408, -0.231296, 0.34545, 5.57297, -3.88716, -0.305025, -0.0961649, 0.340612, -1.5542, -0.104047, -0.197458, -18.2978, -1.50457, -0.492015, 0.697702, -2.42678, -1.62752, 10.677, 1.04996, 1.06235, 3.81535], [0.0, 1.08427, 0.0653816, 0.0102987, 1.17019, -0.0173066, 0.18303, 0.249713, -3.59615, -0.53946, -0.178718, 0.445242, -0.146159, -2.35496, -0.574635, 0.343943, 0.0413216, 0.294129, 0.716725, -0.0401347, -0.83555, 15.3947, 0.50107, 0.0751954, 0.688146, 1.00009, 0.693054, -13.7304, -0.261115, -2.08895, -2.46919], [0.0, 1.94058, 0.26697, 0.0490839, 0.714132, -0.0879034, 0.17709, 0.164156, -2.18236, -0.272187, 0.0466117, 0.122978, -0.235415, -1.22397, 0.0679974, 0.0362139, 0.0304391, 0.213761, 0.299188, 0.249739, -0.169312, 6.32684, 0.153999, 0.0811673, 0.175368, 0.438746, 0.322904, -2.32744, 0.23088, -0.777863, 0.179107], [0.0, 0.0175637, 1.84077, -0.345384, 0.236011, -0.128063, -0.0237696, 0.222185, -5.10716, 1.17576, -0.506626, 0.479383, -0.796255, -6.03426, 1.29603, 0.255009, 0.458307, -0.425448, 1.90265, -1.27421, -1.43528, 25.4654, 2.29516, 0.230149, 0.776448, 3.68931, 1.4384, -20.4525, -2.23206, -2.67919, -4.86867], [0.0, 1.10605, 0.18696, 0.0714754, 1.18696, -0.160581, 0.15701, 0.174421, -4.57694, -0.177294, 0.0569077, 0.567363, -0.612288, -2.40695, 2.39915, -0.0707254, 0.269072, 0.378917, 0.546015, 0.538887, 0.579204, 10.3237, 0.222214, 0.217095, 0.98596, 1.12006, 0.553902, -3.9671, 0.127706, -0.590192, 0.53207], [0.0, -0.451634, -0.117507, 0.00999205, -0.228785, 0.0313745, -0.035797, -0.0450519, 1.19269, -0.0600258, 0.0623009, -0.115861, 0.102269, 0.87477, -0.937821, 0.00240004, -0.0859132, -0.0581395, -0.148414, -0.159044, -0.0909417, -2.85121, -0.165362, -0.0515966, -0.192337, -0.334457, -0.171773, 1.30651, 0.0225317, -0.0239512, 0.198602], [0.0, 2.04054, 0.425448, -0.0832641, 1.40649, -0.0446607, 0.160835, 0.185211, -4.67015, 0.501583, -0.714644, 0.583227, -0.407922, -4.277, 4.49134, 0.073265, 0.334604, -0.0430574, 0.864836, 0.420676, 0.705283, 11.4414, 0.689259, 0.338477, 0.263115, 1.60897, 1.38103, -3.12803, -0.136839, 0.373681, -0.938292], [0.0, 0.783326, 0.0580517, 0.00523604, 0.759717, -0.0360994, 0.131663, 0.204584, -2.44874, -0.325029, -0.121617, 0.277949, -0.146957, -1.46344, 0.0843836, 0.185374, 0.0234135, 0.174212, 0.510074, 0.206322, -0.150612, 9.45306, 0.35179, 0.0955326, 0.342286, 0.606724, 0.405073, -7.96122, -0.128253, -1.13442, -1.61986], [0.0, 0.260802, 0.0286877, 0.0825523, 1.33903, -0.129739, 0.133968, 0.130576, -3.9779, -0.239716, 0.155486, 0.690233, -0.856551, -2.13286, 1.0916, -0.0769043, 0.139893, 0.389618, 0.78338, 0.260544, 0.274074, 10.8995, 0.0734111, 0.340679, 0.979032, 1.1227, 1.12465, -4.18231, 0.125597, -1.00396, 0.303109], [0.0, 4.48088, 1.70238, -0.219946, 0.652674, -0.208842, 0.300477, 0.486281, -5.06982, 0.828646, -0.858882, 0.231585, -0.345371, -5.57683, 3.89505, 0.304858, 0.0965314, -0.340398, 1.55415, 0.106064, 0.199461, 18.3013, 1.50504, 0.492332, -0.698185, 2.42695, 1.62783, -10.6701, -1.04954, -1.05998, -3.81443], [0.0, -2.70353, -0.150208, -0.429951, -3.21631, 0.780891, -0.233032, -1.09685, 9.80782, 0.975307, -0.378826, -2.73183, 3.51751, 4.23299, -7.33663, -1.79862, -0.0209973, -0.103615, -2.83366, 0.200177, -3.33615, -26.0803, -0.704187, -1.28737, -2.07549, -5.05037, -3.90517, 10.0581, -0.69919, 0.0883147, 2.41129], [0.0, 3.624, 2.20288, -0.281575, -4.7227, 0.038875, 1.11589, -0.0310079, 5.18412, 1.22846, -1.20408, -1.70302, 2.02778, 1.85993, -2.48139, -1.04618, -0.685486, -0.932077, -0.460252, 0.163183, -1.18911, -5.7091, 0.359884, 0.0649644, -1.46915, -2.00732, -0.59385, 2.85706, -1.66209, -1.09011, -0.645622], [0.0, 36.5663, -14.0072, 0.87446, -2.33445, 4.02036, 1.21742, -1.86, 15.7534, -11.6142, -3.68083, 0.724204, 12.8473, 16.8931, -10.3818, -7.90064, 0.0991523, 4.63357, -7.02058, 2.95304, 3.31678, -77.7331, -6.97758, 1.32849, -9.4079, -13.8495, -10.4906, 84.4093, 0.692234, 3.26674, 23.8881], [0.0, -0.733301, 0.0223445, 0.0878983, 1.17588, 0.295085, -0.381526, -1.0003, -1.43331, 0.253166, 0.416393, 1.22408, -0.404262, -1.45852, 2.50681, -0.974103, -0.0990912, 0.443612, -0.82088, -1.02291, 2.06299, -6.54572, -0.884034, 0.70005, 0.65139, 0.672457, -0.00574647, 7.07185, -0.373559, -0.746807, 4.74252], [0.0, 2.80795, -1.25848, 0.124737, 1.48435, 0.27455, -0.18892, -0.125029, -1.39753, -0.753458, -0.171753, 0.600949, 0.236101, -1.17219, 0.648411, 0.181269, 0.143548, 0.104862, -0.279004, 0.313266, 0.0245597, 1.48179, -0.349675, 0.0701327, 0.0949965, -0.0399668, 0.126565, 0.831974, 0.48743, 0.070143, 0.167899], [0.0, 1.5792, -5.4291, -0.0919848, 2.55545, 1.74, -2.13294, -1.24209, 2.69691, -1.08788, -0.951858, 1.50215, 1.5383, -0.0902494, -0.570915, 0.216186, 1.44578, -0.320028, -1.47611, -1.69992, 0.138909, -14.1152, 0.609817, -0.106864, -1.08609, -0.0124961, -1.24082, 12.4851, -0.821519, 3.08295, 1.95052], [0.0, -2.55629, -0.143496, -0.184409, -1.08689, 0.709416, -0.609023, -1.34091, 4.04818, 0.694339, 0.181725, -0.765697, 2.09989, 1.79586, -0.930566, -1.5476, 0.231397, 0.543281, -2.9191, -1.08135, 0.00877953, -22.8845, -0.818726, -0.285004, -0.896427, -2.11636, -3.18322, 12.7103, -0.167199, 1.33563, 4.74969], [0.0, -11.6182, -0.635154, -0.474951, -0.249364, 0.380581, -1.62162, -0.727743, 3.88718, 0.684957, 1.27587, -1.10381, 0.431844, 3.49562, -2.69772, -0.278629, 0.524774, 0.564525, -1.49333, -1.41539, -1.49389, -16.0578, -0.0671333, -1.07614, 0.21165, -1.24576, -2.90326, -1.22715, 0.0518559, 1.94843, 0.0205897], [0.0, 16.8168, -9.18532, 1.17419, -1.5514, 2.42169, -0.281204, -0.9854, 11.9364, -6.41211, -2.39678, 0.76329, 7.83313, 10.8589, -10.3198, -2.61682, 0.517122, 1.46954, -4.84521, -0.986697, 0.787485, -43.8935, -3.05389, 0.9566, -4.73008, -6.28451, -5.9597, 41.9978, -0.578007, 2.17359, 11.8654], [0.0, 2.80791, -0.185044, 0.225695, -0.175126, -0.85776, -0.517676, 0.0298585, 8.13021, -0.861991, 2.50451, 1.13519, -0.124983, 11.2226, -11.6321, 1.73146, -1.73441, -1.12454, -2.41332, -7.41433, -3.03265, 3.3938, 0.0128691, -1.19563, 3.81511, 0.772848, -0.254296, 14.7485, 3.82533, 4.22664, 5.26354], [0.0, 15.6764, 4.84654, -0.791795, -0.856714, -0.254547, -2.09209, 0.332402, 3.26908, 1.52143, 0.484541, -2.5424, -0.0813, 0.547554, 8.86767, 0.6895, -1.02749, -0.958407, -0.0325154, 2.6528, 4.07954, 3.38788, 2.03445, -2.00319, 0.549574, 1.75012, -0.940132, 20.8176, 0.498572, 1.80597, 1.7208], [0.0, 139.7, 13.5899, -2.36812, -5.34946, 0.454363, -4.84102, -0.406973, 17.198, 4.48727, -12.4468, -11.1213, 9.51415, -16.6834, 84.2804, 9.25391, 1.46124, -5.29311, 2.55071, 18.0584, 29.0004, 42.7478, 8.87491, -6.08547, -6.24941, 11.9739, -1.18242, 131.082, -10.4858, 23.7081, -2.59748], [0.0, -0.620929, 0.274287, 0.127327, 1.8679, -0.203448, 1.11279, 1.38227, -10.3069, 0.321877, -2.01801, 0.811715, -3.2817, -9.82672, 11.1529, -0.145507, 0.849284, 0.115153, 5.32868, 6.31656, 6.05014, 15.7515, 1.15789, 2.29352, -1.68104, 3.15354, 5.39514, -10.6385, -2.10518, -3.21575, -7.40874], [0.0, 17.9066, 6.10518, -0.220547, -6.39937, -0.121305, 1.27995, -0.32301, 7.48044, 2.81629, -1.81533, -3.27345, 0.595254, -0.299347, 1.54049, 1.23523, -1.03984, -2.1065, 0.929453, -0.569037, 0.820714, 7.05821, 2.2193, -0.0314098, -0.322598, 1.37163, 2.53659, 15.5741, -2.94118, -1.24566, -1.31924], [0.0, 110.831, 4.63285, -1.00336, -19.7836, 3.09995, 1.89504, -1.49342, 37.2406, -1.69979, -7.45488, -12.5242, 12.8983, 11.1986, 26.0121, -1.99517, -1.32641, -2.55671, -4.29793, 2.89432, 16.4408, -51.0928, 5.8353, -3.18374, -11.0927, -3.14457, -8.37394, 155.584, -8.52222, 13.5811, 13.8869], [0.0, 1.85911, 0.00699396, 0.125377, -0.580303, -0.582207, 0.335133, 1.57957, -2.14728, -0.627167, -0.473655, -0.423029, -1.51447, -1.21567, 2.8352, 2.32618, 0.468548, -0.536, 2.46748, 1.96937, -1.32008, 14.4909, 0.505396, -0.38086, -0.446445, 1.23453, 1.14448, -15.6326, -0.328631, -0.298545, -5.8927], [0.0, -30.3648, -11.5947, 1.54836, 9.33801, -0.115807, 1.27003, 0.617658, -13.4579, -5.15886, 1.24767, 7.48452, -2.32891, -1.83121, -8.2632, -0.724508, 1.92426, 2.89755, 0.503251, -1.92756, -2.74546, -0.763944, -4.21924, 2.66473, 0.422042, -0.805009, 0.875623, -35.4986, 3.2893, -0.664525, -0.285727], [0.0, 138.815, 6.84045, -1.27132, -10.8003, 1.48185, -1.49695, -1.82327, 29.0803, 2.12748, -12.0284, -11.4478, 13.1934, -6.20588, 57.088, 2.24857, 1.79537, -5.60536, -1.07653, 10.1728, 23.6387, 12.3552, 9.66322, -6.52472, -7.05105, 5.75926, -5.39851, 152.177, -9.89215, 18.8453, 6.41515]], "energy descriptor": [[1.0, 119.35327222222223, 4.066206111111111, -0.019227446666666672, 4.634056111111112, -1.2171843333333334, 0.20344194444444444, 0.6867136666666667, 69.45775555555555, -2.5493161111111116, 6.731988888888889, 3.132022222222222, 14.614849999999999, 32.270111111111106, 27.057555555555556, -1.0513798333333333, 1.1747491666666667, 3.470715, 6.342817222222223, 3.9250149999999997, 11.297705555555554, 13.920933333333332, -1.7044038888888886, 0.6329119879999998, 9.99645888888889, 1.7236061111111114, 3.158300555555556, 121.81696666666666, 3.0620516666666666, 14.215605555555559, 16.511605555555555]], "stress descriptor": [[0.0, 19806.47753786374, 310.1060830163168, -168.1158986559185, -1342.6222518877241, 498.07075690555746, -337.2237234250314, -367.5109749969645, 4074.011295423806, -342.47750138080687, -1820.0403926987972, -1430.4997344811395, 2537.2735414372673, -382.11725991091015, 8276.359418865357, -51.574218616872216, 222.87679355354115, -307.5567832184567, -601.0397107727604, 1954.2952051316709, 3673.448594345166, -3902.6289833385504, 768.6835833963387, -656.9169170218288, -1848.5513022083464, -44.8083267225301, -1388.8331975866213, 23859.41861180072, -1480.1161834992752, 2855.739366633189, 1883.747456655293], [0.0, 19659.712726255562, 300.68246600446275, -158.85071922972745, -1438.9784769078449, 486.86161581710485, -297.3030886210974, -358.52606354539495, 4391.618744972867, -359.6474778809743, -1782.6752349893059, -1453.4239137475697, 2482.654821720609, -6.681494915505784, 7565.951511405311, 10.692409155010624, 198.5189611098687, -354.87481796786966, -583.1814820752755, 1726.6899931945713, 3439.2412959686826, -3642.199833131255, 758.8400747209658, -652.5059781103489, -1700.1112010525324, -50.586797230066225, -1283.0865484520987, 24032.886432927873, -1391.7261195785647, 2830.7424324279777, 1997.2738468214902], [0.0, 18214.023667422658, 356.3876110431228, -153.500596231853, -1494.0966814115977, 419.3810562408254, -229.1799156244607, -252.60724912644474, 4151.898679408165, -289.65665969268184, -1583.4196849775917, -1389.86517541081, 2105.7127968125333, 35.68236811806836, 6801.4549264904335, 150.72867875117313, 148.5248711225029, -412.50988139074514, -418.2846599564052, 1403.640848940252, 3084.4774746201683, -2684.446625348379, 803.7193631379881, -607.2842861724282, -1438.494700583093, 168.44567900553972, -1065.5368271799448, 21980.102693998124, -1278.4269129230956, 2590.8563855898824, 1657.92966562771], [0.0, 26.30161953016108, -1.0810168302654501, 2.5539965575986576, 9.848490799355954, -7.105405179029834, -4.158321053518173, 10.666247363960162, 40.06111122833795, -5.46144862541635, 1.3456535587520182, 10.75846701603938, -10.414116303826793, 29.5732030881611, -0.126026921962978, 11.475433265278776, -9.883009801237268, -8.163837947278523, 6.271889793687279, 2.6431443475186054, 31.278865463071845, 1.0118344657674094, 5.77337524502347, -3.6007193201517524, 3.0304474143383437, 18.442245088194447, 9.988587857176226, 75.97104558094449, 15.488963522741814, 8.303995435174132, 8.975702579544562], [0.0, 46.78681074389938, -4.205956738958197, 4.541560869221634, -42.1711380946514, -24.741059837638236, 4.762829954195042, 36.19298546791673, 206.8884056737801, -12.218189056305018, 20.323322542690985, -4.899133346179354, -40.63610339447479, 207.80707710684874, -216.65939825883646, 64.31438285567174, -25.335584346990927, -44.863167015832175, 24.48566219621418, -69.59824763324565, -47.18544444983109, 143.89408088275988, 14.839416422693327, -17.986038306668227, 38.12305157009389, 28.708515855661467, 47.51427739016122, 151.49349856984617, 49.419984128999495, 47.7526209929004, -30.848076242646925], [0.0, 41.63239165265203, -1.410031396543946, 3.2419625815801756, -29.49684968806502, -15.851229402211713, 0.14495395725836197, 14.321706260621879, 214.19754749433616, -8.458293560681513, 26.695214039260954, -2.97920271051447, -21.19294489800378, 208.40164526014473, -292.9161572356291, 33.34999550427365, -34.082260634234046, -38.049634735933076, -1.3913135164535566, -84.47177347619913, -47.05732597581861, 84.71781670983358, 0.7415105957531363, -16.91021983933831, 65.0437268629384, 11.455944230283526, 41.33750654927525, 276.72754437315996, 51.74693817937854, -6.389476648471773, 64.56805823995073]]}}}, {"group": "Surface", "description": "Mo_surface_mp/Mo_mp-129_(3_1_1)", "structure": {"@module": "pymatgen.core.structure", "sites": [{"abc": [0.998246, 0.995825, 0.0105], "xyz": [2.2416441752080005, 7.400264364249999, 0.22459387835], "species": [{"occu": 1, "element": "Mo"}], "label": "Mo"}, {"abc": [0.641908, 0.284186, 0.050735], "xyz": [2.2393204290560007, 2.11186857994, 1.0675678577030001], "species": [{"occu": 1, "element": "Mo"}], "label": "Mo"}, {"abc": [0.275136, 0.549885, 0.089249], "xyz": [0.0008674875480001454, 4.086354901649999, 1.878175727775], "species": [{"occu": 1, "element": "Mo"}], "label": "Mo"}, {"abc": [0.905511, 0.811118, 0.137451], "xyz": [2.239934756814, 6.02765308222, 2.892409935419], "species": [{"occu": 1, "element": "Mo"}], "label": "Mo"}, {"abc": [0.543164, 0.086455, 0.181815], "xyz": [2.2398645875320002, 0.64247217695, 3.822125573665], "species": [{"occu": 1, "element": "Mo"}], "label": "Mo"}, {"abc": [0.181027, 0.362247, 0.227262], "xyz": [-0.000431986509999871, 2.6919625086299996, 4.778505867516], "species": [{"occu": 1, "element": "Mo"}], "label": "Mo"}, {"abc": [0.819287, 0.638657, 0.273756], "xyz": [2.23996370629, 4.74604537753, 5.756896724966], "species": [{"occu": 1, "element": "Mo"}], "label": "Mo"}, {"abc": [0.457972, 0.9158, 0.318852], "xyz": [0.00032349725600022694, 6.805575382, 6.705904193060001], "species": [{"occu": 1, "element": "Mo"}], "label": "Mo"}, {"abc": [0.09176, 0.183336, 0.365606], "xyz": [0.00041237075200001305, 1.36242298344, 7.685827712958], "species": [{"occu": 1, "element": "Mo"}], "label": "Mo"}, {"abc": [0.724288, 0.448942, 0.409759], "xyz": [2.239329554408, 3.33621819518, 8.614968156511], "species": [{"occu": 1, "element": "Mo"}], "label": "Mo"}, {"abc": [0.358432, 0.717389, 0.446664], "xyz": [-0.0011753608360001166, 5.3311257018100005, 9.391765228442], "species": [{"occu": 1, "element": "Mo"}], "label": "Mo"}, {"abc": [0.090067, 0.180298, 0.111657], "xyz": [-0.00036720413800001017, 1.33984672442, 2.347755831289], "species": [{"occu": 1, "element": "Mo"}], "label": "Mo"}, {"abc": [0.723851, 0.447852, 0.158423], "xyz": [2.2398134255020006, 3.3281180890799997, 3.3318296638110003], "species": [{"occu": 1, "element": "Mo"}], "label": "Mo"}, {"abc": [0.362542, 0.725003, 0.20352], "xyz": [0.00018217707200007816, 5.3877075438699995, 4.280858183294], "species": [{"occu": 1, "element": "Mo"}], "label": "Mo"}, {"abc": [0.00079, 0.00141, 0.250007], "xyz": [0.00038082674, 0.0104781189, 5.255203887615], "species": [{"occu": 1, "element": "Mo"}], "label": "Mo"}, {"abc": [0.638639, 0.277184, 0.295461], "xyz": [2.24035985119, 2.05983468736, 6.211731252737], "species": [{"occu": 1, "element": "Mo"}], "label": "Mo"}, {"abc": [0.276264, 0.552514, 0.339828], "xyz": [3.191460000029345e-05, 4.10589176306, 7.145407924312001], "species": [{"occu": 1, "element": "Mo"}], "label": "Mo"}, {"abc": [0.906632, 0.813761, 0.388033], "xyz": [2.239036459708, 6.047293981689999, 8.159705247143002], "species": [{"occu": 1, "element": "Mo"}], "label": "Mo"}, {"abc": [0.539816, 0.079451, 0.426533], "xyz": [2.2405545464200003, 0.59042342179, 8.966120799263], "species": [{"occu": 1, "element": "Mo"}], "label": "Mo"}, {"abc": [0.183701, 0.367755, 0.466766], "xyz": [-0.000790404841999881, 2.73289405395, 9.81295051602], "species": [{"occu": 1, "element": "Mo"}], "label": "Mo"}, {"abc": [0.82339, 0.646234, 0.030614], "xyz": [2.2413727675880004, 4.802352261859999, 0.646031576002], "species": [{"occu": 1, "element": "Mo"}], "label": "Mo"}, {"abc": [0.457576, 0.914697, 0.067507], "xyz": [0.001020182492000199, 6.7973786691299996, 1.422576467841], "species": [{"occu": 1, "element": "Mo"}], "label": "Mo"}], "lattice": {"beta": 90.0, "c": 21.020205, "a": 4.480298, "gamma": 106.77532919361977, "matrix": [[4.480298, 0.0, 0.0], [-2.240148, 7.43129, 0.003898], [0.0, 0.0, 21.020205]], "volume": 699.854981438022, "alpha": 89.97122511905579, "b": 7.761594508888492}, "@class": "Structure"}, "data": {"forces": [[-0.00071332, 0.02208192, 0.01038694], [0.00415518, -0.01566053, -0.04212229], [-0.0135594, 0.00949063, -0.00578369], [0.00496986, 0.00871021, -0.00375633], [-0.01132146, 0.09557057, 0.02922841], [-0.01093227, 0.05074722, 0.02760914], [-0.00751096, 0.05727755, 0.01940065], [-0.0163258, 0.03906628, -0.01862368], [-0.00741711, -0.00460463, 0.00546048], [-0.00458201, 0.0133768, -0.00944885], [0.01007976, 0.00378618, 0.012559], [0.01082561, 0.00249927, -0.00486291], [0.01624685, -0.04138158, 0.01749756], [0.00805033, -0.05760054, -0.01601286], [0.00939195, -0.05098912, -0.02469577], [0.01291649, -0.09285836, -0.03281055], [-0.00383371, -0.0059755, 0.00071561], [0.01286866, -0.01160373, 0.00492377], [-0.00259082, 0.01384477, 0.04379203], [-0.00284297, -0.01983647, -0.01035592], [-0.0106749, -0.00400438, -0.01420683], [0.00280004, -0.01193658, 0.01110611]], "energy_per_atom": -10.270991122272727, "virial_stress": [-23.51928, -28.48653, -0.82701, -0.08875, -0.01062, -0.08338]}, "weights": {"energy": 1368.8859, "stress": 0, "force": 1.75729569}, "optimized parameters": {"bispectrum coefficients": {"force descriptor": [[0.0, 0.0164209, 0.00165412, 0.00250748, -0.020942, -0.00176382, 0.0064114, -0.00570386, 0.0805103, -0.010822, 0.0138272, 0.00757757, 0.00836934, 0.0475363, -0.151655, -0.0134763, -0.0243584, -0.0112844, -0.00896818, -0.0335738, -0.0256609, -0.00633884, 0.00121537, 0.00985054, 0.00738286, 0.00423559, 0.0153305, 0.0647409, -0.0246685, -0.0716269, 0.0194552], [0.0, 9.48814, 4.36266, -0.800467, 3.53768, 0.576437, -0.942956, 0.569776, -16.0605, 3.66322, -5.77564, -2.04298, -0.276979, -26.6084, 33.7978, 2.48736, 3.7348, 0.0957024, 4.54321, 19.0195, 8.48519, 11.4968, 2.83462, -0.186603, -9.46724, 7.73368, -4.24885, -36.717, -9.3428, -7.97877, -20.4288], [0.0, -130.86, -12.4507, 2.29343, -0.51808, -0.678386, 6.50802, 2.26146, -13.5829, -4.03922, 13.2207, 9.21867, -8.64769, 22.2156, -83.8212, -9.25393, -3.74775, 2.68343, -3.99526, -22.687, -25.8132, -54.7723, -6.91854, 4.25167, 4.60111, -14.1964, -2.97235, -106.432, 13.1317, -14.7821, 0.869571], [0.0, -0.0346962, 0.00961458, -0.00349766, 0.00828418, 0.00607114, -0.00760731, -0.00269873, -0.100932, 0.0243176, -0.0322209, -0.0106792, 0.0215435, -0.116148, 0.165096, 0.0177308, 0.0387208, 0.000721442, 0.00165716, 0.0236072, -0.0347177, 0.184861, 0.0243003, -0.0193373, -0.00676633, 0.0163288, -0.0398015, -0.402136, -0.0337038, 0.0649174, -0.0744504], [0.0, 9.10716, 1.51561, -0.569461, -7.3868, 1.60347, -1.57735, -2.36607, 15.9678, -0.217258, 0.257525, -3.15554, 5.53441, 9.4815, -10.6974, -3.32912, -3.37912, -0.723147, -3.03988, -8.95969, -0.856414, -12.9202, -0.114836, 0.406986, 3.97224, -5.41111, 1.3285, 32.8686, 0.197411, -2.12561, 14.5562], [0.0, -134.8, -6.5192, 1.83966, 9.0011, -2.62385, 3.18355, 1.56014, -20.1791, -1.76079, 14.0142, 11.0408, -11.3238, 16.5474, -71.0009, -5.47927, -0.801971, 4.27739, -4.35559, -17.5747, -28.2419, -39.858, -11.2857, 5.95192, 6.92958, -9.84918, 1.5157, -120.642, 13.5139, -11.3684, 4.45597], [0.0, 0.00423259, -0.0163585, 0.00437277, -0.01405, -0.00432817, 0.00524126, -0.00588949, 0.176274, -0.0306802, 0.0338213, 0.00735195, -0.0142954, 0.190707, -0.277712, -0.00982781, -0.0397229, 0.0135638, -0.00876609, -0.02887, 0.0052333, -0.267985, -0.0419384, 0.0125631, 0.0252816, -0.0348844, 0.0499294, 0.380983, 0.0621779, -0.0738267, 0.114357], [0.0, -15.5011, -3.82743, 0.342137, 0.279469, 0.368161, -1.38173, -1.92161, 11.4247, -1.29556, 3.88843, 0.744553, 1.15006, 15.3113, -18.5889, -0.954554, -0.670893, 1.02648, -5.03557, -8.06304, -7.93923, -31.7297, -2.7161, -2.1629, 1.57077, -6.53781, -4.6649, 8.97482, 4.50429, 5.84605, 9.75246], [0.0, -110.532, -2.73242, 0.521195, 20.2824, -3.21939, -1.80185, 2.22602, -42.0367, 0.764537, 9.05958, 11.6565, -16.2284, -11.6872, -25.3941, 2.82994, 0.849831, 3.96693, 6.78899, 0.217536, -16.9998, 59.1373, -6.46809, 3.87321, 11.1147, 3.01533, 10.2863, -162.122, 8.88897, -17.0303, -13.5314], [0.0, -0.0437915, -0.00702038, -0.00587434, 0.0273633, 0.00616337, -0.00175265, 0.00921044, -0.136631, 0.0305288, -0.0352639, 0.0195402, -0.0163699, -0.154699, 0.150893, 0.00204407, 0.0256925, -0.00977967, 0.0295428, 0.00799127, -0.00153967, 0.499197, 0.0318725, 0.0032158, 0.04327, 0.0736894, 0.033584, -0.365095, -0.0262561, -0.0114626, -0.0563154], [0.0, 0.582032, 0.353768, 0.0403386, 4.93927, -1.10189, 0.11564, 1.60183, -14.5692, 0.209907, -0.185148, 3.85729, -4.62031, -9.38255, 5.34953, 2.61252, 0.425937, -1.04678, 4.53352, 0.016276, 2.57489, 59.8279, 3.33836, 1.30389, 5.65552, 8.79358, 7.85096, -27.9981, 0.0412264, -4.00377, -6.38368], [0.0, -32.6446, 12.3568, 0.0433219, 1.42876, -4.22385, -1.73326, 0.325451, -8.08667, 10.4612, 5.05189, -2.81095, -10.0167, -10.2184, 11.875, 7.14036, 0.117655, -3.66207, 3.02163, 0.0610571, -2.51448, 15.9045, 3.13709, -4.11965, 1.88591, 5.87075, 2.30552, -45.6614, 1.56985, 3.84148, -18.2665], [0.0, 0.00731373, -0.000156564, 0.000267608, 0.0300896, -0.000730943, 0.00608572, -0.00298411, -0.0743535, -0.00610067, 0.00151358, 0.0210422, -0.0135416, -0.0539613, -0.0121108, -0.00030745, -0.00273773, 0.0105411, 0.0125325, 0.0229651, 0.00280297, 0.308718, 0.005151, 0.00927088, 0.0363339, 0.0304993, 0.036032, -0.174179, -0.00253586, -0.0595611, -0.0370094], [0.0, 7.17293, 0.256646, 0.0188765, -0.145706, -0.738595, 1.40676, 2.36576, -4.4088, -1.76468, -0.705375, 0.020348, -0.865028, -0.0942328, 1.17695, 1.15402, -0.368458, -0.0932376, 2.73283, 2.28143, 0.858032, 22.0746, -0.165828, 0.529257, 0.25235, 1.38456, 2.08836, -12.1462, -0.19503, -2.38119, -2.78378], [0.0, -5.37892, 9.59911, 0.0363335, -2.66658, -2.74677, 1.92663, 1.13947, -8.45408, 3.21429, 2.99179, -3.16622, -5.09394, -3.34344, 11.4195, 0.325153, -0.694356, 0.314504, 2.86334, 2.48147, 1.49527, 6.90844, -0.771076, -1.18923, -1.38003, -1.22775, -0.0572441, -15.4718, 1.71526, -0.293139, -5.06739], [0.0, -0.0570398, -0.0212817, -0.000894735, 0.0446092, 0.00399595, -0.000716003, -0.00243426, -0.10749, 0.00770738, -0.0122203, 0.0205549, -0.0159925, -0.0741926, 0.0910751, -0.00332496, 0.0187461, 0.00885246, 0.0122525, 0.0112214, -0.0130324, 0.266407, 0.0126675, 0.00215047, 0.0512066, 0.036285, 0.0193804, -0.10206, -0.00271613, 0.0281076, 0.0181254], [0.0, -0.363954, 0.618798, -0.00210046, -0.688709, -0.190127, 0.124315, 0.597672, -1.03342, -0.170295, -0.279038, -0.293897, 0.20356, -0.660628, 1.86546, 0.432121, 0.172546, 0.281837, 0.237469, -0.024007, 0.345863, 3.36246, 0.0313467, 0.202127, -0.0586497, 0.540112, -0.206393, -7.17841, -0.649352, -0.19577, -2.33537], [0.0, 1.12408, 3.15453, 0.233586, 0.917447, -1.13914, 0.339846, 0.334922, -6.34858, -0.309233, 2.33546, -0.888668, -2.4272, -0.451762, 6.52011, 0.0717369, -0.26771, 0.896266, 0.750747, 2.30832, 3.39091, -8.25191, -1.28424, -0.397646, -2.8608, -2.32225, -1.56618, 1.32235, 2.63851, 0.458403, 0.218136], [0.0, 0.024237, 0.0144127, -0.00282133, -0.000983676, -0.000963306, 0.00148469, 0.00292324, -0.0238674, 0.0161489, -0.0111691, 0.00403015, -0.00500531, -0.0479199, 0.0162414, -0.00153522, 0.00144667, -0.00440128, 0.0141675, -0.00239036, -0.00402474, 0.209934, 0.017934, 0.00484224, 0.0109145, 0.0308798, 0.0238506, -0.119161, -0.0135034, -0.0159909, -0.0198606], [0.0, -2.32214, -1.82093, -0.00661188, 2.27021, 0.919925, -0.797676, -1.5192, -0.235788, 0.511272, -0.365836, 1.42619, 0.501951, -2.16014, 1.26089, -1.15598, 0.40799, 0.708434, -1.59601, -1.20588, 0.30079, -6.18211, -0.379875, 0.651573, 1.50106, 0.762622, 0.379511, 11.7656, 0.365758, 1.53411, 4.83202], [0.0, 2.15379, -6.91185, 0.1533, 2.65589, 1.80144, -2.53376, -1.51569, 5.59772, -2.2305, -0.214696, 0.206682, 3.40421, 4.98096, 0.978612, 0.317181, 1.6825, -0.402182, -3.85339, -1.01127, 1.17917, -47.2051, -0.178037, -1.1997, -4.61142, -4.95094, -6.02248, 32.391, 1.94301, 10.0135, 4.9891], [0.0, -0.00733545, -0.0090646, 0.0024793, -0.0243848, 0.000831712, -2.49067e-05, -0.00773573, 0.157356, -0.0189704, 0.0200529, -0.0168394, 0.0199451, 0.134296, -0.199257, -0.00895563, -0.0228559, 0.00652159, -0.0246588, -0.0193514, -0.0453199, -0.317895, -0.0261652, -0.00457199, -0.0106472, -0.0526423, -0.0378741, 0.10814, 0.0134979, -0.0283577, 0.0378036], [0.0, 0.41259, 0.544294, -0.362816, -3.26723, 1.04636, -0.254459, -1.73863, 10.6023, 0.760045, 0.838931, -2.82652, 2.47887, 5.44322, -3.96952, -2.34504, -0.813454, 0.324789, -3.70568, -0.0515576, -0.910031, -45.8741, -2.27454, -0.838359, -4.16036, -6.25648, -6.14546, 23.9286, 0.247398, 1.42414, 8.05356], [0.0, 32.6025, -7.80961, 1.21941, -2.88632, 2.05212, 1.11316, -0.161381, 6.72327, -9.00605, -1.89981, 0.312081, 7.8022, 11.3583, -3.31329, -3.71857, 0.0136787, 2.36427, -4.03869, 1.26648, 5.11587, -50.1266, -4.45143, 1.21192, -7.93136, -9.08767, -8.45105, 55.3179, 0.345285, 2.32404, 15.8915], [0.0, 0.0172059, 0.00843284, 0.000866406, -0.0128592, -0.00227903, 1.29175e-05, -0.00203042, 0.0994817, 0.00132119, 0.00861522, -0.000685917, -0.0124608, 0.069629, -0.101501, 0.00291459, -0.0140323, -0.0128939, 0.00134305, -0.030341, 0.02926, -0.122967, -0.00542, 0.00659073, -0.00619019, -0.00063047, 0.0371828, 0.208506, 0.00754408, -0.032544, 0.0395028], [0.0, -18.4259, -4.95701, -0.477005, -0.741705, 0.828595, -1.04602, 0.708931, -0.0327008, -1.57258, -1.63227, 0.683277, 3.56769, 0.343697, -1.24936, -2.79192, 0.43918, 0.869042, 0.807396, 0.314326, 1.17795, -9.89661, -1.71835, 0.420451, -2.53912, -5.03199, -0.900517, -21.4451, -1.52693, -3.09528, -2.10771], [0.0, 79.3211, -1.78939, 0.30608, -13.9622, 2.54664, 2.38166, -1.75484, 26.4511, -5.93164, -2.83729, -6.95141, 15.0173, 18.7433, 11.4751, -6.33667, 0.526273, 1.27837, -12.5715, -4.13757, 6.44544, -105.751, -3.55338, -1.81668, -13.7882, -14.9056, -17.0735, 148.51, -0.0300798, 22.9832, 25.3556], [0.0, -0.00944963, 0.00458477, -0.000539091, 0.00935531, 0.00125066, 0.00144527, 0.00142497, -0.101139, 0.0117305, -0.0170037, 0.0126465, 0.000353223, -0.103585, 0.108355, 0.00659785, 0.0117413, -0.00132859, 0.0118858, 0.0152212, -0.0104725, 0.26911, 0.0251884, 0.00553548, 0.0073752, 0.0381223, 0.00811556, -0.229157, -0.0266791, 0.00620606, -0.0600381], [0.0, 3.40202, 0.632815, -0.0974467, 2.74427, -0.172043, 0.139947, 1.36274, -7.26686, 0.481909, -1.14137, -0.322703, -3.9857, -10.5383, 3.16956, 1.69306, 1.41756, -0.889832, 5.48319, 6.32025, 2.53049, 36.0502, 3.97782, -0.571827, 2.65856, 7.54824, 3.56428, -23.6878, -4.03168, -8.96056, -9.49382], [0.0, 124.609, 3.79879, -0.262322, -19.9564, 3.14346, 2.92712, -1.7496, 34.0308, -2.28067, -8.26705, -13.6605, 15.4392, 9.48039, 40.6416, -3.67704, -1.14028, -2.65473, -6.13127, 6.54978, 21.4565, -71.1531, 5.1001, -5.66171, -15.1899, -8.26274, -13.9823, 184.126, -6.76607, 24.4634, 15.6425], [0.0, -0.0288894, -0.0186496, 0.000517238, 0.00577791, 0.00153023, 0.00230156, 0.00318954, -0.0498807, -0.0111567, -0.00139928, 0.0029152, 0.00410566, -0.00991797, 0.0468942, -0.00353428, 0.00746165, 0.0100759, 0.00228036, 0.0175538, -0.00632312, 0.00473442, -0.0191744, -0.00300539, 0.00849597, -0.00960555, -0.00811185, -0.0815261, 0.0205208, 0.00856688, 0.0045126], [0.0, 22.8263, 6.44249, -0.306324, -4.32973, -1.30215, -1.56213, 0.99124, 13.0362, 1.8064, 0.223324, -2.65637, -1.13605, 9.77605, -1.63565, 6.44238, -2.04573, -3.72567, 0.207078, -3.21123, -0.941209, 22.533, 2.56766, -1.27695, 2.62852, 4.79687, 3.07623, 22.6848, 2.21756, 3.49264, 1.54569], [0.0, 139.771, 9.77863, -1.46486, -2.08565, -0.190423, -4.88903, -1.35848, 18.2701, 3.91623, -11.7029, -9.67262, 9.67585, -16.2543, 77.289, 6.76851, 2.35165, -5.43007, 1.12846, 18.1165, 27.8689, 39.2734, 8.07722, -7.44102, -5.24561, 11.1247, -3.06069, 134.149, -9.15456, 19.5118, 1.01261], [0.0, -0.0177174, -0.0158192, -0.000266111, -0.00522099, 0.00260183, -0.00143042, 0.00352299, -0.056251, -0.0102637, -0.00221701, -0.0143847, 0.033337, -0.0196104, 0.08358, -0.0115281, 0.00776194, 0.0151386, -0.0155556, 0.0331374, -0.0337172, -0.0750465, -0.0104381, -0.0171691, -0.0213908, -0.0373407, -0.0821719, -0.172372, 0.00197984, 0.0473071, -0.034609], [0.0, 18.4282, 4.95756, 0.476704, 0.738976, -0.828734, 1.04542, -0.707988, 0.024584, 1.57205, 1.63191, -0.687671, -3.56161, -0.348328, 1.2719, 2.79196, -0.438352, -0.867824, -0.810995, -0.307591, -1.17876, 9.86692, 1.71561, -0.423615, 2.53283, 5.02435, 0.88592, 21.4305, 1.52437, 3.10268, 2.10196], [0.0, -79.3248, 1.78734, -0.306026, 13.9724, -2.54671, -2.38132, 1.75576, -26.4922, 5.92991, 2.83703, 6.95515, -15.0186, -18.7664, -11.4612, 6.33217, -0.521729, -1.27544, 12.5738, 4.14701, -6.44652, 105.832, 3.55587, 1.81422, 13.796, 14.9137, 17.0652, -148.571, 0.0299287, -22.9988, -25.3393], [0.0, 0.0182147, 0.0129257, -0.00205185, 0.0178995, -0.00166554, -0.000735958, 0.008081, -0.142807, 0.0186142, -0.0181702, 0.00970318, -0.0161006, -0.119027, 0.207336, 0.00824803, 0.0237694, -0.00623064, 0.0192714, 0.0173081, 0.0479484, 0.204641, 0.023085, 0.00345932, -0.00267155, 0.0386051, 0.0266259, -0.0190211, -0.00864721, 0.0521752, -0.0262863], [0.0, -0.425398, -0.546739, 0.364319, 3.26207, -1.0473, 0.253607, 1.73783, -10.5826, -0.766665, -0.832015, 2.82175, -2.47613, -5.41277, 3.94051, 2.34212, 0.81224, -0.320636, 3.69964, 0.0490689, 0.914065, 45.7972, 2.26779, 0.8348, 4.15818, 6.24646, 6.12946, -23.8985, -0.243667, -1.43657, -8.02694], [0.0, -32.598, 7.81133, -1.21924, 2.88412, -2.0527, -1.11399, 0.161683, -6.72333, 9.00838, 1.90076, -0.317433, -7.79939, -11.3603, 3.31776, 3.71591, -0.0116679, -2.36567, 4.03456, -1.26145, -5.1166, 50.0866, 4.45124, -1.2179, 7.92623, 9.08624, 8.4308, -55.3016, -0.345424, -2.33127, -15.8681], [0.0, -0.0216615, -0.0126564, 0.00331458, -0.0102438, 0.000267144, -0.00210257, -0.00240957, 0.0453585, -0.0176034, 0.0131472, -0.00984191, 0.010555, 0.0666845, -0.0175125, 0.00198516, -0.00319072, 0.00216763, -0.0182968, 0.00104832, 0.00704783, -0.303059, -0.021713, -0.0069305, -0.0236154, -0.04132, -0.0368489, 0.168097, 0.0134856, 0.0261769, 0.0275578], [0.0, 2.31399, 1.8205, 0.00638359, -2.27916, -0.918977, 0.79659, 1.51855, 0.26658, -0.510736, 0.365676, -1.42873, -0.498729, 2.17649, -1.28214, 1.15604, -0.410058, -0.711231, 1.59237, 1.19828, -0.302394, 6.12702, 0.377257, -0.651427, -1.50384, -0.767019, -0.38008, -11.7353, -0.368708, -1.53642, -4.832], [0.0, -2.14131, 6.91435, -0.153447, -2.65241, -1.80146, 2.5337, 1.51499, -5.60373, 2.23187, 0.215114, -0.203439, -3.40882, -4.9896, -0.982817, -0.317397, -1.68301, 0.400926, 3.85548, 1.01199, -1.17681, 47.2476, 0.180232, 1.20097, 4.61687, 4.95758, 6.02876, -32.408, -1.94482, -10.0276, -4.98352], [0.0, 0.0558072, 0.0200379, 0.000646931, -0.0424187, -0.00372929, 0.000442647, 0.0026298, 0.107231, -0.00691134, 0.0121734, -0.0204252, 0.0142369, 0.0732542, -0.0923908, 0.00275576, -0.0185195, -0.00901422, -0.0110172, -0.0113994, 0.0119692, -0.261367, -0.0110733, -0.00241658, -0.0505361, -0.0362391, -0.0177807, 0.102634, 0.00247157, -0.027258, -0.0166177], [0.0, 0.356087, -0.621175, 0.0015899, 0.686173, 0.191584, -0.124972, -0.599469, 1.05939, 0.170435, 0.278288, 0.292886, -0.199984, 0.671285, -1.89244, -0.431183, -0.174297, -0.284548, -0.240172, 0.0160134, -0.352049, -3.39098, -0.0321856, -0.203207, 0.0565017, -0.543096, 0.208276, 7.18813, 0.648066, 0.193011, 2.32859], [0.0, -1.14324, -3.1558, -0.234022, -0.913621, 1.13954, -0.339972, -0.335302, 6.33655, 0.310433, -2.33667, 0.889729, 2.42611, 0.4411, -6.52514, -0.0707336, 0.270498, -0.893502, -0.748134, -2.31202, -3.40583, 8.32507, 1.2878, 0.396291, 2.87182, 2.32931, 1.56886, -1.3996, -2.64044, -0.464507, -0.228255], [0.0, -0.00225511, 0.00409864, -0.000235612, -0.0302913, 5.94784e-05, -0.00422834, 0.00255204, 0.0723449, 0.00557817, -0.000454882, -0.0172517, 0.0105095, 0.0458806, -0.00672567, 0.00139344, -0.00124722, -0.0116135, -0.00911613, -0.0191109, -0.00457221, -0.233073, -0.00448268, -0.00675948, -0.0287708, -0.0211244, -0.0275239, 0.112441, -0.00368068, 0.0322995, 0.0209791], [0.0, -7.15867, -0.254369, -0.0193384, 0.154408, 0.738209, -1.40596, -2.36493, 4.38285, 1.76826, 0.702337, -0.0169133, 0.860786, 0.0706463, -1.15702, -1.15366, 0.370259, 0.0929062, -2.72827, -2.27885, -0.855167, -21.9992, 0.169892, -0.527238, -0.248562, -1.37469, -2.08223, 12.122, 0.19486, 2.37803, 2.78903], [0.0, 5.35166, -9.60357, -0.0359583, 2.65404, 2.74773, -1.92842, -1.14177, 8.49773, -3.21749, -2.98959, 3.15991, 5.10406, 3.38215, -11.4514, -0.326854, 0.692071, -0.31261, -2.87048, -2.48954, -1.50332, -7.03461, 0.764799, 1.18698, 1.36562, 1.20921, 0.0493081, 15.511, -1.7144, 0.306165, 5.06146], [0.0, 0.0201253, -0.00244978, 0.0039868, -0.00777161, -0.00356701, 0.00220356, -0.00717399, 0.0787875, -0.0250011, 0.0256907, -0.00812133, 0.00518475, 0.110369, -0.102462, -0.00291802, -0.0156832, 0.0117366, -0.0190589, -0.00285404, 0.0107403, -0.320664, -0.0249424, -0.0015257, -0.0167838, -0.0492449, -0.0113392, 0.288378, 0.0265652, 0.00666217, 0.0600946], [0.0, -0.559843, -0.34889, -0.0405598, -4.93269, 1.10114, -0.114102, -1.60093, 14.536, -0.206684, 0.182652, -3.85436, 4.61886, 9.35379, -5.32913, -2.61274, -0.423671, 1.04577, -4.53188, -0.00801096, -2.57087, -59.7413, -3.33239, -1.304, -5.64961, -8.78527, -7.84911, 27.9603, -0.0427387, 3.99576, 6.38763], [0.0, 32.6453, -12.3558, -0.0427602, -1.4406, 4.22413, 1.73316, -0.326026, 8.12169, -10.4652, -5.04947, 2.80409, 10.0239, 10.2486, -11.8937, -7.14111, -0.121948, 3.66334, -3.02761, -0.065303, 2.50841, -16.0169, -3.14432, 4.1177, -1.90005, -5.88734, -2.3121, 45.7117, -1.56928, -3.83015, 18.259], [0.0, -0.00763785, 0.0162974, -0.00463639, 0.0319068, 0.00390638, -0.00226749, 0.00478871, -0.221551, 0.031202, -0.0364232, 0.00944026, -0.000853101, -0.230089, 0.279981, 0.0163622, 0.0409145, -0.00980982, 0.019985, 0.0341099, -0.00869478, 0.459249, 0.0493526, 0.00022623, 0.00054255, 0.0646942, -0.0166746, -0.458188, -0.0636483, 0.0475187, -0.124727], [0.0, 15.4748, 3.82386, -0.342528, -0.282461, -0.366292, 1.38009, 1.91868, -11.405, 1.29796, -3.88965, -0.744869, -1.14789, -15.2965, 18.5658, 0.954453, 0.670133, -1.02647, 5.03595, 8.05417, 7.93201, 31.7194, 2.71924, 2.16271, -1.56467, 6.53808, 4.67171, -8.94981, -4.50536, -5.84102, -9.74747], [0.0, 110.542, 2.7338, -0.521044, -20.2876, 3.21909, 1.80238, -2.22789, 42.0623, -0.765258, -9.05709, -11.658, 16.2278, 11.7038, 25.3818, -2.83047, -0.855299, -3.9684, -6.78808, -0.219967, 17.0038, -59.1822, 6.46232, -3.87006, -11.1217, -3.02112, -10.2806, 162.162, -8.89275, 17.0278, 13.5216], [0.0, 0.0226663, -0.00607462, 0.00219272, 0.00643438, -0.00432835, 0.0045308, 0.0014973, 0.0458289, -0.0141373, 0.0207208, 0.014582, -0.0267152, 0.0618361, -0.100438, -0.00751238, -0.0242403, 0.00154307, 0.00683928, -0.0125501, 0.0309163, -0.0446792, -0.0128029, 0.015967, 0.0165114, 0.00231844, 0.0503668, 0.270176, 0.0278773, -0.0480853, 0.0469854], [0.0, -9.11917, -1.52047, 0.569192, 7.38714, -1.60306, 1.57666, 2.36489, -15.9597, 0.21498, -0.255035, 3.16167, -5.5373, -9.48026, 10.6815, 3.3299, 3.37511, 0.71892, 3.04519, 8.95333, 0.849908, 12.9564, 0.114329, -0.40623, -3.9668, 5.41697, -1.3189, -32.9107, -0.201721, 2.11569, -14.5795], [0.0, 134.812, 6.52051, -1.83969, -8.99576, 2.62357, -3.18089, -1.55882, 20.1564, 1.76285, -14.0167, -11.0352, 11.3191, -16.5661, 71.0241, 5.482, 0.803198, -4.27916, 4.35625, 17.574, 28.2481, 39.8903, 11.2875, -5.94569, -6.92574, 9.85315, -1.50165, 120.648, -13.5103, 11.3799, -4.46845], [0.0, -0.0112923, -0.0046652, -0.00205827, 0.000451947, 0.00189298, -0.00519299, 0.0040197, -0.0194316, 0.00372537, -0.00538785, -0.0130929, 0.00764501, -0.00293407, 0.0761199, -0.00170242, 0.010638, 0.00500154, -0.00240455, 0.0230908, 0.0125999, -0.0825004, -0.00697808, -0.0156345, -0.0148759, -0.0218751, -0.0327162, -0.0179449, 0.00717564, 0.0438981, -0.00419367], [0.0, -9.48077, -4.36091, 0.801087, -3.52901, -0.577391, 0.945267, -0.566259, 16.0297, -3.66443, 5.77253, 2.0469, 0.266721, 26.5931, -33.7624, -2.48182, -3.73006, -0.0892956, -4.53719, -19.0074, -8.47886, -11.4561, -2.82925, 0.193031, 9.46779, -7.72396, 4.25692, 36.6836, 9.35218, 7.987, 20.432], [0.0, 130.875, 12.4533, -2.293, 0.515474, 0.676899, -6.50727, -2.25921, 13.581, 4.04063, -13.2201, -9.22167, 8.64801, -22.2164, 83.8417, 9.25534, 3.74685, -2.68391, 3.99405, 22.6885, 25.8237, 54.7515, 6.91891, -4.25375, -4.60127, 14.1913, 2.96792, 106.476, -13.1283, 14.8013, -0.865144], [0.0, 0.0320652, 0.016603, -0.000313549, -0.0138325, -0.00100409, -0.00335613, -0.0036012, 0.0622155, 0.00790927, 0.00524014, -0.0129434, 0.00641087, 0.0250735, -0.042041, -0.000689747, -0.00789375, -0.0105148, -0.00943102, -0.0160233, 0.00632846, -0.0922969, 0.0139942, -0.00668764, -0.0261246, -0.00924254, -0.0164182, 0.0962294, -0.0202137, 0.00087799, -0.00640351], [0.0, -22.8289, -6.44344, 0.306095, 4.32916, 1.30212, 1.56192, -0.990809, -13.0456, -1.8068, -0.221879, 2.65343, 1.13701, -9.77768, 1.64874, -6.44745, 2.0485, 3.7281, -0.208188, 3.21825, 0.940236, -22.5527, -2.57155, 1.27329, -2.6317, -4.80406, -3.08643, -22.6858, -2.21686, -3.48543, -1.54962], [0.0, -139.773, -9.77879, 1.46385, 2.08637, 0.190994, 4.88702, 1.35819, -18.2595, -3.91637, 11.7023, 9.67335, -9.67724, 16.2609, -77.297, -6.76676, -2.3521, 5.42927, -1.12564, -18.1164, -27.8629, -39.2662, -8.07581, 7.44217, 5.24783, -11.1224, 3.06435, -134.137, 9.15438, -19.5118, -1.00696], [0.0, 0.0234773, 0.00553498, 0.00203711, 0.000826336, -0.00421132, -0.000745064, -0.00117839, 0.108945, -0.00713661, 0.0171276, -0.00511841, -0.0208614, 0.106818, -0.121765, 0.00528037, -0.0124109, 0.00100719, -0.00448409, -0.0307902, 0.0232287, -0.27898, -0.0196323, 0.0103664, 0.00105825, -0.0215084, 0.026863, 0.340512, 0.0429568, 0.00399962, 0.0711367], [0.0, -3.37824, -0.627624, 0.0979365, -2.74561, 0.170561, -0.138853, -1.362, 7.27016, -0.480738, 1.14165, 0.322244, 3.98578, 10.5387, -3.16467, -1.69247, -1.42016, 0.886702, -5.48402, -6.32365, -2.52444, -36.069, -3.97904, 0.574235, -2.66377, -7.55004, -3.55723, 23.7457, 4.03174, 8.97128, 9.48959], [0.0, -124.611, -3.80129, 0.262214, 19.9672, -3.14292, -2.9265, 1.75092, -34.0618, 2.28206, 8.26263, 13.6691, -15.446, -9.50867, -40.6236, 3.68049, 1.14361, 2.65306, 6.13839, -6.54747, -21.4546, 71.2609, -5.09252, 5.66599, 15.2004, 8.28226, 13.9975, -184.179, 6.7656, -24.473, -15.6521]], "energy descriptor": [[1.0, 109.7516227272727, 4.282546818181817, -0.15903196818181817, 5.130362272727273, -0.8334733090909091, 0.287143, 0.6261165454545453, 65.00649999999997, -1.7722386363636362, 6.441210454545455, 3.1532727272727272, 14.399822727272728, 30.370145454545458, 27.53580454545455, -0.7618992272727272, 1.4033855909090907, 3.6931127272727267, 6.503381818181818, 4.401350909090909, 11.51459, 15.818000000000001, -0.9817845454545453, 0.6655565954545453, 10.09997909090909, 2.196061363636363, 3.3317840909090917, 114.34660909090911, 3.228692272727273, 13.818445454545452, 16.070136363636365]], "stress descriptor": [[0.0, 15153.413125880552, 318.88266466516717, -118.04948690785416, -1041.3993525312183, 336.1252614170088, -235.6709162905085, -301.61059777971934, 3425.3310505708005, -220.72010604073466, -1363.792987681432, -1133.4013758037158, 1846.5871710409383, -9.995622363493636, 5973.410877703138, 56.66112221346461, 147.83925963116042, -275.96392384066644, -425.7129406171293, 1419.6005794619787, 2662.0184192692595, -2166.3986039189476, 555.5515294658402, -526.5192263984604, -1180.1121900189937, -22.94651970632547, -842.4195309413763, 18312.65586081399, -1045.2260630012665, 2157.480941031945, 1551.5035222101624], [0.0, 15189.525291447611, 340.2118255284259, -122.96445182765764, -990.8885897399226, 334.607710931817, -276.9752052225874, -299.6946957006311, 3247.251798912575, -204.98026404088392, -1380.0188357497857, -1116.861726327937, 1900.1304112670696, -253.03970601793938, 6424.51616269411, 35.000071283285976, 155.49425515044558, -252.6869595302004, -463.06933966626775, 1568.819543617884, 2861.5917986071527, -2445.1840761413887, 587.2976625745491, -545.1918263000358, -1313.1184344753078, -11.286678858284542, -950.003089194229, 18074.87471538068, -1103.4358838889887, 2149.254829295386, 1427.339322539844], [0.0, 13325.465602585275, 407.1505795731364, -111.94959048227311, -997.9800040374878, 267.0229192708982, -189.07669602415854, -203.4666328339281, 2720.4648620018907, -118.3007465243989, -1162.5486199468419, -1024.6119575113785, 1459.3929976572906, -335.87866510056176, 5638.969182086231, 160.08572394350455, 127.91938514399634, -280.2733442479066, -253.3874206285971, 1222.3469870304207, 2368.1665043532903, -1337.4408779993514, 591.2178954479275, -468.7078944625166, -994.6058374244224, 215.70890132083346, -716.2521107863147, 15448.834835352172, -973.8642313119074, 1865.505723966213, 1027.1767130432577], [0.0, 88.36376781669904, 3.1383597582572413, 6.063637653367827, -62.56347740089457, -39.54103724597134, 13.744199091603846, 61.111137570232586, 288.3471629509074, -17.569009444283004, 43.09674519322015, -13.08553439422335, -85.1937759117716, 345.95763622691743, -364.0654640139346, 87.95066398626457, -30.692387537535257, -67.10410157138337, 38.78842135973885, -113.08643299352534, -55.6592406892759, 281.5000760465073, 24.5430628780783, -21.963972906551838, 95.65379016529931, 41.7971793776328, 112.25607254602068, 454.7924741922714, 100.70618851404419, 82.33283878372356, 52.26342189539474], [0.0, -0.21308568627432967, -0.1716457747480551, -0.014810245061120456, 0.23701583310017135, 0.0039495358882276725, 0.012373998816581744, 0.16302292766201332, -1.9214696519095775, -0.04233882729273829, -0.10735260219165149, 0.06441333781026613, -0.17578049882223618, -1.0789415853483568, 2.931448423248465, 0.07137037718106451, 0.2241092973168042, 0.10632655941600025, 0.25760154442653005, 0.7474949783507749, 0.5685767218556649, 0.5959091776353215, -0.1405162961152734, 0.012484595262517145, -0.2188081530007568, 0.004612786736362007, -0.09217599847667528, -0.9216826064931671, 0.16695752130196578, 0.653071500446203, -0.5248214600826467], [0.0, -0.4075803723862468, -0.044390816693523266, -0.03247556069514422, -0.16704662078149213, 0.07835962697521674, -0.09484841511654979, -0.110225625439746, 0.8824705940286939, 0.07657214306940782, -0.11835549966550452, -0.17144047050026684, 0.5519109572404299, 0.19279050976160583, -0.8696887563093001, 0.01640293488642053, -0.08375689891575792, 0.019135166305356326, -0.21349434886657576, -0.1235445095851962, -0.9682850682324428, -0.811957467389856, -0.006079482755002072, -0.14186356403401826, -0.3850409741167305, -0.4117911194695776, -0.46387588225701526, -2.1025274863482952, -0.20645993122219092, 0.4897962303296748, -0.989717957189672]]}}}, {"group": "Surface", "description": "Mo_surface_mp/Mo_mp-129_(3_2_0)", "structure": {"@module": "pymatgen.core.structure", "sites": [{"abc": [0.0, 0.381432, 0.457168], "xyz": [0.0, 4.357039376904, 10.444320234592002], "species": [{"occu": 1, "element": "Mo"}], "label": "Mo"}, {"abc": [0.0, 0.151757, 0.386184], "xyz": [0.0, 1.7334969921790002, 8.822641491696002], "species": [{"occu": 1, "element": "Mo"}], "label": "Mo"}, {"abc": [0.0, 0.765818, 0.419756], "xyz": [0.0, 8.747821843846001, 9.589617130664001], "species": [{"occu": 1, "element": "Mo"}], "label": "Mo"}, {"abc": [0.0, 0.538932, 0.346416], "xyz": [0.0, 6.156137779404, 7.914113932704001], "species": [{"occu": 1, "element": "Mo"}], "label": "Mo"}, {"abc": [0.0, 0.307573, 0.268368], "xyz": [0.0, 3.5133593203310003, 6.131053207392], "species": [{"occu": 1, "element": "Mo"}], "label": "Mo"}, {"abc": [0.0, 0.074669, 0.192661], "xyz": [0.0, 0.8529325626430001, 4.401474251734], "species": [{"occu": 1, "element": "Mo"}], "label": "Mo"}, {"abc": [0.0, 0.924156, 0.30941], "xyz": [0.0, 10.556492592132, 7.068686180540001], "species": [{"occu": 1, "element": "Mo"}], "label": "Mo"}, {"abc": [0.0, 0.691992, 0.231305], "xyz": [0.0, 7.904518741224001, 5.284323250670001], "species": [{"occu": 1, "element": "Mo"}], "label": "Mo"}, {"abc": [0.0, 0.459941, 0.153422], "xyz": [0.0, 5.253835672027, 3.5050320648680002], "species": [{"occu": 1, "element": "Mo"}], "label": "Mo"}, {"abc": [0.0, 0.233129, 0.078267], "xyz": [0.0, 2.662996898263, 1.7880639322980003], "species": [{"occu": 1, "element": "Mo"}], "label": "Mo"}, {"abc": [0.0, 0.987905, 0.008099], "xyz": [0.0, 11.284687665535001, 0.18502727570600003], "species": [{"occu": 1, "element": "Mo"}], "label": "Mo"}, {"abc": [0.0, 0.845214, 0.117053], "xyz": [0.0, 9.654750204258, 2.674157019782], "species": [{"occu": 1, "element": "Mo"}], "label": "Mo"}, {"abc": [0.0, 0.616996, 0.04263], "xyz": [0.0, 7.047850907612, 0.9739119352200001], "species": [{"occu": 1, "element": "Mo"}], "label": "Mo"}, {"abc": [0.5, 0.347092, 0.36372], "xyz": [1.5845605, 3.9647788109240003, 8.309435821680001], "species": [{"occu": 1, "element": "Mo"}], "label": "Mo"}, {"abc": [0.5, 0.117641, 0.288114], "xyz": [1.5845605, 1.343795143927, 6.582164281116], "species": [{"occu": 1, "element": "Mo"}], "label": "Mo"}, {"abc": [0.5, 0.732358, 0.327337], "xyz": [1.5845605, 8.365613383226, 7.4782409368780005], "species": [{"occu": 1, "element": "Mo"}], "label": "Mo"}, {"abc": [0.5, 0.50031, 0.249462], "xyz": [1.5845605, 5.71496458257, 5.6991325166280005], "species": [{"occu": 1, "element": "Mo"}], "label": "Mo"}, {"abc": [0.5, 0.268159, 0.17136], "xyz": [1.5845605, 3.063139228673, 3.9148381238400005], "species": [{"occu": 1, "element": "Mo"}], "label": "Mo"}, {"abc": [0.5, 0.040547, 0.094589], "xyz": [1.5845605, 0.46316217730900006, 2.1609513497660005], "species": [{"occu": 1, "element": "Mo"}], "label": "Mo"}, {"abc": [0.5, 0.884735, 0.212401], "xyz": [1.5845605, 10.106192540545, 4.852448251294001], "species": [{"occu": 1, "element": "Mo"}], "label": "Mo"}, {"abc": [0.5, 0.653371, 0.13435], "xyz": [1.5845605, 7.463356967237001, 3.0693189889], "species": [{"occu": 1, "element": "Mo"}], "label": "Mo"}, {"abc": [0.5, 0.426481, 0.061004], "xyz": [1.5845605, 4.8716272114070005, 1.393678716776], "species": [{"occu": 1, "element": "Mo"}], "label": "Mo"}, {"abc": [0.5, 0.204411, 0.472681], "xyz": [1.5845605, 2.3349555781170004, 10.798725485614002], "species": [{"occu": 1, "element": "Mo"}], "label": "Mo"}, {"abc": [0.5, 0.959172, 0.402504], "xyz": [1.5845605, 10.956475002684002, 9.195483217776], "species": [{"occu": 1, "element": "Mo"}], "label": "Mo"}, {"abc": [0.5, 0.810892, 0.023605], "xyz": [1.5845605, 9.262695249524, 0.5392726068700001], "species": [{"occu": 1, "element": "Mo"}], "label": "Mo"}, {"abc": [0.5, 0.575316, 0.438134], "xyz": [1.5845605, 6.571746644652001, 10.009475294996001], "species": [{"occu": 1, "element": "Mo"}], "label": "Mo"}], "lattice": {"beta": 90.0, "c": 22.845694, "a": 3.169121, "gamma": 90.0, "matrix": [[3.169121, 0.0, 0.0], [0.0, 11.422847, 0.0], [0.0, 0.0, 22.845694]], "volume": 827.0229025712501, "alpha": 90.0, "b": 11.422847}, "@class": "Structure"}, "data": {"forces": [[0.0, -0.02988785, -0.00096989], [0.0, 0.00967684, 0.07619263], [0.0, 0.02853749, 0.01947144], [0.0, -0.00132177, -0.0070888], [0.0, -0.00462225, -0.03917977], [0.0, -0.00081043, 0.02218674], [0.0, -0.02070906, 0.02020859], [0.0, -0.03785874, -0.01799691], [0.0, 0.00366137, 0.04238984], [0.0, 0.00169116, -0.00299795], [0.0, 0.00134632, 0.0472979], [0.0, -0.03956036, -0.02687111], [0.0, -0.00735423, -0.01044773], [0.0, 0.03689985, 0.02813608], [0.0, 0.00059447, -0.02612882], [0.0, -0.00099583, -0.04144125], [0.0, 0.03886987, 0.01425515], [0.0, 0.02217661, -0.02533657], [0.0, -0.01083054, -0.06818686], [0.0, 0.00679993, 0.03575099], [0.0, 0.00043868, 0.00804341], [0.0, -0.02671678, -0.02008446], [0.0, 0.00017403, -0.04541982], [0.0, -0.0003752, 0.00421255], [0.0, 0.02285452, 0.005485], [0.0, 0.00732191, 0.00851961]], "energy_per_atom": -10.323330522692308, "virial_stress": [-22.95506, -20.38772, -1.4265, 0.34612, 0.0, 0.0]}, "weights": {"energy": 1368.8859, "stress": 0, "force": 1.75729569}, "optimized parameters": {"bispectrum coefficients": {"force descriptor": [[0.0, -1.99091e-05, -5.05922e-07, -4.64398e-07, 1.35298e-05, 6.72152e-08, 4.65212e-06, 2.26942e-06, -2.78576e-05, 5.99217e-06, -9.68333e-06, 1.93389e-05, -1.66404e-05, -3.51795e-05, -1.62346e-05, 1.23268e-05, -1.10546e-06, 3.08529e-07, 1.68389e-05, -7.22452e-06, -1.90204e-05, 0.000242858, 1.33077e-05, 2.23905e-05, 3.84208e-05, 4.77821e-05, 4.3153e-05, -0.00011699, -8.9991e-06, -2.52401e-05, -5.91524e-06], [0.0, 15.7988, 7.80621, -0.669912, -2.37087, -0.234583, -0.00144665, -0.335429, 5.79007, 4.86626, -3.30268, -0.641723, -3.11024, -6.81743, -3.19789, 7.4224, -1.06911, -4.57449, 4.15339, 0.326968, -2.99167, 60.6123, 6.99372, 2.90088, 4.95057, 14.1955, 13.1067, -10.8543, -4.15355, -8.25998, -11.3306], [0.0, 145.29, 10.257, -1.1297, -13.7778, 1.25049, -0.996017, -2.18412, 27.7647, 3.61949, -11.3301, -14.3193, 14.878, -5.54433, 66.5453, -0.538484, 1.27166, -5.17523, -3.81024, 13.4349, 25.7525, -14.4848, 8.81775, -8.6173, -10.3242, 1.11555, -10.0579, 173.9, -9.22005, 24.9224, 6.87356], [0.0, -3.21959e-05, -4.54924e-06, -1.11516e-06, 2.14859e-05, 1.16282e-06, 4.37368e-06, 1.07746e-06, -4.30355e-05, 1.04847e-05, -1.33597e-05, 2.41097e-05, -1.64298e-05, -5.97382e-05, -2.59934e-05, 3.71525e-06, 1.22765e-06, 1.68033e-06, 1.80756e-05, -1.42102e-06, -2.01677e-05, 0.000382169, 1.91669e-05, 1.47548e-05, 6.01668e-05, 6.08134e-05, 4.89849e-05, -0.000195903, -1.58317e-05, -5.49178e-05, 5.21774e-06], [0.0, -37.7619, -8.92013, -0.459729, 9.03471, 0.464527, -2.03608, 0.917133, -12.1242, -3.12841, 0.628987, 4.57713, -1.94207, -5.26886, -7.83644, -1.03413, 1.65691, 2.60992, 3.80857, 1.89477, -1.13462, 29.0433, -0.494574, 0.38018, 4.15662, 1.02183, 0.446142, -68.3639, 0.593041, -11.9178, -3.80678], [0.0, 81.4327, -3.30295, 0.359964, -13.5546, 2.55857, 2.82852, -0.896767, 27.7563, -7.22237, -2.90496, -6.89112, 13.986, 21.4681, 11.6819, -5.36093, -0.825596, 1.10255, -10.223, -2.00016, 8.67218, -103.666, -3.88851, -1.14748, -14.7542, -15.885, -15.8026, 153.048, 0.415882, 24.3435, 23.1125], [0.0, -2.0123e-05, -1.27942e-06, -1.15526e-06, 1.45009e-05, 3.08575e-07, 4.59022e-06, 1.47809e-06, -2.98887e-05, 7.27912e-06, -1.0892e-05, 1.82495e-05, -1.26219e-05, -4.03226e-05, -1.88171e-05, 8.03703e-06, 6.30973e-07, -7.71343e-07, 1.3993e-05, -4.32002e-06, -1.66788e-05, 0.000252589, 1.01156e-05, 2.19966e-05, 4.04668e-05, 4.76837e-05, 3.61039e-05, -0.000119714, -1.23204e-05, -3.51045e-05, 8.75647e-07], [0.0, 24.3355, 3.50499, -0.791801, -2.23003, 0.21985, -0.569919, 0.179162, 2.46253, 1.4808, -2.04803, -2.60692, 1.10379, -3.62646, 13.5178, 0.713478, 0.0473204, -1.12032, 0.471367, 3.80986, 4.53941, 9.68481, 2.75293, -0.363547, -1.25138, 2.12721, 0.203009, 18.6027, -1.66016, 2.25141, -2.32511], [0.0, 141.562, 10.384, -2.12321, -13.6165, 1.7222, -2.16757, -1.43542, 28.2159, 2.84097, -11.1907, -14.1231, 13.06, -5.48325, 61.8526, 2.68094, 1.19635, -4.84885, -0.915793, 12.3182, 23.6799, 6.2597, 9.59615, -6.90993, -8.41239, 4.83956, -6.70556, 158.123, -10.4311, 19.4297, 7.57498], [0.0, -3.64101e-05, -7.34156e-06, -1.64848e-06, 2.65878e-05, 1.81186e-06, 3.11999e-06, -9.2305e-07, -5.17705e-05, 1.17569e-05, -1.37376e-05, 2.77355e-05, -1.64259e-05, -6.82421e-05, -2.0527e-05, 1.30436e-06, 1.40804e-06, 1.6323e-06, 1.94256e-05, 3.45296e-06, -1.61199e-05, 0.000435217, 1.96118e-05, 6.91783e-06, 6.56434e-05, 5.86259e-05, 5.58973e-05, -0.000247394, -1.6742e-05, -6.27343e-05, -7.25716e-06], [0.0, 4.43718, -3.35774, -0.0381163, 0.707178, 1.01286, 0.31425, -0.49464, 3.79169, -1.51121, -1.23152, 1.5876, 1.20337, 1.35167, -4.48759, -0.844009, -0.553773, 0.147738, -0.28811, 0.170947, -0.533588, 1.4541, -0.664259, 1.0945, 0.619367, -0.441832, 2.45553, 6.23183, -0.701989, -1.01819, -0.274066], [0.0, 31.0123, -11.5832, 1.58592, 1.94616, 2.52925, -0.101956, -1.11837, 8.27507, -8.82543, -2.21763, 2.22269, 7.65145, 9.4621, -1.8791, -2.62433, 0.713303, 1.70912, -5.41301, 1.57095, 6.13694, -60.352, -4.53186, 1.35945, -8.55472, -7.98855, -7.2455, 70.3179, 1.79423, 7.07166, 16.9311], [0.0, -3.6947e-05, -8.31894e-06, -2.4274e-06, 2.79517e-05, 3.04253e-06, 3.62826e-06, -1.97186e-06, -4.65691e-05, 1.24719e-05, -1.43861e-05, 2.49094e-05, -1.48697e-05, -6.72095e-05, -3.78308e-05, -5.31207e-06, 3.0122e-06, 3.12671e-06, 1.8644e-05, -7.67738e-08, -2.39686e-05, 0.000455167, 2.0266e-05, 8.50656e-06, 7.10653e-05, 6.23066e-05, 4.63346e-05, -0.00025097, -1.90896e-05, -6.74322e-05, 3.64205e-06], [0.0, -4.60933, 0.705823, -0.00295334, -0.685646, -0.025925, 0.32284, -0.1589, 0.762399, 0.865242, -0.615502, 0.605516, 0.13703, -1.01036, -1.20697, -0.657329, -0.24956, 0.408217, 0.281581, -1.51421, -0.520685, 6.32794, -0.108729, 0.807904, 1.74746, 2.10795, 1.27969, -5.87627, -1.45849, -2.32551, 1.62097], [0.0, 1.57734, 0.0891106, -0.0371474, -0.465322, -0.174615, -0.715134, 0.310641, 0.784831, -0.660859, 1.33441, -2.03614, -0.12703, 3.19706, -1.29834, 0.749478, 0.727213, -0.127689, -0.129215, 0.839624, -0.947223, -12.7675, 0.899779, -1.83069, -3.22995, -2.62366, -4.26517, 3.72106, 2.00142, 2.94414, -0.18754], [0.0, -3.61683e-05, -7.99614e-06, -2.39263e-06, 2.54573e-05, 3.04574e-06, 3.45076e-06, -1.03304e-06, -4.63169e-05, 1.19206e-05, -1.45108e-05, 2.3812e-05, -1.37583e-05, -6.72014e-05, -3.31362e-05, -4.42204e-06, 2.76797e-06, 1.75346e-06, 1.8364e-05, 2.334e-07, -2.18112e-05, 0.000441509, 2.06149e-05, 7.89789e-06, 6.76045e-05, 6.13711e-05, 4.34283e-05, -0.000240389, -2.01674e-05, -6.52835e-05, 4.3105e-06], [0.0, 3.31738, -1.37592, 0.0195512, 0.737514, 0.0089382, 0.190388, 1.21491, -2.8384, -1.15846, -1.11793, 0.595012, 0.720429, -2.17636, 0.213856, 0.957506, 0.322146, 0.257529, 0.50091, 0.622033, 0.393835, 19.5972, 0.564258, 0.196812, 2.22204, 2.46059, 0.439845, -11.4876, -0.225612, -1.91362, -0.661372], [0.0, -3.2719, 4.51901, 0.347936, 0.460067, -1.4846, 0.599587, -0.0285264, -9.36228, 0.762548, 2.60324, -1.80298, -1.8968, -1.22512, 17.1139, -0.709337, 0.083724, 1.90617, -0.736826, 3.02583, 4.80777, -27.6723, -2.35348, -0.862783, -3.24587, -4.48015, -3.96942, 9.35502, 3.93767, 5.48901, 2.35649], [0.0, -3.58074e-05, -7.44215e-06, -2.06634e-06, 2.54455e-05, 2.38978e-06, 3.4154e-06, -8.36515e-07, -4.98242e-05, 1.15404e-05, -1.43195e-05, 2.60017e-05, -1.48125e-05, -6.8014e-05, -2.13748e-05, 6.93994e-08, 1.121e-06, 1.68125e-06, 1.97542e-05, 3.61453e-06, -1.63234e-05, 0.000428122, 2.03654e-05, 8.05041e-06, 6.23453e-05, 5.77928e-05, 5.3412e-05, -0.000238955, -1.76097e-05, -6.12221e-05, -1.03498e-05], [0.0, 3.92819, 1.43272, -0.0233543, 0.357781, 0.314798, 0.312061, -0.818598, -3.52107, 1.21698, -0.249161, 0.302825, -0.23486, -3.88789, 5.50609, -1.62725, -0.0407733, 0.843451, -0.61582, 0.463385, 1.89702, -3.08381, -0.396635, 1.00715, 0.149858, 0.515736, -0.0345872, 10.5928, -0.144499, -0.519105, 8.02821], [0.0, 25.8526, -7.97498, 1.23843, 1.88484, 1.91424, 0.0985189, -1.02343, 2.07665, -6.81176, -1.38359, 2.0662, 5.06316, 4.94494, 6.4204, -1.90516, 0.408127, 1.958, -4.14019, 1.06154, 7.44331, -54.7562, -4.58388, 1.90209, -7.59002, -6.76219, -5.59246, 57.137, 1.66455, 6.69529, 12.7095], [0.0, -3.67968e-05, -8.29075e-06, -2.46294e-06, 2.67533e-05, 3.08988e-06, 3.54745e-06, -1.66756e-06, -4.55978e-05, 1.2345e-05, -1.43779e-05, 2.42318e-05, -1.43185e-05, -6.75163e-05, -3.87513e-05, -5.51778e-06, 3.01883e-06, 2.80555e-06, 1.86686e-05, -4.72806e-07, -2.40236e-05, 0.000454727, 2.10872e-05, 7.64466e-06, 7.02281e-05, 6.2036e-05, 4.51737e-05, -0.000250734, -1.99416e-05, -6.79487e-05, 3.02994e-06], [0.0, -1.50631, -0.4175, -0.0288272, -0.106607, 0.151015, 0.131414, -0.0315665, 0.886443, 0.0921073, -0.456913, 0.341233, 0.187658, -0.0375304, -2.39993, -0.140096, -0.128447, 0.18682, 0.129071, -0.0883657, -1.05022, 7.29509, 0.0861246, 0.256704, 1.48372, 0.792449, 1.22421, -4.87421, -0.592653, -1.48108, -1.34909], [0.0, 1.91281, -0.0903415, -0.0163308, 0.184513, -0.00599262, -0.15205, -0.00424831, -0.188027, -0.528903, 0.334682, -0.26469, 0.415487, 0.352876, 1.12066, 0.4747, 0.019512, -0.343691, -0.487512, -0.00313007, 0.734289, -6.18143, 0.0683739, -0.335154, -1.7208, -1.17714, -1.45198, 1.65614, 0.597027, 1.71099, -0.708995], [0.0, -3.62895e-05, -7.26263e-06, -1.69854e-06, 2.63698e-05, 1.81272e-06, 3.35393e-06, -8.21497e-07, -5.08452e-05, 1.1704e-05, -1.38544e-05, 2.75342e-05, -1.64965e-05, -6.72845e-05, -2.21081e-05, 1.49451e-06, 1.25048e-06, 1.70399e-06, 1.96993e-05, 3.31088e-06, -1.66319e-05, 0.00043623, 1.96924e-05, 7.62211e-06, 6.49649e-05, 5.91328e-05, 5.60146e-05, -0.000245871, -1.70531e-05, -6.28797e-05, -7.70411e-06], [0.0, -7.48928, 1.27287, -0.392719, 0.641603, -0.389048, -0.367113, 0.410586, -2.44576, 1.5711, 0.661132, -0.38979, -2.4368, -2.17216, -1.84589, 0.707272, 0.201803, -0.334508, 2.25653, 0.30732, -2.94737, 22.1881, 1.75345, -0.788019, 2.52202, 2.04584, 2.02327, -22.5144, -0.124893, -2.18217, -5.55223], [0.0, -27.8615, 11.6776, -1.299, -1.90853, -2.86949, -0.494009, 1.15737, -6.46906, 8.35407, 3.62487, -3.22724, -8.4676, -6.28133, 2.30759, 3.12761, -0.751301, -2.4051, 5.34078, -0.973801, -4.52208, 41.3512, 3.9888, -2.17494, 4.84094, 5.28549, 5.41706, -52.2695, -0.0682093, -3.69491, -14.2694], [0.0, -2.17361e-05, -2.38375e-06, -1.29098e-06, 1.63745e-05, 7.81833e-07, 4.19976e-06, 2.87168e-07, -3.31519e-05, 7.82268e-06, -1.09998e-05, 1.87771e-05, -1.12874e-05, -4.54965e-05, -1.57495e-05, 4.7143e-06, 2.70771e-07, 2.81486e-07, 1.38295e-05, 7.37588e-07, -1.3876e-05, 0.000264029, 1.05582e-05, 1.87279e-05, 3.95388e-05, 4.38884e-05, 3.99738e-05, -0.000133758, -1.22443e-05, -4.03391e-05, -6.87923e-06], [0.0, 7.29155, -3.97846, 0.685277, -2.77172, 0.48913, 1.20855, -1.61425, 13.8714, -2.90141, 0.5143, 0.973455, 2.92023, 12.5278, -17.0369, -0.451552, -2.45786, -0.305354, -2.66275, -10.4037, -2.15007, 3.18347, -1.344, 1.28959, 5.471, -1.56758, 2.39463, 23.3125, 2.42018, -1.45343, 14.7219], [0.0, -128.336, -6.55119, 1.84976, 13.2693, -2.90347, 1.37952, 1.8234, -27.1617, -2.13269, 12.194, 12.1094, -12.2758, 7.50212, -52.0498, -1.09405, -1.2489, 4.79849, -0.977472, -11.1845, -22.1629, -11.4346, -11.0444, 6.31121, 7.04168, -7.0841, 5.57169, -137.214, 12.4837, -12.1741, -4.51624], [0.0, -1.31487e-05, 1.97943e-07, 2.80248e-07, 1.26327e-05, -1.09606e-07, 4.22448e-06, 6.90295e-07, -1.56251e-05, 3.85279e-06, -6.22989e-06, 1.51141e-05, -1.4717e-05, -1.61897e-05, -1.28608e-05, 9.96764e-06, -1.27889e-06, 3.8561e-06, 1.14474e-05, -5.25744e-06, -1.32856e-05, 0.000139696, 1.0344e-05, 1.85594e-05, 2.80073e-05, 3.10703e-05, 3.83371e-05, -3.82525e-05, 3.24031e-06, -3.34236e-06, 9.67127e-07], [0.0, 35.954, 8.3704, -1.82831, 3.53187, 0.899343, -3.28067, -0.0195532, -14.3179, 4.5244, -7.30828, -3.01622, -0.221463, -29.1467, 48.9884, 4.69154, 3.40443, -0.417835, 5.29502, 21.1593, 13.8263, 34.4327, 6.74136, 0.601708, -7.24588, 10.6958, 1.83238, -11.5664, -8.11433, -4.3521, -19.4833], [0.0, -129.868, -11.9942, 2.48514, 5.80227, -1.66107, 5.18601, 2.19204, -15.6683, -2.76807, 13.4238, 10.9922, -11.1956, 20.2537, -81.8201, -8.66304, -2.108, 2.82133, -3.40971, -20.8545, -26.719, -42.3844, -7.62991, 3.94723, 7.98641, -10.2831, -1.42324, -102.973, 14.7249, -11.9523, 4.17598], [0.0, -3.6091e-05, -7.00871e-06, -1.46575e-06, 2.48269e-05, 1.45401e-06, 2.94685e-06, -1.66689e-07, -5.44297e-05, 1.1185e-05, -1.35209e-05, 2.71838e-05, -1.60378e-05, 