# Neural networks weights generated in PyXtal_FF 
# total_species nparams 
1 541 

# NET ndescriptors nlayers activation_func for layer 1, number of nodes for layer 1, ..., ..., ...., 
NET 30 3 tanh 12 tanh 12 linear 1 

# Scale0 
    27.5044113490885      0.0000231927987     -2.7794947607182      2.0127188870576     -5.6931199345794 
    -5.3512428565099     -2.7032459700143     11.0688842435704     -6.6083857887065     -5.3720337828579 
    -0.6381813953800      0.1160800431134      1.0048022244088     25.7960308030662     -4.9081426536666 
    -1.2247223989103     -0.1899397905172      5.9901108466303     -1.4763262035507      3.8370087695539 
    22.7445655914480     -5.1447131487505     -2.0109553508872      3.5773355020465     -0.0962313585731 
     0.9341151890502     23.7410389452925     -3.6478792516615      1.3764942261771     -0.7898661504241 

# Scale1 
   272.3256616792672     18.4132584031954      5.1650476265954     32.9655164702493      8.6848341902428 
    11.4255854303038     12.6012342151183     77.0744039747520     12.3560371755877     14.6800359588283 
    11.8059238695187     18.4466110725879     30.0460607034814    144.3070081029436     15.7964174378799 
    14.9030246414363     13.0736645589684     13.1622875584920     43.4867058119536     39.6531009390502 
   165.6748740672574     16.9944908181793     20.7183677230469     17.5835860777735     32.2360716248913 
    33.9443658682333    162.1181650759409     15.3970697399297     27.7279829528339     31.2349919130139 

# Coefficients (Si)
  -0.7454188039276   -0.1839188961453   -0.0137051733284   -0.6142234101596   -0.1872411096708 
   0.5045912004990    0.2398196860618    0.6634237531873   -0.3337525428102    0.2448795971158 
  -0.1679421905394    0.2431230728982   -0.1070570148515   -0.1242578762800   -0.2362253857766 
  -0.3008168362410   -0.0173187603240    0.0858386577193   -0.0109339371504   -0.9736418855015 
  -0.4977735037043    0.1312381460510   -0.3251618725497    0.6796182175638   -0.2130865660520 
  -0.6651780391404   -0.1506944366337   -0.5101306960095   -0.1586785423741   -0.4327811074380 
  -0.4483602649961    0.6498223560281    0.3497316085372   -0.1313766487097   -0.1270450978623 
  -0.4016626007704   -0.3164441316601   -0.6296125403124   -0.4102973995930   -0.2349203375339 
  -0.2709412609108   -0.5494959974590   -0.2311251882316   -0.5431335667473   -0.2741723158708 
  -0.1528355090796   -0.1131961628912   -0.0090828594467    0.0214664074590    0.0069803600575 
  -0.2761701032285    0.2902887920029   -0.1082965217796   -0.0615493392063   -0.0548820487160 
   0.1755073172199    0.0059170992591    0.2390819064064    0.1050916501456    0.2687876475326 
  -0.0205439807256    0.0325646255143    0.5648230609804    0.1243732652135    0.0467334726768 
   0.2668767853572    0.2637738946042    0.0774627871652    0.2311063550516    0.2513359639616 
   0.2393466771831    0.1348382222685    0.1517069649987    0.1266340014869    0.3817718776873 
   0.1432970555599    0.0073264977385    0.0827908983302    0.1454679408451    0.0666528853077 
   0.1551523790442    0.3113374452225    0.0629358946180    0.2765560517565    0.0475540769298 
   0.2209244066557    0.2807596421005    0.3158141060311    0.0736387637207    0.1066797325253 
   0.1309892904383    0.1657986319400    0.2159439085233   -0.1000708941231    0.0129614334327 
   0.1517975272034    0.2158755792137   -0.2117657477548    0.1566008638724   -0.0005443687929 
  -0.1505218337836    0.1923393119553    0.2349628270652    0.1505342512882    0.4191175829669 
   0.1891573151378    0.2692396179100    0.0461434302737    0.0465364477058   -0.1204341874792 
   0.2167789166611    0.2805678101231    0.0953166982280    0.0272215041498   -0.0871983563245 
   0.0146913775576    0.2069191371581    0.0925289580967    0.0389081710169   -0.0477269625264 
   0.0678568756939   -0.0810165849177   -0.0364082643692    0.0513650431837    0.9446876102095 
  -0.2455911325887    0.1536924347891    0.0551430384199   -0.2295828428277   -0.5071138822256 
  -0.2610489989143   -0.7344723064214   -0.5480606347291   -0.1880994093499   -0.3702598324881 
   0.0896653221184   -0.1847194471469   -0.0071596653389   -0.4985933241660    0.0800926919880 
  -0.2589542151371   -0.0167968843681    0.6313577203312    0.6112032747545    0.2774506902060 
  -0.2068053653084   -0.1783016447396   -0.1242965092004    0.0942262307024    0.5242884082056 
   0.0984537460855    0.0048738620605   -0.0502778566365   -0.0297740142417    0.2055850519766 
  -0.1228799967478   -0.0722077068023    0.0324035045405    0.0322286496350    0.2677266453705 
   0.0259708883179    0.1376683390021    0.3575330480335    0.0486057979202   -0.0295848264713 
   0.0591576561807   -0.0059892453189    0.3869678557834   -0.0810734045287   -0.0925987335815 
   0.0222386556784    0.1313131393122    0.0993194784301    0.1423301991545    0.1479027648637 
   0.2496328644919   -0.1542446394402   -0.0519159814215    0.1209382436561   -0.1438046400608 
   0.2822871154343   -0.1445303573688   -0.0721639451711   -0.1265219391135    0.0761793113091 
  -0.0500216999612   -0.5506392155240    0.2413853020481    0.1061048707060    0.2544162037292 
  -0.4214427725497    0.3006980333667   -0.2123577431497    0.0929995419184    0.0706972389499 
   0.0727793910724    0.2191918331699    0.4711202198391   -0.0057570387176   -0.0338664866937 
   0.6370685909423    0.0506059620918    0.2397852656652   -0.0345080180968    0.2518968514493 
  -0.3093280135676    0.0960496064944    0.3367634666866   -0.0281336011556    0.1436647837254 
   0.1176426199848   -0.1040354366233   -0.0753527135320    0.1901723857157    0.1376225776609 
   0.0224457899386    0.2058758029235   -0.6082388268458   -0.2771002399959   -0.0200240495995 
  -0.3801115041556    0.0317918550570   -0.2194434755667   -0.2737505009206   -0.1028398653526 
  -0.2724918736491   -0.2207768187006   -0.2408709185298   -0.1903012192761   -0.5040323820253 
  -0.1429442173279    0.0596233061052    0.0576786661339   -0.1004546994994   -0.1615974967387 
  -0.3654181755636   -0.2361896242954   -0.1141268533609   -0.2873891802827    0.0062183232235 
  -0.0351944412537   -0.2251344257929   -0.5745719373009   -0.0646859026856   -0.2381154158967 
  -0.1414415738136   -0.1638946325748   -0.1157001151833    1.0792533448728   -0.1644339176842 
  -0.0496179467228   -0.1420736848097    0.1897205390781   -0.5361767050902   -0.1033308338747 
   0.0451970135908    0.0650313443215   -0.5302691904707   -0.7896311581943   -0.4032366313812 
   0.4561410380774    0.3460843010175   -0.6935758137688   -0.3179693429844    0.0894995776762 
  -0.1957533051010   -0.0862468674803   -0.0886368973368    0.2138118733966   -0.0343333625013 
   0.1338680649686    0.4957234614755    0.3654431975494    0.4619505172164    0.0850140326196 
  -0.0975216125168   -0.4401622051551   -0.0389015406637   -0.2194077486989    0.7255234530215 
  -0.3265112569553    0.3291905200724   -0.0427887600004   -0.1065518529728   -0.3118499049640 
  -0.3041628181473   -0.2295886133137   -0.6509092475451   -0.2478470560530   -0.0577650949648 
   0.2848743087135    0.5679271833878    0.0557194715984   -0.5690714846100   -0.1551193442900 
   0.2190397018897   -0.0626518856848    0.3998436020640    0.6781902001651    0.3739425899558 
  -0.6046243385806   -0.1070915581676    0.2970244782981   -0.0748434415816    0.3715795384411 
  -0.2427560244703   -0.2159508089969   -0.0194623127203    0.1475926427721   -0.1600590384412 
   0.7541476533569   -0.1610491329907   -0.2578549325538   -0.0778959958934   -0.3323831103548 
  -0.4147273482627    0.2810839199909   -0.1110257588535   -0.4266060504225   -0.3258980311916 
  -0.2835161406372    0.0065403295075   -0.0635268810690   -0.1648490054138   -0.2591443912921 
   0.1334092055370   -0.2200747380936    0.0325239736418   -0.0926055517892    0.0825774828236 
  -0.1113665965007   -0.1985057119400   -0.0415119850404   -0.4661911903396   -0.4532947226131 
   0.1277253920981    0.0516142576761   -0.0269157176322   -0.2130726589498    0.2846535046854 
   0.1140630615757   -0.0258258102763   -0.2080232204653    0.1877690472685    0.1707130504008 
   0.5597937949373   -0.2637658205566   -0.1806508873379   -0.0017634960479   -0.3668848842817 
  -0.3414197746964   -1.1884869805255   -0.0327137177458   -0.1847381870072   -0.3422005721155 
  -0.5564430169529   -0.2358087691303   -0.6053797822690   -0.0554511882125    0.7719691188680 
  -0.0070908633235    0.3294144858049   -1.0720584183003    0.2245169791239    0.4452024685333 
   0.3004386992527    0.7905734589748   -0.5550786001537   -0.3800266273751   -0.0902393523821 
   0.2076069026843    0.0250853463146   -0.1191548195404    0.2319856947661   -0.3369293952042 
  -0.0122639963769   -0.0601548263435    0.0300518040391    0.1549646128851   -0.0354863423629 
   0.0061905002880   -0.1958019317092   -0.0143282797215   -0.2894228170028   -0.2255896232051 
   0.0077267686079    0.2084462920160   -0.0131046554250    0.0350692512063    0.0319312932926 
   0.0383651491272   -0.1917687488402    0.1801906216488   -0.0038329028235    0.0587956441433 
   0.1269612122854   -0.1921774615749    0.1446025737556   -0.4500244722631    0.3143926512350 
  -0.4218503974658   -0.3600637116563    0.3379967080084   -0.2204064863683    0.1402469577877 
   0.4979117291102    0.2479294580395   -0.0143432538376    0.0084709406010   -0.2400196343128 
  -0.2477562774783   -0.8495987060776    0.0962966358185    0.3274244254379   -0.3652976397859 
   0.1088227525511   -0.2950370328457   -0.3186076442902   -0.2313806461664    0.0740391385015 
  -0.2975180746374   -0.2120098590800    0.0574937351133   -0.0579114613124    0.4198862716887 
  -0.5302518649323    0.4657151052792    0.0014765386765   -0.2281243393306   -0.0506874966040 
  -0.1840405225928   -0.1375351951948   -0.1639867867885    0.0701947479010   -0.0359881425263 
   0.2860743200135    0.2769439086606   -0.1990508288980    0.3157250103702    0.0019691921008 
  -0.0968718307402    0.3366549679463    0.0511880639784    0.3821194964855    0.1828676207759 
   0.2012960437255   -0.3600318032482   -0.1636937219868   -0.3356103841293   -0.0071628003104 
  -0.7642681175718    0.2792577116861   -0.2807217832791   -0.2717854538651    0.0089238432699 
  -0.2348673742992    0.3970841500735    0.4786544461198    0.2009901583717    0.0473852695950 
   0.0564740669680   -0.2514730137860   -0.2990304420128    0.0746287813395   -0.1485799174504 
   0.0867951599804    0.1870097112010    0.0007859130233    0.1212353071072    0.0953691383933 
   0.1807404835163   -0.1616517857881    0.1026046853193    0.0059940811737    0.0194463341255 
   0.2616497163954    0.1339792453614   -0.0661971887254   -0.0862961509521   -0.2449550324833 
  -0.1212040183199    0.0366375329844   -0.1376815883617   -0.0565875824278   -0.0999963890823 
  -0.0910485865176    0.1755941708711    0.0074382766122    0.2349340529267   -0.5579889488100 
   0.2014974158723   -0.1373020870406   -0.1788584129648    0.0336967655180   -0.3550415776367 
  -0.0968987287900    0.1362862390702    0.3253495062170    0.2012959065379   -0.4901965433352 
  -0.3780388333276   -0.2276471992073    0.6179883651001   -0.3804817244999    0.3989294650340 
   0.0467434442480   -0.4181583561500    0.1831028236982   -0.3601814684758   -0.1462465519159 
  -0.5600847152070    0.3791468710652   -0.1711034884216    0.0697308744307    0.3826026863107 
   0.5579742880857   -0.0541906503635   -0.2772319818376    0.2286524801954    0.1077905988181 
   0.5257796861611    0.1935002562580    0.0973697165234   -0.1165400997488    0.3352658395506 
   0.5088063725532    0.4684051944932    0.1231728271071   -2.0063026100887    0.4182198679967 
   0.1061234646328    0.8662947820743    0.8377720715209   -0.8852119340645    0.5628794931199 
   0.7990981883233   -0.1146793068360   -0.1178436163610    0.8607871757188   -1.0480030806721 
  -0.7130353756989 

