# Neural networks weights generated in PyXtal_FF 
# total_species nparams 
1 785 

# NET ndescriptors nlayers activation_func for layer 1, number of nodes for layer 1, ..., ..., ...., 
NET 30 3 tanh 16 tanh 16 linear 1 

# Scale0 
    27.5044113490885      0.0000231927987     -2.7794947607182      2.0127188870576     -5.6931199345794 
    -5.3512428565099     -2.7032459700143     11.0688842435704     -6.6083857887065     -5.3720337828579 
    -0.6381813953800      0.1160800431134      1.0048022244088     25.7960308030662     -4.9081426536666 
    -1.2247223989103     -0.1899397905172      5.9901108466303     -1.4763262035507      3.8370087695539 
    22.7445655914480     -5.1447131487505     -2.0109553508872      3.5773355020465     -0.0962313585731 
     0.9341151890502     23.7410389452925     -3.6478792516615      1.3764942261771     -0.7898661504241 

# Scale1 
   272.3256616792672     18.4132584031954      5.1650476265954     32.9655164702493      8.6848341902428 
    11.4255854303038     12.6012342151183     77.0744039747520     12.3560371755877     14.6800359588283 
    11.8059238695187     18.4466110725879     30.0460607034814    144.3070081029436     15.7964174378799 
    14.9030246414363     13.0736645589684     13.1622875584920     43.4867058119536     39.6531009390502 
   165.6748740672574     16.9944908181793     20.7183677230469     17.5835860777735     32.2360716248913 
    33.9443658682333    162.1181650759409     15.3970697399297     27.7279829528339     31.2349919130139 

# Coefficients (Si)
  -0.5192139579953   -0.3676599713112    0.2332719401953   -0.4494470893810   -0.4205558532254 
   0.5107213206549   -0.3375727418076    0.2274506044902   -0.3441112805942    0.2359339673492 
  -0.4707810666356    0.3335948527850   -0.0481368168675   -0.1146824422544   -0.2615879750824 
  -0.1680687009254    0.0712984652623    0.0135229304582   -0.3343470917826   -0.4523844264134 
   0.0100917799410   -0.7885913801580    0.1987960019481    0.7080614102512    0.1069242261701 
   0.1567963743424   -0.4955365653522   -0.1884611576116   -0.1897926301246   -0.1978368866913 
  -0.0936326564238    0.2222322085203    0.2367489799232   -0.0687948602690   -0.3087925470089 
  -0.0020550842076    0.0535412657557   -0.1300140634023   -0.0298325026185    0.5523181175593 
   0.0233873406243   -0.1215049887988   -0.1663556446932    0.2506169569701   -0.0757626473153 
  -0.2597818422572   -0.1832398238412    0.0089780920536   -0.0746146551188    0.3557418873294 
  -0.0430857105969   -0.3037087390069    0.3544897392466   -0.0971449728484   -0.1120026592532 
  -0.2049841051416   -0.2335523399426    0.5490029315380    0.1354351673988   -0.2465283245648 
  -0.1484327625726    0.2026695345290   -0.2518042572820    0.2180697436829    0.1409733059444 
  -0.1400193759162   -0.2807880319578   -0.1800891404382    0.3227028320802   -0.5676885682658 
  -0.4628385344047    0.2467762427911    1.2797196040780    0.0898457053860   -0.4481630890296 
  -0.0379362172908    0.1718346147148    0.2556525113539    0.0295828280060    0.3054607129114 
  -0.3358812712846    0.1991495052197    0.2052746267856   -0.0822790555608   -0.0019880877414 
   0.4913618448982   -0.1279742912861   -0.0785239959917   -0.3425625743262    0.3920985442189 
   0.0590362153416   -0.3193936457627   -0.2782083532468   -0.0791367357343   -0.0192519817428 
  -0.3642072926132   -0.2089709083293   -0.0425624139582   -0.0966501392524    0.1409904796799 
   0.0721024276892    0.0073737759067   -0.1273933918698    0.0245427007757   -0.2863518989272 
   0.2231214839652    0.0158421544584    0.0435845209654    0.0219215460708    0.2297275003111 
   0.0214901508668   -0.4094797916015    0.0018900888823    0.0505438726977    0.0176847480053 
   0.0419774129003   -0.1024007825004   -0.2787601604090    0.0681088877548   -0.0763965327984 
   0.0490060989580   -0.2497914635512    0.2857341757386   -0.0830648940241    0.2053606810578 
   0.1862662899040    0.2609459954770   -0.1141761488232    0.0035373436198    0.2243098970898 
  -0.0611757541604   -0.1956078990790    0.4378113724341   -0.0062648931142    0.0865759910559 
  -0.0490752608688    0.3198413237437    0.0028817702809    0.0194040540001    0.1884267840789 
  -0.1571739112065    0.0967139799796    0.0505673972705   -0.1739265762560    0.0517655958551 
  -0.0117373269893   -0.1054387324148   -0.0203359281132    0.0592164070832   -0.2378054494589 
   0.1766934446330    0.1822117308382    0.2201171234283   -0.0729393656598   -0.1736275746836 
   0.4930149130343   -0.1336740125571   -0.2724727551335    0.1818120398090   -0.3410833855545 
  -0.0885792051989    0.3202491484649    0.3973535137466   -0.4880635412835   -0.3375346261445 
   0.4389744266516    0.4057034333135    0.6476120707191    0.4583430351165   -0.1138732950835 
  -0.0115614738342    0.0344880012814   -0.0839346333960   -0.1130341725479    0.0806324771263 
  -0.1626243310231    0.4462418873636    0.0912598646880   -0.0134978456504   -0.4051590474954 
  -0.2461798367738   -0.4430868227563   -0.1566601572841   -0.0852881389398    0.2780663218416 
   0.1251130392136    0.0875773109664   -0.0140787600054    0.1558270639556   -0.1166946706915 
   0.1160305889068   -0.0576340358991    0.3837188477180    0.5146151549118    0.1328986775529 
   0.1043546794334    0.0232995239409    0.0131122856855    0.0132132276299    0.0118908067504 
   0.0214095553142    0.2125307534419   -0.0154849097720   -0.2443828787708   -0.0960076838363 
  -0.0850645245437    0.0381125039200    0.0754710376866    0.0282982006220    0.1221103741157 
   0.2262930829499    0.2205703679717   -0.0329809038100    0.1619589415757    0.0864302811542 
  -0.0157828044039   -0.1147972292154    0.6673929290969   -0.0137841394581   -0.1992814285700 
  -0.0107694351881    0.1907864395067    0.2083127383797    0.1670731267795   -0.3938138863046 
   0.1971956401933    0.3427314733732   -0.1368530840903   -0.5068250154819   -0.2538722544908 
  -0.2189369952877    0.1387967605352    0.1698795184104   -0.3940927237902    0.0459888703000 
  -0.0904547140353    0.1793090711128    0.0900486647964    0.4402450063782    0.0394660360161 
   0.2474018085550   -0.0398627315002    0.1403395453711   -0.3482019879893    0.0160312370564 
  -0.0054257758256   -0.1707042912768    0.2727915000789   -0.5066708217679   -0.2939198925622 
   0.2741093195413   -0.1365102999283   -0.1426794052455    0.0666593654238    0.6364168933784 
   0.1908262793899   -0.1733833775252   -0.1011755847415   -0.0993030191105   -0.0799401612660 
  -0.4199449163696   -0.0047501212182   -0.3538534156156   -0.7021818316906   -0.1639189361126 
   0.1585402101815    0.5621543484059   -0.3745273074664    0.4119969931644   -0.9792073128771 
  -0.4118533404308    0.4564428660038    0.4269387774339   -0.0095226068132   -0.0897871058568 
  -1.0393198355519   -0.0508587144548   -0.2921151344845    0.2799886413620    0.4710932446491 
   0.3240165847220   -0.3523746539790    0.0396674665286    0.1040425701485   -0.0604986338502 
  -0.3593276196588   -0.0264463437781    0.2742533734284   -0.1132706227278   -0.0902960151341 
  -0.1794852338358   -0.2726661487510   -0.2347129033924   -0.0914454289469   -0.2817651077109 
   0.1156840048730   -0.0170840640156    0.0344216603047   -0.0292115174271   -0.3353207826829 
   0.5659478838545    0.0298538451636   -0.1585123137742   -0.0477051269416    0.1468952765589 
   0.1919099363101    0.1119955256806   -0.0833799864670   -0.1280143542681    0.1678991312055 
  -0.3896077648346   -0.2388765109698   -0.1392935581827    0.2489857794039   -0.0400921672051 
   0.3576439868217   -0.6115519481721    0.2659222333495   -0.5162964196938   -0.2554527106259 
  -0.3883520391882    0.2146125376306    0.8794415356358    0.0150860768776   -0.0462692042156 
  -0.3104710405904   -0.1770761543879    0.2271304738846    0.7893789369572    0.1314320315644 
  -0.1810514058011   -0.1769401697081    0.0824869982151    0.6468813528813   -0.1768052156317 
   0.1429296213452   -0.4928379457137   -0.3673019448047   -0.0260627562765    0.0527887356107 
   0.5708925786391    0.3422930277709    0.2282136360472    0.3530503565356   -0.0098444775284 
   0.1283365447722   -0.0436143349003   -0.0014494082938    0.1887219930055    0.1528875147978 
   0.2413263245178    0.1193020426478   -0.2209761871458    0.0398922236610    0.0725448409164 
   0.0234853612994   -0.0160696901829    0.2453759875362    0.1591697449748    0.1617281698836 
   0.2477875775675   -0.1009826961129    0.0152559957828   -0.0330276110214   -0.1682644092484 
   0.0220334824581   -0.1829578427695   -0.0269787471820    0.0442688412763   -0.4043537195764 
  -0.1907574616987    0.0893130555519    1.1076107800518    0.4713694917216   -0.2905366036349 
  -0.0253732356636   -0.1491098198261   -0.5971421199020   -0.1868400792906   -0.2503908870052 
   0.1315371617323   -0.0817762958516    0.2400175740597   -0.2069764647450   -0.2217759059960 
  -0.2606116912328    0.2233623485374    0.2299655695711    0.3841542668806   -0.2981033080518 
  -0.7018542356889    0.0244410076719   -0.1969394019279    0.7722664258979    0.2290421756883 
  -0.6290503415165   -0.2099953145389   -0.0309869487346    0.2828010513275    0.5753114471307 
   0.2104265139324    0.1568247554396   -0.1837592693194    0.0974833261754    0.2457777831848 
   0.3009058849592    0.1714684226030   -0.1949384878570   -0.1992930655402    0.0127297072619 
  -0.0982391442157   -0.3122486266058   -0.2305385557974   -0.3781818230923    0.1101118194629 
   0.2139945019540   -0.0130403543694    0.3661545135334    0.3916599858737   -0.5195180407870 
   0.0664796907859   -0.1918989673608   -0.0932220665885   -0.1087693602160    0.0062239643538 
   0.1145351351921   -0.0190611625749   -0.3569939135030    0.0719586161596   -0.2325227076081 
   0.1349558560953   -0.1217207252423    0.1548803143844    0.0223757840667   -0.3624046571625 
  -0.1390346325939   -0.0296810328610   -0.1236247643445    0.1733807197412    0.2183179948954 
  -0.0950831093118   -0.0799034232380   -0.2108419867111    0.1850253127624   -0.4445553372661 
   0.0947389701747    0.0507407016001   -0.0582761647860   -0.1671637586113    0.2054550264876 
  -0.0095399624765    0.1246307792036   -0.2451784673863   -0.2304505534067   -0.3188410765820 
  -0.2373639438509    0.0495006462136    0.1885098607268   -0.0770343958109   -0.1246373676172 
   0.2188359711644   -0.0830620652216    0.1434069328394    0.0857016728204    0.0784456818544 
  -0.3851643037193   -0.1125976855420   -0.0832898000369    0.0934496050534   -0.2063320013252 
   0.0420092656500    0.0716835052691   -0.0815498697251    0.0586498246430    0.1950331299480 
  -0.0329674634321   -0.1648710547269    0.1567284914959    0.0385572565253   -0.0195852522908 
   0.3212143838736   -0.1656725831004   -0.2237916093593   -0.0824120777711   -0.2757398075971 
  -0.2803146888905    0.0769046351214    0.2520804521262   -0.3857168151581    0.1715952826330 
   0.0891454918037   -0.0498838548980   -0.2214344435088    0.1850324294392    0.0076413720087 
   0.0584989018315    0.5357733396244   -0.1372850147518    0.1215212352516   -0.0623387490008 
  -0.0508532186119    0.0855864364952    0.0430417796380    0.0794617121201    0.0330473035140 
  -0.0567721960065    0.0274627642910   -0.0792486011379    0.0462147087172    0.0211602803571 
  -0.0635333803399   -0.0785057364537   -0.1319971132893   -0.2271088589933    0.3143083969551 
  -0.0520621309699    0.3667699787666   -0.2198871206185    0.1519249180512    0.3091610402681 
   0.2458732974880   -0.1129980190204    0.2091483310590   -0.2087235201134    0.2016175580914 
  -0.0154760533779   -0.0064774302488   -0.2726096837054    0.2678101440513    0.1701876475583 
   0.2953453177230   -0.0576535683662   -0.2061486385548   -0.0433300161709   -0.3194732842678 
  -0.1031741596548   -0.1328023393670   -0.2549021959880    0.1956952842908   -0.0932019522120 
   0.0988160296442   -0.1971540481335   -0.2189807382761   -0.4299758582342    0.4306835535940 
  -0.1198861043993   -0.2042676312731    0.4770815726768   -0.2254383937991    0.0841150226569 
  -0.1018047807213   -0.0087016482431    0.0603163655891    0.0112658363780   -0.0418424477651 
   0.0498159650266   -0.2099200599294    0.0333659510679   -0.1710781019081    0.0060060899735 
   0.1028510624289    0.0586507364885   -0.1444632913110   -0.0706525466710    0.5793588862706 
  -0.0580139879234    0.0995877586706   -0.1823877905823    0.0876176478092   -0.0356186815949 
  -0.0576461813248    0.0129846445006    0.0744186626450   -0.1121170768750    0.1224828354808 
  -0.1607740180272    0.0425067762666    0.0397488849212    0.1018637104473   -0.0156063567431 
  -0.1469987781991   -0.3427712813701    0.1588964174531    0.2358931885133   -0.1558802334045 
   0.1291481458792    0.0045415321492   -0.0436233703398    0.0710641453867   -0.2090621095238 
   0.1286893953540    0.0917098459175    0.2152840797537   -0.0649620891701    0.0979153010809 
  -0.2014848615834    0.1131017663904    0.1243057437810    0.4525584758847   -0.1430701570232 
  -0.2254635967380    0.0970256055056    0.0026207475742   -0.1190571731198   -0.0136611366132 
  -0.1023845945250    0.2157519790464   -0.1772428043879   -0.1109266013597   -0.2910259566525 
   0.0160531218198    0.0288281673077    0.1871949455047   -0.2395307859860   -0.0909956462899 
   0.5728943544636   -0.3523960865482    0.4116888797132   -0.5390691930798    0.0886334195437 
  -0.0248604331392   -0.0020171766764   -0.0558774081478    0.4951782535773   -0.0604791514244 
   0.6451325067211   -0.4991159738453   -0.1439204844478    0.1213079985895    0.2238792852071 
  -0.0216518460853   -0.0068860745229   -0.2406012951390    0.0013368832408    0.0625627039174 
   0.0675577682665    0.2821829711549    0.0236422193113    0.0450562942531    0.0863782887548 
  -0.1363994488210   -0.1069905075538   -0.1280494541141    0.1285181095878    0.0118372068350 
   0.2264344201099   -0.1090869602052    0.1497115005000    0.2206321717231    0.1519678826023 
  -0.1942192016514   -0.3564202017089   -0.6574838066951   -0.3394765792937   -0.2994589784119 
  -0.5306541990101   -0.3220407421455    0.4126267584758   -0.3847311129754    0.2711003185705 
   0.0924670553450   -0.3704156940377   -0.9196170929064    0.1709721166486   -0.0372666176580 
  -0.2308590449518   -0.1970242480263    0.0155675166285    0.0406034822590   -0.0657521929411 
   0.2021717696677   -0.0534025616357   -0.0496082329113    0.0333867193713   -0.2017843352289 
   0.1503413075032   -0.0121720134152    0.1175665992350    0.0725775004701    0.1323832891953 
  -0.1142044543563    0.1690939678349   -0.0192969295371    0.5900406540200   -0.2194715469325 
   0.0265174296143   -0.2416929832732    0.1654771064293   -0.2612476273455   -0.2200287180320 
  -0.2172591917070    0.1847355347902   -0.0000259146632    0.1506345542007   -0.3105388259063 
   0.0010954735783   -0.0190147092032    0.2597634458017   -0.1411109430307   -0.0986664666455 
   0.2946442402263   -0.5099103008304   -0.1617759264787    0.0020365430989   -0.0012482880356 
  -0.1690697164392   -0.0665064828861   -0.1985860084953    0.3751067873680   -0.3282775022249 
   0.2018553798666   -0.4769726007533   -0.0374380447113    0.0361491993141    0.2495636697068 
  -0.1591290603529   -0.0858033992339    0.3753836629439   -0.2650137402379    0.0280758235313 
  -0.0864862985381    0.1032340484042    0.0545403178020   -0.0629811879185    0.0455296627000 
   0.1647636157818   -0.2907978258236    0.1768991277275   -0.2259823553157    0.0424724289008 
   0.0777111121053    0.0311845332822   -0.0712792257700   -0.0018452086569   -0.0608854962254 
   0.0045175793591    0.5694140627233    0.3792005431421   -0.1724378316423    0.3819468267572 
   0.5506116911441    0.4128801835529   -0.3327574909926    0.7921241978501    0.4276404240426 
  -0.1006925434708    0.5210718514630    0.9690641935462    0.1834820400527   -0.0868887851593 
  -0.0324340340959    0.1493091565118   -0.2138130601331   -0.1445206029455    0.1328875805819 
   0.0549823383152   -0.0075309361220    0.0472439931463   -0.0232627362881    0.2115588152818 
  -0.3947622845574   -0.0132087969309   -0.3040780438805   -0.0060316868718    0.0914876872533 
   0.1043132104541   -0.1396767140709   -0.1243130748411   -2.5903274099183   -0.3578438704108 
   0.7354842835913   -0.7952833122740   -0.5920454384794   -0.4334558126367    0.5038904699192 
  -0.5179306073741   -1.0389574051808    0.4945446975607   -1.0340507000489    0.4669697188260 
  -0.6675844328103   -0.8622803102353   -0.5119715540512    1.3071410325836   -0.6057861610614 

