# Neural networks weights generated in PyXtal_FF 
# total_species nparams 
1 785 

# NET ndescriptors nlayers activation_func for layer 1, number of nodes for layer 1, ..., ..., ...., 
NET 30 3 tanh 16 tanh 16 linear 1 

# Scale0 
    27.5044113490885      0.0000231927987     -2.7794947607182      2.0127188870576     -5.6931199345794 
    -5.3512428565099     -2.7032459700143     11.0688842435704     -6.6083857887065     -5.3720337828579 
    -0.6381813953800      0.1160800431134      1.0048022244088     25.7960308030662     -4.9081426536666 
    -1.2247223989103     -0.1899397905172      5.9901108466303     -1.4763262035507      3.8370087695539 
    22.7445655914480     -5.1447131487505     -2.0109553508872      3.5773355020465     -0.0962313585731 
     0.9341151890502     23.7410389452925     -3.6478792516615      1.3764942261771     -0.7898661504241 

# Scale1 
   272.3256616792672     18.4132584031954      5.1650476265954     32.9655164702493      8.6848341902428 
    11.4255854303038     12.6012342151183     77.0744039747520     12.3560371755877     14.6800359588283 
    11.8059238695187     18.4466110725879     30.0460607034814    144.3070081029436     15.7964174378799 
    14.9030246414363     13.0736645589684     13.1622875584920     43.4867058119536     39.6531009390502 
   165.6748740672574     16.9944908181793     20.7183677230469     17.5835860777735     32.2360716248913 
    33.9443658682333    162.1181650759409     15.3970697399297     27.7279829528339     31.2349919130139 

# Coefficients (Si)
  -0.5138719996531   -0.3812871357577    0.1517357680331   -0.4258326932518   -0.4357893049755 
   0.5300691667431   -0.2959398357644    0.1490706183968   -0.3492360919624    0.2661972920571 
  -0.4401348431679    0.3546529249869   -0.0249270724157   -0.1789079620491   -0.2273211660176 
  -0.1350462652782   -0.0154895828407   -0.0558742987301   -0.3584537978718   -0.4643428170709 
   0.0700384258665   -0.7750510113040    0.2107608048786    0.7598599442873    0.1355534222339 
   0.1461792492998   -0.5397892326456   -0.2129246877958   -0.1819034907099   -0.1622218696455 
  -0.2026150569677    0.1706275265866    0.2602744079470   -0.0806934649338   -0.2661747099496 
  -0.0099418197775    0.1191550831894   -0.0790489634722    0.0156760681887    0.5574031156240 
   0.0073160950508   -0.1608268079578   -0.1784002134348    0.2435374494271   -0.0571833674200 
  -0.1919139964507   -0.2386449901296    0.0365495164886   -0.1454029842981    0.3463359012459 
  -0.0499013126424   -0.2597272913591    0.2880184937552   -0.1310858516170   -0.1095277210066 
  -0.2334122183850   -0.3056981301599    0.4939158364468    0.0725083445080   -0.2221192619969 
  -0.1088836173479    0.1843689390659   -0.2797368946052    0.1236669345206    0.1343385461378 
  -0.1535803186195   -0.2229247897614   -0.1658688307435    0.2442307617307   -0.5699494948668 
  -0.4791524323090    0.2613645473581    1.2785933374936    0.0852045477310   -0.4199384549924 
  -0.0586118346378    0.1210528380880    0.3063688611116    0.0194037368183    0.3120277334604 
  -0.3243737931299    0.2187461033992    0.2316546784304   -0.1041572070241    0.0202388817036 
   0.4788038361493   -0.0815710793707   -0.0156303461154   -0.3178196119718    0.3500875657912 
   0.0756663335066   -0.3110423711728   -0.2763753444775   -0.0599121238478   -0.0306915550247 
  -0.3112092969848   -0.1650103236720   -0.0481516401321   -0.0901895639690    0.1978785372964 
   0.0994789050054   -0.0132395205771   -0.1827402698424    0.0576888230946   -0.2318273661726 
   0.2154782805059    0.0309378811418    0.0278549201174    0.0189463111212    0.1967766396137 
   0.0138651947215   -0.3916610444130   -0.0384630854859    0.0503351623885   -0.0264892161364 
   0.0319644770144   -0.0887508971885   -0.2305202206339    0.0175460187954   -0.0647614647018 
   0.0315467147752   -0.2630504512587    0.2909695704933   -0.0299865463942    0.1852640111923 
   0.1393536286947    0.2860333737438   -0.1438444379029    0.0163264978003    0.2364967645920 
  -0.0248935745147   -0.0730190261024    0.4407708491105    0.0475089789006    0.0829649165082 
  -0.0529042029960    0.3110338877621    0.0349664449647   -0.0037361818241    0.1260786144587 
  -0.1431840483915    0.0442147896345    0.0737123875002   -0.1421467360530    0.0131121654129 
  -0.0432635359127   -0.1384970146344    0.0290599391883    0.1065731653240   -0.2904537448689 
   0.1792011034174    0.1933077047555    0.1590143557384   -0.1113289547035   -0.1350778713864 
   0.4074555741674   -0.1155667417475   -0.2256384139688    0.1561825128034   -0.3198191894072 
  -0.1030536341528    0.3975084704754    0.3926765278209   -0.4310083096012   -0.3230227998370 
   0.4963195771983    0.3680875755103    0.6412696834564    0.4795174725528   -0.1819037289823 
   0.0193001879328    0.0557793619322   -0.0821832865592   -0.1027194567665    0.1412429810165 
  -0.1554196937487    0.4972422667659    0.0643057376885    0.0551464486792   -0.4691398737487 
  -0.2400966757374   -0.4979432942972   -0.1637453303616   -0.0699242433434    0.2809478365017 
   0.1048879796666    0.1318429823947    0.0141955709355    0.1935033262426   -0.1092898445446 
   0.0968644205639    0.0180619377292    0.3615902877887    0.5052094313473    0.1067551137952 
   0.0597496779665    0.0280487084398   -0.0180452194729    0.0534350446220    0.0255909134174 
   0.0393025055667    0.1859049997424   -0.0182838999721   -0.1973686220267   -0.1261591767711 
  -0.0110532196839    0.0480855346729    0.0820229756537    0.0453859061896    0.1969778160527 
   0.2590097018595    0.2869023400261    0.0039964920214    0.1086050933713    0.0937593312706 
  -0.0820175920618   -0.1645134038128    0.6290507982258    0.0154415745947   -0.2312300059495 
   0.0036729469760    0.1489597025164    0.2419003082702    0.1246898758904   -0.3352442145938 
   0.2033105844626    0.3713096098328   -0.1919655034219   -0.4700455681965   -0.2424129604561 
  -0.2191864492524    0.1087165033229    0.0682907010924   -0.3629535296329    0.0550739742354 
  -0.1288083290114    0.1850280866029    0.1703846504672    0.4023903235625    0.0469259759754 
   0.1757980472604    0.0289470354891    0.1599563457892   -0.2993715232967   -0.0320733550836 
  -0.0724167204557   -0.1405961414868    0.2533049404673   -0.5465608089515   -0.2866391929200 
   0.3281388543844   -0.2900176693890   -0.1383360833373    0.0888621151341    0.6159120434152 
   0.2764389105728   -0.1960825536271   -0.1621150482220   -0.1403487284429   -0.0130032980706 
  -0.3237348776900    0.0156291490411   -0.3146079505199   -0.6940646386288   -0.1462670210877 
   0.1944574309466    0.6116276743858   -0.3796770860491    0.3064364507175   -0.9652459199852 
  -0.4948619458846    0.4238417928401    0.4300731143017   -0.0443091701899   -0.0169276851068 
  -0.9696831054048   -0.0557440995291   -0.3401841913343    0.2576987651880    0.4621242007416 
   0.3756903975441   -0.3501778708171    0.0146476491164    0.1344212699147   -0.0416921272837 
  -0.2941000900736   -0.1242045483168    0.2776927020068   -0.0416404321687   -0.1057676586220 
  -0.1631571173490   -0.2929143629546   -0.2277069350149   -0.0843592893518   -0.2128052938720 
   0.1397798985037   -0.0600466563253    0.0709049206153    0.0485600338559   -0.3055648548634 
   0.5742894426561   -0.0198973889417   -0.1290284967103   -0.0556022550835    0.1475918281086 
   0.2565394259537    0.1120400543470   -0.0816866451126   -0.1557398700625    0.2529547217913 
  -0.3718445357858   -0.2675142017577   -0.1488352908773    0.2819752203824   -0.0017860046198 
   0.3368861076505   -0.5734929796200    0.2604088921651   -0.5338692077530   -0.2029101474342 
  -0.3605183913922    0.1807421979984    0.8287604492265    0.0171249676431    0.0474338676018 
  -0.3471201029394   -0.1545403699982    0.1498235948499    0.7717684037564    0.0981760644537 
  -0.1698800912838   -0.2367353707749    0.0689097920728    0.6329015194572   -0.1723016326462 
   0.2306660897154   -0.5631987750427   -0.3543334285959   -0.0545958711510    0.0644420861357 
   0.6027128325885    0.2898170718896    0.2168176270302    0.3634486773422   -0.0142065425026 
   0.1414673125626    0.0095431541988    0.0006941319809    0.0883163343847    0.1191525832785 
   0.1917381354199    0.0647816385094   -0.1797796414235    0.0752279845605    0.0471413909632 
   0.0395393605771    0.0309921207203    0.2348557509506    0.1677120566031    0.1906469857444 
   0.2303707091629   -0.0625012567720   -0.0156096428894   -0.0358038293498   -0.1258424215424 
  -0.0301845989052   -0.1555760310096   -0.0113484865807    0.0469778469734   -0.3331323667778 
  -0.1691740405385    0.0416872289571    1.0126322796167    0.4573386117589   -0.2923435923316 
  -0.0597182007995   -0.2402937617127   -0.6151668357615   -0.1385295654988   -0.2391415258196 
   0.1608260142895   -0.0397471346502    0.3791026793762   -0.1590419688764   -0.2137566047913 
  -0.2695272558263    0.1751572376352    0.1906647315530    0.3997399651693   -0.2170160775627 
  -0.6675199443158   -0.0021810365260   -0.1323074209304    0.7712249578792    0.2466997418868 
  -0.5678207600001   -0.2109354999089   -0.0900558166455    0.2515536011309    0.5913861946919 
   0.1594477058255    0.1007641690796   -0.1469226573437    0.0859170767663    0.2114676595815 
   0.3532883839682    0.1617591904003   -0.1910894422457   -0.2192064016938   -0.0150636256654 
  -0.0896364234139   -0.2787411798322   -0.2135626803450   -0.2984594945994    0.0519346171225 
   0.1899115036812   -0.0396093403780    0.3615266671771    0.4098793228967   -0.4830750462992 
   0.0466042385110   -0.1967591222317   -0.0779402727909   -0.1012063439060    0.0203061425034 
   0.1652045607277    0.0831338207891   -0.4423628463877    0.0753292756543   -0.2753308440681 
   0.1694281219372   -0.1167267210343    0.1386998154610    0.0463279137084   -0.3209002641974 
  -0.1200723565240   -0.0433909861318   -0.1020839566536    0.1273012651848    0.1823892238942 
  -0.1266042124086   -0.0557463149521   -0.1762118320136    0.2069102480479   -0.4130366984705 
   0.0719561762540    0.0464963184288   -0.0542642816428   -0.1444018928217    0.2046360423640 
   0.0118661208422    0.1357180998843   -0.2564771377554   -0.2299840974286   -0.2796018759712 
  -0.2127509194898    0.0995691768216    0.1953106919818   -0.1000262253140   -0.1130425713167 
   0.1736075105049   -0.0364339975250    0.1701816176119    0.1326082556259    0.1054966909488 
  -0.3437454470219   -0.1538154165806   -0.0369993754916    0.0536769966834   -0.2454735713227 
   0.0547158849090    0.0737181486239   -0.0727640145050    0.0416047411190    0.2348181357363 
  -0.0228234867316   -0.1294107526392    0.1042995552092    0.0413512550072   -0.0777692447706 
   0.3169549050577   -0.1223840241038   -0.1690993200959   -0.1262184199938   -0.2077296504477 
  -0.2093056830175    0.0848260192693    0.2893303674252   -0.3073608995243    0.1651282379205 
   0.0603676528857    0.0307775393380   -0.1789560822847    0.1179491109373   -0.0048679967130 
   0.0829619954038    0.5338287813550   -0.1617022267177    0.1455581441431   -0.0556420643663 
  -0.0530355687747    0.0959399406946    0.0522942167223    0.1039424322226    0.0158077045429 
  -0.0540180038544    0.0310045615106   -0.0959325027531    0.0650309718472    0.0321105479694 
  -0.0803079882669   -0.0832363456434   -0.1423385932896   -0.2189960523421    0.3449042580835 
  -0.0170642996185    0.2855009046178   -0.2208534311539    0.1239342735521    0.2730844417882 
   0.2155121904348   -0.0719553935683    0.1888948879763   -0.1758737874943    0.1973575208628 
   0.0011594148407    0.0191116179880   -0.2736840319731    0.2291456336024    0.1828492168857 
   0.2939561135457   -0.0919879153878   -0.2168020595645   -0.0710365029500   -0.2516029687550 
  -0.1012598531519   -0.1141464795566   -0.2380470149516    0.1432887353146   -0.1197305412319 
   0.1206458332177   -0.2067374869158   -0.2614492313918   -0.4260196296384    0.4242275279841 
  -0.1149284800591   -0.1737171839647    0.4886708937516   -0.2447037320648    0.1080574310048 
  -0.1058520299342   -0.0270834720433    0.0855535502872    0.0283710462535   -0.0266082132782 
   0.0326145507322   -0.2168946808936    0.0331086663247   -0.1677706516129    0.0323920140554 
   0.1157448600114    0.0592504996015   -0.1748783726587   -0.0851517845115    0.5813543464061 
  -0.0581945953484    0.1002993188891   -0.1968237415663    0.1112183677760   -0.0369726077688 
  -0.0430424591539    0.0371041124920    0.0572156432293   -0.1243114723376    0.1161545780213 
  -0.1623522003817    0.0607884221710    0.0460794630937    0.1029308653069   -0.0052248541913 
  -0.1639058115522   -0.3441011405266    0.1721868433963    0.2308978031940   -0.1798007750785 
   0.1578418276956   -0.0150581795751    0.0091476214948    0.0617475196811   -0.2202391207575 
   0.1319676755034    0.0596371186733    0.1894303474572   -0.0796495216175    0.0907545717455 
  -0.2048194003414    0.1043490606386    0.1293455062589    0.4474632064764   -0.1258179897300 
  -0.2267307985326    0.0979001378195   -0.0053695353846   -0.1236719084301   -0.0649512625007 
  -0.1048965180518    0.2431303374308   -0.1744067765653   -0.1076079602970   -0.2524994495966 
   0.0166489279082    0.0549197297883    0.1687859191573   -0.2439628524642   -0.0785555387693 
   0.6098686014169   -0.3382021280189    0.3921941095550   -0.5450334265652    0.1202247075874 
  -0.0457528398278   -0.0695102863609   -0.0405170045354    0.4857078373906   -0.1010473383350 
   0.6097704994776   -0.4796578510490   -0.1412476526452    0.0680235540567    0.2082521377707 
  -0.0292597988500    0.0070108836729   -0.2293986452118   -0.0008904905318    0.0824543716682 
   0.0508070096922    0.2566417701961    0.0387117401825    0.0477961356854    0.0826635501129 
  -0.1061015119754   -0.1093913414196   -0.1532570821138    0.1449198310559    0.0136299165199 
   0.2159709755977   -0.0953025698294    0.1365292892083    0.2092373541720    0.2498515047776 
  -0.1762150436450   -0.2779502590263   -0.6169589488204   -0.3018466627242   -0.2858001008280 
  -0.5043624226314   -0.3190354829673    0.4466256641010   -0.3076019546978    0.2641171754776 
   0.1067342218366   -0.3232444035071   -0.9439616398264    0.1248105955623    0.0277328335575 
  -0.1920920838122   -0.2016192407809    0.0155284180625    0.0288483400936   -0.1165797466107 
   0.2180242234173   -0.0659655855207   -0.0265991555762    0.0144898282763   -0.2090432804853 
   0.1819530312922   -0.0665530399340    0.1188420115687    0.0796243014267    0.1279476566924 
  -0.1083354736410    0.1903719609634   -0.0328835669299    0.6022080005712   -0.2458161851157 
   0.0456121759357   -0.2050477411680    0.1626531619918   -0.2565662088518   -0.1995372154618 
  -0.1929865481123    0.1748743959122    0.0002747341037    0.1443072712728   -0.2982675981185 
   0.0184728207701   -0.0144821043005    0.2278312115956   -0.1228724777392   -0.1036788246719 
   0.3164837639260   -0.5004282617338   -0.1316897849844   -0.0283253024854   -0.0482570878041 
  -0.1684723582163   -0.0948551218407   -0.2014900048682    0.3572529580630   -0.3086680158184 
   0.2268567286159   -0.4278914570287    0.0107860146021   -0.0152853441712    0.2008866107046 
  -0.1741991323071   -0.0817603681009    0.3834744040009   -0.2767460837822    0.0425288049049 
  -0.0828560092695    0.1176872419345    0.0724981751795   -0.0879456864731    0.0748675298252 
   0.1672511666918   -0.3049122794452    0.1998171108187   -0.2247782726264    0.0801283214824 
   0.0666971716313   -0.0023934304128   -0.0815533463203    0.0096588316190   -0.1580905294026 
  -0.0007678674872    0.5641498862615    0.3449993058265   -0.1780662416084    0.3728735842448 
   0.5250400344672    0.3816857952594   -0.2601608376701    0.7503635965207    0.4820736587340 
  -0.0686658244137    0.4304927641483    0.9670318313040    0.1356146153782   -0.0400991256407 
  -0.0244331250331    0.1412699777713   -0.1872409464589   -0.1315731043966    0.1373211061892 
   0.0473698569000    0.0006149075195    0.0077535303764   -0.0238807054479    0.2164542305528 
  -0.3801568428368    0.0132205111652   -0.2706177016309    0.0020668470904    0.0873996787900 
   0.0749898012589   -0.1374032680325   -0.1186501216553   -2.5333414118157   -0.3652756054806 
   0.7002534721008   -0.7945138316067   -0.6312782358154   -0.4387956491508    0.4905558169323 
  -0.4976632619240   -1.0066632338780    0.4755011565955   -0.9893035138282    0.4603072647352 
  -0.6556297601793   -0.8246339716847   -0.5114432068109    1.2606696369931   -0.5774073078524 

