# Neural networks weights generated in PyXtal_FF 
# total_species nparams 
2 1891 

# NET ndescriptors nlayers activation_func for layer 1, number of nodes for layer 1, ..., ..., ...., 
NET 30 3 tanh 30 tanh 30 linear 1 

# Scale0 
   264.4436039129009      0.0306210864612     34.7567198123279      1.9142755765209      3.6456589307099 
    55.9449941120118     -9.9107291606168     16.5374169395153    -11.6559862874396    -23.4389316224570 
     5.4252649737620      0.0808757325809     19.2646730733103      0.7341940366039      7.3665501477054 
   -68.1470074189668    -18.0316669820378    -23.1335348897178    -15.5351419492966    -10.2119004908524 
   -17.4606956560318     -8.8486586637676    -18.0287133319031    -12.2438388548708     -8.7085944786442 
     0.0000000000037      0.0003493987937      0.0033862116736      0.0129699233329      0.0491843883140 

# Scale1 
   847.5011155174848    195.8587691493459    247.4552151561895    144.9681965431785     84.4802505258545 
   251.1307461188981    116.7413407039564    204.9663954935377     97.7492830589077     65.6462226046886 
   137.7166072616722    106.1166051469051    192.2000323152332    123.0351806101635     64.7151860447175 
   116.3002180303485     26.2045165862185     32.7475983815717     17.0459709403317     10.6580464402622 
    38.1602542374326     16.8122503403629     29.9844881514579     15.9697314839740      9.4937880454563 
     4.4983971015753      4.3078431425812      3.0719105190844      2.6703804895867      1.6997253390019 

# Coefficients (O)
  -0.1459313871056   -0.0078134113864    0.0048325357501    0.4030236193426    0.4430757472847 
   0.2192344219521   -0.1186482955408   -0.3672173031412    0.0574690070691    0.3362660209681 
  -0.1061163006692   -0.0136109074788   -0.0784017414510    0.0192906385014    0.3425344753794 
  -0.0420066061535    0.1881370832695   -0.1328418543728   -0.0160514329722    0.0184002140575 
  -0.0387812939078    0.3836210239537   -0.0590478697073    0.2569052527650    0.3142206145210 
  -0.0586995928914    0.0173760568996   -0.0582410008274   -0.1547995215329   -0.0050580149691 
   0.0374791605713    0.1666591146023   -0.1228165474806   -0.1541852942797    0.0088571413576 
  -0.1104875158270   -0.1216909031600   -0.0516527007476    0.2027786469263    0.0353841799422 
  -0.0866541573100    0.0518119106418   -0.1489373093575    0.0612332729618    0.1065866755063 
  -0.1490293339709   -0.1161087068608    0.1331341640884    0.0765649943606   -0.1629319373183 
  -0.0389106596485   -0.1632828724050    0.1549942381393    0.0548005980524   -0.0384752786683 
  -0.1044332229661   -0.2031149826072    0.1203943467529   -0.1420976188418    0.0964329776470 
  -0.1195054068604   -0.0208327550503    0.0742108022475    0.1717461367997   -0.0037687166671 
   0.2757343350281    0.0875121680868    0.0723079208551   -0.0174599542737    0.1310572163397 
   0.0757259112129    0.1693356123699    0.0779815697259   -0.0642838191676   -0.1366239153597 
  -0.0497086644832    0.1358686016625    0.0076781350171    0.0355868659683   -0.0842321681526 
   0.0424316590692   -0.0521414239589    0.0926595352580    0.2148323776496   -0.1230181489605 
   0.2083260761289    0.1424840718194    0.2471214145716   -0.0578629250794    0.0469102920070 
   0.1169225319147   -0.0787367832262    0.0414475584262    0.5196254520547    0.4007232430710 
  -0.2461210284834   -0.2752655752754   -0.0011383387661    0.2742506236005    0.5956502613854 
  -0.1295399402584   -0.0177970898604    0.0015570923956    0.0040506709139    0.2756602217049 
  -0.1018459706183    0.0180290760361   -0.2223874632622   -0.2013383826064   -0.4183918056558 
   0.2426385940606    0.2346794927138    0.0258771936969   -0.0648146331443   -0.5638392822996 
   0.1116274305264   -0.1607745459285   -0.1976320780221   -0.0984698949328    0.3479313580617 
  -0.2206411411149    0.0281474244613   -0.0508242435387    0.0741074695755   -0.0030106661965 
  -0.0787725980968    0.0101625864122   -0.2361559987100   -0.1477204253017    0.0247260934881 
   0.0374958081224    0.0951430611956   -0.0327933685740   -0.1951973061740   -0.1966183030600 
   0.0674566138851    0.1011640419590    0.1034597782842   -0.1546728693835   -0.1605632110056 
  -0.0840672460781   -0.0520625385329    0.0008067268215   -0.0435612299612   -0.0987238075295 
   0.0784324935932   -0.1051879457884   -0.2563773273488   -0.2539054650063    0.0520888651142 
   0.0032005376942    0.1020650244015   -0.0131683201969   -0.0632045957352    0.0588112406179 
  -0.0209620866436   -0.0106504419842   -0.0815928756955    0.1855616502927    0.3565096388679 
   0.1787574213945   -0.1288223469129    0.0941772394985   -0.0850355623483    0.3032220436161 
   0.1297269960401   -0.0909195704950   -0.1543449405407    0.1727363741861    0.3240630458223 
  -0.0503500885053    0.0285121966034   -0.0104539137951    0.1730247621060    0.1282249798010 
   0.0089823593247    0.1469931490575    0.2111384000265    0.1975971069422    0.2150093489509 
   0.2299261600801   -0.1315383636837   -0.0841972552468   -0.1418615114772   -0.2076724391596 
   0.0498917536139    0.3100137579447    0.0205342889682    0.1398374030654    0.2644143299421 
   0.2659868117226   -0.0223401542945    0.0281595551143    0.0962654633415    0.1035174945882 
   0.2856603948922   -0.0561269439818    0.2563186464585    0.1946830096840    0.0842428529684 
   0.0792615007952    0.0582341741293    0.0613768527635    0.1963117155458    0.2009189348903 
  -0.0047410155165    0.1537575817884    0.2184495729096    0.0389450359602    0.0090295205188 
  -0.0490365130476    0.0787059120456    0.0760334501325    0.1298373058716   -0.1043900948953 
   0.0845515540283    0.1213579107137   -0.3400933068951    0.0843367085693    0.0011618454032 
  -0.0975875844331   -0.0826111275320   -0.2255389748224   -0.0690109233646    0.0120371520616 
  -0.0780840347685   -0.0059822343031   -0.2499772082876   -0.1218435111081   -0.0790606891401 
   0.0180804519089   -0.0523422073658   -0.1692116744954   -0.2074290776295   -0.1505607354308 
   0.0126897868422   -0.2723106687221   -0.3820237402587   -0.1312050092133   -0.3158552236011 
  -0.1332022587872   -0.0665555248173   -0.2061612871302    0.1329935565539    0.0993830744114 
  -0.2137852402960   -0.1691819443802   -0.1516236948250   -0.2112817743645    0.1034921312182 
   0.2271266456949    0.1811364609119    0.2473592893343    0.0417047045557   -0.1411643753240 
  -0.0989133660338   -0.0345234754109   -0.0226372550460   -0.0884162645967    0.0515486306871 
  -0.0453619144950    0.1801848120972    0.0257117370048    0.1528951863396    0.2235246304087 
  -0.1485863053165    0.0637380290926    0.1211596410699    0.0087526125498    0.1393021988487 
   0.0528933094157    0.1509714081527    0.0699595751412    0.0325444707882    0.0065124667138 
   0.0571767962215    0.1020068893197   -0.1703822129240    0.0651738951263    0.3035082364553 
  -0.0048582164003   -0.1335129643280   -0.0028850845554    0.1861140494374    0.2919246803978 
  -0.2029272967040   -0.1344303579258    0.0916028345912    0.0045157815845    0.2290535671335 
  -0.2184109160387    0.0199509464198   -0.0825337096169    0.1105861781727   -0.2237307525838 
   0.0866809377735    0.0485007258985    0.1753301027962    0.0176804748241    0.3956715083778 
  -0.3229827144111    0.2346317219007    0.0151984487779   -0.3763214344349    0.2130993082025 
  -0.4361696937750   -0.0114116746781   -0.0628279572121    0.1393334026362    0.2825033424561 
   0.2726006158836    0.0895802702478    0.0758036143559   -0.0099119433231    0.0244531837217 
   0.2289030140822   -0.1548524215946    0.1259917411499    0.0954784899987    0.2113343004062 
   0.2595250738673    0.0053714961614    0.0563052864005   -0.0486572172498   -0.0065151769615 
   0.0987202268790    0.2668824252529    0.3034345956759    0.1257498388538   -0.0604530128585 
  -0.0273842313235    0.2009017313823    0.2743673069215    0.2753630771956    0.1018251922842 
  -0.0353888208509    0.0893503163949   -0.1677301056876   -0.1128978648401   -0.1634491609196 
   0.0117404128309    0.2177490260892   -0.1564842364179   -0.0931167372883   -0.1216928636324 
  -0.2146263205736   -0.0403187552467   -0.0843837138605    0.2199544161150    0.1368777092289 
   0.0548368158611   -0.1282714845102   -0.1159741682709   -0.1159647757315   -0.1203555265323 
  -0.1309394404475    0.0444264941683   -0.1311796023484    0.0145643122899    0.1027511067461 
   0.1299623251722    0.0303837025508    0.0305942018989   -0.1482801699414   -0.1345186926340 
  -0.1291774129281   -0.1477964628316    0.1531571734721   -0.0275118336691   -0.1033801816500 
  -0.0879090705498    0.1171007308133    0.0930802839915    0.1110476589883   -0.2262894509089 
  -0.1974101328231    0.0791004135297   -0.1098572679452   -0.0181884112818    0.0261144088836 
  -0.0311918043357    0.1256712000060   -0.1697296493588   -0.0708050616121    0.0109804332293 
   0.0716622322614   -0.0156640372168    0.0241566499036   -0.0747230999936    0.1064998002220 
   0.1101640084683    0.0127066734891    0.2024765646211   -0.2238817574524   -0.0371055218044 
  -0.1972700725813   -0.0953423864852   -0.1876550236017   -0.1619194921450    0.0202788155920 
  -0.2269884269376   -0.0720940601834   -0.0670790084792   -0.1592782880065    0.1369242793404 
   0.0049638155901    0.2000790336834    0.2176703125737   -0.0570768184949   -0.1368312336657 
   0.0037492375691    0.2023448058022    0.0335022306749   -0.0025165742776    0.1686285665078 
  -0.0976103668153   -0.0963980620486   -0.0302187387345   -0.1365752603460    0.1536287472571 
   0.1108025463716    0.0887250587455    0.1524518336134   -0.0225407827389    0.0133977447677 
   0.0384287414780    0.2352660178139    0.0669027448716   -0.0358644694248    0.0347565546880 
  -0.0365403180151    0.2010696567864    0.1027135365540   -0.1172660068881    0.2146085193852 
   0.1218521593782    0.0770293294839    0.1588644233760    0.1353800648831    0.0495152769197 
   0.1057901384504    0.0757998456299    0.3051481205586    0.0622652365127    0.1819183757778 
   0.2113195794072    0.0436241854855    0.1741479152226    0.1045721600137   -0.0625980147458 
   0.2455097670767    0.0638369576703    0.0116370161078    0.1167218964513    0.1392722703381 
   0.2954275163612    0.0416395592630    0.0512974064662    0.3154208261174    0.3188006913440 
  -0.0551605877243    0.1186162587882    0.1517506307929    0.1527275613483    0.2169051563094 
  -0.2171408694005    0.0228877454411   -0.0880686725278   -0.2677270936167   -0.1828754849097 
  -0.0744579162329   -0.1674377972242   -0.1323320071379   -0.1942629640683   -0.0699780987994 
  -0.0444764861789   -0.0970323884277   -0.1809961119317   -0.2475715019905   -0.2804835240531 
  -0.1789795882344   -0.0104479261152   -0.2657557841505   -0.2798493393579   -0.0712190293284 
  -0.2597809535012   -0.0207184398661    0.0135560827349   -0.0815523426537   -0.1118867426809 
  -0.1305998265872   -0.0629367663997   -0.1837745137813   -0.0605718159645    0.1182296861321 
  -0.0662480388253    0.1587474472352    0.1443651411323   -0.0880808244289   -0.0037766023636 
   0.3253434537932    0.0041265624341    0.0376984708246   -0.0837523122993    0.2276985676606 
   0.2583630928898   -0.1281033411236   -0.0583344354372   -0.1413149369433    0.1285139288950 
   0.0274875966827    0.1258670434019    0.0567335885602    0.1807826122675    0.1415180827555 
   0.2514604468777    0.2407358976134    0.0735114965606    0.1872773379783    0.2782912728503 
   0.1379667586018   -0.0131032799296   -0.0657344071492    0.0164712945636    0.1611476741480 
   0.1398156410618   -0.1569273949996    0.1603883095636    0.1093452627109    0.1394174749427 
  -0.0672570845952    0.1148024909310   -0.0004403509037   -0.0418814039666    0.0845283281261 
   0.1097937448588    0.0089158730254    0.1680613561588    0.0436133358230    0.0340415428712 
   0.0391550965203    0.1991214934527   -0.0604082815455    0.0467679800987    0.1519661403931 
  -0.0687245868271    0.1532320278522    0.0369795699350   -0.0727454539926    0.0754967752424 
  -0.0945114517584    0.1547258076083    0.1736416522317    0.0353577568145    0.0662128030050 
   0.1265174129979   -0.0450590681931   -0.0776584630608    0.0936118882568    0.1037861126268 
  -0.1612863735904    0.0354324679916   -0.1454565127610   -0.1289370072257   -0.0085221249994 
  -0.0539721976919   -0.2041596926416   -0.0051946008522   -0.2761415841086    0.1106379004074 
  -0.1815483326670    0.0033478688727   -0.2060761338293    0.0641517553180   -0.1934364691035 
  -0.1490403155153    0.0306157017313   -0.0616164804114   -0.1497778201059   -0.0031418499813 
   0.0069177897021    0.0150407323272   -0.1751488309148   -0.1069222330723   -0.0796434822731 
   0.0165413984944    0.1024992949650   -0.0900140530906   -0.1968807229026   -0.0233258564951 
   0.0613725980048    0.1772029154793   -0.0965560325806    0.0313539015539   -0.1360072190444 
  -0.1723455236283   -0.0914705885046   -0.0647133929129    0.0238017117560    0.1433380641721 
  -0.0986347229947    0.1225056857949    0.1299505930807    0.0752209874569    0.0675206271303 
  -0.1360791146381   -0.0109188827491   -0.1440486337288    0.1205581735073   -0.0554121229855 
   0.0719164173818    0.1031399278547   -0.0052491013290    0.1675942359529   -0.1360853921269 
   0.0908143576961   -0.0552644013830    0.0800497537894   -0.0497521012828   -0.0036415642240 
   0.2491911158258    0.1130752509780   -0.1202405354207   -0.0210570459339    0.1581640333062 
   0.0212514635923    0.0407160404152    0.0679246874189   -0.0454531189932    0.1871496634411 
  -0.0313008195193   -0.0216967683060   -0.1056846457440    0.0538551386403    0.0763916618245 
   0.0918709397962   -0.1302776287509    0.1181919487245   -0.0579910531348    0.1435951754050 
  -0.0546736858837   -0.1604825008400   -0.0120419483103   -0.1261880399405    0.0237894132257 
  -0.0040005509458    0.0825905988658    0.0335842418889    0.1053188965952   -0.1864035460320 
   0.1505123650255   -0.1800056186072   -0.1837290359540   -0.0265097355004    0.1862621035257 
   0.0885997226490    0.1502418442095   -0.2467514357209    0.1869938911754   -0.0493154883121 
  -0.0818022285721    0.0483679823814   -0.1357493349766    0.1342020502933    0.1304454538082 
  -0.0433983672805   -0.0032543899424    0.0527650686216    0.0586309926571   -0.0697209084283 
   0.1109977079485   -0.0508397651111    0.0715241244393    0.0478064562444   -0.1031729889679 
   0.2135465335408    0.0195404421605    0.2449164342093   -0.1758903242464    0.1421396603539 
   0.1271792477222    0.1882535768772    0.1795507164833   -0.1104383345112   -0.0603886441611 
   0.1137774151472    0.0131445798952    0.0451743113952    0.0173475094011    0.0488054297287 
   0.1727591458482    0.1930958529172    0.2266190918845   -0.1093686981578    0.0277947991713 
  -0.0414037320366   -0.0404805430072   -0.1038867250920    0.1547080605699   -0.0266496965930 
  -0.1859798937796   -0.0272224665903   -0.0165621577105    0.1938755568990    0.0699649571906 
   0.1975822773649    0.1076133790047   -0.0655372708150    0.1211542024395   -0.1454855059897 
   0.0187392558159    0.0326480723829    0.0664322249718   -0.0745188689223    0.0800445041747 
   0.0938568595261    0.0181583986246    0.0307060518966   -0.0859735545984   -0.0169983110825 
  -0.0353350658558    0.0994895156896    0.0546423128330   -0.0629237463883    0.0604028981781 
  -0.1550438812183    0.0660187796049   -0.0754948593508   -0.1445837139527    0.1133512260831 
   0.0890948827813   -0.0327011480182    0.0258700083816    0.1147744362453    0.2627465472992 
  -0.1689193823414    0.2755731148648    0.1027797600576   -0.0415034300446    0.0035756689646 
   0.0924540901895    0.2497415822251    0.0397793008680   -0.0147250162426   -0.0607097695641 
   0.2634278448434    0.1517302452122    0.0956983862351    0.0490398838916    0.1540102836066 
  -0.0621817342137    0.0287380395364    0.0061267173754    0.0234847042084    0.1035748024206 
   0.0250492027867    0.0774041286101    0.0660710181277    0.0860915440547    0.0512471407035 
   0.0196343624371    0.0730112171942   -0.1703222597076    0.0549612743968   -0.0480129289989 
  -0.0290646100816    0.1241202967458    0.2133548926151    0.0637457090663    0.1350729014549 
  -0.0660476443357   -0.0691082751612    0.0604200591304    0.1021809308794    0.1147536636755 
   0.2114483517692   -0.2226405516971   -0.0641283728394   -0.1986622333050   -0.0970108697240 
   0.0764756188780    0.0918457022548    0.1982585329518   -0.1159481144661   -0.2273285707624 
  -0.1032616395242    0.0387065229914   -0.0091249366605   -0.1234203228137   -0.2092249305472 
  -0.0559797568865    0.0500461425513    0.1504266348524    0.1285567287520    0.0149055603829 
  -0.0757938880068   -0.0063551300443    0.0406860025345   -0.2559933432643   -0.2374406462997 
   0.0866533572557   -0.0715251493317   -0.0542983628872    0.0889153957441    0.0455772701472 
   0.0611897824831    0.2097038372167    0.0350141869171   -0.0954560560523    0.0401180318511 
  -0.0601184018719    0.0779126989930   -0.0049904739356   -0.1095039222908    0.0284730652847 
   0.2038427384285   -0.0048228389788    0.1333334674216    0.0281391557617   -0.0261073811254 
   0.1531041001422    0.1528501100990    0.0514340207492    0.0894907564400    0.0537125043602 
   0.0288124128766    0.1493088449932    0.2667514612784    0.0805963707088   -0.0329009118679 
  -0.0034878120158    0.1901471060344    0.0390354453711    0.0159311259228    0.0167943293735 
   0.0719943745995    0.0377803128236    0.0627038582951    0.2475831507070    0.0752556083948 
   0.2524218166817    0.0016464240522   -0.0264388322749    0.0186328111575   -0.0361736132935 
  -0.1618909567412    0.0568607064645    0.0723254387756    0.0635170313721    0.1369524206139 
  -0.0544418600993    0.0417080837283    0.0757470048060    0.0973500603515    0.2015147067677 
  -0.1315456978565    0.0699331550129   -0.0742765520786    0.1315242493401   -0.0492684737429 
   0.1305042530403    0.0363764733041    0.0139250325351   -0.0828804183007    0.0015586037249 
  -0.0387293691888    0.1589846647340    0.0247384644567    0.0307229427305    0.1200302185460 
   0.0941037624784    0.0775308172581    0.2600535586322    0.0140457384479    0.1081068854134 
  -0.0078648449233   -0.0991861839507    0.0534081616270   -0.0398999981260    0.0071778814284 
  -0.0391083672436    0.0648272262793   -0.0313281077867   -0.1186385164450    0.1298510018732 
   0.1597784174731   -0.1249505338694   -0.0262775888453   -0.0809046681412    0.2602214877179 
   0.0655517004026    0.1253227627132    0.0448171995300   -0.0328558657081   -0.1232859793416 
   0.0200357829948   -0.1219238938581   -0.0847498779747   -0.0462844328690    0.0857114798233 
   0.1805045271783   -0.1398138086908   -0.1744087222536   -0.1433883275264    0.1251088117588 
   0.0781690263892    0.0725949132231    0.1395259746392   -0.0100958884007    0.0632643506267 
  -0.0407438513652   -0.0216985072995    0.1165539267498   -0.0878759735122    0.0420062496124 
  -0.0932176092700   -0.1176459769662   -0.1776091019662   -0.0332987807608    0.1873149056965 
   0.0380649535640   -0.0618580131339    0.0349000147948    0.0530277738311    0.1352173924651 
   0.1439700432795    0.0264789212553    0.1690800404391    0.2001363102840   -0.0291618564388 
   0.2060713290160    0.1923880217336    0.0393351939978   -0.0302200367191   -0.1469188708845 
   0.0958701828292    0.2006658754681    0.2156861383986   -0.1022768706364    0.0621535003532 
  -0.0426360005533   -0.0149043504099   -0.1792962638208   -0.0255191698061   -0.0309746812102 
   0.1303413618851   -0.1310942726927    0.2378288227604    0.1030619170972    0.0808890439012 
  -0.0672433604738    0.0560158251682   -0.1227928598900   -0.1373234448738   -0.1106506531025 
   0.1153362466241   -0.1812663287834    0.0324150104193    0.2620133184345    0.0123727874297 
  -0.0234378040508    0.0861426483022    0.1907335071024   -0.1382257658909   -0.0939842249094 
   0.0697237614285   -0.2417904293416   -0.0404785141934    0.1876189148904   -0.1266651003272 
   0.0971784580636   -0.0324821810892    0.0319438430692   -0.2122700491140   -0.1021248852169 
  -0.0691186861050   -0.0176506001127    0.1861257092063    0.0639361024946    0.0848447900133 
  -0.1069343596127    0.0702920133060    0.0244022601392    0.1222577946279   -0.0485835047867 
   0.0154174939736   -0.1029336493848   -0.0594203787719    0.1290773828881    0.1815203068609 
  -0.0365707104905   -0.0700880346913    0.4139863071353    0.0397563889487   -0.0411013640184 
   0.1327712667906   -0.1163965294595   -0.0001129415715    0.0530737134514    0.0850642022700 
   0.2361488969185    0.0075894251417   -0.0564970229941    0.1083570561408    0.0316818227966 
  -0.1316034716607   -0.2187880667655   -0.1831997283427   -0.0667920596724    0.1516419718698 
   0.0314883838849   -0.0645174334629   -0.0440581634516    0.1741064465517    0.2495019270965 
  -0.1292844064892   -0.0882278641173    0.3404413609981   -0.0044973298433    0.0831585993466 
   0.0083791497826   -0.1697116413677    0.0505232212332   -0.3653327511731   -0.2754181730435 
  -0.0831110121938   -0.1058337708846    0.1060817250058   -0.0700575996509   -0.1291687653593 
  -0.1715940755617    0.0576763362028   -0.0965864282969   -0.0075244127133   -0.0089544992100 
  -0.0202223757968    0.0705942783073   -0.0579851190697   -0.0332355556006    0.2001370505039 
  -0.2814709098738   -0.1622832839599   -0.0213489020847   -0.0274090089468   -0.0446165068884 
  -0.1810785074523   -0.1518812359434    0.1282633443967   -0.2544525977286    0.0914947777745 
   0.2335801322576   -0.0842636768750   -0.2174429057894   -0.0847410975993    0.3272631972772 
   0.0234756862923   -0.1033418161849    0.1770626006020   -0.0060993666479    0.2163831539528 
  -0.1190786250615    0.0925654736434   -0.0603706878239    0.1289592428069    0.0799711773743 
   0.1303217830972    0.0448035978722   -0.1651720268196   -0.0284666831369    0.2216846863824 
  -0.2222847338265    0.0305284108898    0.3513603630390   -0.0992424883995   -0.0515101484142 
  -0.0098397604543    0.1782019685700    0.0425085838848    0.0234972774394    0.4625890159102 
  -0.0411178086677    0.0815446239621    0.3024242842164   -0.0628050455948   -0.1602104858175 
   0.2036404038067   -0.2071958682672   -0.0457831192232   -0.0230889627385    0.2851517110342 
   0.1497344727636   -0.1772636741602   -0.1101265357460    0.0905379905667   -0.1523677681286 
   0.0811445436731   -0.1230611816634    0.1142810251015    0.0637964382893   -0.2119879128201 
  -0.0376434413298   -0.1585314596938   -0.0221580163513    0.1353272105617   -0.1110640566961 
  -0.2168027329463    0.1524330456806   -0.0150418720851   -0.1598509805209   -0.1941068286773 
  -0.1680705273384   -0.1291632472055   -0.0203714352676   -0.1204002506172   -0.0972424175610 
   0.0852271866453   -0.0961569135863    0.0065854110791   -0.0836911562903    0.0500730234649 
   0.0245323876383    0.0352605757042   -0.0269391387306   -0.0684386959851   -0.1684042681969 
   0.1551258590930    0.0966257725901    0.1138835099283    0.0305563658179   -0.0704718131020 
   0.2174943104898   -0.1181114014372   -0.0883710784666   -0.1591109447155    0.0524775126800 
   0.0778966755559   -0.0122403412945    0.0930968932549    0.0946401996342   -0.0063742237124 
   0.0948891636927    0.1080128551609    0.0811870909693    0.1785116557704    0.0794285517977 
  -0.0802723659272   -0.0849163867321    0.1962154322529    0.0526309193207   -0.0774032371780 
   0.2105059345920   -0.0012684984313   -0.0816055220679    0.0645560480793    0.1345176119223 
  -0.0941203195014    0.0421156567178    0.0056221348534    0.1488223835092   -0.1898240118934 
  -0.1255279803144   -0.1390229582932    0.0200902430096   -0.1153272333880    0.2707742436454 
   0.2991780172726   -0.1556885424059   -0.0132773442168    0.0643120998075   -0.0614245286016 
   0.0986550871116    0.0731627596517    0.0577354078657   -0.0347996726511   -0.0527853566126 
   0.0813085463352    0.2026462405067   -0.1475318763025   -0.1887005834591    0.0102581398493 
   0.2305526913604    0.1123874105289    0.1903993201909    0.0878745295468    0.1514062629616 
  -0.0037738245128   -0.1216623726643   -0.1803432893134    0.1308851743852   -0.1635486112101 
  -0.0456580152659    0.1153020654860   -0.1659219845960    0.0108110433039   -0.0330178132347 
  -0.1498921009414   -0.1363475534763   -0.0985054744384   -0.0529223093373    0.0998924615969 
  -0.2444751557325    0.0078332681649   -0.1383538735133   -0.0121224425159    0.1679423765999 
   0.0672735279852    0.0642724350003   -0.0626101457445   -0.0144033853664    0.0441487574205 
   0.0270325125494    0.0736602153563    0.0046218146155    0.1264901400339   -0.0277056293181 
   0.0101897459186    0.0542808385124    0.1235120333524    0.0607306434873   -0.0998281215842 
   0.1651555761574   -0.1473041067524    0.0255118950881    0.1102969277075    0.1758383396165 
  -0.0940874370742    0.2073070107101   -0.1116352764726    0.1307660135944    0.0183254390370 
   0.1542659454468    0.0235164027557   -0.0937346364402   -0.0891124010239    0.1977213675578 
  -0.1794169792492   -0.0197139238471   -0.1109113983247   -0.0116875856769    0.1483393895295 
   0.1321207515327    0.1022971120491    0.0489564467130   -0.1131835044056   -0.1188155487700 
  -0.0969280750312    0.2249131209780    0.2198154384457    0.2331622393358   -0.0603455614679 
  -0.0809395741361    0.2036356251134   -0.1275002414968   -0.2112352954615   -0.1047473459007 
   0.1263664802537   -0.1039129568260   -0.0025724469991    0.1582856994747   -0.1125535094732 
  -0.0130051335324    0.0402148149562   -0.1397342387826    0.0311955801511   -0.1113394339806 
   0.2831759244318   -0.1131145588619   -0.0099324784169    0.0089723407979    0.1235376741043 
  -0.0963777029108   -0.0181956465769    0.1987707532184    0.0329971381617   -0.1016006778307 
  -0.1481315455961   -0.1555569675322    0.0758120951608   -0.1444864299803   -0.0038523912242 
   0.0128778116233   -0.1768878217575   -0.0348254892174    0.0169867946252   -0.0357570061015 
  -0.0635202098823    0.1263778696922   -0.0039136807989    0.0746410039766   -0.0133954945004 
  -0.1712772426413    0.1492500169330   -0.1230271877283   -0.1031611986277    0.1806609162792 
   0.0637463937475   -0.1201650353098    0.0980011620703    0.0029851133717    0.0566598333403 
   0.0593830622121   -0.0655669471587   -0.0237289146328    0.1511693773825    0.0267197754453 
  -0.0209567210515   -0.1708527343648   -0.0659904150761    0.2099974033039    0.0024317707162 
  -0.0391250381040    0.0862072433718   -0.1726244873557   -0.1093551286909   -0.1012938739904 
  -0.1718359471261    0.0564706066963   -0.0511347972636    0.1024563975078   -0.0080536213972 
   0.0408097780601    0.0588035439689   -0.0014171305093   -0.1287919589114    0.0981089253178 
  -0.0355123852921    0.0209070745981   -0.0795056253188    0.0085581950014    0.1267070214323 
   0.0926195593701   -0.1076754500105    0.3077685821842   -0.0201067248974    0.1377798841552 
  -0.0681594116819    0.1432172179760   -0.2023389930539   -0.0757876605590    0.0731584119420 
   0.0619832935776    0.1068496601098    0.1375306272340    0.0101681714090    0.1501930443991 
  -0.0657228301901    0.0087022403196    0.1104802061632    0.0506277335928    0.0098525530628 
   0.1023828911875   -0.1089090072728    0.1512323551406    0.0390477199473    0.1455849970957 
  -0.0594469817623    0.1944764750383   -0.0092494159244    0.2065792053699   -0.1999386149436 
   0.0525286910668   -0.0306510137409    0.1897155562076   -0.0425556452113   -0.0392691227995 
   0.0285542170821   -0.0415145241942   -0.1179061931719   -0.0298634538280   -0.0689241633681 
   0.1454203999576   -0.1635559687793   -0.0804977165113   -0.1446130585901   -0.1466689401655 
  -0.1210356123074   -0.2015200178513    0.0104215388767    0.1039366153375   -0.0592141172960 
  -0.0538576498259   -0.0810903869595   -0.0335905375736   -0.1506000171093    0.0411693123460 
   0.0311564317288   -0.1238067275753    0.0575175480391    0.1473342842378    0.1217537132673 
   0.0031758606041    0.0592922423988   -0.1004491347695   -0.1743765324503    0.1281800100490 
   0.0551445502417    0.2048514403816    0.0785349464635    0.1592405309024   -0.1940101983361 
  -0.1849489591204    0.1268006892404   -0.1260516711521   -0.0329664365848   -0.0064809975525 
  -0.1102072251528    0.1517433579443    0.0541393929815    0.0903800580421    0.0378827829854 
  -0.0219006791343    0.0720739829779   -0.0473179672299    0.0405701717785   -0.1150646303760 
  -0.0540429213735    0.1250370015424    0.2087877033139    0.0344463645880    0.0381514148680 
   0.2623460582195   -0.2442828069844   -0.1727132172991    0.0269349580000    0.1795733605530 
  -0.1144119444525    0.2091511156440    0.2281000576937   -0.1523085730742    0.1201721187423 
  -0.1727480685517    0.0613676192704    0.1868946547428   -0.0645939530807    0.1239433643749 
   0.1123365342794   -0.0915191069120   -0.0652442934314   -0.0424531597012    0.0636997677447 
  -0.0311716105035    0.1454821044226    0.1293648215506   -0.0310141350365   -0.0339545658035 
  -0.1394518992650    0.1112705574879   -0.0778201334530    0.2293545679057    0.1824874759083 
  -0.1253287535462   -0.0114031558913   -0.2251671417191   -0.0331650772693    0.0820459911722 
  -0.0034102423006    0.0973765699655   -0.0079697386571    0.1861246757053   -0.0870766659585 
   0.2061735770737   -0.0948894746538    0.0189673469541    0.2097411902453   -0.0450319298460 
   0.0272448921641    0.0933310165458   -0.0542714415279    0.1328517045608   -0.2245814520347 
  -0.0287422804743   -0.0819963255168   -0.0709903300012   -0.1399363256507    0.0915461126191 
   0.0735457514978   -0.1536971996285    0.0532839687566   -0.0109413562025    0.1174440967954 
  -0.0923558732367   -0.0573166172370   -0.1148212032547   -0.2005371418723    0.0877114479455 
   0.0340170918265   -0.0030984969149   -0.0476819422929   -0.2891699330121   -0.0407858089353 
   0.0944951722164   -0.1429264904371    0.1717426988378   -0.0547661505569    0.1896763946972 
   0.0498435193302    0.0456396768078   -0.0882700370007    0.1484537437089   -0.0370177022823 
  -0.0128882442966    0.1996445852552   -0.0525782122259    0.0165243771087   -0.0570221124698 
  -0.1176451623336   -0.0363093396390    0.1530186546606   -0.1403114324420   -0.0069219546386 
  -0.2291707265935   -0.0625277196103    0.0079954973184   -0.0110919347423   -0.1322901650536 
  -0.0850834294358    0.0655379481272    0.1075019127770   -0.1584679809455   -0.4896152535939 
  -0.3071419153459    0.2014291139083   -0.1980375908560    0.3150425396643   -0.0751351835402 
  -0.0276381745635   -0.1136399585730   -0.2052337998622    0.0716040180958    0.1369856173084 
   0.0059396691618    0.1453869387482    0.0139494776901    0.0514708017556   -0.1843718120915 
  -0.0076452011712   -0.0294428710001   -0.2102262788226    0.1916986981031   -0.0046839517959 
   0.0384926480493    0.0822420762953    0.1262528927249    0.1407471358147   -0.4113242121836 
  -0.0461571613537   -0.0795603157947   -0.1864703405988    0.1056454685416   -0.1171940084842 
  -0.1523958292901   -0.1600089776402    0.0897418996713   -0.0739272317745    0.2141107315179 
   0.0861959424372    0.1721603602950    0.1721037328736    0.0821609809651   -0.0639094657203 
   0.0563306303091   -0.0917900607331    0.2281181414724   -0.0554758371553    0.0022063008764 
   0.2251697291128    0.0816411194684    0.0723919528996    0.0272654316033    0.0589624925189 
   0.0221143176192    0.0411895610850   -0.1376303711342    0.0087916688147   -0.0651588051194 
  -0.1347185443021   -0.0178813991737   -0.0415359141119    0.0507149297278   -0.0811009054512 
  -0.1372321377963   -0.1866663944867   -0.0563389996813   -0.0656434303492    0.0702646594821 
   0.0119244266153    0.0877111568433   -0.2266927356724   -0.1808609710090   -0.0801849576143 
  -0.0524272630416   -0.0449673020190    0.0443344006918    0.1494256920427    0.1836587319741 
  -0.1085101967634   -0.1403602473505   -0.0774608760002   -0.1835117256539   -0.0823400882760 
   0.1044039173267   -0.1886547281352    0.0989374289836    0.0444745456424   -0.0232994350897 
  -0.0735655616121   -0.2306644075053    0.2321015680083    0.0776707910277   -0.1066559848129 
  -0.1863211714304    0.0902271997313    0.2806886822953    0.0115838332597   -0.0312887366257 
  -0.0049487765487   -0.1703170684881   -0.0684326276815    0.1726850268872    0.1707906679856 
   0.0835424048061    0.0321293724681    0.1224690037367    0.1869078923574    0.0983918377691 
   0.0526725104060    0.0713113922444    0.1032961997620   -0.0485765431979    0.1801073148718 
   0.1116203511663   -0.1271679646419    0.1091510637306    0.1084760369260    0.2054579339239 
   0.0439932746869   -0.0977896239829   -0.0082535147420   -0.0387142873157    0.1408235107518 
  -0.0137983011357   -0.1503721570927    0.0664496972666    0.3257083317697    0.2755822849671 
   0.0061144452431    0.1007481708550   -0.0113949201229   -0.0851398957810    0.0937099310912 
   0.2079815957793   -0.0363211299856    0.1363052558526   -0.2088672805512    0.0424851677906 
  -0.1305757079175   -0.1867310146107    0.0399208509914   -0.0583312159968   -0.1870499075445 
   0.2159303449349   -0.0831862398318    0.0269518564210    0.0922958647213   -0.1645694688198 
  -0.0182776800248    0.1614182313584   -0.0304425218258   -0.0072937238989    0.0676053120244 
  -0.1394012649350   -0.0065303050505    0.0397131227587   -0.1307727174310    0.0819046700922 
   0.2111486030496   -0.0032820405849   -0.0606521252309   -0.0297135226663    0.1546620739313 
  -0.0439830191020    0.0582318185141    0.1903308171468   -0.0120852308656    0.0624648074269 
   0.1605256599419    0.0331013697368   -0.0634333050215   -0.0389535214709    0.1295648937350 
  -0.0798669163961    0.1397983121333    0.2597884697106   -0.1402138132853    0.0674194477600 
  -0.0255829138318    0.0685785549983    0.0829588060143   -0.0188088445048    0.1851506916048 
  -0.0823689740578   -0.0413019259990    0.0496908808674    0.0450539077301    0.1119889178033 
  -0.0059107692788   -0.2352334938662    0.3426109166035   -0.2292711830269    0.0327372793686 
   0.1123447858971   -0.1094792970594    0.0516484028798   -0.0500446300942   -0.1104793775674 
  -0.0286571229953    0.0207828324834    0.2849100890870   -0.1068643757521   -0.2678315163442 
   0.0105769302383   -0.0592633161585    0.0872336027716   -0.0843358861433   -0.1127348689443 
   0.1125071555582   -0.1224108309031    0.2944020883140   -0.0725944457633   -0.2720528760227 
  -0.0066537205970    0.0966641431954   -0.0478763046079    0.0948176080307   -0.1447019649050 
  -0.0690414774879   -0.1938048398273    0.1676077151561    0.0299839908371    0.1833908340501 
  -0.2197224448161   -0.2744985992854    0.1596507432959   -0.0752019418064    0.0011756478903 
  -0.0478432744668   -0.0973778476808   -0.0716301378911    0.0724226152167   -0.1720273152777 
   0.0519846557224   -0.0446752666943   -0.1744920205314   -0.0746975912698    0.1008049608309 
  -0.1440849125484   -0.0685414205072   -0.1179622221491    0.1281485234575    0.1266070252483 
  -0.0276281068893    0.0970859184036   -0.0725554537822   -0.1280043893143    0.0750013215309 
  -0.2044991740514   -0.0271073076257   -0.3848557022509   -0.0807336121874   -0.1205789014987 
  -0.1962961981464    0.1906688956123   -0.1967977419462    0.0626592287016   -0.0341920732131 
   0.1109501598255    0.1032691399286    0.0738703700982   -0.0066363555040    0.1055056553317 
  -0.0619976033580    0.2279423807176   -0.1967354762800   -0.0342766873570   -0.1157940483041 
  -0.2553568376451    0.0172172293403   -0.0319902780135   -0.0439190396697    0.1320280172501 
   0.0506903142395   -0.1550357239259   -0.0406526026858    0.0741486289170    0.0097380058889 
  -0.1201289318177   -0.1122554076452   -0.0191466372220   -0.2743865937310   -0.1833310178707 
   0.1936571297712    0.0484393928901    0.1204576712595    0.1202952215243   -0.0134647786825 
   0.0915829944591    0.0701021380225    0.0011540315375   -0.0501105004057   -0.0887999986584 
  -0.0164733559284    0.1515934181620    0.0568942096624    0.0770266590338    0.1938164433529 
  -0.1102555761310    0.0357284886875    0.2127812798658   -0.0763312903033   -0.0383697874724 
   0.0685200564215    0.0778614293288    0.0160207994639   -0.1550750946081    0.0848818071544 
  -0.0365806317319   -0.2500754309609   -0.0291133651000   -0.0827521695808    0.4800478541948 
   0.2852982475267   -0.1908845252020    0.0878469633271   -0.1086491458255   -0.1008603820753 
   0.0739693450455   -0.1140499712762   -0.0734602538910   -0.0750982440362   -0.1811196949068 
  -0.0288585841349    0.0071654232112   -0.0837318897430   -0.0319977155478    0.1170196019201 
  -0.0019496424508    0.3337156731539    0.1947929766120   -0.0880048500040    0.0453735818350 
   0.2105072063291   -0.0356764485128    0.0546646075888    0.0400788762171    0.2109491196295 
   0.0593586797439   -0.1592695774571    0.2924577667015   -0.1375116886508   -0.1015437932919 
  -2.8121703645239   -0.2121291490601   -0.6819192906477   -1.0879622048137    0.5722422265668 
   0.2255321026516    0.5607003751187   -0.1790580568817    0.3416284318521    0.4268387675167 
  -0.1352800256972   -0.4193440138776   -0.1507391893691   -0.4371081280550   -0.4546909213456 
  -0.1773833322930   -0.6450656510906   -0.5818499189808   -1.1515354306847    0.6183372280070 
   0.8452977022681    0.5546097205511    0.7674925318029   -0.3769866272390   -0.2288388885747 
  -0.1833956136601    0.7493430843455   -0.4073870901836    0.0742112984041    0.0156578980448 
  -0.4478607975992 



# Scale0 
   240.4752584267486      0.0221058986173      2.6271639326983     50.7219820897375     18.9807627961172 
   120.6977220738166    -19.3712239798840    -27.8437173539380     25.7753738584521     -5.9041778163039 
    32.3641181671374      0.0025318606805      0.4005874686532     28.5409873063348      5.2721741218525 
   -12.4005578204913    -12.1905304247215     -8.8067322497883    -11.2401966875980     -7.8154349668678 
    -4.1416435547123     -1.1377029558876     -1.9937252553000     -8.5678424789156     -4.3376026089928 
     0.0000006665274      0.0003227050641      0.0016178803890      0.0216578802324      0.0774035965827 

# Scale1 
   377.9711149850679     63.4460849883270    112.2488681169987    118.3653038630477     64.7093915099323 
   131.6274534748141     26.2008963221394     47.0058563509865     49.6763790071578     26.2038452953980 
    85.4316279319048     17.7407261727806     35.8823090934929     72.6722998082563     31.0597019512039 
    68.4529810639537     16.2550265658015     12.6877944921103     13.2983871053170      7.4859711273114 
    34.5215198731339      4.9535303319519      5.4136588338501     10.1118777856849      3.9871961826103 
     8.1266423633781      3.3361770764743      1.4706270624947      1.4066028256748      1.0874263779540 

# Coefficients (Si)
   0.1366864205484   -0.0541290842817   -0.0265942993527    0.3000260862916   -0.0310646456526 
  -0.1785579396043   -0.0327338145707    0.2528473867077    0.0692511986189    0.0945050746441 
  -0.1484653409962    0.0269716220871    0.0214165989530    0.0769250728230   -0.2211597480225 
  -0.2973778419620   -0.1735306177470    0.1099465904241    0.1469560240978   -0.1054337876599 
  -0.2275747660730   -0.0781267992825    0.0580404907846    0.1669438622159   -0.1152500565851 
  -0.1100203608348   -0.1019668366963   -0.0334568137154   -0.0881747305174   -0.1379372128618 
  -0.1241434994944   -0.0540162545512   -0.0009970870253    0.1744578727271    0.0167891316255 
   0.0958236270422    0.1003697037825    0.0303714240015   -0.0380483304242   -0.0379310402495 
  -0.0998964128800    0.1078676675472    0.2440323421654    0.1035011798604    0.1403630225323 
   0.1487775221608    0.1773780574708    0.0539452336390    0.1433696091820    0.0446681481340 
   0.2156019303402    0.1858354304849    0.1973159322784    0.1816147158071   -0.0615382630200 
   0.1488033911865    0.0471143409970    0.1913746728142   -0.0361876647301    0.1088841728452 
  -0.1633211642025    0.1163573766454   -0.0128954263749   -0.0873051615857   -0.1359618734660 
   0.0187257512788    0.2486733930417   -0.1422129069841   -0.4157137715972    0.2802601996707 
   0.2561185204643   -0.0891438132335   -0.2382076508472   -0.2573378521544    0.0740717577809 
  -0.1243274267664   -0.3067113824657   -0.0700989212173   -0.2243793186337   -0.1240504024065 
   0.0215867826746   -0.2685337257480   -0.1356570093923   -0.1322726707693   -0.1070989858425 
  -0.0070066650502    0.1502578270027   -0.1368335135800    0.1594026947135    0.0594876558745 
  -0.1729558787394   -0.1185868306534    0.0559617483943    0.1594814490480   -0.1265070348702 
   0.1194862728331   -0.1682096161097    0.0914746328861   -0.1225992667994    0.1340875721210 
  -0.0353682903912    0.1121403537381    0.0870323211505   -0.0270306156705    0.1305352072452 
  -0.0048704313638    0.1349757674298    0.0845171598601    0.0775258248694    0.2890485134353 
   0.0134023440385    0.1706011104892   -0.0111255560277    0.1990574747637    0.0247149265376 
   0.0034322718441    0.0530039043048    0.0518530770696   -0.0078779716243   -0.0250500374945 
  -0.1197324004993   -0.0806261318118   -0.1059926583086    0.0720827304842   -0.1642312802496 
   0.0543297354282    0.0473611826206   -0.0090768302347   -0.2383453718602   -0.2141270553130 
  -0.2591556217984    0.0703341520807    0.0116336083523   -0.0726715697446   -0.1114749548041 
   0.0459600333395    0.0774463791169    0.1474598201260   -0.0275062151260    0.0219457173308 
  -0.1514692027748    0.0234687165117   -0.0832841187249   -0.1574181568845   -0.0361484960593 
  -0.0986718291403    0.0854353534351    0.0872772848276   -0.1141461268440   -0.1904651833207 
   0.0219431489399   -0.0184458268208   -0.0263594570004   -0.0986949295793   -0.0684347633298 
  -0.1063201951765    0.3028572520887    0.0472120227217   -0.0358826817625    0.1986104357827 
  -0.0197814014363   -0.0387922723750   -0.2288726225334   -0.0004378207211    0.1968737082993 
   0.0370439343741    0.0863090712808   -0.2001232684110   -0.1009636533887    0.1303365787115 
   0.2825376095855    0.0473943697690    0.0059985588936   -0.0264395768452    0.1069750703414 
  -0.0279233441431   -0.0286398047888   -0.1800767546444    0.0329749890556   -0.1253849790189 
   0.1692036087547    0.1041363019037   -0.0168929258084    0.1681056404670   -0.0780167356455 
   0.0216455758017    0.3226073893417    0.0343657939895    0.0321763158137    0.2663986444855 
   0.1580088773306   -0.0163271712256   -0.1791678450149    0.0211859800200    0.3213241078562 
  -0.0802564393466   -0.0513692403700   -0.1031161495314    0.0536014351969    0.0970596385800 
   0.1578268875794    0.0935222771256   -0.2036127168066    0.1716775948363    0.0082726846483 
  -0.1429599933249    0.0903786597537    0.0431749430700    0.2372924631655   -0.0514586454263 
  -0.0615901329260    0.0724563492568   -0.1434779824187    0.1000513362532    0.2205447826682 
   0.0225625563312    0.0567790942604    0.1615825938290    0.1094306579625    0.1264834102126 
  -0.0322395046680   -0.0702823421382    0.0985024866248   -0.1426745704619   -0.0461867208077 
   0.1073629052543   -0.1657909379502   -0.1227082803024    0.0390466731489   -0.1877409621772 
   0.0007287485375    0.0106219292082   -0.2414404405502   -0.1281699788452   -0.0998480210509 
  -0.0726953995285    0.0783763432994   -0.2474329157283   -0.1844541438876    0.0589273022517 
  -0.0004973837133   -0.0854268242756   -0.0488822244771    0.0902716888977   -0.0759770857182 
   0.0288371293654   -0.0576367979515   -0.1169793176449   -0.1034039616988   -0.1307661543177 
   0.0337862857551    0.0052641383514    0.0562234710388   -0.1120658733687    0.0512830267695 
   0.0447331117452    0.2077702893913    0.0821074017019   -0.1243372121712   -0.0170126908880 
   0.1090575983201    0.1431030132487   -0.2300988150462   -0.1334208498782   -0.2558938272766 
  -0.1016503640689   -0.1634659064750   -0.2384638759995   -0.1109550054916    0.0436562873718 
   0.0661447735890   -0.0394806333855    0.0718894542447    0.1477196631520    0.0035310890348 
   0.1216296975332    0.0481376377990    0.0659517047039    0.0666529914852   -0.3072339948579 
   0.1789234793776   -0.2036797444954   -0.0638370696287   -0.1740863587961    0.0380553387470 
  -0.0772050642304   -0.0678980330642    0.0238280051973   -0.0229002983683   -0.0918598641065 
   0.1370539345774    0.0974699906652    0.1160193132885    0.1918659833280    0.0337746979612 
   0.2400063478559   -0.0967539782297    0.0540809206978    0.0377968000620    0.1585301602143 
   0.2491358835037   -0.0982238571439    0.0605167812737    0.0879905436119    0.0480313018811 
   0.0055590394687   -0.0098067055945    0.1001166187387   -0.0392625911801    0.0474717290414 
  -0.0209607428611    0.2088073033777   -0.2017586430324   -0.0851671065716    0.0491928560671 
   0.0235350670424    0.1251103764234    0.0028933761792   -0.1480359370044    0.1396095803265 
  -0.1063244212607    0.2048871508414    0.1147039142172   -0.1053814731948    0.0883119431365 
   0.0635830692506   -0.0872928400903   -0.0401875883044    0.0747155088629    0.2494398382748 
   0.2070155832720   -0.0679847200455    0.0868753092022    0.1357358085946    0.1781152566472 
  -0.0596162931688    0.1478706871017   -0.0235104311458   -0.1268196074043   -0.0454712338999 
  -0.0792742749710    0.0001451962966   -0.1243592052096    0.0995491995315    0.2106855471903 
  -0.0748403383572    0.0492034263261   -0.2431185008709    0.0947152281460    0.1322397430377 
  -0.1498076911186   -0.0400696233344   -0.0667647231162    0.2315776907157    0.2104819984337 
  -0.1164585725017    0.0220245224586   -0.1088163111088    0.0947030848108    0.1308415575636 
  -0.2832076017458   -0.1779945669069    0.0165162573942   -0.0328350459060    0.2809987220134 
   0.0502039085501   -0.0627266980345    0.0396246092673    0.1599749393462    0.0118864179626 
   0.0621775023772    0.0256577216412   -0.1495208543772   -0.0014479202225    0.1625820716573 
   0.0735269323660   -0.0123982574869    0.0956364759198    0.1016152161011   -0.1141528269836 
   0.1219572094893   -0.0267805419615    0.1382578323065    0.0399840684502   -0.0895820356132 
   0.1992819139876    0.0509699366970    0.1830442356843   -0.0619613615747   -0.0594041875475 
  -0.1281620060322   -0.1129086314094   -0.0421507643608   -0.0689929736760    0.1497807460379 
  -0.0498374071387    0.0309335025525   -0.0804278054570   -0.0491887624233    0.1530824425446 
   0.1298502358499   -0.1463421969158   -0.0347291665450    0.0967171167484   -0.1055646243649 
   0.2614484749605    0.0880400507818   -0.0889178198278   -0.0318308899428   -0.1192992520531 
   0.0666770573468    0.0873338910324   -0.1463021175977   -0.1576911051071   -0.1641179290840 
   0.0920071051258    0.0540167375654   -0.1340456082884   -0.2380031582551   -0.0343876172119 
   0.0930155221268    0.0646557056914    0.0702922936925    0.0806014660997   -0.1509465491162 
   0.0651784013162    0.1770988627102   -0.0181185573908   -0.1874621832778    0.1089279908698 
  -0.0806761710123    0.0206308718507    0.0564280887888    0.0237116556903   -0.1285754525146 
  -0.1403509276073    0.1155662590357   -0.0862788441855   -0.0129244541157    0.1347534501103 
  -0.1635527629390   -0.0796034436955    0.0402589726521   -0.0465851991679    0.0046325576770 
   0.1383693266766    0.1067496290485    0.1472159903147    0.1778493831612   -0.1452561522945 
  -0.0871117463953    0.1469082253614   -0.0873285919533    0.1599790987007    0.1186135366591 
   0.0096226698874   -0.0704957230531    0.1928818185139    0.1450124633396    0.0650394922654 
   0.1761545957345   -0.1494724357894    0.0235723969600   -0.0327418279774    0.0542846796879 
  -0.1518074056852   -0.0874453984799   -0.0869467825614   -0.0360224334024   -0.0176244124809 
   0.1027583760146   -0.1590770949887    0.0061947806417    0.0682600243531    0.0527577427788 
  -0.0721517645456    0.1245251909780    0.1325987409934   -0.0303227523620    0.0933411729556 
  -0.1868254299463   -0.0746186544202    0.0289190944978   -0.1784579192607    0.0233956433236 
   0.0339202608034   -0.2346198974832    0.0237038623759   -0.0557150825188    0.0027279000095 
   0.0671459069870    0.0940130928256    0.1324804893014   -0.0225995664120    0.0941443535390 
  -0.0977171731909   -0.2255941410465    0.0891263901666    0.0931616611225   -0.1146326770194 
   0.0060577098594   -0.1136822974963   -0.0204706120159   -0.1457541112951   -0.1831722152443 
  -0.0517163976976   -0.0148865798939   -0.0895812050960    0.0761556908292   -0.0973607439418 
   0.0921439316251    0.0812391198735   -0.0851918872316   -0.0360660181388   -0.2702114959612 
   0.0157039064611   -0.2886269031265    0.0152500432232   -0.0933920160259    0.0434638725650 
  -0.1833330516201   -0.0461008389073   -0.1810088331516    0.1299260032104   -0.0413626090015 
  -0.0519575151019    0.0216581005701    0.0670363739918   -0.1905594518767   -0.1207943246771 
   0.1003651412634    0.0584143476328   -0.1908338214079    0.0879444802732   -0.2348946004147 
   0.0152385440742    0.0240717662093   -0.1282640139753    0.0065351917629    0.1443107617196 
   0.1009491770336    0.1031716124075    0.0264712531360    0.0387406942417   -0.0333009187743 
   0.0058100373909   -0.2081251616584   -0.1291016520160   -0.1348639661937    0.0697605688932 
  -0.1915019350782    0.0368081169620   -0.0549165745132   -0.0743483829982   -0.1206890712493 
  -0.1210630635435   -0.0648700096289   -0.0803872854577    0.1892602164003    0.1220349186901 
   0.1497440775686    0.2546105795588    0.0511583437651   -0.0912393565296   -0.2085599118029 
   0.1618313051579   -0.0062916917205   -0.1221514261679    0.0463967366862    0.0888389381933 
   0.2100591317818    0.0772391236525   -0.0001948132221    0.1035281216230   -0.1156408429166 
   0.1122554683955   -0.1142725996376   -0.1794930258681   -0.0014459439978   -0.1440011035625 
   0.1464898059442    0.2641161643075   -0.1227538758857    0.0093770885479   -0.1892228990068 
  -0.0677924674832   -0.0011729163433    0.0450304010417   -0.0835025692174    0.0828182275556 
   0.0414403689820   -0.1863711550833   -0.1845195059007    0.1394766285071   -0.1040063974653 
  -0.0106705036298    0.1550515840737   -0.0845007213755    0.0744057142260    0.0950885209121 
   0.0869950041248    0.1058577148842   -0.1110824970092    0.1810587717311    0.0172402104141 
   0.0911559312428   -0.0624774500327    0.1803289684332    0.1427513431312    0.2240167902373 
  -0.0867837271619   -0.0819324996515   -0.0113178418825    0.1501504905150   -0.0702814917315 
  -0.0001962922284   -0.0014529766439   -0.1574776742121   -0.0668108934051    0.1015997017716 
  -0.0673381987009    0.1729618098354   -0.2074757049725   -0.3106169104173   -0.0941651548430 
   0.0537881237280    0.1460712842572   -0.3185905169899   -0.3180082378008   -0.1191899572940 
   0.2269222645043    0.0449931436142   -0.1776654117019   -0.1379381071016   -0.0045694435380 
   0.1501751685436    0.2237148351793   -0.1086848183469   -0.0725652052841    0.1716871542324 
   0.0802663768861    0.1917696985342   -0.0082664344012    0.0418366450732   -0.1982017859119 
   0.0947730030368   -0.0066360213137    0.0129025186941   -0.0009825837834    0.1480151612500 
   0.1177831349449   -0.1481847587172    0.1503145318901   -0.0260761445554    0.0049441929267 
  -0.0366790918868   -0.0408285553782    0.0589936422317   -0.0828101928434   -0.0700842853140 
  -0.0834810064708    0.0757358803015    0.1357961074497   -0.0012059784450   -0.0913068232298 
  -0.1458597752281    0.1562533920203    0.0271322829210   -0.2309282196186    0.0538126730365 
   0.1739389151027   -0.1753752751623    0.2203853542458    0.0691058318405   -0.2181682318766 
  -0.1637884939571   -0.0731891238290    0.1825290614326    0.0579783239470   -0.0615734883911 
  -0.0651425088633   -0.0934232885485   -0.0023942148433   -0.1699171227264    0.1484694909438 
   0.0040553643578   -0.0983442107260   -0.0412728602170    0.0974205301412   -0.1235158329666 
  -0.0344778229402    0.0746424426464    0.0155968897320   -0.1756328414107   -0.1116860252620 
  -0.1868680729101   -0.2149563753404   -0.0851475723841   -0.2275888124115   -0.0977816851809 
   0.0010681109572   -0.0770200092520   -0.2567832505696    0.0031310680201   -0.0243997798364 
   0.1123737631505    0.0501056896320    0.0524916120399   -0.0852824578553   -0.0648244149783 
   0.0867042797006    0.0633761757760    0.0778291027212    0.1699721242583    0.2046742275358 
  -0.0197022195949   -0.2102056425332    0.1394755385454   -0.0714847267510    0.1329031103732 
  -0.0135215942201   -0.1468995411519   -0.0467060464582    0.1642603429382   -0.0708141100898 
  -0.0364017447592    0.1609607986360    0.2397145534356    0.1994340996898    0.2145448594710 
   0.0362791553297   -0.1099643462575    0.1083854994258    0.0416434561151   -0.0879725613956 
   0.1048695302167    0.0376554940894    0.0682825995349    0.1310584388105    0.0071443221276 
  -0.0604514920244    0.0503855793328    0.0656734762391   -0.0225484185655    0.0520532124059 
   0.1758363929108   -0.0784976898542    0.0156908580938    0.0251697245827    0.0858663326087 
   0.0052910400908   -0.1496545803468   -0.0646084903594   -0.2091526782912    0.0267940259314 
   0.0150679507876   -0.0392558912107   -0.1408296659846   -0.1787103265815    0.1143379678146 
   0.1313763641479   -0.2664142847788   -0.0352958529492    0.0576657218756    0.0932875563450 
   0.0795769101801   -0.0958017634250   -0.0734952170254   -0.0672789796585   -0.0866015234454 
   0.0350689819862   -0.0656825303907    0.0829858814598    0.1454125240421   -0.1316925818509 
  -0.0672031950861    0.0797760227234   -0.1857514881401    0.0373535829405    0.1503602524462 
  -0.1105111440170   -0.0355173419279   -0.0187391794784   -0.0038738855491    0.1054159343684 
  -0.0323238608679    0.2068469944969    0.1624453944158    0.0788522080718    0.1014822888692 
  -0.0179858134159    0.1786171756953    0.1080589202285    0.1336887980671   -0.0104938344685 
   0.2623012954085   -0.0792160323258   -0.0721982648438    0.1383262279336    0.1462223844134 
   0.1561218823312    0.1168512612336    0.1666557896685   -0.0517684291010   -0.0360213528557 
  -0.0182162108930    0.0295103621230    0.0934825031861   -0.0587865019837   -0.0673207264662 
  -0.0619075553495    0.0641214788195   -0.0665132152972    0.0786407460916   -0.0517417789992 
  -0.1535353235189    0.0326799249147    0.1238744426780   -0.0747371649492    0.0928016378689 
  -0.0278706813520    0.0027823361718    0.1806829698339   -0.0399764831518    0.1359371829192 
   0.1140540937542    0.1889738098453    0.2223037560936    0.0064146347844    0.0478204428414 
   0.0567292495768   -0.0309902979720   -0.0140792627989   -0.0426088941826   -0.0953941665309 
  -0.0003198756073    0.1016377187954   -0.0812731053336    0.0280949700859   -0.1704440772779 
  -0.0159529615645   -0.1578514309102    0.1475810845789    0.2542547390735   -0.1999875408041 
  -0.0478355811525    0.2081647347870   -0.1056987437573    0.1082329059696    0.1013885451682 
   0.1412811266892   -0.0535827618641   -0.0017885496007    0.0403455833503   -0.0646187718043 
   0.1399953152535    0.1421050929264   -0.0097133614706    0.2605620926042   -0.0357307872215 
   0.0056476292286    0.2053074133874   -0.0208045180914    0.0800091594756    0.0463357172438 
   0.1465750628785   -0.0282821743219    0.1747169190713   -0.2138466776716    0.1496029076721 
  -0.1180764301005   -0.0686423676514   -0.0796631345423    0.1354817070160   -0.0775143358467 
   0.0168895371310   -0.2193828177669    0.0948241224159    0.0539405085250   -0.0775201599302 
  -0.0200000174388   -0.0623273813425    0.0377472661936   -0.0542005099513    0.1654430266893 
  -0.0402972792857   -0.0729611293455    0.0651484658088    0.2445994913099    0.0261526231668 
  -0.0703248476562   -0.0769280393066    0.1517140808477    0.0160202300377    0.1016925745213 
  -0.1742701864585    0.1178582194520    0.0524615549178   -0.0197980738114    0.0519721389897 
  -0.0291747883490    0.0450061970284    0.0894892845034   -0.0607482709282    0.2268651587438 
  -0.0378965171393   -0.1812212546542    0.0177025045300    0.1229536335098   -0.0006230109313 
  -0.0070641765375   -0.1714865674568   -0.1537570699252   -0.0729175104283   -0.0655448950372 
   0.2406720502242   -0.0018363845224   -0.1371448476514    0.0803771300129   -0.0466393004137 
   0.1370282413281   -0.1961811629954   -0.0641289878105    0.0648526949612   -0.0697808144173 
   0.1945789985365    0.0555886336393    0.1382131632852    0.0318013095502    0.1320766899590 
  -0.0441726833708    0.1389494564842   -0.0459550537000   -0.0729077244106    0.0630089852392 
   0.1586213673057   -0.0733724930788    0.0494562421948   -0.1306769085190   -0.1357766732102 
   0.0398826452745    0.0258202452799    0.0690612603168    0.1404350163533   -0.0442815960403 
   0.0929898763771    0.1517088281881    0.0940193701852   -0.0379401128318    0.0913126309726 
  -0.1877195508056   -0.0701351661123    0.1403876034238   -0.1911636505900   -0.0463340665367 
  -0.1841453339887   -0.0702248882279   -0.1631015553609    0.1284723071168   -0.0630530193930 
   0.0184340040560    0.0247362733819    0.1649972052300   -0.1090190502191    0.0503954048009 
  -0.1204703009804    0.1209431263342    0.0816362757645   -0.0469642539026    0.0052276543613 
   0.2574162838630    0.0578274472356    0.0435372264516    0.2266328901171   -0.0564393773749 
   0.0032095065906    0.0909522314245   -0.0016249216203   -0.0019923720214   -0.0091952219018 
   0.0675240472150   -0.1504166951789   -0.1984878104537   -0.0984533084413    0.1494080133575 
   0.0051372859385    0.0411221438245   -0.1942308023367   -0.0710474890252    0.1209130966626 
   0.1213216541237   -0.0924528966228    0.2694857184871   -0.0470724497174    0.1953896039665 
  -0.1135548914266    0.0938278994324    0.1451128637974    0.1223625588524   -0.1553484870447 
  -0.1909543016601   -0.0071208543118    0.2123616428879    0.1407082783516   -0.1315106081947 
  -0.0589984601967    0.0380075526728    0.1020793307901   -0.0420142061084   -0.0205167458289 
   0.1369375151331   -0.1049409685781    0.0202168615723    0.0491779956850    0.1466962202236 
  -0.1778415108702    0.1975189390319   -0.0981937349242    0.0942539276712   -0.0877752271880 
  -0.0127426141750   -0.0814264358138   -0.0942950290484    0.2149757685759   -0.1762192656531 
   0.1553344337070    0.0043241384689    0.0328141144584    0.0831991539083    0.0745592287550 
   0.0033140976642   -0.0164607691721   -0.0466683823289    0.1688554641306    0.0757784574122 
   0.0021962141038    0.0842258045833   -0.1297793331105   -0.0125015061731   -0.1381553918869 
  -0.1331554103691    0.0115035996661   -0.0017408241357   -0.0062015505306    0.2408892885865 
  -0.0824485635446   -0.0713168629193    0.1182230024049   -0.0731529664358    0.0770367169862 
   0.1969226705447    0.1091287282049   -0.1051169874767    0.0648894728461    0.0002602941237 
   0.2625334402343    0.0302380375573    0.0467968341344    0.0063968637700    0.0984075118404 
  -0.1252588880497    0.0307072413577   -0.0261863013044   -0.1655537352457    0.1844544599762 
  -0.2356160006538   -0.0183141617605    0.1903631900675   -0.0090201081495   -0.0617972690990 
  -0.0776244266580    0.0315944409398   -0.0289487009449    0.0228952977171   -0.0254628530815 
  -0.1531580843354   -0.0930131595986    0.1038502920859   -0.0256924054528   -0.0021212674015 
   0.0389250561720    0.0219301786186   -0.1624717685797   -0.2281119091562   -0.1205411484152 
   0.0251076483548   -0.0505018425137    0.0665477268715   -0.2626337666509    0.1375223914232 
   0.1269832344815   -0.0054068545045   -0.0509305523127   -0.1505359083499   -0.1847209090873 
   0.1290115226424   -0.0262689229242    0.0109371475421   -0.0911019719196    0.0174254408709 
   0.1546686095445   -0.1265555825378    0.0078461920406    0.0780017108842   -0.0796393800533 
   0.1721786816286    0.1044427037432   -0.0830285268931   -0.0051950932460    0.0015101333324 
  -0.1090700108010   -0.0172983711449    0.1667211163724    0.0993856047372    0.0702939650878 
  -0.1512883292852   -0.0782158475924   -0.0424803144337   -0.0010745392373   -0.1490280875738 
  -0.0883371519825    0.1324917189758    0.0088015900747    0.0781415710418   -0.0922030625246 
  -0.0937424800078    0.1151281998649    0.0393516734095   -0.0709909259363   -0.1149602093083 
   0.1429781101542   -0.0411974023138   -0.0018605274376    0.1300789359636   -0.1375453715008 
  -0.0715067568022   -0.0544762184736   -0.1446306922456    0.0077487923477    0.0995784227299 
   0.1663327808269   -0.0771824879655   -0.0837168335015   -0.1655995394353    0.1263369133583 
  -0.1564606755700    0.0879600873805   -0.1313416325174    0.0842109797980   -0.1706386112589 
  -0.1382467153031   -0.0328721698183    0.0235152741847    0.1708567336439    0.0231084289000 
   0.1335602174056   -0.0220083887695    0.1300199494514    0.0552434517819   -0.1483706606301 
   0.1480828442146    0.0937724061283    0.1921230544801   -0.1006708765268   -0.0402535872110 
  -0.1607514165645   -0.1843688488497    0.1532687023945    0.2059147303467   -0.0105192646444 
   0.0163067084104   -0.1458172274765   -0.1499428205085   -0.0771393086780    0.1086631572883 
   0.1731473218410    0.1088207880847    0.1281384131650   -0.1501762923007    0.1278091164924 
  -0.0166131988872    0.2138678993838    0.0528369767039    0.0675222803409    0.0515106502919 
   0.2016149418889    0.0698655518040   -0.1013565146165   -0.1897442763139   -0.0655909430780 
  -0.0622829592722    0.1000973667797   -0.0354200317861   -0.0604350241196    0.0373971526080 
   0.0636665390097   -0.0090117161098    0.0341204851809   -0.1510492427793   -0.1590339119151 
  -0.1994811016720    0.0324121057882   -0.0299303630796    0.0258390109415   -0.0425373983769 
  -0.1113284272690    0.1179872826848   -0.1380851632283    0.2008011100147    0.1150659242331 
  -0.0971637192098    0.0801073559422    0.0805408560425    0.0845880350565   -0.0651358551433 
   0.1727570147430   -0.0609429901877   -0.0208319556450   -0.1401456978600    0.0176825260013 
  -0.1166352884384    0.1228072874053   -0.0023378537490   -0.0024301514380   -0.0402333644096 
   0.1639038506805    0.0344908452846   -0.1524826125421   -0.0070953477348    0.0015656530311 
   0.0289705050441    0.0936670321941    0.0890401656792   -0.1014388435317    0.0380591925692 
   0.1149474128256   -0.0335288622481   -0.1156841545418    0.1994356785303    0.0821458108653 
   0.2279732902106   -0.0512903853677    0.2000806511470   -0.2465654286926   -0.0378584781333 
  -0.0476285985656    0.1718310391038   -0.0047598806644    0.1027184804461    0.0374422580024 
   0.0712148695730    0.1690983949001   -0.0695112014092    0.1444936425390    0.0436873155040 
   0.0177043308670   -0.0406793767829    0.0255095609915   -0.0809114792916    0.0704195009125 
   0.0895025449127    0.2369136564470   -0.0686072793917   -0.0931356438073    0.1182699314966 
  -0.1011128598556   -0.0761536490445   -0.0490854853247    0.2061141871323    0.0614375128325 
  -0.0974374819097   -0.0049364973208    0.0589026435254   -0.1432709630847   -0.1098576054135 
  -0.0031921215705    0.1317364991052   -0.1497977345301    0.0571388718534    0.1847043387147 
  -0.0766444632293   -0.0933785403033   -0.0782106780269    0.0987124742656   -0.0716525969118 
   0.1669186732595    0.1395517594542   -0.0719042780036    0.1640951468363    0.0766758266298 
   0.0360478912748   -0.1827515630772    0.0964428636812   -0.0234602908261   -0.0524008567705 
  -0.1666949218635    0.1384715198290   -0.0671668287075    0.0436175106969   -0.0763488865235 
  -0.1791092476278    0.1502629814948   -0.1653491338037   -0.1121886704570   -0.1265426778501 
   0.1792169823226   -0.1735968130567    0.1993886327123   -0.1845828164442   -0.0820846801049 
   0.1593869453088    0.0125405095910    0.0046171357106    0.0179317846263    0.0935529683223 
   0.1275337062917    0.0893851447575    0.0623926953374   -0.0980992458235    0.0014443699094 
   0.1699200249468   -0.1215906072774    0.1486395393224   -0.0182410654717    0.1104373805284 
   0.1668729352708   -0.1986821391935   -0.1065518333257   -0.0710358329398   -0.0674833049874 
   0.0416459696135   -0.0168119003969   -0.0910311945378    0.0598020253954    0.0016725713809 
   0.0303308261288   -0.0300929195093    0.0458636207148   -0.0728366952619   -0.0209138094333 
   0.1832154558084    0.1690655964600    0.0440760258249   -0.0813378316041    0.0574224627775 
   0.1737163801338    0.0291654010113    0.1204887992685    0.0951131592695   -0.0048458425473 
   0.0283661281121   -0.0167504710694    0.2333717201192   -0.0598230660800   -0.1018660376749 
  -0.0784533226306   -0.0667311295150   -0.1296099927286   -0.2007231649833   -0.0989207135897 
  -0.0872220328050   -0.0316660738223    0.0705171440020   -0.0011163751152    0.3021522963127 
  -0.2363407293544    0.0669370265977   -0.1711889960351   -0.1239678510180   -0.1088785031141 
  -0.0150956965329   -0.1019747329050   -0.0022813979919    0.0177596785590    0.0833280205050 
  -0.0211232027963   -0.1099691597384   -0.0326740258832   -0.0428189099022    0.0461311181256 
   0.0683729572963    0.0358398365972    0.0902723977168   -0.0701395532670   -0.0047136716665 
   0.1142167277951    0.0946722196015   -0.0238928220855   -0.0547246549173    0.1812100255931 
   0.0226474261049    0.0350201536493   -0.0336251996734    0.0089455073980    0.1053299025562 
  -0.1504968773342    0.0151104596497   -0.1978859118002    0.2803075304635   -0.0343934237840 
  -0.0846900233620    0.1453834989839   -0.0461643024959    0.1124007296109    0.2255340095976 
  -0.0946321442759   -0.1047925420139   -0.0102718912678   -0.2227808671965    0.1758544258610 
   0.1134205728744   -0.1960126784757    0.0373177158378    0.0990367100734    0.0112125373737 
  -0.0145563292168   -0.1624437826511    0.0680024203629    0.1149789681066    0.0235359954701 
   0.0345160296371   -0.1597181172284   -0.0651742317681   -0.1647047683332   -0.0840744364814 
   0.1807512804219   -0.0014097727362   -0.1627348537154    0.0230735969122   -0.1536708436057 
  -0.0583484093397   -0.1603650721475   -0.0489953271162   -0.1738620836291   -0.1620151749660 
  -0.0977522392019    0.1580256412276   -0.0113013583340   -0.0495764103949    0.1764496825688 
   0.1688443778730   -0.1062157945265   -0.0923272411813    0.0716741288311    0.0697059738767 
  -0.0468907985708    0.0989105469618    0.0428297211975   -0.0453774018051   -0.1728375799591 
   0.0896408233433    0.1534878447833   -0.0509528595988    0.0443391335056    0.0985523100595 
   0.2013157331616    0.1359830350399    0.0262487222206   -0.0963525262430    0.2589747261363 
  -0.1909538505565    0.1067840762194   -0.0025538701847   -0.0233263899219    0.0414028666078 
  -0.0345286936848   -0.1219949052519    0.2196691438963    0.0892238975685    0.0464237831617 
   0.2229030514548   -0.2007947413653    0.0617664866252    0.1347735983878   -0.0695450270227 
   0.0068836268742    0.1001166956035    0.0316789945835    0.1730983086081    0.1450521967142 
   0.0374961982352    0.1984713124781   -0.1032140101911    0.1111169799727    0.2083963413166 
   0.0285791528139   -0.0429424321326   -0.0881451875250    0.0071851800601   -0.1284421417189 
  -0.1595032030900   -0.1629339167540    0.0386887995554   -0.0145066502893    0.2091409335806 
  -0.2012517349834    0.0365897673934    0.0044776576943    0.1020325470999   -0.0159054095493 
  -0.1631455417337   -0.1651978571673   -0.0434223663947    0.1001122474495    0.0173541635012 
  -0.0988717596588   -0.0137790054296   -0.1026758389570    0.0274931502269    0.0356571501475 
   0.0879710973346   -0.0189208135806   -0.1159479581687    0.0288734610764    0.0756786449560 
  -0.1034901994184   -0.1374559522354    0.1599335221634    0.0375966219802    0.0241664044384 
  -0.2366969063075    0.1090166072835   -0.1030244050661   -0.0414796331031   -0.0615050952795 
  -0.1463118733189   -0.1297683619591    0.0846556678822    0.1960535911199    0.0225097652206 
  -0.1132102090884    0.1565354701627   -0.1190132348808    0.0888850696390   -0.1253679562817 
  -0.1524383545930   -0.0261323549422   -0.0224949821124   -0.0643857112558    0.0730734784675 
   0.1257084112872    0.1060504018258    0.0686748691444   -0.0956347943178    0.0905931012152 
   0.0629152979550   -0.1204480368228    0.0464331626262   -0.0248418159638    0.1769430733846 
   0.0208807099720    0.1350846074685    0.0496147627080    0.0336408659719    0.1811821690639 
  -0.0073555654167    0.1579467464544   -0.1014364506537    0.0120722979446   -0.2475377507723 
  -0.0692058573101   -0.0058907290965    0.0638960070203    0.0512930330730    0.0641127696878 
  -0.0777638288203   -0.1191168750596    0.1291840320814   -0.0606864924590   -0.0484106510115 
   0.1031743709710    0.0440022000843    0.0944348072977   -0.1196032482583    0.0166767487303 
   0.1218610848239    0.1573554333298   -0.0040108925568    0.1786625725121    0.0356832483480 
  -0.1267643144348   -0.1307733839537   -0.0878809944775    0.0999211217416    0.1721234851739 
  -0.1447072197723    0.0325549355768   -0.1824318392807    0.1107780730108   -0.0232324706336 
   0.0399473071822    0.0560142537505   -0.0518474470053    0.1065284604775    0.1269872797197 
   0.0838925986402   -0.1644001634177    0.0398495354450   -0.0859693161904    0.0279074539090 
   0.1991226141923   -0.1822417164312    0.0394477263152   -0.0770689055621    0.0834277749527 
   0.1140918527031    0.1367513409841    0.1497434575151   -0.0161015427278   -0.1934792360745 
  -0.0113046085553   -0.0383280911832   -0.1528320898536   -0.0455953296837    0.0610477180528 
  -0.0788080660133   -0.1790723777957    0.1659503157771   -0.0209153199266    0.0643446250940 
  -0.0675281181456    0.1355780819810    0.1131022787362   -0.1865713260077   -0.0039959769609 
   0.0246814715006    0.1492231965236   -0.0025942040175    0.1063291834103   -0.1445940981299 
   0.0178359332191    0.0548559692220    0.1005414575635   -0.1061125715202   -0.1616373519690 
  -0.0842633345697    0.0147977560299   -0.1627922638956    0.0659031580907   -0.2035330249825 
  -0.1259854950178   -0.0528979414517   -0.1007309972515    0.1077103328923   -0.2389801189692 
   0.1193216201028   -0.0593220844932    0.0939415303933   -0.0802292259891   -0.0564808736180 
  -0.0283617142005    0.0720252833448   -0.2224658772796   -0.0965501080852    0.0018641376002 
  -0.2060986529395    0.0274388776931   -0.1552043872776   -0.0223585408272   -0.1289913985388 
  -0.0309480584186   -0.0045600557452   -0.1332984403070   -0.0611314726484    0.1741782537090 
  -0.1338160602743   -0.1411621155542   -0.1750699441640    0.0974503761904   -0.0940390605778 
  -0.0153693664992    0.0451162895858    0.1429061551468   -0.0304883116544    0.0742407462769 
  -0.0554126541607   -0.0446198523017    0.0419060604349    0.1312511812492   -0.1049851750463 
   0.0121271358357   -0.2216808541014    0.0058484428372   -0.0673574920953    0.0730942924014 
  -0.0955722160209   -0.0526737113166   -0.1140063099593   -0.0706145228550   -0.1523779270620 
  -0.0077157890500   -0.0718116306711   -0.1727564159466   -0.0557286522024   -0.0997144950708 
   0.1851939625515   -0.0547402132073   -0.0235253672364    0.0810117778117    0.1484514345331 
   0.1405455734054   -0.1618027372997    0.1344491005813    0.1407897274032    0.0371127207903 
  -0.0287870474461    0.1704236132202    0.0979096111501    0.2604512924392   -0.1060045799124 
   0.1761372780542   -0.1249001689645    0.0425294559342   -0.0065746836981    0.0873072751929 
   0.0579278351053    0.1487921801733    0.2552183361035    0.0305296768189    0.0942803345529 
  -0.0103723425426   -0.1152988557309    0.0288924658478    0.0003872041796   -0.0346838113480 
  -0.0666433444305    0.0378614088168   -0.0816171002923   -0.1609351180900    0.1187188371225 
  -0.1853835066821   -0.1772328865020   -0.1510019479688    0.1272353229708   -0.0752037885090 
  -0.1079194083387    0.2271907213269    0.1556463457121    0.1706569344966   -0.1861853106596 
   0.1965691328866   -0.1195361555195    0.0167706058735   -0.1889008943991   -0.0136339227539 
  -0.0505631836915   -0.0522834614352    0.0946604324328    0.0518714385048   -0.0784485594576 
   0.0436868744460    0.0653400423141    0.0936946692697   -0.1058156533201   -0.0481801111034 
   0.1129200109603    0.2428587674417    0.0902126040224    0.1197157467948    0.1946471064679 
   0.0887018358509   -0.0174298096586   -0.0172046131559   -0.0684693023813    0.1235938735385 
   0.1710958567637    0.1220950476822    0.1923831817181   -0.1063317722347   -0.0306825603405 
  -0.2681953722789    0.0221389629262    0.0008700564102   -0.1166063782461    0.0910053933216 
  -0.1470807693007   -0.1211449360389   -0.0134947209600    0.0635185764676    0.0394677760397 
  -0.0522676355847   -0.1763404556744    0.1188559906663   -0.1477587720435    0.1697198863848 
  -0.1275126922219   -0.1237843133775    0.0248259494983   -0.0676868623440    0.0787463678800 
   0.1524844858843    0.1639975388486   -0.0419566767240    0.1220052582674    0.2125689236200 
   0.0317342524312    0.0088682936625    0.1224226689128    0.0476140358669   -0.0921822188185 
  -0.1433614184901    0.0936037452877   -0.0896254754770   -0.0906716880653   -0.0053166057663 
   0.1017381354901   -0.0674551155317   -0.0333877939795    0.0006786233109   -0.2100612665581 
   0.1054290925581    0.1399372568581    0.0199344867802   -0.0676456149520    0.0354530771987 
  -0.1289907002260    0.1833606757993    0.1044294970479    0.0723410100023   -0.2286538403619 
  -0.1493725366985    0.0567583807762   -0.1465763923714    0.0226722712792    0.0589447512170 
  -0.0492830027299    0.0786986963825    0.0643659383029   -0.0458274488698   -0.0344975114510 
   0.0488773910974   -0.2077493550367    0.0144491831774   -0.0191745694719    0.0458986467229 
  -0.0145424220954   -0.0827438436885    0.1297520064429    0.2015668068845    0.0078673742933 
  -0.1070846777564    0.1050790683255   -0.0444743113648    0.1327868119504    0.0491929585614 
  -0.1023805541949   -0.0300961651849    0.0144460546388    0.1165945911717   -0.2131455622846 
  -0.1147118938198    0.1032253974735   -0.1572099579068   -0.1475545730909   -0.1896408487944 
  -0.0395091177112    0.0471057549346    0.0342766067999   -0.1346373982149   -0.0153395867794 
  -1.6410627540287    0.0694527668321    0.3702661684976   -0.5295803741909   -0.5658669155308 
   0.4862501937755   -0.3655427918188    0.0381763816860   -0.3437140932107    0.5924939583778 
  -0.1441689377308   -0.3608384661782    0.3597088504722    0.3250135528585    0.7425554199549 
  -0.3666111480246    0.5085747425617   -0.4195049027286   -0.4627738577865   -0.3041764614104 
  -0.1250414049410   -0.0959721461189    0.3139415998784    0.2695418933274   -0.5086503232477 
  -0.4991098620606    0.1905632759569   -0.1832384330548   -0.4179616132190    0.3100383760792 
   0.2948560485419 

