# Neural networks weights generated in PyXtal_FF 
# total_species nparams 
2 1891 

# NET ndescriptors nlayers activation_func for layer 1, number of nodes for layer 1, ..., ..., ...., 
NET 30 3 tanh 30 tanh 30 linear 1 

# Scale0 
 75512.2299947545689     30.4016900525454  -8773.7651235860776  20459.8399992317718  -5535.3861708035429 
 -6776.2194813777160  -1083.6445213280322  31430.1975623898179  -3531.7355454520903   2992.6406013639939 
  1985.2696533171816  -1684.4322810739384  -4749.7662861658391  20128.4524478371823  -4259.1604819365448 
  -577.3039003651043   3762.0247855930875   3919.0292230666500  -7590.5404938585425  -1381.1741927193109 
 25541.0173427418449  -5361.1544949986674  -1102.4517702398718   3898.9624578522635    -29.9124888585334 
   -21.9294751184575  59546.9630562402963  -1586.1661895388104   1932.6063112584748   -274.9952470318334 

# Scale1 
505365.9515123752644  74280.4780537860643  13318.7460435245266 100458.9357529768895  17330.8381161078323 
 38273.1688108083326  29319.2845595466788 139853.3881064158049  21814.9299938023505  21357.2668776318424 
 27256.1308668989259  23183.0249914930682  51830.0877194935310 147427.6069801474805  34850.6485656095028 
 26990.1250314620956  28674.9014503889048  14367.2564638140138  35703.4685081401331  31516.8082271720268 
179814.2059928550734  26832.3671007226039  28439.6898010404584  17384.7265230859557  22311.8981503540672 
 21921.7212936849137 205250.5243296089466  41675.4704701368246  23190.7566049788984  47407.4322529023484 

# Coefficients (O)
  -0.2261834288369   -0.4685620077700   -0.2054592020927   -0.3519192559776    0.2451145119568 
  -0.0362124103669    0.3163940685891    0.4816956919682   -0.3314292714250   -0.0352249169473 
   0.0329763567654    0.0647335213539   -0.0246513006725   -0.1819036293832   -0.8340899630498 
  -0.4163340705819   -0.3745769392277   -0.2094732461407   -0.2420457821812   -0.2508655847431 
  -0.4341284532484   -0.4371195474107   -0.0891797919312   -0.0960601405366   -0.2466298428374 
  -0.0399067901544   -0.4297700876794   -0.4714222587661    0.2131881747497   -0.1838980865566 
  -0.2594092135383    0.7524164581513    0.0732722782173   -0.3933881002872    0.0177719232783 
  -0.0950215039000   -0.0746943966364   -0.0684234914792   -0.0302837612398   -0.4009007908326 
  -0.6534868741745    0.2293621711232   -0.2589072501424    0.0037638549512   -0.2502413116619 
  -0.2673981534210    0.0021641328001   -0.2006476861685    0.0534742252689   -0.6006738509198 
  -0.2470899474540    0.1813241426162    0.1382329632079   -0.3102776366067   -0.6446089890060 
  -0.7824342025750   -0.4870887495036   -0.4630119849337   -0.3497953641333   -0.1114154651690 
  -0.4235617263008    0.3417518137146    0.8863051768821    0.3089481404076    0.0244318302136 
   0.2263649763597    0.3255585029965    0.5103346908004    0.1653634008123    0.0847792867087 
   0.2182666854671    0.2622065432034    0.4423060181087    0.0544726186401    0.4305138803013 
   0.4688820669754    0.3031280806616    0.1707791970235    0.1291212297296    0.4489997036038 
  -0.1117189349797    0.2166822620769    0.2798348656653    0.0564141558327    0.0041248994647 
   0.0665096798445    0.0544385321655   -0.0760757217034    0.1308356385547    0.3776390339303 
   0.2354619198981    0.3341411648300    0.2756745436934   -0.9921304243570   -0.0771018923502 
   0.0722209142922   -0.1190667122494   -0.0542341300905   -0.3100725699117   -0.3167386858481 
  -0.1022405976995   -0.0343215128103   -0.0373990713386   -0.3021763443876    0.0868735548380 
  -0.1992170751543   -0.4388502399755   -0.1150784749401    0.0675905106106   -0.1081949801569 
  -0.1574802792628    0.2680838591205    0.0191324344441   -0.1796752197716   -0.0023230390668 
   0.1664502044268    0.0721793249534    0.0198704346069    0.1316163359276   -0.0888151071815 
  -0.1034400351830   -0.3868886523016   -0.2890517462469   -0.2624655676760    0.7084724362726 
   0.3264704835817    0.3799208812518    0.4017056633266    0.2242095785829    0.5263427619569 
   0.3083231318898    0.3319522047403    0.3231884743059    0.3676046561321    0.2530985093456 
  -0.0015519521920    0.4845992305631    0.2144259793920    0.1624840895235    0.0392993450627 
   0.1342764354402    0.1539877518397    0.0182072698943    0.4128920120057    0.2918453905464 
   0.1869669962880    0.3826647277389   -0.1190475653300    0.3758075692227    0.0065086251193 
   0.1883919219075    0.4268205479254    0.4026979691736    0.2769525747037    0.3543010979226 
   0.8910295962789    0.3941229922137    0.0937608217052    0.1896535308941    0.4590216170167 
   0.3530586118857    0.4802352325670    0.4623278116977    0.4055892788745    0.2330952739794 
   0.6089381033973    0.3055968085774    0.4800989598467    0.2670099358729    0.3749284942321 
   0.3428709602010    0.3336953970341    0.4079142841686    0.3640537850836    0.3471225339064 
   0.2100654288262    0.1181450888954    0.1076255664021    0.3432579964358    0.2189688058565 
   0.0483864274551    0.2816769478052    0.1785280245569    0.2898385716817    0.5375315804944 
   0.4548472841317   -0.8590255903234   -0.3087662068650   -0.3599289131603   -0.3276903247730 
  -0.0104830219106   -0.5493148705167   -0.0989989810888   -0.0271779698431   -0.0800440334000 
  -0.1087348426102   -0.3964915540391    0.2131092541587   -0.3040161971924   -0.0723962438721 
  -0.1623981743384    0.0740314995177   -0.2248052005688   -0.3956642948735   -0.0308091363653 
  -0.1904585304837   -0.3011327775970    0.0186613748508   -0.0532166269432    0.0554098474348 
  -0.0115820635277   -0.1843510035973    0.1013552447632   -0.0987218914802   -0.2558526023713 
  -0.2617547269536   -0.3282663823033   -0.8469493871317   -0.1459408015781   -0.1800114813731 
  -0.3970779800475   -0.1718355370062   -0.4738384758808   -0.1360014216658   -0.2118871728077 
  -0.2890643287438   -0.2185771508667   -0.3396715251010   -0.1658239662446   -0.4625125396753 
  -0.2157460195358   -0.2701265621772   -0.2251702660928   -0.3358451020901   -0.4299225311114 
  -0.1457772280515   -0.2403660515981   -0.2096196797852   -0.0578898367809   -0.3047402008198 
  -0.2717921418516   -0.2534842015762   -0.1343134498376   -0.3509226475221   -0.0544531506649 
  -0.1952561266787   -0.1977832856750   -0.4138604053303    0.6587511962942    0.2458125975632 
   0.0169985325373    0.3658836693847    0.0574951088553    0.3192966117281    0.2382333898418 
   0.0725994339569    0.1422994176462    0.3640958900422    0.1398350123947    0.0499262998622 
   0.2291664409651    0.3121147368841    0.0574785364902    0.2089347982656    0.2378877273390 
   0.1710160465709    0.2416728296863    0.2756923641892    0.0448183661971    0.1549606306997 
   0.2177605112597    0.1273051016345    0.2782978354057    0.0405054440618    0.1127339861211 
   0.1209689263754    0.2801974593386    0.1663487205083    0.2262834759148    0.0279947163592 
   0.7169546568764   -0.3848434255666    0.2779306043747   -0.7898710056486   -0.4009994243109 
   0.1414189942013    0.0006904008862    0.3254906746838   -0.0609169497356    0.0199424563192 
  -0.4061790110526    0.2728043600696    0.2419167827329    1.5153788655783    0.2099208683063 
   0.0979596753639   -0.1646312848359    0.4714015848982    0.0471535056814   -0.5413452386249 
   0.9600432316067    0.1207064058519    0.2231164744589    0.2402742002533   -0.0989764920148 
   0.2589998706941    0.3543413343275   -0.3075706420757    0.3190617826237   -0.0610802810753 
   0.9035607469527    0.3770164646390    0.2522593913861    0.2387382691669    0.4330225957315 
   0.5723802112301    0.3437959807248    0.1345402553498    0.2147179937613    0.2456973947060 
   0.3562150221049    0.0833234886005    0.3093924064921    0.4602412085085    0.2573669061684 
   0.2313879657385    0.0400561609318    0.2964242051341    0.0631218514946    0.2341716795686 
   0.3910091290443    0.1723111716352    0.2359383187715   -0.1740992574924    0.2502214703155 
  -0.0089000390229    0.1947238139257    0.1929806894672    0.1393178060983    0.2285903219702 
   0.3836792410828    0.9662012273428    0.2282944106337   -0.0989424418446    0.3595938539205 
  -0.1550513135473    0.2899077310847    0.3279196824584   -0.0998252279566    0.7980182880353 
   0.5523132209105    0.0648889456133    0.1072144316295   -0.7112161411438   -0.1547109267469 
   1.2843277029608    0.8109506219465    0.3281479487684   -0.3520685692098   -0.6115734654831 
  -1.0546108767829   -0.4765456356838   -0.0408164893767    0.4763947349744    0.7339394231134 
  -0.0962242934857   -1.4417406700793   -0.7500693520591   -0.1363481256634    0.3495074269280 
  -0.4317822529622   -0.0907563656460    0.9558595292432    0.3323948024507    0.3320659055425 
   0.4405483099496    0.3745540628364    0.4418162806562    0.2462783239333    0.1832953269345 
   0.3774853806708    0.2649622423412    0.2867988742459    0.2948934125118    0.2743609024145 
   0.3758540193647    0.0879187649492    0.0188238187594    0.3532527709683    0.3435849733816 
   0.2561379406177    0.1978494672761    0.2453769839610    0.1284589455093    0.2112181897983 
   0.0249520552480    0.1819419817979    0.0271549967602    0.4182511010089    0.3133527171232 
   0.2627238095806    0.3700198731587    0.4663024343281   -1.4286618192083   -0.3268919380893 
  -0.0040898265999   -0.4563098899697   -0.4213120598318   -0.2515582464031   -0.3665702499677 
   0.0193265890710    0.0329258863931   -0.0158610251499   -0.9284959988035    0.2885681976728 
  -0.4607662505561   -0.4764998331345    0.1231568217474   -0.1105122687042    0.2273358921365 
  -0.2902158600432    0.8770087658976   -0.3907001579026   -0.2505364628669    0.1921258055872 
   0.1842430390192    0.5510328792254    0.5527931010233    0.1563761524394    0.4277698018736 
  -0.1783366010695   -0.1829361737215   -0.2103117930556   -0.3906649788697    0.7952941621776 
   0.0762382205567    0.3753921939975    0.1099527322515    0.3082657264587    0.4686866050438 
   0.3203914325353    0.1796283114221   -0.0043381203792    0.0886057026012    0.3122394689090 
   0.1013186541258    0.3823539005343    0.3154027372707    0.3189375403157    0.2215781163152 
   0.0113025041547    0.2442816087637    0.0076837544962    0.3624962885644    0.4018223747378 
   0.2057946197779    0.2957763393175    0.0582786325252    0.2902308501429    0.2513349130829 
   0.3356034744531    0.3435157474985    0.0979111159020    0.3293298627175    0.3864718372936 
  -0.7200698468120   -0.2487130350089   -0.2086526401586   -0.4029005828516   -0.2536838806964 
  -0.3319441419068   -0.1484914398567   -0.0760696426928   -0.2139226086547   -0.2284274537948 
  -0.2175090977498   -0.3208480159391   -0.3082846195430   -0.2354965480665   -0.0579481682343 
   0.0270314299491   -0.1576406421144   -0.0681304065550   -0.2660139517402   -0.1022416049729 
  -0.2933304559536   -0.0214088969794   -0.3674884528378   -0.0707890285897   -0.3336392222901 
  -0.1851723422984   -0.2423243249111   -0.1484090217981   -0.0674940489719   -0.2752243374901 
  -0.2754040637328   -0.9750181899084   -0.0955446989090   -0.3964642295139    0.1468908411294 
  -0.3347929842900   -0.0090474200129    0.2860795119044   -0.0153675286628    0.0495364198348 
   0.4224209238343    0.3020978196139    0.3849935265604    0.1799785802177    0.1605125861872 
   0.6093345863954   -0.2345484666089    0.2892917362085   -0.0941193749994    0.3787376374283 
  -0.1725550060208   -0.1451303832395    0.0787295960020    0.0525972731076    0.2395221030859 
   0.2676317453534    0.1599218170792    0.2529251579116    0.3214500372717    0.0895028140464 
   0.0062259515160   -0.3529432234179    1.1431869174938    0.2802038295586    0.2709778183518 
   0.5645558741967    0.3355926504459    0.4951127460435    0.3711821487553    0.3642399091666 
   0.3586945708592    0.4715333180125    0.4274209148936    0.1918338325194    0.5306047566674 
   0.4318683377085    0.2903672188676    0.2842376905633    0.4249443305357    0.4713801083870 
   0.1246076487915    0.1973054081310    0.1926199735857    0.4466830385574    0.2060110117729 
   0.0392190402151    0.3117624894973    0.3792142247617    0.1523888737602    0.4842360460466 
   0.2333456235909    0.5465950973696    0.3057312672415   -0.0742046330592   -0.0743489967705 
   0.4381242620536   -0.0741236360419    0.1485749114386   -0.0609776516006   -0.0354449658292 
  -0.2305676251575    0.1524717786094   -0.1527843206210   -0.3268953062148    0.2248666469290 
  -0.2526162904546    0.0424088850437   -0.2727037787711   -0.1596231476266    0.0143773303643 
  -0.2064113774451    0.1909053236990   -0.4565718786787    0.0874718929748    0.3183080453418 
   0.3081285679161   -0.1708384114311   -0.2362565736237    0.2094842490821    0.0434739889838 
  -0.1163433186763   -0.0793808945786   -0.2227448250863    0.0829824931233   -0.3587106272082 
   0.4768106693460    0.0728248085547   -0.1311280761260    0.7851639467516   -0.0929105414201 
  -0.5145888805808   -0.2443864584774    0.4146453272181   -0.3807025417452   -0.2423344147651 
  -0.4617127814483   -0.1401349840342   -0.1809649951702   -0.0016125703309    0.4658477788027 
  -0.2797495053948    0.3034034185799   -0.3483226720920    0.2737227475109    0.0483475309833 
   0.6619486952779    0.6875028160438   -0.2158543696212   -0.2720992318388   -0.0282588069629 
  -0.2578668621594    0.5661165592339   -0.0402105573244   -0.4615039839737   -0.2563682341318 
  -0.0610462912862   -0.3814056895146   -0.1971188414360   -0.1215593827924   -0.5428421442099 
  -0.1722526015825   -0.0354899376877   -0.0741226683251   -0.0853412462022   -0.0489207435875 
   0.0937486951265   -0.0526363956209    0.0043820180883    0.0323463742533   -0.1090235002982 
  -0.0175564845252   -0.0086574988904   -0.1519161039926   -0.1470531645941    0.0555359415933 
   0.0559066054837   -0.0573770655683    0.0201908483419   -0.2292126594272   -0.0434420872128 
  -0.0598377981770   -0.3646944345261   -0.2277723658318   -0.3166785500390   -0.0905337879835 
   0.0110232858682   -0.4370990606993   -0.1709518620964   -0.2538698113108   -0.4758157150605 
  -0.1603418841739   -0.2935534633211   -0.1521027199276   -0.1991220917360   -0.1863628062806 
  -0.1666495179907   -0.2205669697639   -0.3344577284602   -0.1704442037770   -0.3438253130165 
  -0.1187624696732   -0.2740763606392   -0.0212600442292   -0.2444311990941   -0.1449237025545 
  -0.2397319248166   -0.3810392726541   -0.1908716695974   -0.4035054641529   -0.3520146329373 
  -0.2727996966332   -0.0816070073289   -0.2600504765251   -0.2486059011349   -0.4701000410477 
  -0.3154267961668   -0.3789885616546    0.3173026628819   -0.1054054295578    1.1521369361852 
  -0.0483986249710    0.0717775738162   -0.4867955671275   -0.6229186641906    0.3406479049258 
  -0.5917220859841   -0.1897968923241    0.3240912892916   -0.0236329242295    0.5719547943897 
  -0.3660235166294   -1.2502957930480   -0.5927887812521    0.1891303482552    0.0029831043763 
   0.0478635669706    0.0572786808770   -0.3727825540716   -0.5565336077809   -0.0816931504156 
   0.0282075266370    0.1909690005834   -0.6857039901440    0.2012269750470    0.2194448522602 
  -0.1460227622554   -0.2061765181775    0.0749351651335   -0.0616658805073   -0.5477496429074 
  -0.3148695492241   -0.4483567622831   -0.7361338738415   -0.1021617890574   -0.5169503168116 
  -0.4996264644606   -0.8574415157967    0.0452845988261   -0.1945596712707   -0.2015820883448 
  -0.4278875975366   -0.1920980706214   -0.0562945691871    0.3119505078220   -0.5442506308306 
  -0.4101585451761   -0.1064057943370    0.4829861081838    0.2402778122171   -0.0789857185169 
   0.3687787458630    0.2342420712859    0.3621299219993   -0.2063327437731    0.2150125281533 
  -0.4085572866823    0.2393043133696   -0.0008665745618    0.3513306641443   -0.4070223688823 
  -0.0984663505421    0.6704404558670    0.3555633714408    0.2867489916434   -0.2212362983702 
   0.4892769865231   -0.1400009683556    0.3860673344989    0.0492061083472    0.0557006906393 
   0.0994911715776   -0.4636379235143    0.2569019808971   -0.7110223798721    0.0846992803902 
  -0.5915199417128   -0.1255602545985   -0.1318211802970    0.4263478273899   -0.2874033430286 
  -0.4479919276420   -0.1901215013928   -0.6593913600713   -0.3539576920372    0.5794989495740 
   0.4421838325861   -0.2019366997024   -0.6941777284498    0.4512601114606    0.2999000124654 
  -0.3965159717655   -0.2682407432749   -0.2530159679533   -0.1687366645844   -0.0794952429019 
  -0.1863698127988    0.1369846572830   -0.0853264822493   -0.0440060373787   -0.2870958765441 
  -0.1371687339860   -0.0534332828446   -0.2942553645011   -0.0196463110137   -0.2230675205943 
  -0.3028224602433   -0.3158752842717   -0.2442478874694   -0.2550715211461   -0.0506503803154 
  -0.1711290156357   -0.3429075754517   -0.4213779873821   -0.2518305606580   -0.1246969261480 
  -0.3000602678348   -0.1311672116211    0.0363684476454   -0.2579463233918   -0.0531047131252 
  -0.0197089920590   -0.3904557334315    0.3258109269426    0.8947871771435    0.5929553260511 
  -0.4724871850284    0.6960985656616    0.1260638404667    0.1418848400775   -0.3310332174156 
  -0.5998888440349    0.6150729506572   -0.4571313835995    0.5246986294359   -0.6846298804867 
  -0.6127306703324   -0.4868061404697    0.5816720334767   -0.2533425699983   -0.0052123675125 
   0.2045761853281    0.1332954536447    0.3566425882716    0.1069199414471    0.2390487847781 
  -0.0103549714272   -0.0285065541379    0.0258974829654    0.4170422642259   -0.1229484012504 
  -0.0673893368405    0.0828225688679   -0.0653546157325   -0.4276510353929   -0.7302231449569 
  -0.1260993841564    0.2942197155224    0.4799895871624    0.0599247056484    0.4010408654793 
   0.2966003875331   -0.0494039902457    0.2843631936826    0.1474777712763   -0.2573349867525 
   0.6913635179796   -0.9588841537197   -1.0846526374760   -0.6101897623769    0.2350943707483 
   0.3913199122997    1.2618333725145   -0.3656369123004   -0.3436968881371    0.0074883078630 
  -0.4837258364117   -0.3977688756564    0.0652672656576   -0.0465421790551   -0.0293395998209 
  -0.1659489572954   -0.5809092280151    0.2317652703453    1.4804402150224    0.4900443615299 
   0.2624359490973    0.3480055593302    0.4318119644988    0.7156759730203    0.2733908262161 
   0.4948841917333    0.3752027394466    0.5941971803074    0.6011227845472    0.3563035506802 
   0.8128024066089    0.7728736379447    0.4153817148869    0.3519944494197    0.4646692798546 
   0.6606123687724    0.2765519654396    0.6018541336284    0.5882499661307    0.1659310343148 
   0.3711835623104   -0.0034038020246    0.4557780828571    0.2199387991943    0.1943564541220 
   0.5503305158448    0.3101009847719    0.6538692318933    0.4630468190324   -0.1161114375760 
   0.2280493510046    0.0955371093550    0.1281155952728    0.2335576754584    0.2029925658853 
   0.0336321540775    0.2951754384566    0.1255827472373    0.2572885285352   -0.0268427573238 
   0.0601698348088    0.3473126623687    0.0835810528998    0.0690067929760   -0.1263937266280 
   0.2578975305857    0.1483198551489    0.4636348864188    0.1357590546591    0.0329493463900 
   0.1650342688003    0.0489395725932    0.3487031404358   -0.0996537436447    0.2256501452004 
   0.0998082636112    0.0303121304508   -0.1267175843325    0.1749869175897   -0.3094757024814 
  -0.9975541244638   -0.1060476048319   -0.3149661633458    0.0020081854315    0.0196810651499 
  -0.2818105373920   -0.0760863142822    0.3148805294968    0.0792657322911   -0.2537430611152 
   0.0305766116743   -0.1904001419447   -0.0798387068768   -0.3677191089468    0.4744916854794 
  -0.3395489259106    0.1663697742529    0.0026965275490   -0.1993864795725    0.0971051028851 
   0.0001347659609    0.2573306968525   -0.1081547356594    0.0485161130895   -0.1164678032436 
  -0.1459559623680    0.0527334798862   -0.2519568335007   -0.1660564483836   -0.6128486165723 
   0.2655084746655   -1.2738502134042    0.1179494001397   -0.5288162608589   -0.2816864584048 
   0.0895095606366   -0.3146622349843   -0.3484284809618    0.3896738751201    0.4594500620905 
  -0.4271090203019   -0.1423584258609   -0.1388472975037    0.1245952907543   -0.2267356105237 
   0.2419060506965   -0.4695337158959    0.1736509583149    0.0533055105850   -0.1794068898504 
   0.0948185008576    0.0711285520387    0.1334788160314   -0.1449792481640   -0.1878812827142 
   0.2348631230389   -0.0603012157539    0.3049782687877   -0.3159100041186   -0.0618223929731 
  -0.7539060370574    0.2597245425540   -1.0243106577186   -0.0979591053700   -0.5426349938998 
  -0.2714188648897    0.0526974526685   -0.1049493904216   -0.3742522175615    0.1890152557252 
   0.2720916429261   -0.3257548424925    0.1274223002566   -0.1256018396515   -0.1543118294815 
  -0.3932378936079    0.2404286434132   -0.3349826639452    0.2693861994862    0.0565378897909 
  -0.1752456569426    0.2669360779293   -0.0305336436698    0.1131933511318   -0.2313094348485 
  -0.2486624089778    0.2492161248546   -0.0465856049054    0.1669820311853   -0.4846273414833 
  -0.1261663313405   -0.5420579101629    0.0831043751937    0.0273736446495    0.2310074482200 
   0.0569845465265    0.0080238935262    0.0945556802554   -0.1147220553590    0.1020192351124 
   0.3618227416106    0.3036394275760   -0.1403310219579   -0.4293699512669    0.0634519504736 
   0.3993419431350   -0.1346490330570    0.4413728369165   -0.3132796286741    0.2225250369674 
   0.0624019608661   -0.1632339559331    0.2502545941832    0.1901635806017    0.0492453526660 
   0.1324617528429    0.1590974303400   -0.0975715697324    0.2905223465781    0.1816524818335 
  -0.2166715132955   -0.1381927115488   -0.1596686313494   -0.1825648528907   -0.4242478812190 
  -0.0145654136634   -0.1736590155737    0.0176516663191   -0.0157050308633    0.0158671106037 
  -0.1522382943923    0.2935120040112    0.0998585811817   -0.2367685595994    0.1715634596024 
  -0.0678494475320    0.0472092709719   -0.1849756173106    0.1422745825587   -0.2484419054066 
   0.2104651361372    0.0689590624594   -0.0720194038113   -0.0320993708891    0.1562490175522 
   0.1300277551942   -0.1018898558036   -0.0974194987489   -0.0131714079051    0.0346410369940 
   0.0680870328864   -0.1045456697880   -0.0901514080604   -0.1499133903958    0.1589107359937 
  -0.6233055032062    0.0668083184881   -0.1781960284264   -0.2357791786987   -0.0095911658026 
  -0.1139614092437   -0.1287547817104    0.3651697017857    0.1239323383477   -0.0882277115211 
  -0.2503162975077   -0.0828726470734    0.6270700383339   -0.1540080666257    0.3067173566688 
  -0.3367620881813    0.1335987080602   -0.0437176449145    0.0244522653967    0.1417259421558 
   0.0913833137370   -0.0805529692677   -0.0294792790794    0.3726457586218   -0.1261099842502 
   0.2813708613283    0.1873342098686   -0.2851673496250   -0.0379956129325   -0.2317652060713 
   0.2133826158761   -0.2079817456673   -0.3177084286884   -0.1635909786521    0.2215209876826 
  -0.3109261097372    0.0157971226255   -0.0084466751273    0.0061441784065   -0.0157550851167 
   0.1565008327229    0.4215460737052   -0.0376663824345   -0.2531744298304    0.0564449089103 
  -0.1108460190061   -0.1016680512960   -0.2699881958258   -0.0337941796763    0.0697963918699 
   0.0309551503615   -0.0214867767403    0.1883164768919   -0.3098255149207   -0.4744440869783 
  -0.0705616643458   -0.0615861590879   -0.2882999154894    0.2141264187605   -0.0753438922348 
   0.1250979122623    0.1644891379573   -0.9278502106179    0.0201761458783    0.0550738344340 
  -0.4151644552571   -0.1066799296256   -0.1843675806409   -0.2638543667738   -0.1851850806684 
   0.2835113271877   -0.3387944007033    0.2406535602012   -0.0367860652778   -0.6769602259436 
  -0.2898359948490    0.3356783162193   -0.2206829495584   -0.0590116235410    0.2584906892082 
  -0.5432941786822   -0.0979299874965   -0.2294976281642    0.1311712281949    0.2508844234861 
  -0.3777894777741    0.2634450951349   -0.1683631867652   -0.0166589792194    0.3687135414454 
   0.2665849037534   -0.4672883027733    0.0541797762984    1.0279831505130   -0.1739822124602 
   0.4797122758157    0.2723734962048   -0.0129643823300    0.3014609350079    0.6152213981861 
  -0.1822193870110   -0.5807711400718    0.3478395184728    0.1832533978145    0.3100025630000 
   0.1524448736253    0.6782713837960   -0.3894962404707    0.5480541534970   -0.2696063753392 
  -0.0804223991722    0.6805996357123   -0.0382682938369   -0.1265403329788   -0.3715457267209 
  -0.3364939004791   -0.0075849646570   -0.1732965701809    0.1043425695527   -0.3684845986634 
   0.3421182939157    0.1410123046246    0.8075466682218   -0.0620342335875   -1.2629701006177 
   0.1290223346125   -0.3928337310615   -0.2831466717560    0.0365174981934   -0.3243586536709 
  -0.3709735617954    0.3078292825829    0.1978979146059   -0.3798508030878    0.1568906707391 
  -0.1856084407160    0.2210675785860   -0.2855396099767    0.2440139142076   -0.5302332593968 
   0.2004566548509   -0.0440019260706   -0.2688104164747    0.0824537089765   -0.1004725231571 
   0.2871942572928   -0.1035073786162   -0.0746440556514    0.0279847609961   -0.1453850880407 
   0.0387733621963   -0.3033924494461   -0.0786197515144   -0.7752066249982    0.2189888135920 
   1.0296633435146    0.1232481173965    0.4965766431871    0.2196250158485    0.0416260022484 
   0.2487602505581    0.1418789670227   -0.0919800321127   -0.3429072110013    0.0121845871406 
  -0.1981363963594   -0.0162544136007    0.0919657812019    0.0695331797608   -0.3123090050786 
   0.3765033196341   -0.0825162147318    0.0973463038876    0.3369867937995   -0.0230833613605 
   0.1224821737277   -0.0822455348746    0.0446376768196    0.1447665795190   -0.2942510894692 
   0.0854956742954   -0.0830920914596    0.2066229798680   -0.0339948267862    0.3928403858348 
  -0.0354742938809   -0.0560219849291    0.0485886252269   -0.4955558251013    0.4110118693982 
  -0.1065906340479    0.1963898081003    0.3381295932799    0.1171463644306   -0.0550575115172 
  -0.1164045281061   -0.3529035712455    0.0952302087972    0.4480556106976    0.0904437696641 
   0.3021513224979   -0.0795539961169   -0.1765857957139   -0.7794685108702    0.3845476816660 
   0.7775967799175    0.7950833435006   -0.1321581882555   -0.5328918598570    1.0841422152865 
  -0.3141775354228    0.4734862366098   -0.0442754706604   -1.3937531898740   -0.4300917177207 
  -0.0322781937039    0.4434775662982    0.3795815741568   -0.3459657310161    0.3659555553957 
  -0.1353204663476    0.1840203330629    0.0868303203077    0.1199049569466   -0.4282452386292 
  -0.2703375476139    0.0984621159125    0.4989161658746   -0.0426046374688   -0.4879622131720 
  -0.0385513834480   -0.0398980407255    0.2090429459958   -0.1134296306003    0.0612318900487 
  -0.2520390006508    0.0058190968901    0.2860461262160   -0.1256162835042    0.2750473177601 
  -0.2976631288317    0.1801408292385   -0.4445511174206   -0.1515372815844    0.1828439143356 
  -0.4463073414947    0.2654447459235   -0.0452324431873    0.6809603396539   -0.1273604511549 
   0.2244650236119    0.0866894269565   -0.1329738988388    0.3438523118972    0.4368525040672 
  -0.2127810857709   -0.4579482667886    0.0624230757210    0.1517415499532    0.3248605733197 
   0.1361091818906    0.4520498646237   -0.2402899320720    0.2547992732846   -0.0153574352379 
   0.1164278879725    0.5202814223439   -0.2000701988401    0.0480120402764   -0.0650196608518 
  -0.2260082967653    0.1794525485869   -0.1091354386699   -0.0058602146257    0.0604845779575 
  -0.0332847042541    0.0488644950898    0.4854226951285    0.0729715322732   -0.5846891298735 
   0.0736900973359   -0.2495536504713   -0.1864267680881    0.0346533352492   -0.0544468830124 
   0.0510040805672    0.0060063671462   -0.0895990995387   -0.0956229120050    0.2739523960809 
  -0.0515412058134   -0.2145503553742   -0.0138635297283    0.2291717985928   -0.2322554065396 
  -0.1512359963067    0.1159365359960   -0.1392847401402    0.1746868821179   -0.1612151505553 
   0.2296963026851   -0.1439201012221   -0.0840826785729    0.1322784170918   -0.2233557481100 
   0.1162450100023   -0.1221454353347    0.0853158230300   -0.2937348006839    0.2319077936035 
   0.2369768335916   -0.3640214270367    0.2740185437036    0.0217454081429    0.0910405069516 
   0.4334289223435    0.1610762846169   -0.5601522130293   -0.0896461366761    0.2341453092038 
   0.3910250546776    0.0726486908367   -1.1885157192559   -0.0431236673192   -0.4170818733006 
   0.5392935276528   -0.4648205235663    0.2642033419508   -0.0996838514867   -0.1080449174957 
  -0.3569117261263    0.0241916072014    0.2558410558305   -0.3775081620780    0.5073221570640 
  -0.2683946156315   -0.3638327073915    0.6043759384219    0.1679625839353    0.3181121867285 
   0.2278518376074   -1.2177127830813    0.1400286607189   -0.4938963432420   -0.1703793079995 
   0.0153025853907   -0.1307090988773   -0.0376737437657    0.1709428642230    0.0424729855468 
  -0.3774029096562    0.0336283950148    0.1636309095559   -0.1735766057354   -0.0742142854338 
   0.2703495819873   -0.3725013550425    0.2239107404710    0.1497657108736   -0.1046400749059 
   0.0593505760736   -0.1372346761178    0.1272030018702   -0.1227155200041   -0.2791434503861 
  -0.0317855727201   -0.0297011343623   -0.0150691673645   -0.2156325468822    0.1519125196139 
  -0.4510653042130    0.2491640466882    1.1056445024552   -0.0831391647894    0.3581170812752 
   0.1708617759986   -0.1238060507545    0.1901715125796    0.2285874618120   -0.2777409060604 
  -0.4244181057070    0.0994198494868    0.1328419956876    0.1468886828805   -0.1670680283177 
   0.3353341348915   -0.3315689762451    0.3423576545542   -0.1743526876980   -0.0858606833970 
   0.1808762649957   -0.0745696424581   -0.1100483838292   -0.2465413847694    0.1042259592023 
   0.1307303870668   -0.1803500223700   -0.0223026463131   -0.1150724174184    0.1902136993908 
  -0.0541029884289    0.7190275100121   -0.1349207964141   -0.2252872459883    0.4830760146017 
  -0.2851812442428   -0.3302905227523    0.1370739488040   -0.5585115512029   -0.1750063056040 
   0.6248150459677    0.4976376900863   -0.4735970695960   -0.5225340664052   -0.1580969098048 
   0.9509888994997   -0.1964741872451    0.7771227172171   -0.4367673903646    0.6455465530125 
  -0.1267705883807    0.0324230860147    0.3842254959638    0.3632919393373   -0.3619633315349 
   0.0475027096599    0.7636654805218   -0.7332339059076    0.4036932084561    0.4416483768150 
  -0.5010334206383   -0.4086163434158   -0.3688362834842   -0.3068679713930    0.3586094054740 
   0.4788587406883    0.1551664792629   -0.0535656932329    0.1649109521128   -0.2828957021500 
   0.2477386734368    0.6104656771219    0.3046001548348   -0.5117804383297   -0.6976768971103 
  -0.1005908730954    1.1595224611991    0.0428018192977    0.4237475946588   -0.3332999578278 
   0.6473125378280   -0.1980391714785    0.1980772125311    0.0754369566069    0.2226860161074 
  -0.1811722648422   -0.1396101281897    0.7997032459397   -0.6562903446027    0.4864229938719 
   0.5145037185797   -0.8023686514220   -0.2701893590273   -0.2525941177391   -0.4565940580003 
  -0.9217621077033    0.0468072847116   -0.3101337304072    0.0192224474539   -0.0974333548889 
  -0.1593438551985   -0.0295479485054    0.3237774460107    0.1850109115114   -0.2769073669700 
   0.0602837963088    0.1193789958225    0.0028314870462   -0.3440832864052    0.2246567989225 
  -0.4422227865098    0.2048160741250    0.2148412439684   -0.2099489362107    0.2744773266502 
   0.0785176846456    0.2720678747294   -0.1006506427901    0.0051775581220    0.1785964811795 
  -0.0320053065292   -0.0657436928660   -0.2408953280811    0.0308531611228   -0.4820778176535 
   0.2811032986896    0.3795267499848   -0.0808701333449    0.0321008307263   -0.1109035262679 
  -0.1993645342601    0.1425766127052    0.1014405375821   -0.2358795955884   -0.2600080280876 
   0.3003664103908    0.2367508852900   -0.0050228672941   -0.3248909470619    0.1431153849703 
  -0.1538619581384    0.1991821428590   -0.2868322400357    0.1161121503047   -0.0930778894310 
   0.0629347029078   -0.1294389809884   -0.1052425006932    0.0503845782189   -0.0872266391872 
   0.0319700203926   -0.2544475010123   -0.0415609754844    0.2901123873132   -0.0648752764063 
   0.2812611266990   -0.0382201433774    0.9759744617701    0.0521744618768   -0.0231189503679 
   0.3753052008416   -0.3985217268366    0.1222528168202    0.3976995526510   -0.1023983090443 
  -0.5028196831362    0.2187762093339   -0.1192706841983    0.3750562149646    0.6069903380870 
   0.4546701020346   -0.0102401681535    0.3891507053270    0.0157796579221   -0.0618063572308 
   0.6731874218636   -0.0132937493424    0.1951711574981   -0.3788834244490   -0.3592847772208 
   0.2858993770904   -0.4906791005492    0.0358380284207   -0.0732690996469   -0.0577786904630 
  -0.1144998459908    0.4978263782534    0.0404591760736   -0.8464535282633    0.0731432017202 
  -0.3388363082577   -0.0477009898246   -0.0942548587030   -0.2436759466843   -0.3879247288296 
   0.0487018704148    0.2185248919074   -0.0208156913705    0.0981265425207   -0.2132572077524 
  -0.1989578176328   -0.1364206392837    0.2391398725439   -0.1863303196936    0.1290502088358 
   0.2850926699072   -0.3490556619080   -0.0366693431537    0.0027167222394    0.0963727722335 
  -0.1446058715462   -0.3034878957613    0.2319922720877   -0.2964457677358    0.2060100736747 
  -0.2536183623403    0.1063454294547   -0.4669357492926    0.2605704335958    0.3397851703433 
  -0.4048387369599    0.0891059353030   -0.0208848999696   -0.1702081576712    0.2382995424437 
   0.1330347512381   -0.3416875246302   -0.0393066109297    0.2105682778441    0.3250965063507 
  -0.0423620170893   -0.2086703836197   -0.0330745507975   -0.0344499678556    0.0396804355378 
  -0.2996382469352   -0.1131230083985    0.0433707611004   -0.0992618004025    0.1697753641883 
  -0.1602279006774   -0.1218495840973   -0.3022933447776   -0.1149537667554   -0.1782477525231 
   0.0575479010440    0.2224460446450   -0.5237255232890    0.2127236235396    0.1371723617163 
   1.1790983749952   -0.0301177878445    0.4630208013392    0.2145454079405    0.1979173853361 
   0.2180540627054    0.4029009266236   -0.4496192098631   -0.3786898335818    0.2727895650152 
   0.0510817476733    0.1156344918116   -0.0672770985328    0.1401184048062   -0.5488857200183 
   0.3946202544264   -0.2130843895901   -0.2373751223625    0.2635297174320   -0.0217227591143 
   0.0472369216479   -0.1346520948406    0.0852523728455    0.1467183711491   -0.0105706528808 
   0.0944148375984   -0.2428334701973    0.6005243989939    0.1673425660918    0.7983213163188 
  -0.1238918125055   -0.7234649701254   -0.1532588039170   -0.4119910150497   -0.1227190856819 
   0.0545094785226   -0.1338025272097   -0.2044639579407    0.2832026083523    0.3523922844072 
  -0.3592104447440    0.2418774703911   -0.2354805298095   -0.3047449173775   -0.2970481436809 
   0.2965736153894   -0.2319268256406    0.1733445362359    0.2360623429619   -0.1943174453470 
  -0.1434881146505    0.0208546046071    0.1883518769025   -0.0777694172420    0.0275533149241 
   0.1530391164844   -0.0650693879708    0.0892823286250   -0.0741272455261    0.0893854590821 
  -0.4328076999277   -0.0588687533444   -1.1250718431779    0.2235731088399   -0.5784913991906 
  -0.3323692393901   -0.0580545194623   -0.2975194673374   -0.4975030901168    0.2220255221787 
   0.5343935934947   -0.4762725390353    0.1493371645394   -0.2715562897022    0.2399007278908 
  -0.4524396791009    0.5271877827931   -0.6672413347433    0.2329985227274   -0.0126294165133 
  -0.2316680796107    0.2238282356095    0.1765477224811    0.0434356745572   -0.0385994233638 
  -0.1432890739486   -0.0325765528487    0.0367023278638    0.0579392374792   -0.5121702273072 
   0.0337038598322   -0.7296418822669    0.0094011840331   -1.4360254637793   -0.0176044742300 
  -0.6987333595351   -0.3292820171671    0.1098642346836   -0.4566162524112   -0.5426453807515 
   0.1740975666189    0.3840181304464   -0.5555088165393    0.0638505831248   -0.3394736968191 
   0.0701859658336   -0.4940211656164    0.4786489359065   -0.4811159346607    0.1332788869893 
   0.0789274562555   -0.4017065424436    0.2867691591467    0.1516503223957    0.0223365192815 
   0.0174206997988    0.0619878071817    0.3068873255940    0.0810530933706    0.3156915101408 
  -0.4666593326681    0.0475552427188   -0.9198435904614    0.1543928769005    0.3201847286130 
  -0.3497799911143    0.6724379310259   -0.0441356245874   -0.2574962010926    0.0766481110251 
   0.0299772342352   -0.2120832787630   -0.3012631568865   -0.1040393844781    0.5364680681861 
  -0.0102534329712   -0.6533107819730    0.0017743487694    0.1292415354591    0.1764765186697 
  -0.1518429425031    0.4348068766890    0.1395328355788   -0.1366120624108   -0.5173650312106 
   0.5167039422702    0.0404914688032   -0.4003127825761    1.0470394789976   -0.7372842698674 
  -0.0677735588719    0.3771912082671    0.3225401690538    0.1216496537603   -0.6876087937044 
  -6.3027282507360   -0.1260716253060    1.7029964244447    0.7415617927798   -0.4251809575303 
  -0.6602287331217   -0.8451707686505    0.6206035746570    1.4580377135666   -1.3562632649478 
   1.2688686594550   -0.4603525250293   -2.0736753101934    1.4838347150055   -0.4411033755906 
  -0.1389434736677    1.0182907336841    0.0260543005523   -0.3157476625527   -1.8723497172458 
  -1.9629949496589   -0.1688758047307    1.2981968278044   -2.0318444146308    0.0828966840674 
   1.0019319421056   -0.5279114563898    0.5004650804971    0.7267172042472    2.1722837173484 
   1.7694823222133 



# Scale0 
105406.7025453283422    388.0897582517568  -3105.0624903692201   3721.1926752298614  -3489.3503970221695 
 -3714.1631193731687  -2108.3950993359354  31708.3355927804296  -4234.2335338474095  -4194.3155075970453 
  1072.3008780758269    895.4408478531834     31.0507726601329  38896.2610664907261  -3141.9913509407643 
 -3074.9022155229013  -1870.3814651854134   2941.7319702857289  -1773.7799446754721   1907.4987355437650 
 42673.3829775861304  -2132.9234212208462  -2977.9520535840252   1053.5997111674410    175.1295964401749 
   756.3058885183258  49127.1241331215788   -493.5051116820988  -1444.0703886097690  -1056.5414984603403 

# Scale1 
243735.4934875836479  25715.6824754134541   9271.4146217552134  57109.9875124302125   7218.7418779641011 
 14382.3810801055533  12613.5936111473111  70923.9529728784109  12679.3690046805696   8732.8162231568240 
  9362.2495078329212  14359.4276386222791  29287.7713676415769 125803.4376802459301  13043.4789265401669 
 17703.1836408753588  14384.3492104423240   8495.1639005353372  26292.5324212840787  18311.1338259007971 
 94792.1363125985372   9385.2130798120288  14727.3786700617566  16778.5984396948952  14012.1517034782191 
 13798.5465506918008 103031.9054354534601  13162.6189659964894  15683.0662829034700  16750.1024009068897 

# Coefficients (Si)
   0.2366367138476   -0.2394989722932   -0.1708260109647    0.3014072170735   -0.1074164065532 
  -0.5894701340186    0.0239559288865   -0.1730753539928    0.2337074604081    0.1397817549749 
  -0.4100409366898   -0.0690825388085   -0.2769660412741    0.0193334874231    0.5039750874305 
  -0.0902960083256   -0.4611742938998   -0.0668373560312    0.0720805840673   -0.0730472686067 
   0.3493358390615    0.0792068659995    0.0299856184021    0.0472647729170   -0.5179126963429 
  -0.2032994235809    0.0088301767889   -0.0602633479780   -0.2180284164789   -0.3702803666038 
   0.1091485562044    0.2751049459149    0.7189256762957    0.4822145336871   -0.2379377454815 
  -0.0164868928181   -0.2008695937862   -0.0061244374229    0.1709158729539   -0.2967770852181 
   0.5213268415118    0.3245156309374    0.3833205541384    0.3259549958568   -0.3058777406269 
  -0.0988881837392    0.3540928323260    0.1154418894442   -0.2376037949852    0.2222363492698 
  -0.2753225938498   -0.0686951575242    0.3598180676664    0.1888427313824    0.5524754496821 
  -0.0831140248033    0.0584200842697    0.0813264395611    0.0996968413604   -0.0939084287211 
  -0.0313429040463   -0.0014230467450    0.3631371968090    0.0577226905702    0.1751621135547 
   0.1023488567814    0.1757436094404    0.1846241323719   -0.1181545206932   -0.0722379099507 
  -0.0748702206326    0.1568380347431    0.3207085410476    0.0872093555385    0.1914246298300 
  -0.0178713842884   -0.1412903645355    0.1467265723653    0.3291842557929   -0.1521098304001 
   0.0152164010927    0.1280351263916   -0.0577165024904   -0.2053736140863   -0.0107478153206 
   0.1407802717201    0.1111866462421   -0.0328083554337   -0.0317275680274    0.1036857845588 
   0.0209147638376    0.4708999978782    0.2839179327289    0.2740947348905    0.0411248720021 
  -0.0754573556336   -0.6078115271201   -0.1480674514613    0.6594777890889    0.3334477823292 
   0.2306163752754    0.1557493307682    0.8130452830389   -0.0038379352707   -0.0885333172026 
   0.3806428367796    0.0867407455206   -0.4523799037909    0.3365236389539    0.1473236595029 
   0.0610423188122    0.6255004160420    0.1155845297125   -0.1218750107944   -0.1470920735244 
  -0.0012863581897    0.1671138199410   -0.1313263365791    0.1983823737573    0.1324806848521 
  -0.0691463673066    0.1594913748134   -0.0717944520611    0.5064325556522    0.1403252338540 
  -0.7398124073792   -0.2893574496719    0.0971263514453   -0.3390989101935   -0.2865662219203 
   0.4837930462943   -0.3423595934511    0.2021482557544   -0.0223535340773    0.0835408727532 
  -0.2415860667711   -0.2029802849446    0.0533139378847    0.2453402496904    0.2549910214021 
  -0.1557870453159   -0.0905155257132   -0.2025164816511   -0.0416405330043   -0.0401418792735 
   0.2965948085055    0.2135258922784   -0.2279826251105    0.0906273381372   -0.1933755448260 
   0.1049625394578    0.0762314041999   -0.1597603924902    0.0478920292257   -0.1349309839422 
  -1.0075299596923   -0.0636858495335    0.0568758313579   -0.3970874945643    0.0272522220773 
  -0.3688408424119   -0.2400844342776   -0.2226825752114   -0.3193757144276   -0.0789131741043 
  -0.1588042234822   -0.2205223265066   -0.4216893528679   -0.3564676690232   -0.0632274411560 
  -0.1917101751418   -0.2149946369571    0.1374019370391   -0.3373106687761   -0.3061308730006 
  -0.2572809115252   -0.2406339396923   -0.2072135111718   -0.0240907944076   -0.2793955490993 
  -0.2908884015590   -0.1277120919871    0.0796648217268   -0.2359283826627   -0.0131000818299 
  -0.1340813916674    1.0677194788058   -0.0241245827111   -0.4758570634893   -0.1903422253912 
  -0.4944135013670    0.0362443398502   -0.0241907971359    0.2485293815072    0.6195885282403 
   0.1958605015432   -0.3227844399663   -0.2319894580870    0.8986679253944    0.1386960728076 
   0.2967485008163    0.1367225264291   -0.3879251446360   -0.3301986323738    0.3266624645035 
   0.2283353000453    0.5213123155257    0.0904566333862   -0.3727632362234   -0.3138964060583 
  -0.0918467175181    0.2321546599289    0.3997023050570   -0.2238841828849   -0.1697110990122 
   0.0042379102993   -0.0778197065161   -0.5188388556033    0.4986459640887    0.8208013215650 
  -0.1433223368198   -0.1665773416484    0.0252137279549   -0.2255584291424    0.0960015759464 
   0.1722749978848    0.4767633056218    0.2132632517489    0.2581437340764    0.4745674702309 
   0.1817314535357   -0.3871267161225   -0.0329575280499    0.3845865457747    0.2658869181022 
  -0.3527581547490   -0.2185160881901   -0.1161100222683   -0.1322090113841    0.1102392165700 
   0.1545057301577   -0.0872289742757   -0.3016400427028    0.1765209960396   -0.0510926104760 
  -0.2518663291070   -0.0171193271766    0.1764117537366   -0.4047190182716   -0.4287093408680 
   0.3521623492700   -0.0717921454338    0.0210203266982   -0.2693320499370   -0.0315476057929 
  -0.1192136643942   -0.4140985583473   -0.2537507206457    0.3928267862216   -0.1946385369672 
  -0.2438224225641   -0.4547557378263    0.1506815608568    0.0424559613698   -0.0641135286376 
   0.0609621376243   -0.1819056457564   -0.1057297414482    0.0750348963819    0.3695697139870 
   0.1162437236576   -0.1582359133544    0.0965837050177   -0.2506958765634    0.1293928638480 
   0.2519062036737    0.0660147146684    0.5690457319007    0.1246779595218   -0.4429386630240 
  -0.1902423775682    0.6467490310312   -0.3177521831272    0.0364759142110   -0.0310835466443 
   0.3429009826469   -0.3764817447585   -1.0932128585842    0.2618681469405    0.6347353707213 
  -0.2486180004954   -1.3081439386072   -0.0525269983177   -0.5485235886209    0.0618962692157 
  -0.1389631730583   -0.2958275640464   -0.0201444209170   -0.2038170262573    0.0574165110687 
  -0.0117839392920    0.3642150569506   -0.0821491173519   -0.0900736525089    0.3048049945596 
  -0.1217687673303    0.0060034732435    0.2910396564991   -0.0900331114257   -0.0156822005021 
   0.3347386287990   -0.0777875186558    0.0797325731482    0.1418300019764    0.2419969764709 
  -0.1076323899610   -0.0160082694359    0.4145923717979    0.1475173049821    0.3702529255155 
  -0.0495558494734    0.3334749997854   -0.2220816781193   -0.1872929909906    0.2334865195428 
  -0.0657968356635    0.0374805532350   -0.2841850824742   -0.0934851797014    0.1960174741239 
   0.3255988787553   -0.0053586853158   -0.2915116528824   -0.0881764124727    0.0861503224219 
   0.3825508793459    0.0966904805310    0.2114667533694    0.1817848504337   -0.1527376641520 
   0.0286220198337   -0.5121020510500   -0.1954090532474    0.2778160899479   -0.0466826968289 
   0.3773896061656   -0.2645116636758   -0.2520134795775    0.0506829562529   -0.0382003357255 
   0.4134784095270    0.1138375599498    0.4254100341873   -0.0724382646299    0.0075193235871 
  -0.3750370368463    0.3236776503649    0.1036661535588    0.2707992271996   -0.2058014044838 
  -0.0973893693343   -0.5128565489220   -0.2495205049197    0.1620672266644   -0.2067089998593 
   0.1349560431783   -0.0163003229374    0.1660688277334    0.0214963945985   -0.0064281006352 
   0.2542996747092    0.1619292140271   -0.2389189520308   -0.2191424320635    0.0319516215627 
   0.0619455742814   -0.0063899146449   -0.1750055960830   -0.2427216052891    0.0269421069999 
   0.0714543705809   -0.2054823698741   -1.0555514501089    0.1189533559108    0.0770272006034 
  -0.3656890942822   -0.2872505623306   -0.5345199077998   -0.6493775851444   -0.1026017454053 
   0.0331896695599   -0.2284506655995    0.2764446759117    0.0712284262897   -0.1283095481134 
  -0.4486847203881   -0.0917266283542   -0.0107963943434    0.1605692277273   -0.1974354089106 
  -0.1866454842840   -0.2815779118128   -0.1623229583055    0.0639129774661    0.2442194947893 
   0.0387520992367    0.2508461445883    0.3210984219673    0.1529146022177   -0.1328154915947 
   0.0591465788660    0.4934093252043    0.1645495106756   -0.3244102501988    0.2494224547489 
   0.2720267999843   -0.1283612801755    0.3671681869211    0.0817763229903    0.4683427394570 
   0.3004058589541    0.1588598952043    0.1313464533976   -0.0813590283017    0.3784715092654 
  -0.0646304801883   -0.1526008286053    0.2718627272748    0.4078679834368   -0.1123528032729 
  -0.0152251364123   -0.3109707920770   -0.1291946626285    0.3119538529052    0.3628999609772 
  -0.2445497351502   -0.1667950978902    0.1795183832517   -0.2874346165316    0.2010403530456 
   0.1341018789488    0.0955255883958    0.2163684352745   -0.2022165844415   -0.1736518930269 
  -0.1651940406355   -0.1502045038932   -0.0074976521562    0.1094600207241   -0.2144047090164 
  -0.1060747757437   -0.4218570305892   -0.0217551881215    0.1731813065400    0.0419265449702 
  -0.2339006084249   -0.0271189154704   -0.0210898963490   -0.0784690760722    0.2137302491223 
  -0.0722157105380    0.1480372448839    0.0055192457920   -0.4102495452019   -0.1604972614946 
  -0.6890530146243    0.5420247783620    0.0000437730128   -0.0924273807681    0.1427924177699 
   0.2037750138901   -0.2292962017441    0.1882919018888   -0.0636446361821    0.0916685059525 
   0.4041878269552    0.3806596707123   -0.2691989679180   -0.0443489953013   -0.2886307239792 
   0.5522610312400    0.1229433296660    0.5991093070069    0.2182296124309   -0.1619781050124 
  -0.1064442975679   -0.0938190230129    0.3486669134186   -0.0535859341964   -0.4208097580263 
   0.2085878336280    0.0666917224278   -0.1835653268845   -0.2336208124904    0.1926966392511 
  -0.1251924640171    0.9488102344591   -0.8529704010863   -0.4747870672545    0.0199824138693 
   0.5060870050732    0.1120257275666   -0.2626229273821   -0.2639556004297   -0.1843349764060 
  -0.0613156243943   -0.1652435486713    0.2060402888807   -0.6692972190833    0.0151888061489 
   0.3973912063339    0.0695223321018   -0.8899968442773   -0.0548677036784   -0.1618034965801 
  -0.0600481180233    0.0536482260378    0.0438601288271   -0.1392052715947   -0.4576337469500 
   0.2262848872549    0.7093109071628   -0.0067191152218    0.0674236553999   -0.0349642941029 
   0.5041578157159   -0.1214710540483    0.6563779380024   -0.1357764782268    0.0166206202443 
   0.1611096299205   -0.1095534906895    0.2430968823857    0.2088752006379    0.1276896118408 
  -0.0106467937906    0.0043395496475    0.0092047310169   -0.2185040609330    0.3488002813735 
   0.2148111276047    0.1847775728648   -0.0619122951746    0.0729485879543   -0.1613366365072 
   0.1641102794681    0.0180221424567    0.3081894559443   -0.0141285885430    0.1253183507038 
  -0.1193703751724   -0.0886218200267    0.2586685830892   -0.1762284528163    0.1552845606042 
  -0.0564913327006    0.1702122143957   -0.0386892475874    0.7929695914226   -0.7556946955497 
  -0.0797473136522   -0.5895691567335    0.1893158091382    0.5423628403042   -0.7322925824870 
   0.1097410300643    0.3160103758577   -0.3957442054078   -0.0071049963334   -0.0855066501654 
   0.3515807352808   -0.3427679888702    0.5049979696613   -0.0325732287113   -0.2263720388208 
  -0.1531542318060    0.0770883239879   -0.0856529544899   -0.4100638782174   -0.0154346420734 
   0.1179008445378   -0.0012960169722   -0.7356271247465   -0.1520798572128   -0.1635291583555 
  -0.0736196902919    0.0954428136629   -0.2079725954510    0.1756171688781   -0.2636244344639 
   0.1033734832378   -0.0354159384352    0.9838936610820    0.4342622065616   -0.1585650602615 
  -0.1086745467023    0.7636832554261    0.7514643634026   -0.1232542092999   -0.2453869818635 
   0.1683867486232    0.1195031302507   -0.0039473879770    0.3224306094061   -0.0856165480818 
   0.4851981079819    0.0381245196375    0.3366684877941    0.1130473889393    0.5282107352629 
   0.5276091684151    0.2728769403282    0.1735151448448    0.0344086017841   -0.2705135597227 
  -0.3477354062177   -0.1777324339648    0.3550791467950    0.1372689568976   -0.1393207195487 
   0.1155050473030   -0.3582967620406   -0.0170029481599    0.0605027931846    0.1767123003641 
  -0.2645973272135    0.1301608534119   -0.3388082098359   -0.2284441800822    0.0629837603042 
   0.0375675229183    0.0094467989916   -0.3571014196810   -0.1030862608686    0.1229623921785 
  -0.0522837539822   -0.2765878997137    0.4554789893002   -0.2494172888307   -0.1936418844576 
  -0.1288740827795    0.2171660743679    0.1465425427803    0.0829380659999   -0.3559561738178 
  -0.3679671405485    0.1439932970648   -0.0371589362993   -0.0074104644633    0.0853964667259 
   0.0342578849383    0.0936789378987   -0.3289726406043    0.2084814966637    0.0129092356470 
  -0.1716515051483   -0.5844421771068   -0.2984970278990   -0.2462949511507   -0.5795371799379 
  -0.4854378079353    0.2914075369752    0.6714720822824    0.5686079252684   -0.5509845390181 
  -0.2242062455300    0.3627093855756    0.0193229450344    0.0366397447820   -0.3370106101954 
  -0.4700221496118    0.1883760256347   -0.3584529174413   -0.0879196083214   -0.2325631065006 
  -0.4724585271928   -0.7459871197493    0.0579587118036   -0.4116578835479   -0.2128947760546 
   0.1557936733414    0.2280877933824   -0.1145537706686   -0.2371863370470    0.0231912793370 
  -0.0247388503002   -0.3082979237195   -0.1690037334796    0.0399611772707   -0.2009796312204 
  -0.1974211401032   -0.2784263954432    0.1133779126719   -0.0233651809211    0.1095356810028 
  -0.1675717314138   -0.3005272904618   -0.0661056797165    0.1768372690382   -0.2663000749414 
   0.0979198826220   -0.1029024858614    0.2636278001961   -0.1196272924654    0.2629377059205 
  -0.1296343284744    0.0346968926945   -0.3774809825277   -0.2712172059161   -0.2265499006383 
   0.2609393817902   -0.5847603131959    0.1255736002315   -0.2052696225141    0.1817999537306 
  -0.0740640188869   -0.3202867309714   -0.0900902530192   -0.2277317368482   -0.2029113164689 
  -0.2298580552116   -0.1134916404891   -0.0402742692645    0.0214057242782   -0.1432057190706 
   0.1297544850316   -0.0159130247088    0.1149246928414    0.2364284218783   -0.1473576482961 
  -0.1092688930937   -0.0745772927776   -0.2433743921643   -0.0319752574836   -0.0085711135722 
  -0.3393648586229   -0.0160598361154    0.1782174710020    0.1533134438843    0.1824145695447 
  -0.2824580134103   -0.2757839737988    0.0491617505489    0.0206161240324   -0.3067520896856 
   0.1055270791912    0.6393337041478   -0.1977948629804    0.3050292777558   -0.1055626991724 
  -0.2210161711229   -0.0240272004736   -0.1248279489508   -0.0098814776006    0.1432865245031 
   0.4325398323796   -0.3391944066812   -0.1440070116344   -0.1799638662174   -0.0859212566917 
   0.4801414133305    0.4351381416796    0.0163454608196   -0.4604856324894   -0.3876951156394 
   0.1463712133288    0.1571271330709    0.3501355686162    0.0825881771123   -0.3050182962031 
  -0.0629005380710    0.0957297441260   -0.0431948099680   -0.0740416506378    0.0481992851028 
  -0.7237434735128   -0.4065106565451    0.0101197322431   -0.2591290158877    0.0448436702276 
  -0.1144686586587   -0.2154894931546   -0.1359134956897   -0.3562641653386   -0.1743869683717 
   0.0789023893788   -0.0075253482415   -0.3734630450042   -0.1810434770939   -0.3493440702534 
   0.2036135684923   -0.1019458755277    0.3981079010635   -0.3424195789252   -0.3804324632179 
  -0.6223875995146   -0.2916007488369   -0.0201313515248   -0.3099654878787   -0.4205479171737 
  -0.7931606614951   -0.3391924180489   -0.2057340300746   -0.0472639347494    0.3559072582129 
   0.0363453756422    0.1102210892002   -0.1556378264941   -0.4629416411603    0.1607193315091 
  -0.2589477938174    0.0325300577208    0.2364096732741   -0.1050865274502    0.0439708293732 
  -0.3504314452530   -0.5147467294626   -0.3323929913695   -0.0592050812136   -0.1822719857920 
  -0.0300079160440   -0.1742607869425    0.1874278873087   -0.4135158781225    0.1983691289565 
  -0.1566869414636    0.0076540085747   -0.0234017542327   -0.2356882112720    0.0523075637094 
  -0.0965818022061   -0.0370951940876   -0.3591529594438    0.0053821366879    0.0860084443265 
  -0.4763260068238   -0.3755574566408   -0.5345106494437   -0.1871955924145    0.0438926229748 
  -0.1939278338033   -0.0420324112691   -0.1156443694921    0.1717477259495    0.0681886376706 
  -0.3402424263089   -0.0711075444416    0.3997586843684    0.1575685310953   -0.3628376011969 
  -0.0748725761173   -0.1755402510526    0.0503203877695   -0.1343637819427    0.0709230741726 
   0.0899422778977    0.0823048562744   -0.3602059151769   -0.2000945124854   -0.0207750444552 
   0.0029099274012   -0.0320734617969   -0.8760108453573   -0.2546130455612    0.3444000286310 
   0.4164008381573    0.4944412623043   -0.0607083001845   -0.5971118964849   -0.0349832604198 
   0.1363753850103   -0.1215367019548    0.0821615210760   -0.2449069196711   -0.0553109401544 
  -0.0930604621954   -0.2933157428804   -0.0368474728928    0.2960565274965    0.0345729328613 
  -0.1911783533447   -0.3711174064179    0.0926848845836    0.1048026341969   -0.1891852970437 
   0.1315718561354    0.0586902347965   -0.1411129370576   -0.1272919945758    0.0638580720211 
   0.3088231987752    0.0004227479806   -0.1239893066487   -0.1793722302212    0.1042601142551 
  -0.1066295412325   -0.1023593844098    0.4841743899938    0.1265055583682   -0.1879045132358 
  -0.6576967370523   -0.9833689728868   -0.0056484051158   -0.2605921593167   -0.1074688714414 
   0.1689130974018   -0.3266966969323    0.4088356268321   -0.2295684933036    0.0236018005767 
  -0.1637361412410   -0.1421430399112    0.2018806685890    0.3166511941876    0.1310713813578 
  -0.2387114343030   -0.3338978429664    0.0236344849364    0.0380831011343    0.3293257819104 
  -0.1506292850769    0.0424035173146    0.0740896751120    0.1529233582525    0.0708580318057 
   0.1565835070553   -0.0870003036311   -0.2346643783907   -0.2835970612528    0.0159763326752 
   0.3039454551201    0.1622564612400   -0.0668448196806   -0.2402387454207   -0.2280203476580 
   0.0018594117386   -0.0037075024316    0.2166120538246   -0.0421122988876   -0.1004812879969 
  -0.0457189129710    0.0773423376538    0.1157328285140    0.0697972073896    0.0841175353135 
   0.0566467280602   -0.0812286192759   -0.0531946111226    0.2000825310852    0.1748769480308 
  -0.0118089578829    0.1175452380619   -0.1067222854680    0.0825862482626    0.1111682770199 
  -0.0692681315858   -0.2444490388485    0.0968376725012   -0.1617381754834   -0.0315487268038 
   0.1674299507189    0.4064065664835    0.1658725025311    0.0616462517404   -0.1205594724093 
  -0.0429781215354    0.2579202474835   -0.1046154501264    0.0768718002849   -0.3980623575073 
  -0.1517787717567   -0.0002012189433   -0.1014703774386   -0.1817143499378    0.3435161218668 
   0.0551453665484    0.3490090825928   -0.3375469800534    0.1060976076140    0.1344256392192 
   0.2845939015387    0.1458223174054    0.1365345549730   -0.1660575135383    0.0801454296553 
  -0.0881718731445   -0.0457488833409   -0.1480286410123    0.2092173381823   -0.1340551263014 
  -0.1154836274500   -0.0107185601261    0.4611887818428    0.1267145311380   -0.0471638418989 
  -0.1628055146298   -0.0438400342869    0.1340936833422   -0.0366209585283    0.2056299056761 
  -0.1326477755151   -0.2106119158999   -0.1341112444221   -0.0535829672090    0.0632016744893 
   0.2080494543155    0.1427471082455    0.2109394730676   -0.2455037678116   -0.1138789400153 
  -0.0126880872709    0.0840535991671    0.1428584824505    0.0867756810845    0.0354452834794 
   0.0453457069829   -0.1676323204669    0.0734267757825   -0.0412652621195    0.0731768346577 
   0.0280158245229   -0.1618126373256    0.0626915400350   -0.2157534976448   -0.0470987483956 
   0.3330884803244    0.3114916222352    0.3436639381325   -0.0911653750371   -0.1580877743716 
   0.1113776718128    0.0871342760022   -0.2935537539456   -0.2874641188699    0.0684287947345 
   0.0084430359019   -0.1759546320473    0.1146721804222    0.1502324057709    0.0895822184950 
  -0.0617519143316    0.0634459745659    0.0726005451928    0.0084041653306   -0.1188984649698 
  -0.0749647165622    0.1334997122236   -0.1069532300777    0.0101825542863   -0.1113315749073 
  -0.1660487002025   -0.1715367709962   -0.0715481769366    0.1137490115454   -0.3036083817035 
  -0.1411683368135   -0.1300089561722    0.2689202035279    0.0653217279326    0.1575584340398 
  -0.0744241053859   -0.1973172173863    0.4529573604769    0.0279072290755   -0.1777809723052 
  -0.0295781843555    0.3182519936636   -0.0628054141350    0.4001369989910   -0.1736047896605 
   0.0195606354617    0.3048592199582   -0.1960196414459    0.3028577471301    0.2853442582930 
   0.1785227215419   -0.3405773155009    0.0081548490519    0.1155371925280    0.1752364689575 
  -0.0080770737141   -0.2441896985745   -0.1205268283343    0.0212867942356    0.1964540614024 
   0.2677073511497   -0.0299832682629    0.0509206721567    0.1640424045901    0.1319855128668 
  -0.1385076168815   -0.3291388912285    0.1033970469046   -0.0739839716362   -0.1102532524188 
  -0.3548241101685    0.2906961258150   -0.1292043570679   -0.0076480866544   -0.0702367092882 
   0.2476675988550   -0.1025203237222   -0.1684454917679    0.1443055343205    0.1615167521638 
   0.0013686666340    0.0027257926404    0.0223516979927    0.0230177880200    0.0708164766836 
  -0.1152893620790    0.0122493350600    0.0981664945888   -0.1871251401717   -0.2177597511443 
  -0.0755865397010    0.3273329469575   -0.0672235610942   -0.0765763282724    0.1309104878201 
  -0.1605388183437    0.0918631230795   -0.1708413674459    0.1330039289408   -0.0975171298682 
  -0.2239647888615   -0.2713932730345    0.0635877795466   -0.1647987292705   -0.1140404596028 
  -0.1813693485059   -0.0035270917837    0.0912709140591   -0.2383432590959    0.0638638605303 
  -0.1100824997671   -0.0116268071495    0.1993271792137    0.0460344732008   -0.0719541819423 
   0.1583023072382   -0.1097170270617   -0.0984421990458   -0.0009421425052   -0.0111160707578 
  -0.1735220674390    0.0065163152197    0.7957706926510    0.2258524115234   -0.0872399815666 
  -0.0072775112345   -0.2234802339015    0.4387093028391   -0.1341713939516    0.5287528741418 
  -0.5334404155013    0.2289421593108   -0.0450037698277   -0.2582189144360   -0.2058516562539 
   0.0018979396567    0.1184656032095    0.0751544352465   -0.3896555218451    0.0674445764266 
   0.2315933954621    0.5041621304359    0.4694913192587    0.2100264880500   -0.1883992597785 
  -0.1244033485502   -0.0485184748334   -0.1973691872665   -0.3975718048886    0.2727864922520 
   0.0061862646131    0.0917625785722    0.1070868401926   -0.1368537199349   -0.1048040833207 
  -0.1464927372712   -0.1339478614148   -0.2148549724193    0.2704939150002    0.0345403624206 
  -0.0353934099660   -0.1103400575953    0.0497993996105   -0.0868100039073    0.0811378254852 
  -0.3186661113076    0.2736175280367    0.1371366053112   -0.0312807873258   -0.0256143590926 
   0.3414002204680   -0.1272995667424    0.2050876371752    0.2409516787142   -0.1161369447828 
  -0.3381941947910   -0.0570246993811   -0.0481383204726   -0.0691811548270    0.1591213555058 
  -0.1174780986555   -0.1968385956312   -0.0033735726421    0.2530865664417   -0.4006359592794 
  -0.1210045783149    0.2750709304913    0.0806124529536    0.2653631002062   -0.1372640817121 
   0.1166443494990   -0.2145401786214    0.3958866069142   -0.0833069223540    0.1583836273378 
  -0.0556290321842    0.2050052380095   -0.0685485174102   -0.1405650810879   -0.0137424829923 
   0.2143628237601   -0.1233545263575    0.1624022147258   -0.1199762088754   -0.0885073172846 
   0.0728933232535    0.0612582358359    0.0016531150231    0.0690538598219   -0.0423335542948 
   0.2272166417461   -0.2676901655656    0.1972402196304   -0.0422640988760   -0.1502834446889 
  -0.5776776310183   -0.1393734066430   -0.1712008802506   -0.0220294828403   -0.0221395895045 
   0.0173772648137    0.1496370448368   -0.1714005020066    0.0556215104672    0.1747121538276 
   0.1367005032223   -0.3109181524995    0.0897736316553    0.1040702774407    0.0261910718165 
  -0.0934720830412   -0.1036750180889    0.1431803847836    0.0576030745754   -0.1875242056338 
   0.2178112553232    0.0065919783812    0.0325374102836    0.1680316334124    0.2038729565280 
  -0.0038247159670    0.2794609080803   -0.1944813516654    0.1014222029618    0.2949353792864 
  -0.0676128831893   -0.4104494703532    0.0684234757375   -0.1305227745720   -0.0413759964277 
   0.0122549684054    0.0898795177655    0.2204080360111    0.0060220067664    0.0056832325308 
   0.3077874169721    0.0099735765664   -0.0449750827281    0.1689220267034    0.1434822416577 
   0.1492554901976    0.0340949039546   -0.0856245500121    0.0901502653915   -0.0041407453986 
  -0.2022863024368   -0.0544635145606    0.0538077538436   -0.0753860250819    0.0993791610383 
   0.1302621571599    0.1441837069914    0.1741802891574    0.0466852434627    0.1897093829270 
   0.1377388377461    0.0457545860298    0.1796052676823    0.1661973921891   -0.1577711682703 
   0.0161707264414    0.0761486080045    0.0844238264300   -0.0923928650359    0.0434086735589 
   0.0927727820734    0.0873186648761    0.1891539319737    0.0603910051529    0.1711937381132 
  -0.0794068996577    0.1110119195937    0.0189161983037   -0.0450905137203   -0.0782977153975 
  -0.1139030522632   -0.1685588452059   -0.0423957744155    0.0285573658097   -0.1393465801537 
   0.0678034830579   -0.0443463558077   -0.1453984021386    0.1203851942781   -0.1144479270287 
   0.1195668760808    0.0237732852380    0.0729704838954   -0.3787941473155    0.0020788052871 
   0.0312040181899   -0.1526576136383    0.0957333724302   -0.0781251368550    0.2681481933371 
  -0.2008680015045    0.0912700265436    0.0691382010647    0.3220224319306   -0.2887167862308 
   0.0693097534435    0.1156378761435   -0.0194987897481   -0.2825698006645    0.0805168950405 
  -0.1043983999139   -0.1480537199584   -0.0567703719129   -0.0572127209988    0.1291590350182 
  -0.0139083051734    0.1293806916392   -0.0332224324380    0.2474772848709    0.1448227931774 
  -0.1981820038591   -0.0046429844281    0.2882500601492    0.1476066001668   -0.2838226135981 
  -0.1885737051295    0.5057000395067    0.1981418422775    0.4198494820017   -0.4682270751914 
  -0.2687791360312    0.0068203690029   -0.1673716959688   -0.1001981049109    0.2686271855974 
  -0.0230632906170   -0.1715655910318   -0.6269123776450   -0.3503249024264    0.0596737165186 
   0.2432830259928    0.3487314282308    0.0144530848858   -0.4689968409057   -0.6397996378905 
   0.0583172010544    0.5001313063195    0.2725705206030    0.3288469443013   -0.5636393193491 
   0.0560319625890    0.1119935681983    0.2036719648301    0.1957670259816   -0.2795261221507 
   0.3574801956303    0.5242470612163   -0.3664774925032   -0.4295665305791   -0.6407381332424 
   0.2509636091220    0.2337430055548   -0.0447947192612   -0.0126125841342    0.1074859861236 
  -0.0475595347841   -0.1823068547961   -0.1749570965996    0.6203547989797   -0.1443326183865 
   0.1961063754123   -0.0627706570535    0.2244810193617   -0.3113241085133   -0.0274983990112 
   0.1419436614088    0.3777167781157    0.1662224523426   -0.0149479118956    0.1686768068150 
   0.2270218385540   -0.0325537331376    0.1982720030996   -0.0229079907606    0.0585949330793 
   0.1720940991461   -0.0602872649204   -0.0714477455433   -0.0439521363859   -0.0699831708524 
   0.0149356693323    0.1154234887449   -0.1646879621470    0.0968860892814    0.0111474827113 
   0.1377600636765   -0.0729077114227    0.0404850288981    0.0855587255445   -0.0298268342943 
  -0.1546453258087   -0.0394693913244    0.0773324556930    0.0759973277928    0.0828000776754 
   0.1409902994132   -0.0386819816612   -0.2105122399701   -0.1247533893950   -0.0071998224358 
  -0.0745332081853    0.1528756938236   -0.0509076311592    0.1422838014048    0.1293225746023 
  -0.1914486210538    0.1405962782528   -0.6337233265820    0.0195328955268   -0.0538653125771 
  -0.1035654848799   -0.1567817296100    0.2051888931946    0.2252127502582   -0.1813379293375 
   0.0383998752026    0.1100079188943    0.0730137171247   -0.2879573485126    0.0746976189905 
   0.1561545712624   -0.0361171265134   -0.0944860931946    0.0833797521674   -0.1276582842080 
  -0.2908777120146   -0.1079442138265    0.1196152529049   -0.1639015627322    0.1280952141820 
   0.1377413779228   -0.0015806081749    0.1076650457144    0.0479255471908   -0.0648514601747 
   0.2154669526074    0.0342218357408    0.0635132545277   -0.7035579068795   -0.0875739659687 
  -0.1242862278461   -0.1484947260734    0.0978810292215    0.1613409055288    0.2917349715691 
  -0.2943274222187    0.1052944357081    0.4036822421192    0.2215047599737   -0.2114657243574 
   0.0108825848431    0.0749366211511   -0.2037132274910   -0.2160210134313   -0.0006266994128 
  -0.0452177396420   -0.3218644727563   -0.2906664677631    0.0277491424567    0.0786639693913 
   0.2849816579972    0.1525474116801   -0.0034516459677    0.1852021496885    0.3761028048663 
  -0.0146482067833    0.3576499396794    0.1017701288739   -0.1141845506449   -0.2350463357809 
  -0.1248423175183    0.2356696761318   -0.0254592414882    0.0575597524041   -0.2486814270326 
   0.0218637773141    0.0585508609411   -0.0481786758036   -0.1282918804975    0.1088083216586 
  -0.0845679618011    0.0937705879891   -0.3427626047581   -0.2285922880419    0.0789653883461 
  -0.0137049181406   -0.1576032503398   -0.1414930891185   -0.2339721074850   -0.1822709293943 
   0.0477367994882    0.2692073421376    0.0661374386775    0.0910923302097   -0.2382392897521 
   0.0407541757523   -0.0235498957790   -0.1238028537985   -0.0171911102516   -0.1416856802421 
   0.0597179111627    0.1711111457856   -0.1035150973067   -0.0674041845871   -0.1121202037304 
   0.0197302828479   -0.1561252990361    0.0794014224576    0.0868819890896    0.0696775543584 
  -0.1057174331032   -0.0168829103865    0.0067358231896    0.1232318831709    0.0755142823281 
   0.2034007380108   -0.4187431437628    0.1281180831533    0.2476918010540    0.1904492561094 
   0.2065533023562    0.1325142681953   -0.4276390805045    0.0410481232261    0.0251770430431 
  -0.1323412605111   -0.1466007167125   -0.0284497232610    0.0165935909943   -0.0961556025339 
   0.2927871830361    0.2540122807390    0.3940043887983   -0.3044707339234   -0.2496587638284 
  -0.2760408151967    0.2586683926397    0.2454861555579    0.2549704008099   -0.4039123324184 
  -0.3487450900096   -0.2118046203898    0.3602608445720    0.5201191937577    0.2970408143674 
   0.2818582027230    0.0311190305248    0.1557726252187    0.7749808123263    0.0300079814030 
  -0.0066717431750    0.0974303979281    0.0826038372496   -0.1980882925836   -0.1663400554973 
   0.0536163910665    0.0761901976534   -0.1025393532574   -0.1593116111977   -0.2698699297063 
  -0.1005283182253    0.1487851473099    0.3792902376786    0.2443096594045   -0.0224906522190 
  -0.3315227024377   -0.1658002845010    0.2593487052766    0.0501168831095    0.2236013646056 
  -0.2609443583216    0.0206050333027   -0.1298314548442    0.1095813597078   -0.1586318598967 
   0.2712264531724   -0.0716238543141    0.0518754463160    0.0401357972422    0.2399065993940 
   0.0374352047844    0.0667604221097    0.1986761652447    0.0553241243948   -0.1837773736382 
  -0.2947573005212    0.0079029425522   -0.0592480662798   -0.0172223819924    0.0620495800868 
   0.0667499712260    0.1778798535925    0.0663444421419   -0.2762422270317   -0.2683117986048 
   0.3546843097686    0.0513657898178    0.1254014984221   -0.1999977236090    0.0725654526069 
   0.0456811185663    0.1160800955590   -0.0378907508758    0.0540778958813   -0.0721541783616 
   0.1035367945263   -0.3505623808661   -0.2167750221024   -0.0551675030961    0.0009674725205 
  -0.2286808879399    0.1168406748771   -0.2653673799001   -0.2629625586028   -0.1667176906194 
   0.4241572026412    0.1543128116441    0.2227519082130   -0.0664338465898    0.2539064000569 
  -0.0408408589517    0.1235272635100   -0.1915058874204   -0.2850537352652    0.0625275082547 
  -0.0015828894369   -0.2563122360038   -0.0897407314550   -0.3264843181718    0.2272047371143 
   0.1522793035071    0.1112679498295   -0.0171308622678    0.2469115231232    0.1211858539187 
   0.0831251308322   -0.1979427342425    0.2842870203971    0.2904694465886   -0.0872059452997 
  -0.3524620195855    0.2214131941621    0.1549226680686    0.0511500662421    0.3894647336825 
   0.0365876405779   -0.0715104851005   -0.3207741774762    0.0049925417450    0.1023949647238 
  -0.1136064608862   -0.2378366493957   -0.0393180702426    0.2810063053120    0.1727089266234 
   0.6159728357576    0.4573662151578   -0.1228953045173    0.0273407452231   -0.4331073900973 
   0.3879245599042    0.1160757491664    0.0140121010977   -0.3121368737253    0.1643478172246 
  -0.1405307969527    0.3439478685714    0.1589674694004    0.3374317431348    0.1337766384828 
   0.1176870787599   -0.4997828088770    0.3478063469059    0.0840842643292    0.3691023139038 
   0.0895933177039    0.4367675666103   -0.4723076606160   -0.1936934204029   -0.3994185967411 
   0.0000160065969   -0.1510919051102   -0.2166083761275   -0.2338308689201    0.1025020152652 
  -0.0057078302778    0.6817674267980    0.3601629813116    0.0443964377008   -0.1265981090355 
  -0.2295658679072    0.0565197975219   -0.1667486037498    0.2095866713148   -0.1196491137301 
  -0.2630647426827    0.0439013810464    0.2984876469899   -0.2269443704421    0.1041935222722 
   0.1596378419345    0.0525652008125    0.0790996284993    0.1041475263043    0.0880633575133 
  -0.0374199412696    0.1359064246283   -0.0016627287919    0.0083943372945   -0.1957279832467 
   0.0321277105201   -0.1034971988696   -0.2899623828252    0.0337528672214   -0.0534649399679 
  -0.0820232119228    0.1842746449090   -0.8055064937688   -0.0715432059021   -0.0325673238752 
  -0.0643315275359   -0.0242658255302   -0.0577066132367    0.0155528425728   -0.0454835324134 
   0.2354550832512    0.2868384861729    0.1353003406178   -0.0296317311312    0.2719389576381 
   0.0128751383103    0.1291192930295   -0.1825622690506    0.2425377443511   -0.2125891207334 
  -0.0196649716442   -0.0263798002433    0.0816455183193   -0.1137425235289    0.1403302279846 
   0.1479009455703    0.1926456539901    0.0258010090887    0.3654847844254    0.0241690165319 
   0.3697865054695    0.2534356478242   -0.1334891258359   -0.2632129750642   -0.1280836525157 
  -0.0060390039861    0.2646284629299    0.0383153663471   -0.1690859299847   -0.1375520166023 
  -0.1149323887702    0.1044824889495   -0.1250938786482   -0.0387268380584   -0.0178526370398 
  -0.1066141479399   -0.2817510800590   -0.2718727535995   -0.1069006084559    0.1647759370304 
  -0.1860843926859    0.0467698416455    0.1599599847616   -0.0743874419763    0.0596363267090 
   0.1398443676759    0.1607730681083   -0.1008055519063   -0.0358514295235    0.0053064092343 
  -0.0103994495076   -0.1597210259233   -0.1390683787423   -0.1893800979125    0.5888198774671 
   0.3793336887132    0.0190339403771    0.0449053345509    0.1298848904023   -0.1564934722014 
  -0.2752697886262    0.2008295995174   -0.1416272691329   -0.2766726405836   -0.2820671023287 
   0.2087102519385   -0.1301680247436    0.0962249237787    0.1221507817504    0.3426707126104 
  -0.2761284711906    0.0157642484702    0.1845809701993    0.0393055849531    0.0386137352124 
  -0.0654601540849   -0.2119633745333    0.0602807896304   -0.1306873801381   -0.1936639729394 
  -0.1541078989664   -0.0706180803407   -0.1177419504076    0.0316156796341    0.0396999423364 
  -2.9972095181606   -0.2213484999476   -0.5124378854180   -0.1952073788506    0.1697764129758 
  -0.6915246755058    0.6731412403714    0.3958162178248   -1.1858506635171   -1.0144887817268 
   0.4325825444881   -0.4565754670097   -0.6350267786609   -0.0096975439080   -0.2836039359107 
   1.5890408635435   -1.1642390868768   -0.1420224444222   -0.5325870441579    0.1725958496767 
   0.5088022737718   -0.6413966514265   -0.8311081553553   -0.4521720931298    0.7911189059417 
  -1.0469613275952   -1.1232506060806   -0.3891533964837    0.1045845845124    0.3963278929020 
   0.1202760453914 

