# Neural networks weights generated in PyXtal_FF 
# total_species nparams 
2 1891 

# NET ndescriptors nlayers activation_func for layer 1, number of nodes for layer 1, ..., ..., ...., 
NET 30 3 tanh 30 tanh 30 linear 1 

# Scale0 
 75512.2299947545689     30.4016900525452  -8773.7651235860776  20459.8399992317754  -5535.3861708035438 
 -6776.2194813777160  -1083.6445213280338  31430.1975623898179  -3531.7355454520884   2992.6406013639939 
  1985.2696533171845  -1684.4322810739379  -4749.7662861658391  20128.4524478371859  -4259.1604819365457 
  -577.3039003650999   3762.0247855930852   3919.0292230666473  -7590.5404938585489  -1381.1741927193107 
 25541.0173427418267  -5361.1544949986619  -1102.4517702398718   3898.9624578522703    -29.9124888585342 
   -21.9294751184598  59546.9630562402963  -1586.1661895388102   1932.6063112584786   -274.9952470318362 

# Scale1 
505365.9515123752644  74280.4780537860643  13318.7460435245266 100458.9357529768604  17330.8381161078323 
 38273.1688108083399  29319.2845595466824 139853.3881064158049  21814.9299938023432  21357.2668776318496 
 27256.1308668989259  23183.0249914930573  51830.0877194935383 147427.6069801474223  34850.6485656095174 
 26990.1250314620884  28674.9014503889084  14367.2564638140157  35703.4685081401403  31516.8082271720341 
179814.2059928549861  26832.3671007226003  28439.6898010404402  17384.7265230859484  22311.8981503540781 
 21921.7212936849210 205250.5243296088302  41675.4704701368319  23190.7566049788911  47407.4322529023193 

# Coefficients (O)
  -0.2120979330840    0.0528226837387   -0.1257479165148   -0.0758962963141    0.0850317065349 
  -0.2602798648307   -0.0870819917777   -0.0167237659673    0.0778523714418    0.0355044642019 
  -0.0050886041837   -0.0690232254670    0.0408631629508   -0.1618590830813    0.0201869104345 
   0.0470123282890    0.0401857296471   -0.1241062963763   -0.1512887481914    0.0799654196541 
  -0.1038659405643   -0.1943072133490   -0.2079964121754   -0.0649928102112   -0.0686223448586 
  -0.1302574005578   -0.0132041165705   -0.0508311611639   -0.1064270776694   -0.0428468986915 
  -0.0129117646893   -0.1889045318999    0.0709785797092   -0.1039505225247    0.3073400761710 
   0.1259887055723   -0.0987605158208    0.0386320461797    0.3301980691773   -0.1659721358526 
  -0.0007091415535   -0.0944557809589    0.1134165151565   -0.0916935530567    0.0259539989954 
  -0.1332258928559    0.0314383371535    0.1864750346326    0.1294510969367   -0.0213941908381 
   0.1116563831484    0.0040393065260   -0.0001835220470    0.0646986614139   -0.0353628078595 
   0.1327006703097    0.2101020079838    0.0261659660827    0.1357763381559   -0.0996641422779 
   0.2232548388505   -0.0476430069941    0.5379420377502   -0.1694251631504   -0.0627655235490 
   0.1329556330937   -0.1410900628742   -0.0461506262103   -0.3356631644781   -0.0798533739262 
   0.3116262564333   -0.1823471437857   -0.0809705732278   -0.1070789290922   -0.0044566997008 
  -0.1171969680546    0.2131712187669    0.1069352294508   -0.0950611761382   -0.0843665449593 
   0.1145027336200   -0.1959975142408   -0.0458248213824    0.1510416577966    0.0228850311403 
  -0.0193971338385   -0.0206840014118   -0.0387261886670   -0.0745045266220    0.4137778929170 
  -0.0849171348248   -0.0910439585154    0.0960035124188   -0.3267028255648    0.1611551486858 
  -0.0141566960891    0.0842032322382   -0.3381871088202   -0.1188017035330   -0.1467658411325 
  -0.0224159130321    0.1158469333109    0.0657697962621   -0.0997124080508   -0.2405828535851 
  -0.0828631786064   -0.1980563859984    0.1678667981420   -0.1361991497405   -0.1243403290315 
  -0.2543880370314    0.0903832198825   -0.0001883874121   -0.1907955018886   -0.0870950802904 
   0.0172368808734   -0.1565972890558   -0.1344868728636    0.1697794431515   -0.2345963438495 
  -0.1642606585388   -0.1721337733623   -0.1575257970799   -0.2071556252718   -0.1278501462899 
  -0.0372789760068   -0.1147050426352    0.0463008147050   -0.0319740051944    0.0375788616566 
  -0.2256938124204    0.0379984689863    0.1224862153054   -0.0361423557926   -0.1794302250773 
  -0.2044013648147    0.0091979601520   -0.1459905529408    0.0364585935976   -0.0680074758213 
  -0.0856508759618    0.0267568266140    0.0352646844855    0.1169870783222    0.1312414716152 
   0.1923225126684   -0.0122967551145   -0.0395680907300   -0.1259001894018   -0.1189497331701 
   0.1536400131087   -0.0884118861234   -0.1970764443833   -0.0785292578584    0.2018092303821 
   0.4018238887304   -0.2229827090957   -0.3086270987842    0.1754221042670   -0.0246131149950 
  -0.0898323453978    0.0157380864231   -0.1363262480563    0.0921429909340   -0.1689721801102 
  -0.3082673584958   -0.0200172337907   -0.2387552439103   -0.2278170049915    0.0374777522313 
  -0.1422338510026   -0.0311448614513    0.1236512541274   -0.0767495401641   -0.1546872650961 
  -0.1024035850677    0.2212010904908   -0.0877031237678   -0.1274530274907   -0.1062463840615 
   0.1136852335906   -0.0698769663284    0.0260872718854    0.0032205222478   -0.0515882346281 
  -0.0737755908638   -0.3319727856631    0.1300609181344    0.2838118694682    0.1737677141233 
  -0.0675525586342    0.2692072936374    0.1374951178547    0.0019500085592   -0.0709840741195 
   0.1053178126881    0.2213891406037    0.1864879002457    0.1375251854786    0.3587829827439 
  -0.1343024685742    0.0291743659065    0.0836102672007   -0.1251723799285    0.3168190224507 
   0.0812157776683    0.1483533404115    0.0087921465189   -0.0280337495436   -0.2028390775378 
  -0.1114018089972    0.0341557786382   -0.1203134295015   -0.1647593790424    0.0990778047657 
   0.0911473934977    0.0171120820007    0.2485943444943    0.0978436076218   -0.0776172809573 
  -0.0457124763948    0.0400457772420   -0.0636127448606    0.0298825148088    0.2415570203577 
   0.0687151971947   -0.0790267100485    0.0218786138006    0.1095751841712    0.2183506437726 
  -0.0255528822638   -0.1727609125696    0.0623730864449    0.1834775775415    0.0528374959966 
   0.1013101832508    0.2092789624501    0.2658494881588    0.0693864222414    0.0925313564255 
   0.0032286801892    0.0498113142425    0.2014795901444    0.2169151734252   -0.0612846429945 
  -0.0893204589147    0.0656877595353    0.1452198254801    0.0997004806847   -0.0703587870287 
   0.2067962634044    0.2119733084660    0.0065397895965    0.3591502812648    0.0803242913424 
  -0.0854005210754    0.2244507074710    0.0942880318266    0.2462398237454    0.2011079123001 
   0.1926974292653    0.0361531938070   -0.0962081656073   -0.0997488729355    0.0645987181314 
  -0.0036712574728    0.0891242402430   -0.2309439898048   -0.1073122880234    0.1193383793856 
   0.1678146775623    0.1236191377105    0.0360177492560   -0.0060794919811   -0.2317984465268 
   0.0309491288557   -0.0210203522463    0.0951922571530   -0.1203558484923   -0.0875849426187 
  -0.0979265773245    0.1170308816572    0.0789461598775   -0.1222849793812    0.1101186572780 
   0.0483357103171   -0.0094034177417    0.1327780229481    0.0024944337575   -0.0576723248743 
  -0.0003031120627   -0.2102857792263   -0.0334118508844   -0.1204521780085   -0.0229164702905 
  -0.0593944056114   -0.1027797993749   -0.1951284510879   -0.2764038267069   -0.0803924927845 
  -0.1002546652658    0.1646506366819   -0.0822634888645   -0.1493522078940   -0.1945303107677 
   0.0149295900177   -0.0663665720924   -0.0270383455721   -0.0010026828525   -0.0344676425620 
  -0.1148854770821   -0.1697075827822   -0.1102635406277   -0.1319084777964   -0.1015275163350 
  -0.1948605740105   -0.1805963048380    0.0493013326329   -0.0510348309712   -0.0196821496579 
   0.1240689263435    0.0704623909896   -0.2502477972035   -0.1721290927266   -0.0543056582304 
   0.1305762645789    0.0425731626774    0.1036641154390   -0.0569781717585    0.0934488323285 
  -0.1418259662779   -0.0928483752806    0.0406430249918    0.1185302107489    0.0920726700487 
  -0.1702979586172    0.0266207713614    0.0900007641577   -0.2347615893277   -0.0684958864610 
  -0.2022395395881    0.0946822176252   -0.0060607169665    0.0177606649945    0.0098312982113 
   0.0666162310935    0.1638628982413    0.1146955320260    0.1265712584794    0.1640378012210 
   0.0056030373238    0.2800277227907   -0.0497910264802    0.2882129178958   -0.0948615640643 
  -0.1509759608664    0.1031991034911    0.0588252368588    0.0214252377199    0.0719743738730 
   0.0571761843555   -0.0575298826995    0.0707486354074   -0.0105639448868    0.0911135214386 
   0.1523323121956    0.0482631672202    0.0352478506576   -0.1497195314480   -0.0328529124197 
  -0.1294831602956   -0.0717951095162   -0.1143357524158    0.1061425745405   -0.0170391042462 
   0.0651718517980   -0.0076106542951   -0.0179643314101   -0.2106457770177   -0.0564221501243 
   0.0554171016794   -0.0156020807174    0.0553636908026   -0.0936213047416   -0.0471405580346 
  -0.0189418068764   -0.0935362708839   -0.1603651584757    0.0252596057209   -0.1637411584089 
  -0.0105520410021    0.0978126475242    0.1836147818972    0.0057412442916   -0.1412431166904 
  -0.0403754933027    0.0459500640898    0.0235487833873    0.0570511460794    0.1907518982187 
  -0.0132094208667    0.0847037048328   -0.1345648182982    0.0163315642392    0.1122858056944 
  -0.1117690196171   -0.0117210710365    0.1656665021346    0.0494780241676   -0.1041206059933 
   0.0251973732385    0.1662804284752    0.0197404316157    0.1097018713986   -0.0276468082216 
   0.2051552014395   -0.0299778480912   -0.0055546774348   -0.1118446184025    0.2344240467938 
   0.0584525710275    0.1274819010648   -0.0052108196641   -0.0102618500407   -0.0310119555066 
   0.1029706300490    0.1145610199452    0.1290508036963   -0.1176169357507   -0.0335507358676 
  -0.0677418845442    0.0854103219935   -0.1055795022937   -0.1943094057886   -0.2280235276093 
  -0.0253963542191    0.0380432135516   -0.2257791736603   -0.0808751526411   -0.1357961039201 
  -0.2141368109915    0.0703568235096   -0.1410049943765   -0.1285532129360    0.1751269738558 
  -0.2162333674420   -0.0501750986486   -0.2295319264086   -0.0936212851659   -0.0069504496453 
   0.1240446608722   -0.2063649301957   -0.1806926273548    0.0945009292538   -0.2082466597581 
   0.1875310556988    0.0632733921581   -0.0370587156933   -0.0044629916866   -0.1161519437287 
  -0.1726623436352   -0.0388507543564    0.0855547843442    0.0379027294272   -0.0972024981109 
   0.0640094713007    0.0148720035314    0.0729180902804    0.0667521406236   -0.0958888521568 
  -0.0431607342519   -0.0906773606816    0.2191883938533   -0.1251661791918    0.0225792996647 
   0.0312139787427    0.0172608049200    0.0934971746386   -0.0502434031762   -0.1783940185768 
   0.0795062770250    0.0001790617976    0.1331209131252    0.0380972180031    0.1946727664396 
  -0.0794702624182   -0.1497821833951    0.0457870646643   -0.0385125235038    0.1092963161923 
   0.1451945259537    0.1911479654876    0.1592578046374    0.1165780591022    0.1909451818430 
   0.0393767969274    0.1613628581055   -0.5438994522666   -0.3444605073517   -0.2534050720039 
  -0.4136191120743   -0.1538229584534   -0.2694523784667   -0.2613152922144    0.1306127767493 
  -0.1257407874918   -0.3567665683092   -0.2377217992533    0.0489054528083   -0.3030058832680 
   0.1450177394401   -0.1705893342592   -0.1923972170373   -0.0476861070053   -0.0935849381140 
   0.3289700001426   -0.0837626356389    0.0890345166740   -0.1896474323873    0.0482379088605 
   0.0915733448984    0.3129735691732    0.3549006643920   -0.0137245291789    0.0087350224614 
   0.0455007917825    0.0892705905214    0.4624627130577   -0.0186997951103    0.2274003269438 
  -0.0105034783175    0.3234418952304    0.1732715451790    0.0988307492847    0.2637269189613 
  -0.0162708025528   -0.0010231399835    0.1274232173593    0.3512117269051    0.3223144003558 
   0.0763458829146    0.2596505809040   -0.0392229088902    0.2794726538745    0.0399500838773 
  -0.0095948883202    0.1365523071980    0.2813264817939    0.0780946059282    0.2066955284292 
   0.0363784053391    0.3223409165954    0.0015518707247    0.0139551603981   -0.0444520985426 
   0.3880323205526    0.0172298854015   -0.0042541919291   -0.1696576859658    0.1214721307935 
  -0.0567573261843    0.0981842365868   -0.0971295730392   -0.1218825600227    0.0971497461342 
   0.0579789819894   -0.1147182499711   -0.0386590884807   -0.1775921347403   -0.1011995319042 
  -0.0098202563063   -0.0001836062073   -0.1765380638284   -0.0155579522797   -0.0065644134571 
  -0.1431539458838    0.1310836690572    0.0072824006473   -0.1343673197665   -0.1078736570250 
  -0.2353704145117   -0.2226695148481   -0.1375098810709   -0.1684660940264   -0.1780707558735 
  -0.1275242625839    0.0237047515679   -0.1797346946713    0.0395554879677   -0.0181441729603 
   0.2689885386243    0.0472462410752    0.0001457384181    0.0780050211197   -0.0095381386787 
  -0.0543253095308    0.2690254059654   -0.2015467382547   -0.2358605133601    0.1837894691346 
   0.1532102694839    0.1558450825029   -0.0534921752585   -0.1695364197838    0.0795922115013 
   0.1640319212973    0.0048591384388    0.0735479573275    0.1846544213361    0.1670546361474 
   0.0373786937345   -0.2142279877819   -0.0648025405587   -0.1199468660748    0.2886457846411 
   0.1900756317134   -0.0251282202809   -0.1337409664622    0.3848933130384    0.1085809032759 
  -0.0956160033804    0.2918521191915   -0.2538336295976    0.0449644127454    0.0541087696492 
  -0.0897491991368   -0.1480065927546   -0.0614722258697    0.1698676489274   -0.0978966774264 
   0.0243044969778    0.0974119611067    0.4102085795011   -0.0895219219083   -0.1720635190232 
  -0.0687712506440    0.1466736278805    0.1032168998412    0.1816013495039    0.2849808777752 
   0.0421070444018   -0.1833694268298    0.0049193126213   -0.0415589278182    0.2417584994083 
   0.3377716102940    0.2843306285452   -0.1220069484215   -0.1001664405467   -0.1687197715698 
   0.0971769144142   -0.7199656882927    0.4835714848558    0.1961042020105   -0.1735330545686 
   0.1930010677595    0.1645786846704    0.0700527949687    0.0562572533418   -0.2562167704656 
   0.2775360368442    0.3954026718593    0.3303045283880    0.0824344514460    0.2785303738199 
  -0.4079513465302    0.0782546642821    0.2008030851170    0.1907912233299    0.3126286410820 
   0.1587915228729    0.0665475600888   -0.0948771538697    0.0985548589327    0.0861105538034 
   0.0351715265727   -0.1192397594656   -0.1273815835240   -0.3339631471919   -0.1801162573056 
  -0.1123548933402   -0.2093447125782   -0.6334810582562    0.4165413421382   -0.0264811702352 
  -0.3344746998102   -0.1821881371644    0.0230448594262    0.1136630255536   -0.3168878110640 
   0.0142667197869   -0.1428653400856    0.1005009187133    0.0311887783443    0.4685656150074 
   0.2033560170844   -0.1142856469186    0.0067303859262   -0.0177971874745    0.1000744906649 
   0.0900039400671    0.1589470457027    0.0784573490423   -0.0201894730835   -0.1453240365927 
  -0.0446404708640    0.2556822848118    0.3861538591227    0.3195998089495   -0.1564624438233 
  -0.0146577191169    0.0965308684962   -0.0839364457635    0.0136950156991    0.0241957714688 
  -0.0609747343268    0.0335322998027   -0.1029822846614   -0.1477239647480    0.0261808861838 
   0.1601732250525   -0.1990038022312   -0.1777719719852   -0.2875846113706   -0.2384523843328 
  -0.0193754526957   -0.0557392475215   -0.0483609448459   -0.0142166486057   -0.0313602964412 
   0.0177550973337   -0.1307548082064   -0.2344372941128   -0.2064826132801   -0.0419742807530 
   0.1126655028954    0.0712726545032    0.1131935896601    0.0427806638204   -0.0946079504860 
   0.2080029311143    0.0389070176387   -0.1426898870661    0.0708280478252   -0.2842341182372 
   0.0004149666071   -0.2764565546406   -0.1902830624941   -0.2840033985890   -0.0914409408197 
  -0.0191894201312   -0.2470710963571   -0.1392346451462   -0.1321567713244   -0.0678094366350 
  -0.1748526319626   -0.0267631629035   -0.1556015372100   -0.0888881347487   -0.0594230616856 
  -0.2407987030855   -0.0343362802646    0.0550391510976    0.0375624477294   -0.1510516715975 
  -0.0618289907527   -0.0956633283064   -0.1063583950283   -0.0471055646541   -0.2469884141927 
  -0.1162492918634    0.0050060145062    0.0432184911364   -0.2465048667246   -0.0932103360417 
   0.1316406542657   -0.0951807503546    0.0207380246764    0.0504541729215    0.2678097450906 
   0.2562467880440    0.1969205161155    0.2322793057297   -0.1303434135387   -0.0625852197187 
   0.2191518080656   -0.0340433936567    0.0926578375496   -0.0064303827730    0.1143943446910 
  -0.0406083761010   -0.0264165401947    0.1946927056956   -0.0374452478117    0.0225843971409 
  -0.0546221465696   -0.1340125514192    0.0166756043684   -0.1001793465531    0.2144685817351 
  -0.0581259809972    0.0652562551667    0.1769532514977   -0.0557789694761   -0.0455455304099 
  -0.1145324811595    0.2698514741923   -0.1446325270511   -0.2888104625542   -0.3335818321407 
  -0.2278217422751   -0.1829000843245   -0.3009421494898   -0.4955321621459    0.2833460666885 
  -0.2783630233381   -0.1768343463274   -0.0698886202603    0.2254912576365   -0.0968408910997 
   0.1186720522751   -0.1439229324570   -0.0241556334472   -0.4418549041878    0.2483273606671 
   0.2938238676233    0.0805773511624    0.2841403276577    0.0889763817529   -0.0116618098660 
   0.3204125741988    0.0466112149875    0.1492403192733    0.1299230298538   -0.1414316417875 
   0.1254251679987   -0.1896053847557    0.3682976568125   -0.0343257009772    0.2119911206249 
   0.2084554201399    0.1991548612613    0.0257908200873    0.0124080380186    0.1478545846202 
   0.0934891542037    0.0899566182507    0.2348208879375    0.1723075769676    0.1716283720202 
   0.0412858342629    0.1735802968120    0.2046210671204    0.1436031135973    0.0811643322319 
   0.1356568272915    0.1371062272675    0.1659043842468   -0.0122996032965    0.0469978617702 
   0.0114150368467    0.1811251269503    0.2432443531495    0.2831949276127    0.1288120347716 
   0.1704514921078    0.0708153098839   -0.0402493322903    0.0360262703462    0.1072209588756 
   0.0375165777235    0.0937266069988   -0.0749458291712   -0.0377103228554    0.1036956659133 
   0.0417271008790    0.0715638686529    0.1300290585381   -0.1450944402714    0.0168158920317 
   0.2166917020218   -0.0728563626021   -0.1606504277021    0.1028790858169    0.0012319942098 
   0.0074116687055    0.0694480239710    0.1303334538935    0.1108899506816   -0.0876386447240 
   0.1042038634697   -0.1271666347173    0.0584647218342    0.0154269905080    0.2669197757285 
   0.1594156205703    0.1431584359187    0.1240904441814   -0.0174161434426    0.3156383647048 
  -0.2887712098828   -0.1419709704700    0.0390693873549    0.0795126492762   -0.0305418397268 
  -0.0085682713219   -0.1363253833843    0.1754859179896   -0.0021090768598   -0.0014828619965 
  -0.1974068647242   -0.1273213626160   -0.2471667543082    0.1112406945390   -0.0593500066988 
  -0.0068333851245    0.0929977040805   -0.2344006798510   -0.2204863985775   -0.1591744709845 
   0.2333255557580    0.1002476184916   -0.0154908211052   -0.1390740854391   -0.1987751471335 
  -0.0097813006504    0.0503753152156   -0.0825421715542    0.0017714903479   -0.0074538867665 
   0.2644633663819   -0.0536261759319    0.0530804387085   -0.1121238367007    0.2615529127605 
   0.2074612932913    0.0592207983935   -0.0057119241711   -0.0502759730421    0.1218921138807 
  -0.1059593339772   -0.1399559232408   -0.1097753724981    0.1100970908609    0.1183622065941 
   0.0255799668053    0.0936956514700   -0.0683823002138   -0.1246175536805   -0.1467669509350 
   0.2082431429853    0.1632338647035    0.1583356195280    0.2727089022767   -0.0243615560679 
   0.1666011035722   -0.1978406145394   -0.1059354298081   -0.0600894008198    0.0485861199944 
  -0.0497012235911    0.1106066912391   -0.0466136615553   -0.0420737467409   -0.2538649164770 
  -0.0622809377719   -0.0772467064127   -0.1420204027142    0.2094618115275    0.0160974440428 
   0.2796223541085    0.0313466292295    0.0429233166366   -0.1498342705804    0.0737878819084 
   0.1261001099906   -0.1547975950554   -0.1532388801329   -0.1760351105879    0.1726527599692 
  -0.0524138900655    0.0299855329154   -0.0016594741298    0.1415797257333    0.1079536524181 
  -0.1715579612321   -0.1720542395135   -0.1894144296102   -0.1127785294725    0.1643511429474 
   0.0643686357789    0.0333688253878   -0.0857731721684   -0.0680153401842    0.0756872492743 
   0.1707977340017    0.1698493036938    0.0536366596499    0.0217770287142   -0.1804957413304 
  -0.0086098865423    0.0965219916243    0.0376300919261   -0.0050365431508   -0.1970392226073 
   0.1735989395051   -0.1670404067188   -0.0477125221293    0.1321610088092    0.2207022873713 
  -0.0384257307522   -0.1234285114785   -0.0863038101989    0.0835884447997   -0.3089390463156 
  -0.0365481301226    0.1119291103032   -0.0163916608057   -0.0057176326630    0.0560877134386 
   0.0550663959642    0.0309074724863    0.0910821119286    0.0016081479762    0.0810219613916 
  -0.1291073051628   -0.0517040923688    0.0041735194321    0.0281243404501    0.1652801162005 
   0.0424682011011   -0.0979166936716    0.1637470936018   -0.0083957511411   -0.0361332115256 
  -0.0060711125499    0.1284365157842   -0.1738202005801   -0.1279670551083   -0.0117180253505 
   0.1418806509703    0.0470751509497   -0.0771227000590   -0.0021512565371    0.0696948522911 
  -0.2713449129966   -0.1373287106161    0.2069384118516    0.1226778263176   -0.0417211163435 
   0.1068633610026    0.0746038708665   -0.0435475576262   -0.1185582694681    0.1702250638212 
   0.0336720200780    0.0683740454587    0.0062741124871   -0.0758940572827    0.2298650655027 
  -0.2294654841269    0.2103369549215   -0.0580323411688    0.1254976654567   -0.0821276620836 
  -0.2569877850571   -0.1456355154892    0.1246178773982    0.1425270693235    0.1700089345480 
   0.0468840442909   -0.1342742828838    0.0753675801236   -0.0172231207615    0.1843341141914 
  -0.0430102334120   -0.0398626449159    0.2506150900064   -0.2001974774101   -0.0671653258251 
  -0.1811849176683   -0.0624204853500   -0.1736254663110    0.1535483540202   -0.0355603095315 
  -0.0219908872497   -0.0453405834699    0.0186546720988   -0.1749407194084    0.2324919386911 
  -0.0699562348314   -0.0995654877291    0.0118108334090   -0.0224983938955    0.1781703396532 
   0.0336672058929    0.0288134859545    0.1556221080273   -0.0289359976677    0.0855065755497 
  -0.0276383360754   -0.0387436636841   -0.1774797687977   -0.1854696532353   -0.0051813525897 
  -0.0131077812831    0.2853158408432    0.2316555654580   -0.0224635856688    0.0446541113186 
  -0.1556690875428   -0.1336371872294   -0.1653626641914   -0.1908491455616    0.0576335658309 
  -0.1828861675770   -0.4928126226101   -0.0125030212435   -0.1313623736530   -0.0332572035358 
  -0.2011018837352    0.0636903448645   -0.0347651973849   -0.1584672880140   -0.2135572246098 
   0.0309739125618   -0.0695174240168   -0.0315330131080    0.2184223076169   -0.0284448614645 
   0.0463227259318    0.2823822356598   -0.0287461821654    0.3711347680362    0.0913609121983 
  -0.0740108945249   -0.1744610814893   -0.0956228695249    0.0479660925824    0.0648728845283 
  -0.1700562865681    0.0786686594835   -0.0139939850059    0.3238883240300    0.1458235265335 
  -0.0022758153446    0.1463112215224    0.2268160107843   -0.0091260722227    0.0867539880507 
  -0.0493716080255   -0.1050911515155   -0.1190512664477   -0.1498851095936   -0.1290678216226 
   0.2402745348804    0.2421562586667   -0.0351112095409   -0.0891541500884   -0.1374939017171 
  -0.2033007563842    0.0920603418154   -0.1979559460453    0.0928786215612   -0.0735119031866 
  -0.0157681261421   -0.0255838837458   -0.0994812795935    0.1304287851552   -0.0217017607640 
  -0.0280346743973   -0.1290523498036    0.0861105339408   -0.1478877208381   -0.0944350200449 
   0.0135142037219   -0.0920133800549   -0.1543006991557   -0.0178941432975    0.0092398434868 
  -0.0829235954718    0.1292527451011   -0.1495466158803    0.0809239052958   -0.0340850201280 
   0.0909604347300   -0.1455880579956   -0.0071878370728    0.0057373686144    0.1303434609080 
   0.0333474728803   -0.1527802949029    0.1241561510047    0.1006803691409   -0.0921532184660 
   0.1001221793820    0.1925919043681    0.0444910206910   -0.1412367314596   -0.0761693543351 
  -0.2143412783546   -0.2388688330749   -0.0131554499718   -0.1568941481200    0.1658969329069 
   0.1369388943055   -0.0105301050346   -0.1208035397158    0.2016143087990    0.1239956341527 
   0.0872361144274   -0.0678809962724   -0.0061735045595   -0.0510434143216    0.0719735647296 
   0.0640355967599   -0.1043734506759    0.0631815447553    0.0758954663867   -0.1036251587656 
   0.0852552419988   -0.1253552950726    0.1501551394105    0.1459738307762    0.1330585829404 
   0.0287356400215   -0.0446662388392    0.2346323322919   -0.0596598173807    0.0348964575455 
   0.0027223648508   -0.2044821831957   -0.1239656527630    0.0149223491450    0.1821799324583 
   0.0824295645630    0.2180909935307   -0.0675783634858   -0.2326447892586    0.1353624027251 
  -0.1320704944005    0.0158702117959    0.0168026317259   -0.1325596131925   -0.1378463733951 
   0.0649389230976   -0.0469276166236   -0.1265673568926   -0.1664918960112   -0.1558340071788 
   0.1009851187227    0.0048737228821   -0.1062499202052   -0.0871698049247   -0.0274787638701 
   0.1531629893763   -0.0576002952901    0.1162354445504   -0.0438959499335   -0.0182206170569 
   0.0423928301032   -0.0360447434853   -0.1629906537512   -0.1788164047336   -0.0049264038445 
   0.0503823755331   -0.0644385058648    0.0179060095981    0.1237795580452   -0.1252686404263 
   0.0687669136802    0.2614155911890   -0.1200696282675   -0.1745198774166    0.3077049556681 
  -0.1334740230649    0.2002384724251    0.2241129983092   -0.2978398272436    0.0973731646426 
   0.0430597406979    0.0861048006209   -0.0591185497440   -0.0831569260979    0.1932194948241 
   0.0918596686326   -0.2100015135240   -0.0883333477853    0.2035524039835    0.2130555469781 
  -0.0912547042380   -0.1350166704913   -0.2714813316945   -0.2958263291613   -0.1464912401455 
  -0.0611051765639   -0.1913282067257   -0.1316512218857    0.3952153491815    0.1170489179994 
   0.0040404779275    0.1150222818938   -0.3812464484707    0.1836010238983   -0.1839231316039 
  -0.0662331809184    0.1555921538104   -0.0837025215480    0.1302286021434   -0.1299172894512 
  -0.2698619934984   -0.2185717526339    0.0370424704783    0.1174053322445   -0.0022344016761 
   0.1796721076229   -0.1318362726811    0.1974311042273    0.0752509400602    0.2874613206568 
  -0.0161704383632    0.1259657839865   -0.2105617092643   -0.0745924283804   -0.0555046966027 
  -0.2276027519760    0.0304574998188    0.0293807327456   -0.0406260634011    0.1154112205795 
  -0.0526868913477   -0.1449027502372    0.0610756249997    0.0441798395431   -0.1205980860697 
  -0.0297376631435    0.1453819484892   -0.1539635241997    0.0595397671939    0.0719102139410 
   0.0999804119110    0.1912973131602    0.0745549064776   -0.1409519875896   -0.0725333693313 
   0.1756461397475    0.1133929595946    0.0630370932560    0.0006820643422   -0.1415036678619 
  -0.0865019415511   -0.1142831799592    0.1308142683686   -0.0012703517615    0.1884569991705 
   0.1298990398704   -0.1478322888004   -0.1556679402548   -0.0299228045257    0.0376256376907 
   0.0763501437897   -0.0015251898185    0.0977362231436    0.0607433428115    0.0343426785908 
   0.1014587346142   -0.0188751621240   -0.2292648130487   -0.0192010982113   -0.0621205097431 
  -0.2213360784491   -0.1141849952951    0.0904563552597    0.1356721954289   -0.0355446698347 
  -0.1005831577324   -0.0151673285829    0.0594148088271   -0.0467680941107    0.0535899367025 
   0.0589032527375   -0.0219535442191   -0.0736566370102   -0.0191741694980    0.1482463680859 
   0.2185709389190    0.1826952606185    0.1563913686780    0.0367089201841    0.0836506103690 
  -0.0480617007851   -0.0211458533698   -0.0066145204241   -0.0451825293645   -0.2233189724918 
   0.2495640249888    0.1579527920865    0.1453169821248    0.1459170965615    0.0251145004679 
  -0.0540431153174    0.0963584040094   -0.0557232095889   -0.0029134385721   -0.0401741078866 
   0.1579587394322    0.1302973959765   -0.1194252553732   -0.0379049607110    0.0514953915549 
   0.1164907649072   -0.1062886995799    0.1104152319275   -0.0445797036913   -0.0094064454213 
  -0.0675149055144   -0.0048134299263    0.0826556677623   -0.1278802087747    0.2033048131046 
  -0.0778095595549   -0.1688915312286    0.0227172743592    0.0294835754794    0.0142666347568 
   0.1417800338375    0.0030405026478    0.0636148892741    0.0238711846654    0.1317017539746 
  -0.0493385908510   -0.1447401910084    0.1267763786202   -0.0348727310655    0.0161308241535 
  -0.1524893982415    0.1997880766525   -0.0963308666197    0.0102055536079   -0.1465710224670 
   0.0109757877916    0.0015773611547   -0.0943000561520    0.1244032921021   -0.0712001385116 
   0.1639517151201    0.0099161096371   -0.2088569886539   -0.1865258384093   -0.0642033153863 
   0.0839884931521   -0.1820912345627    0.0014133230743   -0.1387270773235   -0.1643825877431 
  -0.1970280072141    0.1490374388063    0.3808261072541    0.0200593718590    0.0361603405804 
   0.1634389174038   -0.2124479289711    0.1778717592231    0.1711310885049   -0.0098635799679 
  -0.1059339533096   -0.0731363914191    0.0386755575237    0.0815493187260    0.0617819576881 
  -0.0482325204815    0.0041023990816    0.0436419364565   -0.0119892494704    0.0886163589264 
   0.1195555531269   -0.0477879102232   -0.1066759626941   -0.2110633516354   -0.2273894015761 
  -0.2837594754505    0.2604073002657   -0.0900757308686   -0.0717597503455    0.2137294647314 
   0.0628439448829    0.0345411352990    0.0045463683465    0.5190110008353    0.0599791133193 
   0.2463173343443   -0.0634609960107   -0.1337193774350    0.0097590192474   -0.0234342183076 
   0.0830222896195    0.2686263994805    0.1315074419402    0.0501172965388    0.0441903851639 
  -0.1037476262714   -0.1437878624410    0.0865231003739   -0.0653030207591   -0.1485073270835 
  -0.3284755071562    0.1551975762675    0.0497023376763    0.2172445304810   -0.0209043027788 
   0.0755949786883    0.1052944724963   -0.1073661892781   -0.1114858059836   -0.0363723346877 
  -0.0325901188865    0.1172160304178    0.0529034067748   -0.1888274924758   -0.1027846763806 
  -0.0879222797743    0.1166542763435   -0.1818085225214    0.0873140862926   -0.0168436306440 
  -0.2002221661293    0.0636037409006   -0.0633011400122    0.0021065203061    0.0331599481745 
   0.0510197854712    0.0483052282090   -0.1157709684356    0.0797949286756    0.1302412338939 
   0.1570173977822    0.0707531450278   -0.1873000972196   -0.0923715037118   -0.0062456005290 
  -0.1107737811264    0.1772091448868    0.1743778380293   -0.0498340160346   -0.1394585882208 
  -0.1169845376555   -0.2138160099210    0.0814978657970   -0.0697552421595   -0.1457623762091 
   0.0831393065779    0.1345960311463   -0.2312319161019    0.2105644014534   -0.0892353528877 
  -0.0541649882166    0.0589677192738   -0.1623990340586   -0.1398450248854    0.0819744820298 
   0.0377833168272   -0.0622780587732    0.0047018340931   -0.0856997390181   -0.0608567791654 
   0.1212420858223    0.1018730149010    0.1930671551307   -0.1668512629698   -0.0123833236045 
   0.0932759930799   -0.2316477440608    0.0544696947778   -0.0068051854758    0.1849545645527 
  -0.0557323861557   -0.0707720552713   -0.0790982827777   -0.0186071649782    0.0728467763273 
   0.2034416502359    0.3106747908693    0.0847067264531    0.0202774264841   -0.2701679720103 
  -0.0993184913040    0.0652638744597   -0.0096352961620    0.1913462822875    0.1305732530938 
   0.2728164617565   -0.1798838170593   -0.0509793082651   -0.0349048927233   -0.2088458456221 
  -0.0241713901995   -0.2530325944422    0.1518883853291   -0.1115475341803    0.1708210676775 
  -0.1055537384267   -0.0229081760208    0.1291071023455    0.0163962261547    0.0559703659329 
  -0.0924340710642   -0.1401230234722    0.1062032570408    0.0995819662157    0.1201040301178 
   0.1834079105627   -0.0137602252840    0.1521793109273    0.1162546152210    0.2014913749436 
   0.0218998742632   -0.0680947945057    0.0356109950965   -0.0129169296256    0.1264678869466 
   0.0502580791965    0.1654755239246    0.1275546116554   -0.2139962449019   -0.0355878233567 
  -0.0748479771502   -0.0856907714384   -0.0599279675212    0.1240619182284   -0.2529188562516 
  -0.2016664246814   -0.0970766597646    0.1531279619910   -0.0913300872235    0.1552722960866 
  -0.1308482473514    0.0571719362397    0.1229242670577   -0.0492849568960   -0.3106573039395 
   0.1017809103626    0.1082507531111    0.1628437257487   -0.1009795907276    0.1959899986551 
  -0.0095918894999    0.0764210418792    0.1027667368216   -0.0623717147508   -0.0389154022052 
   0.0491380476658    0.0126761551347   -0.2540693344706    0.0929660528496    0.0667990673261 
   0.0712083315949    0.1642212010090    0.1436271437370    0.0001326069042   -0.1233813987922 
   0.0206344967130   -0.1020438952268    0.2147538116998   -0.0653084499441   -0.1706828926978 
  -0.0129690217086    0.0760543086906   -0.1576410180869    0.1767323460264   -0.0324484512633 
   0.0238860318102   -0.0930246419161    0.0349077420892    0.2469191090974   -0.3504090584043 
   0.0546609322135   -0.1830860948483    0.1263395436840    0.0738642838310   -0.2368100464246 
   0.0962097051791    0.0016035897047   -0.1685483949917    0.0063078468135   -0.0267440598210 
  -0.0420951180652   -0.0492987992611   -0.0491066857562    0.0548877365164    0.2119906214644 
  -0.0929710544317    0.2551607888237    0.0669188561715    0.1838127072725   -0.0618432934993 
  -0.3326441248529    0.0385633142474    0.0303526663554   -0.0781094842994    0.0151593974160 
   0.0199698922036   -0.1040864845645   -0.0851102353910   -0.0642806507370    0.1136140800098 
   0.0367861926106   -0.0219704269733   -0.0483948763663   -0.1545650087162    0.2164267440188 
   0.0952906677383   -0.1777253924635   -0.0463488954862    0.1732619096406    0.1476927622801 
   0.0386349876336   -0.0828660180242    0.1771600763382    0.0540821060174   -0.0629963428139 
   0.0887447052809   -0.1054529460904   -0.2148867372274    0.0462194387698    0.1440089585738 
   0.1448029273167    0.0335587151473    0.2535155657741    0.2161979760151    0.0999372416393 
   0.0503430005160    0.0890145942259   -0.0684747785735    0.0301605977262    0.0301006498940 
  -0.0079198957043   -0.2878612517058    0.1409162197153   -0.1338583785136    0.1124739832252 
   0.1306105536105    0.0848567521609    0.1231699732132   -0.1847764113811   -0.1257372370762 
  -0.0812258807121    0.2227918918781   -0.0394251205863    0.0596175778882   -0.0238005668822 
   0.1031736393901    0.2176567146357   -0.0773134299665    0.2250220123332   -0.1932971008768 
   0.1956996312497   -0.1054651330215   -0.1331941250570   -0.1573453528705   -0.1245746063515 
   0.0475567408298    0.1044467211020   -0.1311131485768    0.0028501140770   -0.0476294135065 
  -0.0075667416315    0.1280429078298   -0.1271896772679   -0.1683997206750   -0.2254194974134 
   0.1383878254566   -0.1918931725055   -0.2671797983981    0.0102355588055    0.0307531910695 
  -0.2670016701157   -0.1282327985809    0.0800574198341   -0.0745737925434   -0.0404922533445 
   0.0544226830613   -0.1876396876961    0.1984876959057   -0.1183386608290    0.0654348336510 
   0.2117701563849   -0.0572642829097   -0.1720155926341   -0.3544577248412    0.0801869722834 
  -0.0341220570420   -0.2088714188314   -0.0444016322381    0.0471251267774    0.1746612089470 
   0.1533237755473   -0.0719004703488    0.1507133021108   -0.3083609899587    0.1123494326331 
   0.0817845530987    0.1281190203754    0.0363550050672   -0.0849338727756   -0.1026320634302 
   0.1319756834548   -0.0960846666256    0.0378987415516    0.0365038632486   -0.0370116950655 
  -0.0256903106004   -0.0585791909585    0.1023423771271   -0.0372290926860    0.1941482442202 
  -0.1366312453137   -0.2037525187653    0.0258554208651    0.1214963891349   -0.0520469875302 
   0.2272277704634    0.2241472935103   -0.1153791045901   -0.1125387091992   -0.0276063111354 
  -0.1030821390543    0.1390832370312    0.0476115640930    0.0387003339380   -0.5162244299172 
   0.1723331156538   -0.0376499071581   -0.0012941957350   -0.0962426476787   -0.1250159268620 
   0.1231263246933    0.0868978885655    0.0488824288343   -0.2407380495683    0.1034216018095 
  -0.0062564182811   -0.0623346004014    0.0796917059964    0.0306884435679    0.2689047622145 
  -0.0870197881709    0.0642134085076   -0.1463106718858   -0.0253989596673   -0.1382614347512 
  -0.2954933739506   -0.1410869704526   -0.0407449450278    0.1254930240601    0.0887692606689 
  -0.0429897874848   -0.0582938561158    0.0206729842476   -0.0676384409145    0.1074329679561 
  -2.6534959477438   -1.1188973006020   -0.1255289723159    0.5226245013100    0.5514260247041 
  -0.9866398105645   -1.0102868504002    0.7499953611075   -0.0692382528262    0.7143856527925 
   0.6429955759087    0.6378544044446    0.8458714997394    0.8867803470802   -0.1780368043351 
  -0.3397733993622    0.4616116762926    0.3403662311746    0.7490768425304   -0.8559627708230 
  -0.4221121047650    0.5711048861020   -0.4303983982871   -1.0245875022530    0.0618729567507 
   0.9997402364660   -0.7059499680190    0.6207782309579    1.1715753474436   -0.7126890249435 
   0.7235863632735 



# Scale0 
105406.7025453283422    388.0897582517567  -3105.0624903692205   3721.1926752298605  -3489.3503970221705 
 -3714.1631193731700  -2108.3950993359363  31708.3355927804259  -4234.2335338474113  -4194.3155075970453 
  1072.3008780758269    895.4408478531830     31.0507726601354  38896.2610664907261  -3141.9913509407679 
 -3074.9022155229027  -1870.3814651854127   2941.7319702857226  -1773.7799446754709   1907.4987355437640 
 42673.3829775861304  -2132.9234212208448  -2977.9520535840256   1053.5997111674430    175.1295964401749 
   756.3058885183272  49127.1241331215715   -493.5051116820977  -1444.0703886097692  -1056.5414984603399 

# Scale1 
243735.4934875836479  25715.6824754134541   9271.4146217552152  57109.9875124302052   7218.7418779641039 
 14382.3810801055552  12613.5936111473166  70923.9529728784109  12679.3690046805750   8732.8162231568222 
  9362.2495078329248  14359.4276386222828  29287.7713676415806 125803.4376802459592  13043.4789265401669 
 17703.1836408753625  14384.3492104423203   8495.1639005353445  26292.5324212840897  18311.1338259007971 
 94792.1363125985081   9385.2130798120270  14727.3786700617566  16778.5984396948988  14012.1517034782210 
 13798.5465506918081 103031.9054354535183  13162.6189659964875  15683.0662829034718  16750.1024009068897 

# Coefficients (Si)
   0.1409398090640    0.1038804078672   -0.0333136490962   -0.3251047249908   -0.3228889541419 
  -0.0248530840795    0.3431520180819    0.0616219261101   -0.2101598500737    0.0985697815442 
   0.1631513863176   -0.0765207325039   -0.3411057772350   -0.2098088363898    0.1905105777974 
   0.0126965176470    0.1614402222116   -0.2849379181127   -0.0716792478077   -0.2677699151266 
  -0.1588133941295    0.0650571749730    0.1293535539202   -0.0260973347983   -0.0503633439219 
  -0.1118756025815    0.0841858022534    0.2544246521676    0.1070244584445    0.1366906458292 
  -0.0748601685681   -0.0093558735376    0.1938081911083    0.1235932807973   -0.1917056413116 
  -0.1889738623051    0.1670693676163    0.0064004155646   -0.0284905099399    0.0684793237410 
   0.0119579121454   -0.0065686015877    0.0250407568672    0.0149589718352   -0.1929705049376 
   0.1894190188985    0.0591053768386   -0.1399982482287   -0.1332405846175    0.0854986396909 
  -0.1349114207427   -0.1405567325733   -0.1998241723973    0.0424039960765   -0.0482375715550 
   0.0548328425265   -0.1794333477814    0.0293887663796    0.0168232698688    0.0048174917858 
   0.1484096556486   -0.1133939999233    0.1390411805776    0.2005396121385   -0.0496098512081 
  -0.0746319706398   -0.0639754206033    0.1805654435912    0.1481781531670   -0.0717124252238 
   0.0040461993837    0.0183101036595   -0.1115698482592   -0.1462082769949   -0.0682464401787 
  -0.0436043132071   -0.0647913662482    0.1181987856566    0.0498348315658    0.0315678226304 
  -0.1475448520045    0.0556373985369   -0.0034444013951   -0.0676105192479   -0.0509974037961 
  -0.0664444262913    0.0386321286795   -0.0360699165718    0.0761391898240    0.0620357722898 
   0.1239285169594   -0.0546496178063    0.0110607088636   -0.1966387164088   -0.1090107008739 
  -0.1124564395595    0.2233491709417    0.2149033778514    0.0292358931666   -0.0141981907334 
  -0.0095229927989    0.0813301246617   -0.0993482724624   -0.0429193185063    0.1688668490115 
   0.0687731696851    0.2164482085440    0.0055679583456   -0.1565036850993    0.1185197290586 
   0.2013045443163    0.1621859210378    0.0176742920899    0.0849392293173    0.0477296965693 
   0.1143342320807   -0.0973054708162   -0.0562325369149    0.1131952947646    0.0024159549712 
  -0.2592617653732    0.1161494854424   -0.1145020150515   -0.0988650014433   -0.0099372976605 
   0.1215986994995   -0.0216245594226    0.1546074013889   -0.0187178809582    0.1122884973019 
  -0.0219290845373    0.0948632811485   -0.1062193138862   -0.0205585197263   -0.1353171135168 
   0.1264507330017    0.0162821577649    0.0972236851057    0.1595958646844   -0.1970951224239 
  -0.0568963883995    0.0515710180833    0.0795544920508    0.3033290538482    0.1715446864253 
   0.1869553984126    0.0814003490701   -0.0875629723310    0.0016853219176   -0.1128584122323 
   0.1594824409252   -0.1631655714293    0.1176486222582    0.0241147919612    0.0072061275534 
  -0.1733879317638   -0.1539547278804   -0.0208176256335    0.1517940497114    0.0039525136604 
  -0.0246031902937   -0.0366102922149    0.1257393726807    0.0369629966653    0.0787162693268 
  -0.1324769147528    0.0436264942957   -0.0854615500755    0.3089967127061    0.0955996175241 
  -0.1420933309810   -0.1696793852433    0.0008626338582    0.0816254464742    0.2316251116070 
  -0.0506966785810    0.0702981054767   -0.0224240820575    0.0940194159256   -0.1143903624952 
  -0.0680262837648    0.1552270148688   -0.0513322911143   -0.0150941102806   -0.1362930635291 
   0.0505744902424   -0.0841839925308   -0.1454119524788    0.0442903341710    0.0440011127068 
   0.2001906277221    0.1743535792561   -0.0260904448620   -0.0218316867489   -0.0662151366654 
   0.1845426735643    0.0371083553281   -0.0821187016069    0.1929452029893    0.0639699866957 
   0.0619079567462    0.1008351054294    0.0176153554767    0.0531738852383    0.1605666861711 
   0.0118561494712    0.0935973510153    0.0849151632043    0.0216291359805   -0.1353550882744 
  -0.0711035859481    0.0936636016394   -0.1563070251318   -0.0547807862702    0.0660662505074 
   0.0888050549073   -0.1300453349664    0.1986038981391    0.0453674726984   -0.1392566427826 
  -0.0670442124212   -0.1738866348866    0.1211526141746    0.0729328678544   -0.1719424906617 
  -0.1408460834521    0.0600694773001    0.0867892572562   -0.0521976088035   -0.2497486493389 
  -0.1644286288987    0.2095828184035    0.1506476206715    0.0616732253298    0.0998988661729 
  -0.2581107672354   -0.3379751485239   -0.1575569189348    0.0186420756743    0.2031912148141 
   0.2654143348231   -0.0354606462033    0.1377429068000    0.0074882079913    0.4877692609783 
   0.1347080848098    0.1601006922636    0.2558683955323   -0.0547034405639   -0.1460846887591 
   0.2324824845061    0.2046327243972    0.2446476426421    0.0605368425371   -0.0328456695714 
  -0.0318525817771   -0.0119485364949    0.1064896163431   -0.0370291077412   -0.0787805911081 
  -0.0241704187747    0.0692813109127   -0.2140327308587    0.0014737808299    0.0172918922293 
   0.2126435702075    0.1960863731609   -0.1839007995097    0.0662228753648   -0.0749803029829 
   0.1529705725734   -0.0580881601869    0.1088391628016   -0.0595764541825   -0.0894835163995 
  -0.0653815727781   -0.0138539825051    0.0766676360742    0.0160347995145    0.2409050131993 
   0.1227739362732    0.1144507895781   -0.1587780647527   -0.0608581691692   -0.1447543882552 
   0.0178539540482   -0.1793364834075    0.0829309566684   -0.0024014044378    0.1178203154658 
  -0.1157616369398    0.0189973626905   -0.4367112769810   -0.2180936685700    0.2308894160716 
  -0.0949346531250    0.0872026913920   -0.1241068274287   -0.6552874993533   -0.3716025975411 
  -0.1219020163593   -0.0220909288818    0.1421546831060   -0.0083934295135   -0.3039171748205 
  -0.0661789659658    0.2975280112364   -0.0385849007225    0.0749886203405    0.0892189616304 
  -0.0706797201230    0.0527484493187   -0.1912623523671   -0.2572234224207   -0.1850105082613 
  -0.0455623321718   -0.1428105424082    0.0530199655402    0.0237861130818   -0.0418561686160 
   0.0699507541103    0.0591829898745   -0.1456854611529   -0.0696330337850    0.0255110352599 
   0.0465903874404   -0.1171437542121   -0.1335497576219    0.0581416194741   -0.2932740137541 
  -0.1716868367300   -0.1159180604582    0.1130617378988    0.1585374511332    0.0914483202191 
  -0.1128643912258    0.1883775813056    0.0924558019597    0.1181702277370   -0.0692324464303 
   0.1984688121060    0.0460216013026    0.0624462647294    0.1044278452224    0.1953414685503 
   0.1885548382528   -0.0143257274079   -0.1877103679470    0.1119810572630    0.2582665911522 
  -0.1698511505455   -0.2549182771891    0.0813908889268    0.0681794637390    0.2812354153039 
   0.0778750854377   -0.2453339717545   -0.0145663791046   -0.0566590430999    0.1456543953015 
   0.2726293392740    0.2441565681307   -0.0711660183245    0.0272231752796    0.0678007653951 
   0.0823774665033    0.1400019756750    0.1787904547061   -0.0245573203778   -0.1064302503423 
  -0.0164636839690    0.0944288524320   -0.0657649152154   -0.0665891913706    0.0410616025666 
   0.0070143974897   -0.0437880271820    0.0759588358338    0.1784180425314   -0.0245691296066 
   0.2675265426334   -0.0083369880963   -0.0705139238330    0.1424676086694    0.0145045175815 
  -0.0375992837769    0.0074071752194   -0.0801017811387   -0.0413665504077    0.1746818559589 
   0.1160006572963    0.1321608547043   -0.0229933538567    0.1167035155917    0.2050155176665 
   0.0182506240587    0.0109401124087   -0.1466654716015   -0.1333796516059   -0.1292039915866 
  -0.0132820628497    0.0327090523193   -0.0809615402206   -0.1728986888092    0.1276822624818 
   0.1938608894478    0.0731404868817   -0.0231416750273   -0.0106330703670    0.0947670186843 
   0.1572742249364    0.1902760647595    0.0410881749959   -0.1933538676012    0.2234183123631 
   0.2789324955435    0.2716123701075    0.1927422490228    0.0360366626689   -0.0725480611509 
   0.0371145625985    0.0007385771963    0.2883023565620    0.0339470635822    0.1055798228736 
  -0.0047925047296   -0.1702768987992   -0.1504190795341    0.0902739012785   -0.0937810837435 
   0.0564564383659   -0.0857643279177    0.0985745802048   -0.1342682279573    0.0838938313215 
  -0.0722450506902   -0.1793229996036   -0.0074839849023   -0.0327506164797   -0.0390375489473 
   0.0039430098014   -0.1914812613115   -0.2552348940476    0.0016489095502    0.0711005159056 
  -0.1752311890856   -0.0534219665746   -0.2934132506288    0.0773930313759    0.2373084422454 
  -0.1745412558362   -0.0601232876566   -0.0241599283223   -0.0728953672441   -0.2816964127904 
  -0.1722862023625   -0.1497874057775    0.0136468828981   -0.2224122410411    0.0847352064677 
  -0.2184174805521   -0.0443836977603   -0.0091262034039    0.0531693667026   -0.0529527099483 
  -0.0659062522197    0.0517693177408   -0.0018367298940   -0.0331758233797   -0.1126501687648 
  -0.0747097134466    0.0186875914090    0.0849011074057   -0.2820878864864    0.1238131529021 
  -0.0122960745628   -0.2577672283709   -0.2770002358466   -0.2189245066921   -0.0708396422966 
   0.1589238899685   -0.1487963199426    0.0892740577412    0.0744649284627   -0.0872359514589 
  -0.1533898211791   -0.1633151704927    0.0765574056048   -0.1157564250491   -0.0742952630457 
  -0.2826294008377   -0.3103385766916   -0.0295766122902   -0.1024419029702    0.0289126104844 
  -0.1801759875519    0.0884978367643   -0.1327959183800   -0.0797930266865   -0.2948373523498 
   0.0949892139001    0.0183164728535    0.1293167817952    0.0944423912263   -0.1560726997591 
  -0.0634579575645    0.1872001407300   -0.1277122321911    0.1728626097830   -0.1438904511311 
   0.1539572186496    0.0452223993260    0.0171838381694    0.0321557640537   -0.0851794150134 
  -0.2670087345188   -0.2338207218089    0.0515205940709   -0.0224277135017   -0.0134755932562 
   0.0483099993014   -0.2240132294002    0.0601420251063   -0.0159352946433    0.1122136848287 
   0.0783479412146   -0.0747552164141    0.0159200846928    0.0026154504615   -0.0101281323322 
  -0.0177713595159   -0.1224980933483   -0.1569672845596    0.1433959862840   -0.1706701517359 
  -0.1098838991006    0.1523249567389   -0.1432918052323    0.0986542075448    0.0882316118293 
   0.1690021676724   -0.1104071635036    0.0628047882386    0.1709693422809    0.1168109796785 
  -0.1268697702903   -0.0931992369060    0.1279084692236   -0.0776194567469    0.1004562249278 
  -0.1195230542146    0.0202158565801    0.0256670846706   -0.0365298590061    0.1294674532529 
  -0.0616896300208    0.0989485587706   -0.1008399841758    0.1188075152631    0.1812122607266 
  -0.0592051345809    0.0190713857707   -0.0947996308289   -0.0698770477936    0.0028579038057 
  -0.0598151326406    0.2617231003551   -0.0756384563103   -0.0120935697144   -0.1370616722168 
   0.1567112643496    0.1190247305961    0.1431344683977   -0.0388887488589    0.0322581677024 
   0.1978999694680    0.2437413630182    0.0784408087752   -0.0478062032566    0.1300995414640 
  -0.1527242385841   -0.1210634371059    0.1768997389133    0.1672998894212    0.0557156824565 
   0.1049355122011    0.1047556761670   -0.0709291018558   -0.0967574694858   -0.0638171906063 
  -0.0505242696473   -0.1135455835979    0.1991237588014    0.1118742403572    0.1970482594599 
   0.1017752758560    0.0647246555570    0.0900896513275   -0.1454794022112   -0.1912948048947 
   0.1118062239451   -0.0136919772941    0.0672030027906    0.1319463122637   -0.1962056709767 
  -0.0047894496589    0.1048981833433    0.1936467883031    0.1680900476376    0.2238817638122 
   0.1458898996740   -0.1105766071770    0.0016986157422    0.0559595216922    0.2643892568771 
  -0.0878670158680   -0.0869553153671    0.1703597148377   -0.0315445272334    0.1322147123955 
   0.0232536460628   -0.1509131352534   -0.0415027289226   -0.2005859294244   -0.1968196614055 
  -0.1232143210311    0.0973951027711   -0.1270399554779   -0.0412044171728    0.2783872999216 
   0.2862613616418   -0.1431709628677   -0.2019460161768   -0.2680634516718   -0.0001968729369 
   0.2732103899486   -0.1102570561283   -0.0888310314363   -0.2024051209823   -0.4462787731523 
  -0.0630889472152   -0.0530383569751   -0.0127572209827   -0.0737486697630   -0.3607809337050 
  -0.4109779814350   -0.1823343359980   -0.0952349979124   -0.1356891087014   -0.0351603896690 
  -0.1736216249303    0.0494553330735   -0.0872030037250   -0.1223624459576    0.0525300651863 
   0.1083012039285   -0.0555558557818    0.1124147661613    0.0176230372312    0.0698470207637 
  -0.1617907016420   -0.0988066148653   -0.1294650259402   -0.3166261341034   -0.1724709702585 
  -0.1708026159992   -0.0526119974363    0.1389117495427   -0.0148412158927   -0.2453746902350 
   0.0961749971126    0.0536278106987   -0.1280530083717    0.0411065494630   -0.0960422062512 
  -0.0243968890994    0.1374971597755    0.0467265295873   -0.1554065293303   -0.1022945761207 
  -0.0285674387227    0.0550385126100   -0.0002352136250   -0.1469262894263    0.1264274867231 
   0.1573929974374    0.0451664042147   -0.1023471053504   -0.1435077875171    0.1468243189666 
   0.1522987319557   -0.0743986531490   -0.1985396902800    0.1964243668509    0.1944353133999 
   0.1404940794021    0.0879185612557    0.1618096790143   -0.0923660046528   -0.0693702824305 
   0.0812083736365    0.2618358451999    0.1594600958878    0.0539595885934    0.1712984603648 
   0.0447511689167    0.0027745410134    0.0566204962144   -0.1319850246998   -0.0029873971493 
  -0.0846512556327    0.1248596578095   -0.0247485869125    0.1354754337360   -0.1418795252407 
  -0.0259075165196   -0.2158582996275   -0.0943106027523   -0.0031242442786   -0.0628273907406 
  -0.2686226791314   -0.2493318253273   -0.0722635830405    0.2818199746912   -0.0146741144096 
  -0.2123428204468   -0.1617030321582    0.0750787797152    0.1162337126097   -0.1165272717272 
  -0.1963205820736   -0.2152838173272   -0.4633734718240    0.0077319833534    0.0431215626156 
  -0.1238462459919    0.0138245372089   -0.2154375440140   -0.0294232588472   -0.0098714413476 
   0.0736306129720   -0.1779619585457   -0.0019709903863    0.0287047110695   -0.0578116611565 
  -0.1012345139633    0.2175129631377    0.1455008515030    0.0209362271395    0.1913464387779 
  -0.0749929858941   -0.1123854275720   -0.0276705983278   -0.1736756115743   -0.0312851421181 
   0.0130947560634    0.1796028188316    0.1289531234677    0.0468709263925   -0.1291021729439 
   0.1291780711714    0.2243738225479    0.2235021367162    0.1306740662313    0.1378093422629 
   0.1080167871268    0.1259345402298   -0.1400795562524    0.2514118927465    0.0741516085283 
   0.2017641617951   -0.0858119966270    0.1106135087299    0.0553878013510   -0.0035495350938 
   0.0836662172272   -0.1339083945157    0.1756752454919    0.1253385380612    0.1823375778628 
  -0.0435225919454    0.0349791241961   -0.1202232376344    0.0000733636524   -0.0330435656461 
   0.0364179889851    0.0550971809239    0.0361894316313    0.0854992684940   -0.1563698284441 
  -0.0459456011845   -0.1656234066403   -0.0210035578794   -0.0018471940967   -0.1815124238831 
  -0.0990971347795   -0.1072786245708    0.0844175718370   -0.0829816913470    0.0952154964772 
  -0.0315741064450    0.0532135075618   -0.0826119218410    0.0408349177281   -0.1070368724014 
  -0.0197897796615   -0.1094724019294   -0.0800322964443    0.1061369172947   -0.0433754174530 
  -0.0734543827468   -0.1299651589913    0.0396323904930   -0.0522285973470    0.0736059789433 
   0.0060952489187   -0.2138174210710    0.1345665062609    0.0729433208893    0.2009467967315 
  -0.0322447993477   -0.1971793663120   -0.1683577970670   -0.0894294506054    0.1014617009284 
  -0.0054199202466    0.0870319407143   -0.0555482603782   -0.0632994843563    0.0170194989045 
   0.0682554329636   -0.0567481471738    0.0192217772364   -0.3101128558784   -0.0629581142682 
  -0.2235325686207    0.0524255163586    0.0198549781896   -0.2022571358276    0.1950621667318 
  -0.0072476113697    0.2278976299439   -0.0742566514882   -0.0586389392282    0.1649149689744 
   0.1319349106449   -0.0643161898464   -0.3273322434947    0.1496497876220    0.2046809912490 
   0.0364483973348    0.1074335929282    0.1040379463801    0.0652827637388    0.0009552815914 
   0.1781777379149    0.0337643563111    0.2147754595801    0.0809548093730   -0.0279622601093 
  -0.0911235445499   -0.1905808221813   -0.1434888284178   -0.0676176930425    0.0519762362615 
  -0.1259004444041   -0.1108172329999    0.0066582818035   -0.0463594123369   -0.0171574685041 
   0.1433085008327    0.2288501688815   -0.0605564164085    0.0506115235660    0.0256480518403 
   0.1458935317739    0.1651599318086   -0.1856383581298   -0.0034628452162   -0.0091383770291 
   0.0966630098303    0.0878205207027    0.0038955616715    0.0225329452101   -0.0755083037455 
  -0.0102303021719    0.2597517270084    0.1939569921545    0.2030778309250    0.1095549549519 
  -0.0590029961611    0.0922755982625    0.0629842633836    0.1373869944583   -0.0585659186610 
  -0.1494433060275    0.0649349211514    0.2186082831982    0.0085225074760   -0.0406548566252 
  -0.1788827011442   -0.1646954080858    0.0818359806105   -0.0200436591413   -0.2334524042253 
   0.1082668897847   -0.1089681258220   -0.0271277420967    0.0317631727910    0.1455412480347 
   0.1212814302138    0.0766190179223   -0.0410017552465    0.0518826438167    0.0913754725413 
   0.0191826894566   -0.0263147434314   -0.2407903606464   -0.0586748008141   -0.1432789595400 
  -0.0454468589458   -0.0308459598165    0.1217771696290   -0.0326957723145   -0.0193812511174 
  -0.0364941986407    0.0219555073123   -0.1936210637971   -0.0331114614189   -0.0159309548562 
   0.1643685573557   -0.0857861181774   -0.0445055293509   -0.1637844413311    0.0751155586918 
   0.0206607171098    0.0797913385324   -0.0586442355073    0.0601012099004   -0.0502076962519 
   0.0757186900565    0.1160572717121   -0.1506671079096   -0.1091430063682   -0.0263794684079 
  -0.1552813449089    0.0122264101951    0.1519880829675    0.0452075029572    0.0390032494970 
   0.1242076624712    0.1243438876556   -0.1437961945626   -0.1283503772787    0.1171496322459 
  -0.0642257974651   -0.1599758325589    0.0028395718167    0.1327050241568   -0.0463362544147 
   0.1754512353793    0.0502518810047   -0.1439472441759   -0.1036804373482    0.0085318848310 
   0.0810603376254    0.0920345563411    0.0464896236301    0.1956930570442   -0.0792757118159 
   0.0448637207747   -0.2303559329766   -0.1667981989702   -0.0384560413502    0.1075951118593 
   0.1221697671457   -0.1949134487623    0.0075301334969    0.0392905748612    0.0463408902004 
  -0.0383504998973    0.0610021697131   -0.2073289190497    0.1561018272764   -0.0053687218425 
  -0.0811599647753    0.0670073429826   -0.0450029219460    0.1248180396986    0.1396987671178 
  -0.0023134539151    0.0393139023952   -0.0561136512844   -0.0047870356730    0.1193927598199 
  -0.0594389590918   -0.0841465032578   -0.1334219783218   -0.0175400788501    0.1308902433758 
   0.0180892858178   -0.1338665458657    0.1077622768171   -0.1347505197151   -0.0475994847786 
  -0.0284143564662    0.0763898755689    0.1008067107874    0.2330278355830    0.0152097265569 
   0.0696858999277   -0.1976007160202   -0.2293054044816    0.1897667443439   -0.0715792290290 
  -0.1745197342296   -0.0749113571241   -0.0346638543384    0.0727589632499   -0.0913180155932 
   0.0004177599475   -0.0039736591305    0.1036288662763   -0.0457975706024   -0.0210310486041 
   0.1527990879528    0.0747056297357   -0.0051557248014    0.0169576873661    0.1674006053382 
   0.1264309339558   -0.0962762536142   -0.0142594107166   -0.1519022902242    0.0751715710003 
  -0.0125147954292   -0.1114214309450    0.0806690556485    0.0187050670862    0.1171396799100 
   0.0135961712962   -0.0574752475815    0.1286554235183   -0.0604566884866    0.1847342634223 
  -0.0149362877328   -0.1130393271465    0.0307168812582    0.0574912003590   -0.0621464768092 
   0.0374575193295    0.0381372889831    0.0673748702831   -0.1070954926266   -0.1499295245932 
   0.0809116983201    0.0491266558070    0.0398576138600   -0.1249706846733   -0.1385599537733 
   0.1321050915040    0.0288504037728   -0.1089135519054    0.0730790029945    0.2317553586443 
  -0.0554584738836   -0.1248919816204    0.0548598812198   -0.0017300625748    0.1496732807864 
   0.1905069835827    0.1410388176621   -0.0272122618499   -0.0386824059654   -0.1233765803326 
   0.2520415766090   -0.0770786187141   -0.1280411651162    0.1495503900826    0.0361103348909 
  -0.0730968279466    0.0824645371870    0.0094010608663    0.0126495922149    0.1060342782067 
  -0.0533688273947    0.1091800780338    0.0024618823840    0.1135990149566    0.1101527123235 
   0.1896562684534   -0.1069812906254   -0.0185869742877   -0.1557394227077   -0.0283082224858 
  -0.0618824726646   -0.2022450075519    0.0457951180019    0.1109258804602   -0.0651607661618 
   0.1477822923913   -0.0087965792160   -0.0859847557298   -0.1101012115936   -0.0080068030123 
   0.0223980411190   -0.0264104842483   -0.1733787854927    0.0151338875633    0.1699903651233 
   0.0089327598153   -0.0064660461363    0.0169131890646    0.1878462065765   -0.1392326374555 
  -0.0095491947670    0.0940752950207    0.0987079947915   -0.1352422168824    0.1039485556660 
  -0.0543531869121   -0.0392557081120    0.0562090817448    0.0225487604707   -0.0833532797707 
  -0.0202343483969    0.0160405351983   -0.1742038631342    0.2196385257542    0.0424557768215 
   0.1587803002373   -0.0744442669890   -0.2040558237295   -0.1635091119800    0.0482237596562 
   0.1133588626527    0.1442401901019   -0.3085574074800   -0.1930918443061   -0.1560178193431 
  -0.1367454726361    0.1524506833134   -0.1447897714058    0.0516967336740   -0.0873000554385 
   0.1794398170444   -0.0429932485803    0.0304636229781    0.2172147779290    0.1178410538859 
  -0.0421229228967   -0.0066027698138   -0.0818304685658   -0.1422013449144    0.0489977441443 
   0.1678130443483   -0.0758896700342    0.1795634357511   -0.0610864607970   -0.1841416002293 
   0.0370292709212   -0.1079511634452    0.0123367493720   -0.0579675816004   -0.0528898019287 
  -0.0569936050714   -0.0965407665960    0.1189372772089    0.0052181933257    0.0100930275354 
   0.0015134495239   -0.1040643810061   -0.0977426903948   -0.1864276082660   -0.0113863232939 
   0.1527478147915   -0.1771060068091    0.0700679882992    0.2536283885276   -0.0194634472941 
   0.1218296597170   -0.1290254092866    0.0991837128814    0.0725166761150   -0.1171050134069 
   0.0952739600866   -0.1570617812192    0.0499252685372   -0.2415791222504   -0.1808892684495 
   0.1527797279789   -0.1486384638348    0.1162366533076   -0.0682645615158   -0.2117732500187 
   0.1088583824329   -0.0231806115338    0.1523699975593    0.0621028512247   -0.1472317287036 
   0.0238737264749    0.2043186670458   -0.2054083847351   -0.0886010141827    0.0189377825920 
  -0.0768537732264    0.1343085573579   -0.0342953381499   -0.1465937650617   -0.0317181332438 
  -0.1895576557264    0.0798404695691    0.0646458525292    0.0541792223562   -0.1083603183284 
  -0.1040422819325   -0.1832894393560    0.0119340623068   -0.0920040055211   -0.0783185536408 
   0.1236749553146    0.1292312290001    0.0199512791194   -0.0764309632824   -0.0810095238464 
   0.0639423362719   -0.1343809147468   -0.0479959470975   -0.0855792398094    0.0767901151343 
  -0.2008345494652   -0.0332742764848   -0.1538943395791   -0.1653520384054    0.1394661361496 
   0.1081585846925   -0.1222123028764    0.0767506679628   -0.1261092786925   -0.0984587965803 
  -0.2846832761516    0.2021562356591    0.1049619221327   -0.1234947930200    0.0165617660716 
  -0.0997166296081   -0.1711273299820    0.0147170718845    0.0294149976910   -0.0698976422491 
   0.1257335426696   -0.0424766888615   -0.1963598592965    0.1286089257146    0.0152649950987 
   0.1002878505625    0.0690567904672    0.1972309474317    0.0799537362883   -0.0576606351710 
  -0.0558237999673    0.2570534391049    0.0144576724262   -0.1484099082023   -0.0867860626097 
  -0.1326228830405   -0.0449350989325    0.0839921559365    0.0736738535014    0.0686524692526 
   0.0193699327013    0.0602773867466   -0.2560226895187   -0.0014781898953   -0.1020214078134 
   0.0403335537380   -0.0596925334472   -0.0008119630842   -0.0153816161778    0.0163348439832 
   0.0761679148990   -0.0332431578009    0.0123021252061   -0.1234195085932   -0.1055095450874 
  -0.0756909847492   -0.1191524431685   -0.1521048989525    0.1389248544035    0.1644921978138 
  -0.1005639289883   -0.0433642804035   -0.2564867264054    0.1217769803313   -0.0268823250561 
   0.0181041217946   -0.0505252768563   -0.1363855675950    0.2462895943332    0.2030231847257 
   0.0744192956149   -0.0584235736582   -0.0754822813567    0.0985932298306    0.1377275986844 
  -0.0010435903594   -0.1631765831757   -0.0440041893401   -0.1362022517286   -0.0886632863118 
   0.1828729132781   -0.2306768471769   -0.0613677022837    0.1916687577456   -0.1719728720903 
   0.0658360306896    0.2025632291720    0.0433431828989    0.0576245534154   -0.0155767963884 
  -0.1475088980568   -0.0552373334074   -0.1397401190847   -0.0897280692468    0.0487346425598 
   0.0222947286396   -0.1122558544498   -0.0186853436943   -0.1124276987413   -0.0969513300384 
  -0.0672031442580   -0.0671569819885    0.1938040906914    0.0163856221066    0.2136136978491 
   0.1372517535523   -0.0367317677250   -0.1792554562492    0.1260650797195   -0.0844687269032 
  -0.0327540080071    0.2574870913816    0.0262189274059    0.1036056579856    0.1590084807767 
  -0.0399161287550    0.1692633992283   -0.0483377331580    0.0428470707713   -0.0014424054972 
   0.2039318659066   -0.0483348548083    0.0291550876684   -0.1808132412991    0.0880445554743 
   0.0072549084313    0.0394749225926   -0.0457574762374   -0.0499073197519    0.1212060327655 
   0.0690020654193    0.1023795349421   -0.2169536406518   -0.0316442270188   -0.1523096654992 
  -0.0704948803773    0.0465878797999   -0.0414988904073    0.1975331272288    0.0030090246632 
  -0.1377608773989   -0.0448229394087   -0.1204357990576   -0.1498472309897    0.0256620763568 
   0.1037634838854   -0.0326210682962   -0.1188065260320    0.1292330307477    0.1201113518239 
   0.1744432822256    0.0817538087727   -0.0620942651208    0.0486556454295   -0.0203595668867 
   0.2162494802230    0.1192039844181   -0.1338453750935   -0.1085498062947   -0.1582996943226 
   0.0494801136065    0.0826899106136    0.0095462504738    0.1067416248500    0.0175812590541 
  -0.2262883273751    0.1714537530714   -0.1029947438068    0.1895533054252    0.1544112676605 
  -0.0725387849745   -0.0537681148310   -0.0163063642324    0.0387101420615   -0.1590115742866 
  -0.0795952574120    0.1459363610408   -0.0565489312293   -0.1220553153074   -0.1350030194783 
  -0.1167442930458    0.1414309851247    0.0270732261805    0.1408693368975   -0.0760027887131 
  -0.0318063112762    0.1874963211932    0.1363864213077   -0.1766590795424    0.1726400554505 
  -0.1053435523208   -0.2144806847407   -0.1696330396497    0.1275717688422    0.0758102039814 
  -0.0389785013103   -0.1884578850537    0.0616311887936   -0.0080868366440    0.0340284019269 
   0.0724547133389   -0.1650365257120   -0.1244099920833   -0.0156317507080    0.0716631205976 
  -0.0692317655684    0.2396824584739    0.0947664424758    0.0075338429235    0.0194804533736 
  -0.0512836735886    0.1580368725346    0.0239434404651    0.0973724145163    0.0175931741295 
   0.0456357378959   -0.1846548194770    0.2302514019746   -0.2118718846900    0.0937194883027 
   0.1773758421916   -0.1108073406109   -0.0834680607214    0.0470936949178   -0.0633169842723 
  -0.1140856451584   -0.0925083933339    0.2124327511941    0.0195569384776    0.0782073158963 
  -0.1573933188519    0.0265235776045    0.0438892362523   -0.0625556856682   -0.1212614816406 
   0.0832306354505   -0.0556775477710    0.0152693755539   -0.0306365946839   -0.1479519740607 
  -0.2143335268593   -0.1410440790033    0.0826179554313   -0.0349739248230    0.0414783974719 
  -0.0117916796030    0.0618384592726   -0.0277678168106    0.0769743482448    0.1109771991205 
  -0.1719360542404    0.0186757573257    0.1745973955449   -0.0638960535272    0.1874467882376 
   0.0877918053651    0.0133610765270   -0.0226604965133    0.1333687866355   -0.1782624566426 
   0.0663192936304   -0.0734142525109    0.1010333670344    0.1363754543245   -0.0824687996041 
   0.0870683129516   -0.0900349633279    0.1530867356888    0.0146275730328   -0.0626071316746 
  -0.0623891363165    0.1132008252186   -0.0919231941395   -0.1569312155622    0.0417925998812 
   0.0205994436669   -0.0577065484248    0.0978448587350   -0.0378440886942   -0.0656813330518 
  -0.1978577678734    0.1545782547114   -0.1254999249163    0.1059856404469    0.1367294263409 
   0.0289428522698   -0.0646043440092    0.1874975202897    0.1465308215077   -0.0032737435391 
   0.1460789537443    0.0990751751873   -0.0418817069636    0.0190930577133    0.0179369342390 
  -0.0849416990698    0.1425238832831    0.2474156892644   -0.2102246237189   -0.0996849337101 
  -0.1461321426355   -0.1096775326709    0.0334096585077   -0.1038437130873    0.1611763328889 
   0.1164458710931   -0.1266205087984    0.0547995675439    0.0196020462302    0.0782732805671 
   0.0293878555045    0.1593359671486   -0.1438736563435   -0.0629082064400    0.0157748762120 
   0.0773311111648   -0.2318188923208    0.0746219106382   -0.1227131625246    0.0650008765971 
   0.1099065424225    0.0564809827155   -0.0501603772148   -0.1588211001041   -0.0858918884507 
   0.1091301023597   -0.1353972684658   -0.0562919962941    0.2180417004081    0.0616574119344 
   0.1679119800715    0.1298664352125   -0.0189198906496   -0.0361356537241   -0.1071071268096 
   0.1897508593296    0.0827656873001    0.1867087842894   -0.0836992683849    0.0611811654963 
  -0.0394835126210    0.1449607102533   -0.0734829633601   -0.1556693235524   -0.0325154092452 
  -0.0529437833721    0.1045203006914    0.0870964998776   -0.1606028818277   -0.2046412618387 
   0.1258988858678   -0.0885737000253   -0.0622448523664   -0.0134970575056    0.0430367416721 
   0.1101683207589    0.0563421156757    0.0440188450227   -0.1264579165041   -0.1069126651556 
  -0.1381177082949   -0.1773274536076   -0.1822564503572   -0.1030786396789    0.0513273556026 
  -0.1805785289453   -0.0361405198224   -0.0273861176896    0.0531820782515   -0.0066014376687 
   0.1534058934237   -0.1623284446202    0.0655498452221   -0.0451051803125    0.1215937121595 
  -0.1700906918899    0.0841757695718    0.2022001568489    0.1099988596119   -0.1429512552170 
   0.2112210840145    0.1097558038428   -0.2358374158640    0.0100584116948    0.1488043740720 
  -0.0779575524184   -0.1640889517543   -0.0003310234498    0.0374720491248   -0.0177116722639 
   0.2702395101884    0.0499224111794    0.2506089607678    0.0873125013714   -0.0175662591259 
  -0.0474866199297   -0.1027644794189    0.0409533359295    0.1374341629752    0.0961807890196 
  -0.1263128318820   -0.0030420369065   -0.1079896202108    0.0647384793062   -0.2099881681655 
  -0.0199962717759   -0.0145376180966    0.0271003636978    0.0647905019096   -0.1860871939878 
   0.0828628402371   -0.1136358888956    0.0751118523219   -0.1127963680935    0.1270725375598 
   0.0877863192572    0.1440023376374   -0.0771012941582    0.1476101309298    0.0038912459961 
  -0.0255264422309    0.1350396179091   -0.2654292010581    0.1253321187011    0.1445752485056 
  -0.1658467941774   -0.1182594699253    0.1363706746977    0.0294616793898   -0.0985215099752 
  -0.0175105218097   -0.0707401384754    0.0371168664601    0.1414403466280   -0.1255460661682 
  -0.0310357007222   -0.1068004566692    0.1003513514873   -0.0928373593797   -0.0201658962157 
  -0.2465070015062   -0.1536317340175    0.0997901852714   -0.1252366773208   -0.0110315337658 
  -0.1169746343766    0.1746351072870    0.0911327066942    0.0554925724626    0.0164554994066 
   0.0972156480541   -0.1825506949722    0.0303048824000    0.0804120717065   -0.0430138008130 
  -0.1690181973677    0.1688899296783   -0.1550677468559    0.0299588706658    0.1497417243367 
  -0.1730046688603    0.1621247542648    0.1413680316038   -0.0851953730314   -0.1622421837539 
   0.0689542126117    0.1372445019225    0.1000254932295    0.0650805001217   -0.0863352073401 
  -0.0252460096437   -0.0875248661772   -0.0608984048729    0.0919225369041    0.1279095196001 
   0.0735090527905   -0.0815558945534    0.0704849440843    0.0233388436660   -0.1117937309169 
   0.0492495071301    0.1219333796781    0.0516015013390   -0.2020314191643    0.2543077451362 
   0.0731702593699   -0.0294952762240    0.0871589488777    0.1873779916466    0.0805016033027 
  -0.0279658511064   -0.0182170207649   -0.0099394466591   -0.0429880323550   -0.0393567278592 
   0.0502231150667   -0.2113940462563   -0.0951585018683   -0.0533922824390   -0.2048371269085 
   0.0394910877217    0.0654867102308    0.0933469362388    0.1232462263396    0.0776147017763 
  -0.0483280889697   -0.1960057905815    0.1402222009892    0.0223384500468    0.0910440304205 
  -0.1334931526584    0.0302288677724    0.1582514738994   -0.1296862623445   -0.0726373575365 
  -0.1438320735036    0.0989197931877   -0.0344340790192   -0.1690655770943   -0.0598290502124 
   0.0334611553378    0.0781824309107    0.2269953862017    0.0468494911161    0.0659602611397 
   0.0944676977008    0.1039045969537    0.0492892638196    0.0297184977445    0.1308774581755 
   0.1341336247031   -0.0230141495229   -0.1025558483343   -0.0411895546500   -0.1552157830796 
  -0.1463866759146   -0.1480886398345    0.1915585960123   -0.1752832495362   -0.1434616809508 
  -0.0635902886562   -0.1544231705217    0.0461798995606    0.1364322098303   -0.0128802473050 
  -0.0024608098280   -0.0954035707789   -0.1257136809627   -0.0961127406343    0.1987415887447 
  -0.0088178620836    0.0407327251845   -0.0135280599603   -0.1153771498117   -0.1435745693536 
  -0.1046744731182   -0.1219920216017   -0.0787251156592   -0.0642944953185   -0.0913059223229 
  -0.0373364566680   -0.0211584805667   -0.0851560756991    0.0497681313254   -0.0575884654953 
  -0.1462986051025    0.0685640481143   -0.0862869894334   -0.1322783310790   -0.0965658482542 
  -0.1899247890332   -0.2182709820050    0.0724994016676    0.0725802210803   -0.0229202678252 
  -0.0623234078240   -0.0692307253326    0.0017974410232   -0.1614489851113   -0.0273942860008 
   0.1925538323303   -0.0767980225189    0.0619211603144   -0.0567854211484    0.0537793870969 
  -0.2378581431471   -0.0119415606484   -0.1499620586620    0.2286209113361   -0.1500717472552 
   0.0952643381284   -0.0719439768088   -0.2176123101696    0.1680272863458    0.1130931563248 
  -0.0943216206636    0.0937630211885    0.1227620214596    0.0348686351856   -0.0542631689468 
   0.1750926439080   -0.0255928622782    0.1756846068978   -0.1585632088281   -0.1249199062348 
  -0.1127628077600    0.0789231099224   -0.0900226002622    0.0593747494621    0.1411021953136 
   0.0323661941875    0.0628557341904   -0.0416886475419   -0.1514378145164    0.0358453908682 
   0.2012146566229    0.0347673300617    0.0051183901074   -0.1725257291971    0.0566028899933 
   0.1925560627228    0.1651914353974   -0.2513175573300    0.2129438733397   -0.1799043015631 
   0.1566113528581   -0.0981888417125    0.0284802155336   -0.0486370435436    0.0670357382042 
  -1.2645699474406    0.0456190857174   -0.5348551214980    0.3975085567002    0.0163085784453 
   0.2942478549924   -0.0046541319138   -0.2913600102193    0.2762664925506   -0.4688962219261 
   0.0081041056061    0.4472352738720   -0.1851282228823    0.5336356185433    0.2388637944314 
   0.0140346528967    0.4858295559883    0.6891929603324    0.0427443872813   -0.2656488094674 
   0.2640963033694    0.2190943686721   -0.1451823946455    0.5148190808832    0.4186590174124 
   0.0331273749719   -0.6000000746091    0.3960816328675   -0.1498064451464   -0.4115608125916 
   0.5413694887913 

