# Neural networks weights generated in PyXtal_FF 
# total_species nparams 
2 1891 

# NET ndescriptors nlayers activation_func for layer 1, number of nodes for layer 1, ..., ..., ...., 
NET 30 3 tanh 30 tanh 30 linear 1 

# Scale0 
 75512.2299947545689     30.4016900525454  -8773.7651235860776  20459.8399992317718  -5535.3861708035429 
 -6776.2194813777160  -1083.6445213280322  31430.1975623898179  -3531.7355454520903   2992.6406013639939 
  1985.2696533171816  -1684.4322810739384  -4749.7662861658391  20128.4524478371823  -4259.1604819365448 
  -577.3039003651043   3762.0247855930875   3919.0292230666500  -7590.5404938585425  -1381.1741927193109 
 25541.0173427418449  -5361.1544949986674  -1102.4517702398718   3898.9624578522635    -29.9124888585334 
   -21.9294751184575  59546.9630562402963  -1586.1661895388104   1932.6063112584748   -274.9952470318334 

# Scale1 
505365.9515123752644  74280.4780537860643  13318.7460435245266 100458.9357529768895  17330.8381161078323 
 38273.1688108083326  29319.2845595466788 139853.3881064158049  21814.9299938023505  21357.2668776318424 
 27256.1308668989259  23183.0249914930682  51830.0877194935310 147427.6069801474805  34850.6485656095028 
 26990.1250314620956  28674.9014503889048  14367.2564638140138  35703.4685081401331  31516.8082271720268 
179814.2059928550734  26832.3671007226039  28439.6898010404584  17384.7265230859557  22311.8981503540672 
 21921.7212936849137 205250.5243296089466  41675.4704701368246  23190.7566049788984  47407.4322529023484 

# Coefficients (O)
  -0.2277190296883   -0.4631210907500   -0.2050992318861   -0.3521892320153    0.2470328816912 
  -0.0396971099318    0.3170643430068    0.4780004898683   -0.3270858035191   -0.0324984550601 
   0.0328742290308    0.0651749382751   -0.0255577788554   -0.1808555949309   -0.8301331348691 
  -0.4155063109384   -0.3724092940022   -0.2088537917432   -0.2448709619065   -0.2498587711914 
  -0.4386347735700   -0.4322179404169   -0.0902161811705   -0.0967608405715   -0.2445360677041 
  -0.0412224719494   -0.4276021908589   -0.4650298119533    0.2099046136732   -0.1832049092126 
  -0.2604982423965    0.7486861488817    0.0672149293639   -0.3882342445067    0.0219165374948 
  -0.0994693754951   -0.0699740304025   -0.0670117919206   -0.0298339846026   -0.4015017848723 
  -0.6504255842146    0.2265305380653   -0.2563899425683    0.0007899889739   -0.2474198364090 
  -0.2689694003909   -0.0001100916297   -0.1969189962835    0.0447409215964   -0.5980397020421 
  -0.2469558789386    0.1832708248347    0.1255331723180   -0.3086424703678   -0.6437253179111 
  -0.7900179704523   -0.4796165242879   -0.4667841929601   -0.3537879479745   -0.1092963305787 
  -0.4218300590879    0.3477008355263    0.8866485964182    0.3091287190963    0.0244728389821 
   0.2265071564162    0.3257380811283    0.5104471009672    0.1652623305144    0.0849627386618 
   0.2183652272934    0.2623197181376    0.4423666083120    0.0545534455583    0.4306813934246 
   0.4690011225030    0.3033101316697    0.1708573171331    0.1292479790132    0.4491195263680 
  -0.1118520915449    0.2168909378025    0.2799050217615    0.0565703620460    0.0041254481009 
   0.0665922757076    0.0545721851509   -0.0759841693040    0.1309983507027    0.3777361104243 
   0.2354827531403    0.3343802708716    0.2757191363485   -0.9916807881463   -0.0776953177502 
   0.0708712676045   -0.1200371932129   -0.0541889233831   -0.3090423364530   -0.3166276649614 
  -0.1010177939032   -0.0348112810008   -0.0378682886972   -0.3032695377008    0.0873521123411 
  -0.1995425477468   -0.4382806147775   -0.1144384099683    0.0663559268951   -0.1077548433513 
  -0.1574856574027    0.2670439511001    0.0179957323541   -0.1792167527056   -0.0036174384135 
   0.1652909465837    0.0704583570304    0.0198746396624    0.1298780050831   -0.0905928308251 
  -0.1041155741103   -0.3868331715833   -0.2888379623513   -0.2633706509339    0.7085519028860 
   0.3265346258297    0.3799852170179    0.4018120070862    0.2242721141730    0.5264374808062 
   0.3083780973510    0.3320354518673    0.3232422344062    0.3676694443268    0.2531720242996 
  -0.0015393917831    0.4847070940559    0.2144769307799    0.1625101168801    0.0393139897771 
   0.1343053414076    0.1540389920195    0.0182025385460    0.4129950588981    0.2919146841578 
   0.1870093974310    0.3827408824486   -0.1190507583273    0.3758913288440    0.0065190647625 
   0.1884474808040    0.4269015971388    0.4027936913041    0.2770335864327    0.3543853059718 
   0.8911219959952    0.3942078875489    0.0938050597974    0.1897121106276    0.4591216359938 
   0.3531533897232    0.4803290316347    0.4624335392447    0.4056656755037    0.2331645292264 
   0.6090580536786    0.3056622577269    0.4802153244522    0.2670762872247    0.3750178302881 
   0.3429527182360    0.3337715505559    0.4080071763379    0.3641257675483    0.3472169562403 
   0.2101226906524    0.1181905028034    0.1076726986713    0.3433330897129    0.2190245808164 
   0.0484156222813    0.2817474937276    0.1785702865816    0.2899068489792    0.5376564416166 
   0.4549373376891   -0.8564619077427   -0.3081821634503   -0.3598867363160   -0.3263135454020 
  -0.0096405598096   -0.5484487178917   -0.0990751308663   -0.0254308145316   -0.0799201747356 
  -0.1084661404901   -0.3960117881409    0.2140427336058   -0.3050986755767   -0.0722760086119 
  -0.1617814971312    0.0742224665873   -0.2235941091271   -0.3955097875884   -0.0308902061740 
  -0.1897231659084   -0.3016137711288    0.0197404630574   -0.0527514466733    0.0565315848857 
  -0.0100544478448   -0.1835601022552    0.1029889384966   -0.0982990623578   -0.2553354302525 
  -0.2613958203744   -0.3280332196073   -0.8467530451850   -0.1458671843961   -0.1799334173625 
  -0.3970688150648   -0.1718103738773   -0.4738411780191   -0.1360634744974   -0.2118552144249 
  -0.2890638686492   -0.2185395665340   -0.3397296368618   -0.1658211728283   -0.4625329485477 
  -0.2157608310156   -0.2700457858690   -0.2251170192121   -0.3358095519427   -0.4299488974137 
  -0.1457788132299   -0.2403118859639   -0.2096224484168   -0.0577726962854   -0.3047365868017 
  -0.2717986965898   -0.2534673490812   -0.1342312593078   -0.3508767808158   -0.0544261970856 
  -0.1953262804159   -0.1977549546342   -0.4139556373723    0.6588492784300    0.2458398557797 
   0.0170977768619    0.3659317795399    0.0574732265128    0.3195588956568    0.2383871608235 
   0.0726355502428    0.1423260827910    0.3642421559723    0.1398245576818    0.0499765377039 
   0.2292733785893    0.3122492097985    0.0575589726482    0.2090112758102    0.2379497455760 
   0.1710645552370    0.2418266504446    0.2756793313428    0.0448635901441    0.1549917190243 
   0.2179107939843    0.1273354928253    0.2783582953760    0.0405683652897    0.1127848056830 
   0.1209930341879    0.2802909203622    0.1664067623484    0.2263462619288    0.0335674566524 
   0.7085747493659   -0.3871301819383    0.2891543597144   -0.7884352325811   -0.4039369604383 
   0.1253083363231    0.0059480877403    0.3217487412468   -0.0753252455776    0.0330857149324 
  -0.3985885544895    0.2657489193510    0.2420984709024    1.5054514108611    0.2032087844817 
   0.0899412471010   -0.1633831277344    0.4832358255765    0.0417542071568   -0.5263994563450 
   0.9594319658607    0.1190349247058    0.2250573439582    0.2470995633669   -0.0821336358897 
   0.2655812703408    0.3441695808872   -0.3006913515686    0.3123620903116   -0.0509194507307 
   0.9036969114628    0.3771273327612    0.2523429602232    0.2388208021981    0.4331274864625 
   0.5725164241380    0.3438328716072    0.1345982490717    0.2147853317161    0.2457774884414 
   0.3562994993877    0.0833545578078    0.3094945792686    0.4603490230536    0.2574625731022 
   0.2314627382299    0.0400991471693    0.2965134408059    0.0631403896255    0.2342744157465 
   0.3911025925821    0.1723913387953    0.2360032279681   -0.1741157243141    0.2502985100371 
  -0.0088525587886    0.1948003251755    0.1930418553508    0.1393513073771    0.2286797124061 
   0.3837540443569    0.9760684950940    0.2273026350469   -0.0910594225845    0.3569102408749 
  -0.1475220132779    0.2805213774696    0.3338029519781   -0.1098670818443    0.7969310883732 
   0.5575685588834    0.0743791292888    0.1039820666097   -0.7058673675321   -0.1571821842966 
   1.2755660930896    0.8027481490419    0.3369704919728   -0.3606989561273   -0.6249208130794 
  -1.0675254097394   -0.4597362033524   -0.0359493196697    0.4899000837448    0.7357399228241 
  -0.1043928307379   -1.4371790347997   -0.7559731281997   -0.1458733675417    0.3355194452294 
  -0.4313316014194   -0.0883001846354    0.9559526887818    0.3324747351437    0.3321578059589 
   0.4406504015421    0.3746337396820    0.4419297361648    0.2463251258279    0.1833493050436 
   0.3775629340637    0.2650457189916    0.2868687782469    0.2949484323394    0.2744504753199 
   0.3759362144549    0.0879694783614    0.0188612484079    0.3533366261581    0.3436669435093 
   0.2561912947045    0.1979274745775    0.2454445651948    0.1285078463752    0.2112817914393 
   0.0249711351694    0.1819911268561    0.0271884316494    0.4183404761978    0.3134165854755 
   0.2627744112370    0.3701122162433    0.4663869624112   -1.4284931237401   -0.3261681945423 
  -0.0026905116421   -0.4554293324359   -0.4206052929282   -0.2521913121301   -0.3664382766688 
   0.0191426334900    0.0331612115457   -0.0146863434613   -0.9276126022191    0.2881070581132 
  -0.4602836272281   -0.4774184802633    0.1228816885589   -0.1085963201460    0.2274340712305 
  -0.2905132799555    0.8775581157666   -0.3881024993575   -0.2508021272780    0.1942065748518 
   0.1848552148146    0.5544724130913    0.5542417473572    0.1595627830104    0.4297586991267 
  -0.1784579753933   -0.1841237373408   -0.2106339929345   -0.3908384746223    0.7951114377181 
   0.0761256434016    0.3753866534178    0.1098901448649    0.3082129095106    0.4687491906209 
   0.3205111890660    0.1795678109630   -0.0044073062769    0.0885750391137    0.3122665769464 
   0.1012791177423    0.3823925879698    0.3154233404629    0.3188674809159    0.2215314396004 
   0.0112264417355    0.2442693083118    0.0076720203534    0.3624500957767    0.4018880528224 
   0.2056636493016    0.2958141794948    0.0582443125616    0.2901990159398    0.2512714449057 
   0.3355305836418    0.3435160112132    0.0979494108525    0.3293346276712    0.3865821512371 
  -0.7196815681731   -0.2485968357007   -0.2084453697998   -0.4028602702573   -0.2536837735175 
  -0.3317486782110   -0.1485287986525   -0.0760179429127   -0.2138600947186   -0.2282765303185 
  -0.2175299775551   -0.3208552766596   -0.3081610175922   -0.2354453425652   -0.0577257498228 
   0.0272288499372   -0.1575315229544   -0.0680627722292   -0.2659881572746   -0.1021517086502 
  -0.2932986986657   -0.0212099929751   -0.3674234388110   -0.0707396297454   -0.3336026419035 
  -0.1850311606648   -0.2422301328008   -0.1483837909122   -0.0675622369319   -0.2752286032239 
  -0.2755062431014   -0.9648097332559   -0.0965742043366   -0.3913857108065    0.1535340440239 
  -0.3312791921381   -0.0020583673742    0.2907682677557   -0.0143764609691    0.0454694754447 
   0.4097512720045    0.3075860411596    0.3841703346849    0.1838885559187    0.1570915161518 
   0.6087135024222   -0.2351564653743    0.2899208469434   -0.0929227747690    0.3772567085326 
  -0.1744674119974   -0.1423911320713    0.0784245050744    0.0582244398965    0.2424710082758 
   0.2722184578507    0.1629033690104    0.2484111670667    0.3158765325761    0.0785770593271 
   0.0076115128060   -0.3508903518615    1.1432339233389    0.2802649498106    0.2710359094517 
   0.5646632296162    0.3356622758146    0.4952107395581    0.3712449610616    0.3643080473039 
   0.3587647957507    0.4716263666702    0.4275087523072    0.1918719249371    0.5307136714861 
   0.4319550228075    0.2904286525066    0.2842955968532    0.4250241825360    0.4714734106614 
   0.1246341160602    0.1973591086545    0.1926662021750    0.4467709628277    0.2060586056049 
   0.0392296049611    0.3118287439569    0.3792865412335    0.1524289212100    0.4843292947131 
   0.2333939661185    0.5467028816143    0.3057946950134   -0.0819610771724   -0.0739568245655 
   0.4301421281213   -0.0715222573086    0.1488120203908   -0.0589290242386   -0.0366172850621 
  -0.2372838841591    0.1555517932919   -0.1518802167865   -0.3337996590154    0.2280650375955 
  -0.2491594371925    0.0468282441245   -0.2795609601749   -0.1632844477172    0.0146432734115 
  -0.2065480318729    0.1888005368001   -0.4589608888240    0.0890485520397    0.3156338514539 
   0.3141111636338   -0.1639489120314   -0.2328209897155    0.2074902963923    0.0527914220682 
  -0.1114467013203   -0.0715399935725   -0.2263286797818    0.0962665223229   -0.3565191730056 
   0.4737925515819    0.0777377595314   -0.1372791844628    0.7735561750165   -0.0863479604716 
  -0.5146079557425   -0.2456696044883    0.4162539249201   -0.3732003974084   -0.2421826188373 
  -0.4657645550329   -0.1465468994763   -0.1766444928433    0.0026137357931    0.4597191545277 
  -0.2818570008491    0.3082858369372   -0.3395701737530    0.2793318470433    0.0507692655142 
   0.6508539828430    0.6911137516178   -0.2131984522496   -0.2732226260524   -0.0306570362972 
  -0.2577669992847    0.5557153331362   -0.0435940593392   -0.4550648881569   -0.2564704762235 
  -0.0627488969624   -0.3830820470339   -0.1998334350611   -0.1204026166995   -0.5411903875502 
  -0.1720331519356   -0.0332895016800   -0.0744277625216   -0.0849330843356   -0.0507086739897 
   0.0946629791093   -0.0509353088639    0.0029314674521    0.0345037650135   -0.1122830287428 
  -0.0223971539610   -0.0092400255127   -0.1503786301856   -0.1470858820630    0.0531016747213 
   0.0563722821959   -0.0608841633396    0.0175104371099   -0.2289856108096   -0.0470740341585 
  -0.0582962022227   -0.3643141434784   -0.2277388304992   -0.3128615029814   -0.0904915351189 
   0.0160954898404   -0.4377314542071   -0.1712194422918   -0.2541695903497   -0.4761537292692 
  -0.1605808934456   -0.2936812274332   -0.1520939887827   -0.1994352875538   -0.1864352696243 
  -0.1669045521419   -0.2206488357507   -0.3344911038069   -0.1707379804851   -0.3438149974246 
  -0.1190568249367   -0.2744040727804   -0.0215135581277   -0.2446209443986   -0.1448402399389 
  -0.2402782372149   -0.3812492591591   -0.1911890398009   -0.4036865106901   -0.3522985852429 
  -0.2729010326062   -0.0818766537416   -0.2602575029204   -0.2486265294762   -0.4700657285581 
  -0.3156347305647   -0.3789246136491    0.3227257189935   -0.1024713189292    1.1413124624772 
  -0.0488824594119    0.0745579492385   -0.4882267247098   -0.6200559311776    0.3380358388177 
  -0.5868161286119   -0.1897763476774    0.3235581511038   -0.0229810277565    0.5664622034306 
  -0.3667426961743   -1.2542602929900   -0.5880164557555    0.1852888939706   -0.0050529698330 
   0.0383148874665    0.0486949627185   -0.3705456284010   -0.5559504026251   -0.0807551306696 
   0.0212115697468    0.1861805787265   -0.6823964676100    0.1906746184091    0.2213876038663 
  -0.1463219312769   -0.2048701512294    0.0752564205992   -0.0628072969336   -0.5479799085553 
  -0.3130842694781   -0.4363490232296   -0.7403739171565   -0.0994109857394   -0.5042127407533 
  -0.5016166134241   -0.8534165864637    0.0395555887949   -0.1890132306611   -0.2080053677046 
  -0.4236402573147   -0.1850570228215   -0.0628292675996    0.3143795609100   -0.5424178567014 
  -0.4120439928585   -0.1009654949588    0.4821579178141    0.2438666180841   -0.0781080916467 
   0.3627005237039    0.2317470038334    0.3684518401230   -0.1927413059380    0.2228596048366 
  -0.4149907807897    0.2338494835868   -0.0093882039166    0.3510497623931   -0.4071967896012 
  -0.1009856080717    0.6683841082710    0.3633236526563    0.2794215310006   -0.2193615553313 
   0.4848861803134   -0.1279254227525    0.3848730518707    0.0492080976994    0.0477276575551 
   0.0971809475708   -0.4627268812767    0.2524179761047   -0.7131205894443    0.0800543365170 
  -0.5952682299111   -0.1416359022793   -0.1299656500237    0.4180750706612   -0.2930605341178 
  -0.4456086821618   -0.1820644664392   -0.6562590355094   -0.3495965040359    0.5758362295739 
   0.4398939471654   -0.2000977549227   -0.7000457008120    0.4554890562376    0.2987100440833 
  -0.3959668386311   -0.2679064060036   -0.2530182511410   -0.1686415083013   -0.0793326896917 
  -0.1862619764523    0.1368325247676   -0.0855216334534   -0.0439037748291   -0.2871980707219 
  -0.1370301613002   -0.0531844286818   -0.2946723271205   -0.0196612583659   -0.2228360448414 
  -0.3027928878682   -0.3156504219512   -0.2439289046200   -0.2552067263936   -0.0507077291377 
  -0.1714299816406   -0.3422448856144   -0.4210865634227   -0.2517690786961   -0.1241392761435 
  -0.3000358500176   -0.1305277072273    0.0369405416069   -0.2580419795242   -0.0530814223376 
  -0.0193221215639   -0.3915463009592    0.3237144259539    0.8997438976422    0.6001608873123 
  -0.4656073318502    0.6961032240911    0.1233429336649    0.1408186435978   -0.3286944726788 
  -0.6023417609645    0.6072055046026   -0.4496905842383    0.5138384556361   -0.6779374932122 
  -0.5999026351558   -0.4941868268896    0.5733146398644   -0.2553004361288   -0.0063349436252 
   0.1949090099764    0.1335169312400    0.3473199122161    0.1175071342264    0.2275595482986 
  -0.0083441962496   -0.0303757267814    0.0316312234572    0.4163538130038   -0.1372867852141 
  -0.0612558803517    0.0879539184752   -0.0632044554219   -0.4265648530757   -0.7212183044144 
  -0.1325867618992    0.2913869626885    0.4816957993307    0.0622314233867    0.3952021467302 
   0.2952614601895   -0.0494528609113    0.2970598470121    0.1465044457446   -0.2568352915974 
   0.6912860243815   -0.9539960441352   -1.0810645605939   -0.6131461573899    0.2250820754266 
   0.3928941625727    1.2571615006066   -0.3719418353848   -0.3456903388727    0.0021303961178 
  -0.4885728598194   -0.3991926456750    0.0546740101602   -0.0481870899982   -0.0323052870841 
  -0.1759602737820   -0.5843166491733    0.2231948911950    1.4805066413709    0.4901390045238 
   0.2624935298555    0.3480834628454    0.4319027320633    0.7158211916684    0.2734520279586 
   0.4949792218291    0.3752753132828    0.5943127637747    0.6012499274672    0.3563676036301 
   0.8129652625273    0.7730255181913    0.4154623777234    0.3520609167220    0.4647563805322 
   0.6607443293126    0.2766019542608    0.6019748478784    0.5883662629393    0.1659671693246 
   0.3712562781595   -0.0034082990236    0.4558648681093    0.2199829598525    0.1943963773651 
   0.5504389797194    0.3101726402185    0.6540008826074    0.4631482846046   -0.1109585980692 
   0.2310641744377    0.0922128721674    0.1255457796956    0.2322166051400    0.2004293252170 
   0.0300707587171    0.2955757025621    0.1265828572275    0.2528181502251   -0.0226332003859 
   0.0669772274831    0.3438232275503    0.0822548722861    0.0683631558258   -0.1282934496142 
   0.2556921166736    0.1489065439514    0.4611138856450    0.1284929106706    0.0248332868778 
   0.1741319846922    0.0541796649801    0.3497653041156   -0.0907344066879    0.2198328802157 
   0.1061608031428    0.0363254465387   -0.1234799418875    0.1730699400036   -0.3063408826990 
  -0.9975941667090   -0.1060563016174   -0.3150228213843    0.0019978048200    0.0196883729451 
  -0.2818678882238   -0.0761124318599    0.3149443994611    0.0792934575983   -0.2537984922016 
   0.0305756345923   -0.1904394674726   -0.0798458254134   -0.3677917232444    0.4745810975784 
  -0.3396216819838    0.1664067127033    0.0026877668325   -0.1994304397496    0.0971210653316 
   0.0001258176730    0.2573857393430   -0.1081702548147    0.0485272875357   -0.1164759324468 
  -0.1459779117119    0.0527518296551   -0.2520047775201   -0.1660748495516   -0.6129703561680 
   0.2655489888070   -1.2738881787364    0.1179688559159   -0.5289198606745   -0.2817361802091 
   0.0895218424369   -0.3147197111203   -0.3484929229117    0.3897446007983    0.4595334216289 
  -0.4271867884935   -0.1423786511924   -0.1388727297565    0.1246153422106   -0.2267807322788 
   0.2419568313329   -0.4696228271375    0.1736837919178    0.0533180895297   -0.1794423281563 
   0.0948402391199    0.0711438348640    0.1335040167489   -0.1450076105435   -0.1879160063667 
   0.2349021280596   -0.0603116860805    0.3050307119684   -0.3159732686032   -0.0618354227935 
  -0.7540468501856    0.2597738647410   -1.0243024255481   -0.0980231118005   -0.5427897215539 
  -0.2714221006415    0.0526620472820   -0.1049273550030   -0.3742761894253    0.1890068382951 
   0.2720994484724   -0.3257694875786    0.1274955597041   -0.1255801840208   -0.1543548735070 
  -0.3932645592015    0.2404425008155   -0.3350035236795    0.2693869836195    0.0566009336847 
  -0.1752366708056    0.2669964079331   -0.0305055034077    0.1131692440540   -0.2313948871196 
  -0.2487595225748    0.2492181074119   -0.0466164796921    0.1669654018717   -0.4847200531618 
  -0.1262335833598   -0.5421182684048    0.0831744253347    0.0273521999165    0.2310589819870 
   0.0570068211502    0.0079991643227    0.0945944374873   -0.1147710304350    0.1020114086667 
   0.3619206613323    0.3037164183784   -0.1403861269892   -0.4294544559499    0.0634351569007 
   0.3994507369893   -0.1346953173135    0.4414699938794   -0.3133609142811    0.2225966758627 
   0.0623790206347   -0.1632811526323    0.2502548796169    0.1901283094632    0.0492790323319 
   0.1325065498894    0.1591785000471   -0.0975932563764    0.2905611288732    0.1817146666219 
  -0.2167379303993   -0.1382320933093   -0.1597237095064   -0.1826355554582   -0.4249894760433 
  -0.0135980230842   -0.1725603666706    0.0169017419184   -0.0150981288648    0.0151199269775 
  -0.1529967677557    0.2943826493710    0.1006227753812   -0.2376144240472    0.1705492513524 
  -0.0686082701625    0.0483652599502   -0.1857468339402    0.1424802374221   -0.2492406432304 
   0.2112849269018    0.0682247355151   -0.0727599103979   -0.0332688278669    0.1540475551596 
   0.1311592637751   -0.1011408253312   -0.0960214421173   -0.0125038227104    0.0345649606234 
   0.0689460939607   -0.1046939727351   -0.0888286931642   -0.1506739944049    0.1578102623853 
  -0.6232306342737    0.0666556854011   -0.1783452536983   -0.2357367149927   -0.0096514959359 
  -0.1139037927837   -0.1286910975653    0.3651887074053    0.1238755567860   -0.0881783625413 
  -0.2502171102513   -0.0828045018438    0.6272986580558   -0.1539508254028    0.3067498395796 
  -0.3367446911122    0.1335576527718   -0.0438591970041    0.0245449164810    0.1415586139336 
   0.0911883942171   -0.0806040952651   -0.0295675373247    0.3728215071416   -0.1262175373288 
   0.2814260610099    0.1873020580128   -0.2852423242704   -0.0381817943291   -0.2317281906023 
   0.2133830892252   -0.2078564002263   -0.3173084161271   -0.1636983492336    0.2216955110174 
  -0.3111631303398    0.0159411668173   -0.0083105145344    0.0059849024552   -0.0158990698933 
   0.1566811669397    0.4209096032907   -0.0375317298077   -0.2533072194035    0.0565935396733 
  -0.1110155834540   -0.1015435099037   -0.2701926859463   -0.0336412381136    0.0699430558856 
   0.0310350441248   -0.0220871638415    0.1881630719248   -0.3100285514286   -0.4742368803441 
  -0.0707294015463   -0.0615916026369   -0.2884727788414    0.2143545088441   -0.0747921679425 
   0.1252522110502    0.1647444036631   -0.9278746999192    0.0201620905314    0.0550406091441 
  -0.4152319411600   -0.1067002989678   -0.1843933315113   -0.2639038568211   -0.1852285734738 
   0.2835574445224   -0.3388427418352    0.2407295938733   -0.0367918772532   -0.6770603747629 
  -0.2898880611303    0.3357147391611   -0.2207166580981   -0.0590334109632    0.2586321974752 
  -0.5433910698363   -0.0979278092977   -0.2295049873457    0.1311967884744    0.2509264015462 
  -0.3779024764744    0.2635158297134   -0.1684205518755   -0.0166722894920    0.3687643378744 
   0.2666214658367   -0.4673678658623    0.0542080943438    1.0280331243795   -0.1740097644922 
   0.4798001555190    0.2724368505639   -0.0129778587220    0.3015266158270    0.6153450856742 
  -0.1822603243969   -0.5808860562272    0.3479143106263    0.1832845734106    0.3100696795013 
   0.1524771440413    0.6784040293990   -0.3895648227735    0.5481638779214   -0.2696615341679 
  -0.0804379371660    0.6807350002757   -0.0382773240768   -0.1265642850237   -0.3716132619443 
  -0.3365650429962   -0.0075870530101   -0.1733385731147    0.1043593510550   -0.3685543811368 
   0.3421782450595    0.1410332991241    0.8077042409997   -0.0620368397007   -1.2630086341267 
   0.1290447719797   -0.3929145787350   -0.2831971421612    0.0365217626997   -0.3244183996965 
  -0.3710419103415    0.3078877733505    0.1979402852262   -0.3799216728622    0.1569173072043 
  -0.1856418010810    0.2211021372925   -0.2855945214296    0.2440660079773   -0.5303327997967 
   0.2004944789819   -0.0440030566433   -0.2688601978892    0.0824730831231   -0.1004846643192 
   0.2872453597637   -0.1035290882334   -0.0746607339900    0.0279910007910   -0.1454095868336 
   0.0387841386244   -0.3034555097082   -0.0786342595439   -0.7753514942367    0.2190324115263 
   1.0296710574848    0.1233122277511    0.4967327088118    0.2196371258768    0.0416582972793 
   0.2487777345983    0.1418845411987   -0.0919658245614   -0.3429431192472    0.0121618835274 
  -0.1982231178478   -0.0162809516389    0.0920435943498    0.0695265234133   -0.3123569930266 
   0.3765462036605   -0.0825012647003    0.0972566348307    0.3370230126623   -0.0231026527221 
   0.1223949341331   -0.0822191852160    0.0446747688707    0.1448951058393   -0.2942641675986 
   0.0855158813406   -0.0830723313778    0.2066891093359   -0.0339258310529    0.3928933985849 
  -0.0355448266504   -0.0562551011219    0.0516617401599   -0.4873531921961    0.4106027420744 
  -0.1075062346039    0.1959842101895    0.3378896803569    0.1190341838165   -0.0546434124820 
  -0.1174052034593   -0.3604153553694    0.0947593241934    0.4476437696955    0.0900694995297 
   0.2989683607131   -0.0800658227671   -0.1756966377691   -0.7665330993320    0.3843663715430 
   0.7777928684850    0.7917105835713   -0.1329993659966   -0.5323285902250    1.0835436861627 
  -0.3196471529083    0.4763527222629   -0.0429304603635   -1.3898043793060   -0.4326137083140 
  -0.0325258514006    0.4429098179370    0.3786894956293   -0.3386251708052    0.3708239143032 
  -0.1362872368398    0.1845980291811    0.0859186815917    0.1190140554707   -0.4280655747177 
  -0.2694733213157    0.0975492417613    0.4887424772013   -0.0435443369491   -0.4893374537245 
  -0.0394635432669   -0.0403778806164    0.2081551497652   -0.1125615151771    0.0553679662279 
  -0.2529967129939    0.0041407770282    0.2821889404609   -0.1214803520343    0.2759710780344 
  -0.2996324364119    0.1825023257913   -0.4426187880146   -0.1504632871316    0.1835186872411 
  -0.4491135154128    0.2645924433558   -0.0457633899343    0.6809907734719   -0.1273787299811 
   0.2245079311972    0.0867153087790   -0.1330021708861    0.3439165007227    0.4369380565402 
  -0.2128192121080   -0.4580339722114    0.0624433968590    0.1517643524859    0.3249228353465 
   0.1361413708259    0.4521370269752   -0.2403300311633    0.2548520466312   -0.0153652367921 
   0.1164424541663    0.5203817388791   -0.2001034464997    0.0480151072797   -0.0650353402143 
  -0.2260562509826    0.1794853825980   -0.1091648023210   -0.0058604135728    0.0604892621249 
  -0.0332894798694    0.0488719490068    0.4855161480779    0.0729862311454   -0.5846038558746 
   0.0735863556614   -0.2496612103092   -0.1863504968988    0.0345088005473   -0.0543486692972 
   0.0511176893589    0.0059132710903   -0.0897195291135   -0.0955292276212    0.2741172475124 
  -0.0514424130166   -0.2141370224891   -0.0137599312004    0.2288496540234   -0.2321880082099 
  -0.1513778091032    0.1154998359279   -0.1392017557819    0.1748485400274   -0.1621087139478 
   0.2296411030631   -0.1440595039550   -0.0839311340097    0.1322289708564   -0.2234693542971 
   0.1161594621839   -0.1221174181342    0.0855418998995   -0.2936841681687    0.2319479583976 
   0.2366978325277   -0.3637966927983    0.2743293410150    0.0214727621629    0.0912883474987 
   0.4332310506243    0.1608188474948   -0.5600066914902   -0.0893899019002    0.2339256986286 
   0.3910425363242    0.0723834339135   -1.1890785753137   -0.0434107141257   -0.4169610675976 
   0.5391172756605   -0.4646446813356    0.2645099395459   -0.0999905798220   -0.1076547097071 
  -0.3567943759305    0.0243779817789    0.2561676797072   -0.3775702872680    0.5076689721117 
  -0.2683975765289   -0.3636366396707    0.6043987015132    0.1684437355870    0.3178961963265 
   0.2277119738990   -1.2177331232595    0.1400330407764   -0.4940115470482   -0.1703931770263 
   0.0152862432745   -0.1307184635522   -0.0376706457629    0.1709591714752    0.0424713674948 
  -0.3774534230730    0.0336560333291    0.1636718906181   -0.1736168258436   -0.0742170453332 
   0.2703908316799   -0.3725558580498    0.2239316831815    0.1498167471091   -0.1046458666101 
   0.0593699203857   -0.1372530252760    0.1272137539887   -0.1227584065720   -0.2792108027464 
  -0.0318022630659   -0.0297204189965   -0.0150866619741   -0.2156873914309    0.1519244654580 
  -0.4511389756428    0.2492328326134    1.1056812516912   -0.0831528800743    0.3581898863532 
   0.1708956093195   -0.1238259251933    0.1902097154072    0.2286344992226   -0.2777928394247 
  -0.4244965600493    0.0994457667378    0.1328612244168    0.1469170608195   -0.1670923178964 
   0.3353980084885   -0.3316317785883    0.3424261500854   -0.1743855791702   -0.0858774120693 
   0.1809144367193   -0.0745865723716   -0.1100686285312   -0.2465860754023    0.1042439527553 
   0.1307557992683   -0.1803834969440   -0.0223053253275   -0.1150949572789    0.1902534810174 
  -0.0541104982919    0.7191618561243   -0.1349477083510   -0.2252895404554    0.4831698031110 
  -0.2852432566961   -0.3303502427743    0.1371029387513   -0.5586206632819   -0.1750388971105 
   0.6249481813656    0.4977320820821   -0.4736924992034   -0.5226448319260   -0.1581323102504 
   0.9511984100680   -0.1965114371907    0.7772827322872   -0.4368594616170    0.6456786195311 
  -0.1268014280396    0.0324304766670    0.3842978624657    0.3633673065577   -0.3620447451947 
   0.0475076762701    0.7638183221095   -0.7333826542480    0.4037839025471    0.4417407060802 
  -0.5011425707219   -0.4087079390848   -0.3689164645340   -0.3069280794196    0.3588831814244 
   0.4786180618124    0.1548911357420   -0.0533195235215    0.1647161617914   -0.2826996053664 
   0.2480402423070    0.6103478176443    0.3044006950879   -0.5116240318226   -0.6975864479167 
  -0.1003545582825    1.1601103341056    0.0430681905517    0.4236636851974   -0.3331124498523 
   0.6471911649781   -0.1981339430936    0.1983792122561    0.0753092253596    0.2226955913356 
  -0.1814318224090   -0.1398953399145    0.7997502940698   -0.6566699232179    0.4864393868954 
   0.5143464971352   -0.8024121437998   -0.2707968605218   -0.2523881093259   -0.4564665669676 
  -0.9218184676261    0.0468428183199   -0.3101677148024    0.0191975198572   -0.0974289733581 
  -0.1593987715700   -0.0295836953184    0.3238604189837    0.1850724411838   -0.2769839939642 
   0.0602699904897    0.1193716211060    0.0028512476174   -0.3441691803699    0.2247165080584 
  -0.4423287902133    0.2048764686649    0.2148439331830   -0.2100116087524    0.2745118541883 
   0.0784997604028    0.2721454828056   -0.1006474270837    0.0052040420644    0.1786521626285 
  -0.0320055301278   -0.0657258570416   -0.2409347432048    0.0308948001672   -0.4821953631654 
   0.2811243322321    0.3793279153169   -0.0805794381391    0.0322515277573   -0.1111179023481 
  -0.1992517673800    0.1424021452830    0.1012489735123   -0.2357809101160   -0.2598519582868 
   0.3002510713075    0.2365810743764   -0.0052246990540   -0.3251821020254    0.1429353434620 
  -0.1537020656439    0.1990231042407   -0.2867093256021    0.1162173759346   -0.0933055434863 
   0.0633721462439   -0.1293026666829   -0.1051875694171    0.0505872720791   -0.0873789316407 
   0.0320941624416   -0.2541261189157   -0.0414095706319    0.2902490440108   -0.0644688750248 
   0.2811039852703   -0.0382688362034    0.9760175013033    0.0521901651173   -0.0231214101003 
   0.3753845967404   -0.3985972837049    0.1222835390785    0.3977890814493   -0.1024134733695 
  -0.5029174565280    0.2188232021633   -0.1192963189224    0.3751328582095    0.6071169568439 
   0.4547668690224   -0.0102324412653    0.3892259072697    0.0157795435611   -0.0618227558873 
   0.6733260417395   -0.0132939483361    0.1952039315373   -0.3789580581427   -0.3593675313148 
   0.2859530663363   -0.4907838518928    0.0358517073337   -0.0732852060229   -0.0577977362594 
  -0.1145277581499    0.4979245061111    0.0404742259134   -0.8464471157394    0.0731035446679 
  -0.3389529315843   -0.0476720338903   -0.0943115473525   -0.2436764750695   -0.3879550267185 
   0.0486676582765    0.2185256547726   -0.0207819820239    0.0981991614499   -0.2132526024754 
  -0.1990383986442   -0.1364103499556    0.2391467492083   -0.1863267016542    0.1290271166838 
   0.2851952584811   -0.3490804885688   -0.0366589215529    0.0027263953921    0.0963506634178 
  -0.1446699448967   -0.3035833215259    0.2319974720231   -0.2965277643110    0.2059995104814 
  -0.2536855891611    0.1063307830227   -0.4669831705178    0.2606658106748    0.3394447619139 
  -0.4036502930662    0.0889566614075   -0.0212206072306   -0.1700761649218    0.2380045352185 
   0.1327198788727   -0.3414181965022   -0.0389846470221    0.2103209637315    0.3235584171761 
  -0.0427040401464   -0.2089076019422   -0.0334117541952   -0.0338272137174    0.0393645552727 
  -0.2994140091770   -0.1134496879403    0.0430335079165   -0.0990091931086    0.1687971967455 
  -0.1601151792626   -0.1215615964599   -0.3019644356423   -0.1151501444156   -0.1775824073958 
   0.0578862942629    0.2228203222902   -0.5228675433796    0.2124140983345    0.1371815640517 
   1.1791357292903   -0.0301206451212    0.4631185117122    0.2145808592176    0.1979548483988 
   0.2180932456269    0.4029704307635   -0.4496972626528   -0.3787574015430    0.2728401379320 
   0.0510840996374    0.1156524725456   -0.0672882611361    0.1401463782016   -0.5489839704904 
   0.3946952092161   -0.2131205448036   -0.2374206383467    0.2635744397513   -0.0217329396993 
   0.0472427021279   -0.1346752161782    0.0852764679693    0.1467486194500   -0.0105701906112 
   0.0944342414823   -0.2428730485529    0.6006365564789    0.1673738714513    0.7984673659645 
  -0.1239243969521   -0.7234701618780   -0.1533153816664   -0.4121040205312   -0.1227201939219 
   0.0544969483370   -0.1338046175896   -0.2044824391846    0.2832246877047    0.3524322790317 
  -0.3592486293122    0.2419504508743   -0.2354982824342   -0.3048165058816   -0.2970807758947 
   0.2966131367132   -0.2319483894525    0.1733487967004    0.2361510939438   -0.1943346544171 
  -0.1434970651365    0.0208802151686    0.1883551625568   -0.0778038778296    0.0275164470580 
   0.1530450138091   -0.0651050924536    0.0892720538867   -0.0741570794333    0.0893738473993 
  -0.4328665285458   -0.0588415817880   -1.1251171631105    0.2236108647095   -0.5786016769839 
  -0.3324326263479   -0.0580610316647   -0.2975793673981   -0.4975974581350    0.2220735206011 
   0.5344945282234   -0.4763633193424    0.1493599486728   -0.2716082547601    0.2399409291675 
  -0.4525267431035    0.5272856045737   -0.6673671540779    0.2330452446190   -0.0126290546103 
  -0.2317185376804    0.2238689123870    0.1765790481435    0.0434483107834   -0.0386043642990 
  -0.1433132200213   -0.0325768687827    0.0367081518142    0.0579565061405   -0.5122647148020 
   0.0337072975407   -0.7297845044772    0.0094058386565   -1.4360767325457   -0.0176056059313 
  -0.6988620684065   -0.3293492777894    0.1098877327292   -0.4567042917607   -0.5427522530516 
   0.1741388623261    0.3840990442953   -0.5556151371946    0.0638590961234   -0.3395405902501 
   0.0701957245184   -0.4941197438718    0.4787375531124   -0.4812150333049    0.1333115748239 
   0.0789424604824   -0.4017903830169    0.2868196813438    0.1516779428622    0.0223473724762 
   0.0174308247652    0.0619968987125    0.3069449971870    0.0810656642650    0.3157516341651 
  -0.4667449410811    0.0475620149450   -0.9200198709843    0.1544168808858    0.3208085107183 
  -0.3472964943266    0.6721911258184   -0.0428068446228   -0.2584623160029    0.0777814495395 
   0.0307524982639   -0.2157316930785   -0.3024108817571   -0.1012657280736    0.5201273873946 
  -0.0091036816902   -0.6600233168376    0.0027619635344    0.1353615011469    0.1777396084734 
  -0.1541540198173    0.4310670953342    0.1402081417277   -0.1417705180981   -0.5102850733924 
   0.5123023659283    0.0385970617935   -0.3998744294022    1.0433248638573   -0.7338971285182 
  -0.0709637813125    0.3715315493719    0.3253291461110    0.1222967449008   -0.6794541467959 
  -6.3051462027050   -0.1238635243729    1.7055350747465    0.7439447053879   -0.4230199649171 
  -0.6575497790331   -0.8431737450912    0.6183837065421    1.4605285269953   -1.3587308196072 
   1.2713235010966   -0.4626772985042   -2.0692266951303    1.4821351945944   -0.4433946546010 
  -0.1337909291898    1.0164081409341    0.0284593272237   -0.3180175935643   -1.8704974921851 
  -1.9612227938553   -0.1666239459768    1.2963230950929   -2.0344447736929    0.0853440316302 
   1.0000349712353   -0.5302264331155    0.5027947917792    0.7290651076633    2.1749102686804 
   1.7570435433232 



# Scale0 
105406.7025453283422    388.0897582517568  -3105.0624903692201   3721.1926752298614  -3489.3503970221695 
 -3714.1631193731687  -2108.3950993359354  31708.3355927804296  -4234.2335338474095  -4194.3155075970453 
  1072.3008780758269    895.4408478531834     31.0507726601329  38896.2610664907261  -3141.9913509407643 
 -3074.9022155229013  -1870.3814651854134   2941.7319702857289  -1773.7799446754721   1907.4987355437650 
 42673.3829775861304  -2132.9234212208462  -2977.9520535840252   1053.5997111674410    175.1295964401749 
   756.3058885183258  49127.1241331215788   -493.5051116820988  -1444.0703886097690  -1056.5414984603403 

# Scale1 
243735.4934875836479  25715.6824754134541   9271.4146217552134  57109.9875124302125   7218.7418779641011 
 14382.3810801055533  12613.5936111473111  70923.9529728784109  12679.3690046805696   8732.8162231568240 
  9362.2495078329212  14359.4276386222791  29287.7713676415769 125803.4376802459301  13043.4789265401669 
 17703.1836408753588  14384.3492104423240   8495.1639005353372  26292.5324212840787  18311.1338259007971 
 94792.1363125985372   9385.2130798120288  14727.3786700617566  16778.5984396948952  14012.1517034782191 
 13798.5465506918008 103031.9054354534601  13162.6189659964894  15683.0662829034700  16750.1024009068897 

# Coefficients (Si)
   0.2338906900068   -0.2392829870891   -0.1691632072903    0.3010864624970   -0.1033108836979 
  -0.5902105882733    0.0263778209746   -0.1678203881710    0.2327839054446    0.1394932903793 
  -0.4161116177873   -0.0702417500652   -0.2739326412535    0.0226887546217    0.5032200068027 
  -0.0914713681488   -0.4533692452778   -0.0613872999267    0.0673486543574   -0.0693588746777 
   0.3503273065802    0.0746092320120    0.0283856891594    0.0530846145640   -0.5176575365246 
  -0.1972159766904    0.0058201306029   -0.0536274126186   -0.2187258572920   -0.3665469323455 
   0.1069275508840    0.2747138325015    0.7174493130545    0.4797383378589   -0.2365995907444 
  -0.0127772216155   -0.1856614259245    0.0015069062666    0.1740689200744   -0.2967021411037 
   0.5080907782623    0.3224285890342    0.3862515454446    0.3290738079699   -0.3071033005782 
  -0.1027165648099    0.3549619447693    0.1197862339119   -0.2381519147630    0.2232546263942 
  -0.2816580689110   -0.0715185384700    0.3631358531872    0.1758883237568    0.5549376677576 
  -0.0758950762712    0.0575867065018    0.0847841542056    0.0938692670340   -0.0837257809154 
  -0.0309836091893   -0.0018373492554    0.3632726600284    0.0595384474353    0.1733137209652 
   0.1015250015124    0.1764377674094    0.1835122996527   -0.1164209006927   -0.0721357878861 
  -0.0729833140260    0.1565249731243    0.3209520219137    0.0860286899093    0.1910589249467 
  -0.0187193083232   -0.1398023803617    0.1468772527042    0.3281740694989   -0.1487912456315 
   0.0167528823265    0.1306930065571   -0.0562178708763   -0.2058500316393   -0.0106897883830 
   0.1355193392224    0.1131508835084   -0.0348978914851   -0.0303594899954    0.1049923270961 
   0.0189005873644    0.4691478019939    0.2883358177237    0.2759572234046    0.0448419636205 
  -0.0688526638714   -0.6058603963903   -0.1482164325765    0.6591158486604    0.3286022951113 
   0.2216498862805    0.1530348542637    0.8077399091672   -0.0046664134248   -0.0871471461339 
   0.3874147469305    0.0884377985590   -0.4475808071138    0.3319850470058    0.1518501916544 
   0.0633860174239    0.6196290167313    0.1200814212242   -0.1227357133902   -0.1454338898342 
  -0.0019783450108    0.1637256436403   -0.1304323133082    0.1950562561257    0.1275559955297 
  -0.0712823813038    0.1568688199028   -0.0746529193484    0.5018296472658    0.1445509075372 
  -0.7339189823084   -0.2810122546512    0.0968239801595   -0.3353689304232   -0.2882863683012 
   0.4829887041876   -0.3377456628969    0.2029605139351   -0.0314987301275    0.0867244336527 
  -0.2353786911533   -0.2012703782578    0.0637391332001    0.2456130971631    0.2563867546904 
  -0.1540231455706   -0.0925958179797   -0.2046474974633   -0.0361835351474   -0.0430165476444 
   0.2907491039688    0.2178389920357   -0.2272471618548    0.0892837911037   -0.1852977336460 
   0.1016721044612    0.0770655263108   -0.1557521344591    0.0483653561098   -0.1284144801480 
  -1.0072772302498   -0.0637950098409    0.0567937063260   -0.3972667471651    0.0271868217389 
  -0.3689237566175   -0.2401614187329   -0.2226787245030   -0.3193653395649   -0.0787144281169 
  -0.1585697438225   -0.2205412678386   -0.4216316857938   -0.3564251884439   -0.0632665707909 
  -0.1915896028607   -0.2150395727134    0.1375047030340   -0.3373530035901   -0.3061511598442 
  -0.2572778737140   -0.2406953971729   -0.2073311684328   -0.0239315125053   -0.2793531254965 
  -0.2908300248994   -0.1275434804084    0.0797375345646   -0.2361959169149   -0.0129061046320 
  -0.1341141566605    1.0694873608675   -0.0233266163999   -0.4693751925760   -0.1787970268027 
  -0.4957355179975    0.0401128892577   -0.0237095539694    0.2451107340846    0.6214399525428 
   0.1966635746077   -0.3249617803198   -0.2260401642785    0.8969581770114    0.1399729973970 
   0.2966564258527    0.1398375806453   -0.3854292019720   -0.3281784160341    0.3301964723045 
   0.2294261064884    0.5233029140748    0.0919440069841   -0.3649552812512   -0.3125335032626 
  -0.0886384294639    0.2364623415989    0.3967818454992   -0.2242294511797   -0.1732990211415 
   0.0009063244317   -0.0767366967844   -0.5144815005631    0.4934967912542    0.8187173878820 
  -0.1451655119501   -0.1614805707003    0.0307054309697   -0.2210303117415    0.1002949698993 
   0.1674660107671    0.4740986567194    0.2130836160071    0.2612153142167    0.4754176316404 
   0.1779505776075   -0.3888499159848   -0.0312813386920    0.3890342759580    0.2630401710245 
  -0.3558275730063   -0.2154347059950   -0.1132388131252   -0.1326834255468    0.1116977742724 
   0.1574767067912   -0.0878418244227   -0.3007483958766    0.1762267136845   -0.0519381326046 
  -0.2507501771964   -0.0143244297403    0.1735274719560   -0.4070676511647   -0.4252909094588 
   0.3522468299077   -0.0670834285937    0.0221653539677   -0.2740093217390   -0.0324413611761 
  -0.1177930541706   -0.4130247904037   -0.2540587957013    0.3946335387151   -0.1967858298743 
  -0.2476480059427   -0.4500266305380    0.1517654540091    0.0459394802254   -0.0630112863572 
   0.0660355641147   -0.1849488542013   -0.1076012138828    0.0724505950464    0.3615740766012 
   0.1104260268167   -0.1597395347785    0.0940817015232   -0.2540200019510    0.1246839397408 
   0.2548917060050    0.0630506318561    0.5689024587319    0.1212771329193   -0.4404990528518 
  -0.1934723451103    0.6432784120308   -0.3177107037355    0.0346295189229   -0.0306799049968 
   0.3412203382559   -0.3725433711299   -1.0886855497872    0.2703907144838    0.6364600327725 
  -0.2538352250181   -1.3049552787647   -0.0475386492313   -0.5475370287794    0.0573990061459 
  -0.1390632816931   -0.2930912630182   -0.0159690428985   -0.1996960766697    0.0614477256308 
  -0.0138473919804    0.3646201541516   -0.0791774672251   -0.0877834352305    0.3004058398670 
  -0.1136913896903    0.0122028761123    0.2918207402382   -0.0847013477494   -0.0144226937332 
   0.3326936286179   -0.0795473791944    0.0787328007023    0.1373742036409    0.2402612792132 
  -0.1098342137589   -0.0155536688728    0.4114641714435    0.1469494291090    0.3671445151920 
  -0.0506362255286    0.3315054981079   -0.2191145957141   -0.1887110035669    0.2339710743059 
  -0.0655396166096    0.0373717801146   -0.2823482339829   -0.0948588563794    0.1947715775039 
   0.3202483748679   -0.0019570097442   -0.2872868426580   -0.0849465962280    0.0855688336880 
   0.3875432076933    0.0986177622010    0.2063816490262    0.1790208832807   -0.1543552104509 
   0.0277713357541   -0.5107195609077   -0.1948657373103    0.2772983871463   -0.0507189521448 
   0.3765055245287   -0.2626042694988   -0.2503417205144    0.0509095986670   -0.0353679281525 
   0.4141106427278    0.1142021356377    0.4258845980040   -0.0734550353634    0.0032806671191 
  -0.3725947186985    0.3240862259066    0.1070324453696    0.2699340871536   -0.2029069769990 
  -0.0957576896698   -0.5121866416516   -0.2431872971472    0.1662783962364   -0.2041750269262 
   0.1369730026290   -0.0083407771004    0.1705267028347    0.0200186109579   -0.0048533995560 
   0.2571616670580    0.1605045548337   -0.2396772647353   -0.2239453688694    0.0280197627311 
   0.0638713371857   -0.0077577019233   -0.1753883083959   -0.2417329276465    0.0234383789239 
   0.0687130759007   -0.2030860505107   -1.0539081241192    0.1251468661418    0.0771114863069 
  -0.3575867540834   -0.2844877351414   -0.5341990024476   -0.6421537104751   -0.1044106015960 
   0.0351369420235   -0.2243515818923    0.2772920179973    0.0733690937882   -0.1202856456703 
  -0.4324710635230   -0.0922267098525   -0.0070814491668    0.1641552886639   -0.1965368113020 
  -0.1886256115055   -0.2816889321329   -0.1704863142503    0.0685581094282    0.2434261644246 
   0.0393190594849    0.2446692059791    0.3217736227279    0.1531664297232   -0.1330855203838 
   0.0632209025811    0.4930884606632    0.1621700783809   -0.3276172668264    0.2533159913673 
   0.2767647374368   -0.1288743879735    0.3644269317276    0.0815889591728    0.4648280947487 
   0.2966355872612    0.1506208328075    0.1344519420635   -0.0814369129099    0.3784301744001 
  -0.0616975401208   -0.1485424888216    0.2723005410979    0.4083819187602   -0.1071684142246 
  -0.0125982838200   -0.3090958954074   -0.1263127128966    0.3105831928732    0.3621261753045 
  -0.2426409107948   -0.1665967808189    0.1794930915519   -0.2879744542575    0.2006478125863 
   0.1338327523474    0.0944050263049    0.2177474418848   -0.2024496627787   -0.1734958201649 
  -0.1658321301730   -0.1491738495182   -0.0065384599114    0.1095374907684   -0.2146687256871 
  -0.1083297952545   -0.4218593787798   -0.0211034941932    0.1721202218774    0.0413937312554 
  -0.2337913155509   -0.0258462168847   -0.0228959467415   -0.0793921109552    0.2139890618566 
  -0.0717355123126    0.1463294033240    0.0050813515875   -0.4117777409790   -0.1598923375097 
  -0.6829168514485    0.5352816487140    0.0012620464228   -0.0901812506463    0.1369457006642 
   0.1954820641975   -0.2247310524400    0.1853649007869   -0.0656114027680    0.0974569661059 
   0.3993507970793    0.3730613442315   -0.2659926742681   -0.0466546858025   -0.2914721352376 
   0.5502917496687    0.1322454759544    0.5991315304042    0.2178667903545   -0.1663877749691 
  -0.1103394480600   -0.0906766132736    0.3407391684966   -0.0476386248004   -0.4078534433436 
   0.1911911391168    0.0696250570709   -0.1775184971312   -0.2412894635197    0.1921706193871 
  -0.1283152647885    0.9407940939293   -0.8516906262065   -0.4755756756690    0.0083777657472 
   0.4987240563795    0.1035117041539   -0.2612053452805   -0.2587844574839   -0.1770805879320 
  -0.0583703518010   -0.1690826210425    0.2038960867854   -0.6642912594603    0.0117533305093 
   0.3969509697551    0.0599040663072   -0.8972358852743   -0.0580149788683   -0.1562955866799 
  -0.0546052479290    0.0460496798409    0.0442168746009   -0.1397651546577   -0.4570713469270 
   0.2218334967162    0.7148365784565   -0.0070437071956    0.0596076918333   -0.0271872471945 
   0.5013192553632   -0.1266253553838    0.6546933633166   -0.1357467960176    0.0171425548199 
   0.1602365024820   -0.1122012304654    0.2439078545629    0.2055810728605    0.1228527344688 
  -0.0114056551887    0.0035171601126    0.0078709500890   -0.2190750634579    0.3478282899321 
   0.2156254323287    0.1842864334582   -0.0628075991349    0.0725801873260   -0.1612520751052 
   0.1650449643343    0.0178030483273    0.3085686596693   -0.0147342620042    0.1233072922693 
  -0.1217404074617   -0.0886963647953    0.2579697839754   -0.1757266495537    0.1549476611381 
  -0.0588131296705    0.1677704136152   -0.0402492953647    0.7931358138217   -0.7439648380428 
  -0.0826325826200   -0.5809573268619    0.1857507122515    0.5444054748227   -0.7284205602847 
   0.0990734560177    0.3179311003376   -0.3889130908030   -0.0017246863493   -0.0947333505282 
   0.3371333873914   -0.3322481156243    0.5156013324474   -0.0410769714251   -0.2260035358842 
  -0.1579020482998    0.0748809612332   -0.0789425521783   -0.4082999311740   -0.0126559176358 
   0.1213254711879   -0.0020189271868   -0.7362119411268   -0.1518473909036   -0.1661236412919 
  -0.0803568617339    0.1017252419533   -0.2026954613092    0.1748711186978   -0.2545196381763 
   0.1069628968119   -0.0363991613543    0.9752367911510    0.4402807109574   -0.1581898165793 
  -0.1126316061058    0.7605289198338    0.7454631334078   -0.1302762629412   -0.2441646276365 
   0.1695602526055    0.1326433493380   -0.0088943315167    0.3274553128922   -0.0848631551769 
   0.4909107224086    0.0519180180952    0.3249939206596    0.1188846475509    0.5252309166244 
   0.5231883716118    0.2758547875975    0.1724104868109    0.0282669752627   -0.2793168676307 
  -0.3487642167758   -0.1769285355798    0.3486448176614    0.1379605403025   -0.1317130239123 
   0.1149927347539   -0.3570567259934   -0.0141634507478    0.0659547066718    0.1778800561059 
  -0.2637896828481    0.1291415497928   -0.3363276425126   -0.2297998584310    0.0606042608779 
   0.0358718577712    0.0118113554004   -0.3576656602732   -0.1008357417884    0.1224772102939 
  -0.0473729009709   -0.2741974291808    0.4605252358947   -0.2476366913307   -0.1942522411507 
  -0.1300967190268    0.2147117684076    0.1461885355377    0.0848062873962   -0.3581087819320 
  -0.3661552355156    0.1441659302404   -0.0368779276399   -0.0059529058341    0.0856746502036 
   0.0285785033726    0.0862410939431   -0.3299108230882    0.2025831924466    0.0197363538631 
  -0.1676905765409   -0.5743637735387   -0.2887578145992   -0.2419925756073   -0.5771450584048 
  -0.4806076704512    0.2929791248539    0.6716300774553    0.5709769416531   -0.5555108825844 
  -0.2270415139980    0.3601292693515    0.0114750049885    0.0270490905465   -0.3474549480124 
  -0.4641487847152    0.1862557791300   -0.3569023065334   -0.0846310180016   -0.2300621450600 
  -0.4655688803645   -0.7499580700650    0.0579418016837   -0.4160435957186   -0.2029762172226 
   0.1671478546071    0.2307385092053   -0.1175024085297   -0.2333733525124    0.0213402797820 
  -0.0235681872511   -0.3069781082755   -0.1700209268834    0.0414806660192   -0.1954760495481 
  -0.1988234207483   -0.2727461007988    0.1093943559533   -0.0340107120973    0.1093069246906 
  -0.1681846363113   -0.2967827320486   -0.0678283084611    0.1763607942454   -0.2639138314651 
   0.0951216945571   -0.1004612652184    0.2615719843912   -0.1225454999279    0.2533040796385 
  -0.1311595941473    0.0325992220059   -0.3827232489017   -0.2711780430023   -0.2279908173364 
   0.2577146376693   -0.5783261397560    0.1211718761952   -0.2060299777223    0.1805915639641 
  -0.0713506024547   -0.3139399466572   -0.0880102914808   -0.2232592791599   -0.2007453246864 
  -0.2288244924990   -0.1147648592275   -0.0426966285060    0.0180226417326   -0.1397157118650 
   0.1281674732719   -0.0186189369124    0.1135524056962    0.2375384333491   -0.1487982703238 
  -0.1104394253790   -0.0749434696874   -0.2393389112523   -0.0282001276127   -0.0092580762725 
  -0.3324785838008   -0.0164588059200    0.1790207775495    0.1518889272414    0.1825809655860 
  -0.2790038108942   -0.2713476441231    0.0480694496520    0.0227414200591   -0.3138898997102 
   0.1058716618226    0.6341053525720   -0.1994586347521    0.3046903145843   -0.1106015470302 
  -0.2193734097143   -0.0249259031651   -0.1225897693180   -0.0077670820945    0.1446033709418 
   0.4329024619368   -0.3386355463473   -0.1410073858805   -0.1796806747715   -0.0841366988626 
   0.4716733817516    0.4302718423632    0.0143124559333   -0.4616267225389   -0.3906108750295 
   0.1459864716951    0.1531030151188    0.3537680786782    0.0788262322676   -0.2993159970932 
  -0.0622186485846    0.0954783357855   -0.0371068806046   -0.0697116364048    0.0506514542810 
  -0.7244406896488   -0.4065383115146    0.0095748092176   -0.2592935813915    0.0449120507816 
  -0.1144878206026   -0.2155077646639   -0.1360551272023   -0.3563313596047   -0.1749667657952 
   0.0787811759520   -0.0078348950220   -0.3738414452534   -0.1811505991485   -0.3494944658644 
   0.2030738099613   -0.1021294341982    0.3979224101895   -0.3426106955051   -0.3806375031230 
  -0.6226358212436   -0.2917855453462   -0.0202624391868   -0.3099399324513   -0.4207028811677 
  -0.7938643321750   -0.3392423691673   -0.2056390456266   -0.0470414619228    0.3557464064241 
   0.0362604066325    0.1121704301949   -0.1513936385269   -0.4607329120158    0.1609883565213 
  -0.2584687367074    0.0323929413609    0.2351173721129   -0.1032358415372    0.0471406499088 
  -0.3481833109288   -0.5099437317511   -0.3348625055296   -0.0580873947888   -0.1807329499376 
  -0.0270212505410   -0.1719340419333    0.1847313401535   -0.4112893656571    0.1999736353247 
  -0.1519079904951    0.0090918440223   -0.0266723065665   -0.2368944011017    0.0464414280426 
  -0.0953278647390   -0.0421374270303   -0.3594720603191    0.0077289176665    0.0828014830393 
  -0.4772198990895   -0.3707256913481   -0.5355180227971   -0.1897267992414    0.0407818811960 
  -0.1922809516984   -0.0394911414729   -0.1112506242623    0.1721908401557    0.0681322416602 
  -0.3450968188223   -0.0744332723937    0.3992678137021    0.1495646850690   -0.3650786529583 
  -0.0775931642226   -0.1766962806196    0.0471016245011   -0.1283808699916    0.0740133300631 
   0.0911722775726    0.0744190750027   -0.3634652632956   -0.2007872800417   -0.0214827078060 
   0.0072030201279   -0.0362276096165   -0.8790619180994   -0.2571506669175    0.3412608164398 
   0.4111205322370    0.4929070180064   -0.0660067580728   -0.5969295004286   -0.0345080929486 
   0.1360316783524   -0.1182757882369    0.0825802582338   -0.2439986628380   -0.0553057634857 
  -0.0931367589580   -0.2924658524799   -0.0375418691114    0.2958453141275    0.0348227500476 
  -0.1910286078653   -0.3685872195733    0.0919691329835    0.1033052324979   -0.1876502701289 
   0.1317069653798    0.0575092784224   -0.1418283957986   -0.1286798138846    0.0612856485844 
   0.3061098930680    0.0001565839311   -0.1228657631502   -0.1819364205471    0.1008215390463 
  -0.1066639739588   -0.1024911264724    0.4832136066116    0.1245546350529   -0.1808833925507 
  -0.6542252005454   -0.9798465654071   -0.0064811721511   -0.2561688189899   -0.1035084984636 
   0.1600546817057   -0.3305760323128    0.4048982135055   -0.2321503073975    0.0221708185747 
  -0.1578654301002   -0.1416761780842    0.2058943628918    0.3136383349605    0.1289230239400 
  -0.2350106630682   -0.3362502772544    0.0171818676597    0.0368085819622    0.3312006963593 
  -0.1502819682022    0.0543191717054    0.0730495536999    0.1558422493262    0.0677976039082 
   0.1564476721609   -0.0804069493385   -0.2262414589060   -0.2848432525413    0.0264807431529 
   0.3043917309983    0.1620560327805   -0.0664988291138   -0.2398025016017   -0.2277059003352 
   0.0009983123284   -0.0040926688745    0.2165619133102   -0.0421694229998   -0.1009276326385 
  -0.0472039378019    0.0773764981793    0.1153692893519    0.0692423787410    0.0841250511384 
   0.0570494328608   -0.0807225645049   -0.0534895830078    0.2001943059508    0.1747621002745 
  -0.0117849982694    0.1180820910031   -0.1071397996312    0.0828474691399    0.1113290585651 
  -0.0695474007712   -0.2448406164725    0.0965168497256   -0.1619829790347   -0.0328151380707 
   0.1670812567624    0.4071929495554    0.1661022718093    0.0623318520031   -0.1197135391130 
  -0.0420366524033    0.2563328498083   -0.1052923326376    0.0770316373412   -0.3960834517117 
  -0.1513585739204   -0.0020910352107   -0.1014131114000   -0.1811246626063    0.3429378162599 
   0.0550750340509    0.3476129480554   -0.3364479815684    0.1051760496856    0.1343273778681 
   0.2854628221957    0.1444398178132    0.1375340210852   -0.1659492174404    0.0805435124738 
  -0.0857930014321   -0.0466558202740   -0.1486376743976    0.2077395529502   -0.1358936406906 
  -0.1176297570355   -0.0098940969925    0.4621792528532    0.1260555183073   -0.0464060708405 
  -0.1619251263281   -0.0430294322785    0.1335317176004   -0.0375568199405    0.2063896494348 
  -0.1320256785168   -0.2108705546191   -0.1352114800478   -0.0533097614637    0.0633272609353 
   0.2070745919094    0.1433602251474    0.2105748480666   -0.2443677945561   -0.1143030923503 
  -0.0119301630436    0.0838940362689    0.1432351121615    0.0868283072196    0.0347263676664 
   0.0448447895002   -0.1678187344208    0.0730264981944   -0.0421728287727    0.0722123919030 
   0.0272052444782   -0.1629207357552    0.0619988453540   -0.2156884074228   -0.0471531359396 
   0.3332824383084    0.3116066780235    0.3438292244175   -0.0912080407211   -0.1581975318570 
   0.1113776171318    0.0872593154808   -0.2935726257842   -0.2873260687910    0.0685652887743 
   0.0085268465361   -0.1760679444061    0.1148110424887    0.1501321372124    0.0896773877367 
  -0.0616930640230    0.0635143281399    0.0724975173936    0.0084719177968   -0.1188912795200 
  -0.0750444890303    0.1334122121306   -0.1070650352269    0.0102824042929   -0.1114304925345 
  -0.1661786446987   -0.1716101083012   -0.0714612244093    0.1136382260158   -0.3023417324323 
  -0.1434190020386   -0.1290762147468    0.2705184568838    0.0662421565756    0.1532692123032 
  -0.0756765431618   -0.1966153227214    0.4526462790123    0.0273852213620   -0.1795409762588 
  -0.0274044922077    0.3173798476889   -0.0633418178701    0.4016344258936   -0.1726887191740 
   0.0209599322128    0.3080817399958   -0.1949928138236    0.2998601828329    0.2878824698784 
   0.1770246363267   -0.3422276692083    0.0067495297534    0.1134626552045    0.1751686723185 
  -0.0093338276242   -0.2452127000872   -0.1217069643201    0.0202083957180    0.1939714597968 
   0.2695568711237   -0.0312445618743    0.0532992109452    0.1657593249605    0.1340152095333 
  -0.1384276113311   -0.3310683128559    0.1042844702495   -0.0729324453578   -0.1091281534455 
  -0.3522813125550    0.2926493979570   -0.1277018662969   -0.0096030480047   -0.0682450814167 
   0.2460153817022   -0.1009572524950   -0.1667203588445    0.1457849627519    0.1600752189326 
   0.0029202542672    0.0031351106122    0.0207458550195    0.0207715255073    0.0690800199122 
  -0.1142142109134    0.0103573141625    0.0961282805098   -0.1879477445798   -0.2160415174530 
  -0.0774671958714    0.3279312226235   -0.0675373982824   -0.0756329138454    0.1315525962149 
  -0.1597010628614    0.0917726947594   -0.1715099416396    0.1335405745826   -0.0972257131472 
  -0.2228151276640   -0.2698007651593    0.0649309642763   -0.1639419256969   -0.1144495349994 
  -0.1800670421644   -0.0052677881846    0.0919641990955   -0.2373847492114    0.0645504914100 
  -0.1109677240476   -0.0107839705456    0.1990051707914    0.0453759105750   -0.0736983617769 
   0.1575992253916   -0.1092085795517   -0.0991546655319   -0.0018859398328   -0.0119807704665 
  -0.1716749249943    0.0055008820052    0.7965714659782    0.2299183706342   -0.0869948454154 
  -0.0070261476973   -0.2213077328146    0.4356649355443   -0.1349106896266    0.5298731387973 
  -0.5313225311231    0.2268127102590   -0.0489777238005   -0.2573746085919   -0.2116076119825 
   0.0015859486214    0.1194660695533    0.0744222357046   -0.3855675611408    0.0637104942448 
   0.2351658400785    0.5048463108458    0.4692326323814    0.2096463587628   -0.1905801289189 
  -0.1239780580017   -0.0486396062691   -0.2035673053076   -0.3982027367233    0.2712408919954 
   0.0006117269256    0.0877282697416    0.1057748529936   -0.1364610838651   -0.1050637870459 
  -0.1476573307190   -0.1328726567775   -0.2147861583798    0.2692709412957    0.0344103195269 
  -0.0371384557212   -0.1087379258423    0.0478316150810   -0.0899591787077    0.0772520333924 
  -0.3170459339996    0.2725840889247    0.1343953277072   -0.0285576372102   -0.0278739400099 
   0.3399384084989   -0.1291231612500    0.2055202115573    0.2399313061089   -0.1112165620044 
  -0.3370381089398   -0.0528617459339   -0.0464982466087   -0.0695271827111    0.1591528821055 
  -0.1169186441653   -0.1936168762688   -0.0068901720494    0.2521929323469   -0.4013986013808 
  -0.1207323843674    0.2748479842435    0.0796718755463    0.2643633952433   -0.1360738117408 
   0.1173140835835   -0.2146315022639    0.3949862677059   -0.0833269596172    0.1607770024619 
  -0.0554589313160    0.2049354605536   -0.0676306446955   -0.1403480707574   -0.0131037432737 
   0.2133403953215   -0.1233753650273    0.1624503031895   -0.1209621366759   -0.0879121956934 
   0.0717248496630    0.0611574014274    0.0012262445372    0.0679366425473   -0.0419874005354 
   0.2278056637920   -0.2661540880407    0.1983039663036   -0.0406467370291   -0.1505148029893 
  -0.5778557460507   -0.1394917025247   -0.1716477572308   -0.0220941838890   -0.0223818009471 
   0.0171276365142    0.1498404705523   -0.1713603282995    0.0554263946426    0.1745364355437 
   0.1352627931379   -0.3113258463983    0.0896944036177    0.1041848570946    0.0257728817357 
  -0.0932226881060   -0.1037463856545    0.1427664270797    0.0574714137820   -0.1874325849194 
   0.2176196970580    0.0064195068941    0.0326942496319    0.1684112523624    0.2042981091412 
  -0.0043794982256    0.2797114431001   -0.1943171319039    0.1014950450567    0.2942682413004 
  -0.0671719718356   -0.4103350678293    0.0685264808493   -0.1309895785270   -0.0410696688719 
   0.0121854391099    0.0894356268984    0.2203551649711    0.0064797532990    0.0053775630167 
   0.3077903591299    0.0075776492788   -0.0453985425360    0.1687098839100    0.1434243280566 
   0.1489935312865    0.0341549153707   -0.0857971910716    0.0899214038398   -0.0039382171815 
  -0.2018904288812   -0.0543912334197    0.0538115292249   -0.0753152655718    0.0997758576280 
   0.1305830307043    0.1436083574126    0.1741559019340    0.0467888588013    0.1894866275547 
   0.1368176419749    0.0461654903289    0.1796250481153    0.1662385055196   -0.1577958823990 
   0.0161912788993    0.0761624436958    0.0844590214632   -0.0924225760731    0.0434225929374 
   0.0927906850129    0.0873259446470    0.1891588370027    0.0603841327043    0.1712418118493 
  -0.0794285586298    0.1110495663706    0.0189388069649   -0.0450907224989   -0.0783202611275 
  -0.1139127319440   -0.1685598708571   -0.0423813643578    0.0285825990673   -0.1394305301350 
   0.0678181711134   -0.0443468494503   -0.1454246203354    0.1203846533640   -0.1144851914103 
   0.1195859283551    0.0237579344476    0.0729802760702   -0.3791801263881    0.0024902077750 
   0.0307383190287   -0.1530633242954    0.0952970611473   -0.0782718366746    0.2685692142002 
  -0.2010947262399    0.0911181137422    0.0685697131329    0.3210966142425   -0.2891590514660 
   0.0686457119649    0.1160778114792   -0.0198380006635   -0.2821960182441    0.0802386823249 
  -0.1052111320102   -0.1484034870487   -0.0566061447313   -0.0575607683585    0.1289400878443 
  -0.0136819084439    0.1298795039803   -0.0327787305114    0.2472610605916    0.1452274110704 
  -0.1977561559158   -0.0048374517361    0.2875509629309    0.1480683004533   -0.2798700469577 
  -0.1946181595727    0.5103431565413    0.2008107461463    0.4232439663668   -0.4679692361157 
  -0.2731435847145    0.0091811210806   -0.1632572617414   -0.1018298398274    0.2708818645688 
  -0.0187024746668   -0.1712373734590   -0.6307747654595   -0.3440585811435    0.0562095734377 
   0.2405980077014    0.3428562328278    0.0185711080078   -0.4639555628935   -0.6330896750212 
   0.0523565365122    0.4972125988834    0.2649707257350    0.3204253652003   -0.5585290495324 
   0.0516306569763    0.1063843394355    0.2020001060517    0.1970452470207   -0.2841251443577 
   0.3578117784150    0.5242529669042   -0.3663758211456   -0.4293644813098   -0.6406347496026 
   0.2509249768162    0.2334782615693   -0.0445416118183   -0.0125331674597    0.1073487542530 
  -0.0479401062233   -0.1822330157384   -0.1750934160594    0.6202357829841   -0.1441285448197 
   0.1961531700773   -0.0628688629166    0.2245208033782   -0.3111168737764   -0.0274560682512 
   0.1422623974529    0.3777410407965    0.1660218644289   -0.0151095608122    0.1685151321664 
   0.2270360443454   -0.0328668516340    0.1981784014054   -0.0231705874234    0.0584150111733 
   0.1720602429266   -0.0600834778997   -0.0716020386385   -0.0439632524696   -0.0696963613012 
   0.0150785894964    0.1149150692831   -0.1648893299079    0.0968614110612    0.0112597814425 
   0.1374399483407   -0.0739301991735    0.0402983298568    0.0853479367806   -0.0300795425036 
  -0.1548339963080   -0.0392008338617    0.0777313474271    0.0758233933822    0.0829011804424 
   0.1407804721048   -0.0387184532897   -0.2102557894802   -0.1248835382467   -0.0068882589567 
  -0.0744259088194    0.1527309626146   -0.0510643033726    0.1422501731203    0.1292367035881 
  -0.1922611338268    0.1404596369777   -0.6337034664285    0.0195985177094   -0.0538979612085 
  -0.1035418565409   -0.1568203936219    0.2051584007162    0.2252175241449   -0.1812777255767 
   0.0384160412354    0.1100515471942    0.0727838997112   -0.2880428691828    0.0745287314017 
   0.1561682174254   -0.0361171361568   -0.0945246772474    0.0835048825477   -0.1278673307327 
  -0.2908851527506   -0.1078338635223    0.1195979644543   -0.1640618327151    0.1280727382708 
   0.1378733400059   -0.0014402383576    0.1075953278603    0.0479074726907   -0.0648784834867 
   0.2152493736005    0.0340903560970    0.0635679042397   -0.7035223465940   -0.0876490198165 
  -0.1242385840200   -0.1484610113672    0.0979604658196    0.1613462075721    0.2917243968344 
  -0.2943863553329    0.1053534186495    0.4037720470114    0.2215547468759   -0.2114561778138 
   0.0109460466329    0.0748819938707   -0.2036860877148   -0.2161191943502   -0.0005839025379 
  -0.0451882473220   -0.3218891021043   -0.2907679894192    0.0278126828328    0.0787174555975 
   0.2849790346263    0.1525125261750   -0.0035109034177    0.1852971286347    0.3761091901860 
  -0.0147188120924    0.3577273540257    0.1017965239361   -0.1142681507348   -0.2355665419400 
  -0.1243950342907    0.2357289035906   -0.0263503171163    0.0572862946099   -0.2460806821260 
   0.0222638117971    0.0591018118499   -0.0485242936453   -0.1278506263599    0.1118504979204 
  -0.0840134049700    0.0945145473737   -0.3420785943238   -0.2279835077557    0.0787079057317 
  -0.0156858990360   -0.1570960768595   -0.1414979637287   -0.2335549827738   -0.1822293953571 
   0.0462794270408    0.2696459803696    0.0651884037795    0.0904690849627   -0.2379068624589 
   0.0410594401630   -0.0230389811742   -0.1240473845303   -0.0151095485253   -0.1403970124351 
   0.0594486757964    0.1710550030095   -0.1041070785481   -0.0672648227302   -0.1124553096985 
   0.0174869939544   -0.1557418556206    0.0783498749187    0.0878602408384    0.0695331477487 
  -0.1084823726787   -0.0188044479573    0.0047016720988    0.1227712372459    0.0743569747146 
   0.2040058295556   -0.4167088562342    0.1245032548980    0.2475969414568    0.1932122777508 
   0.2050889625288    0.1341226044951   -0.4262569124900    0.0429245928298    0.0272971881862 
  -0.1335337073661   -0.1460455310169   -0.0281919602080    0.0156293323629   -0.0987245116894 
   0.2937611373027    0.2539506171168    0.3935501679366   -0.3059588213703   -0.2501258909689 
  -0.2738850455390    0.2612531166330    0.2456526810760    0.2573364778135   -0.4014265540415 
  -0.3481822382477   -0.2109331794957    0.3603379285108    0.5232830163146    0.2976261876811 
   0.2810786649617    0.0285045239415    0.1605468627857    0.7739377699971    0.0288855083227 
  -0.0094715385326    0.0935409887298    0.0807590684513   -0.1983316164512   -0.1659010565959 
   0.0563842843196    0.0753304772236   -0.1023985932222   -0.1630395702798   -0.2735532482090 
  -0.1003445797715    0.1504019464328    0.3802191770669    0.2443704920261   -0.0220561798025 
  -0.3305985476818   -0.1647626292584    0.2581548259345    0.0493170978629    0.2238042590957 
  -0.2601344679897    0.0200401811006   -0.1322779298653    0.1093136286445   -0.1594736906126 
   0.2700792897119   -0.0717531996638    0.0517449816493    0.0418766700706    0.2396776179074 
   0.0374151965410    0.0662251592143    0.1985962960951    0.0565993462543   -0.1845246914737 
  -0.2940152284343    0.0088689730133   -0.0590197060995   -0.0179654295227    0.0608121689321 
   0.0658562488019    0.1759045823985    0.0656440466545   -0.2761320631887   -0.2694814633747 
   0.3553343161071    0.0511056214329    0.1252590092438   -0.1966725218428    0.0722777994160 
   0.0464825915811    0.1157859000062   -0.0360213688340    0.0587443397182   -0.0707265441371 
   0.1052641819498   -0.3500174054474   -0.2151252778476   -0.0563367565963   -0.0013119720552 
  -0.2270775448530    0.1183277111704   -0.2668387627966   -0.2620791996489   -0.1688556978847 
   0.4239253558084    0.1522551591410    0.2203198905564   -0.0659870601395    0.2534926329188 
  -0.0406000627069    0.1234332033346   -0.1884734085932   -0.2856174019052    0.0641729945023 
  -0.0016811813379   -0.2562156868533   -0.0878725321109   -0.3255421131220    0.2238193561591 
   0.1509244857823    0.1115497151515   -0.0162175877512    0.2444871791153    0.1151709681578 
   0.0817881336120   -0.1989763561933    0.2824058673241    0.2894229466794   -0.0850923554197 
  -0.3479231237201    0.2200332784627    0.1552920125950    0.0500652407930    0.3892336766254 
   0.0385226209482   -0.0719402371808   -0.3182450307869    0.0067512142090    0.1023739992683 
  -0.1148474664882   -0.2381957991851   -0.0408676247229    0.2760878531159    0.1708949653895 
   0.6155463370913    0.4595291412953   -0.1238181121040    0.0261411685968   -0.4316688609953 
   0.3841511618487    0.1167002620229    0.0143071337312   -0.3099601323443    0.1608734542565 
  -0.1432835757210    0.3449059428829    0.1544004784505    0.3386479621760    0.1334857777283 
   0.1168244859550   -0.4956723490443    0.3440664700272    0.0831083743431    0.3719137680461 
   0.0875771732089    0.4355559069058   -0.4708183053675   -0.1912611925706   -0.3928294876988 
  -0.0034472526981   -0.1503944482139   -0.2176554230996   -0.2397936900481    0.0990879381487 
  -0.0042239919692    0.6818915208560    0.3602612730296    0.0443524272087   -0.1266496161572 
  -0.2295468371595    0.0567296674189   -0.1668574717243    0.2102077146290   -0.1197948785923 
  -0.2634462887877    0.0427442022880    0.2983278490821   -0.2273899336326    0.1041582761594 
   0.1595556288854    0.0529182004544    0.0792196660349    0.1039400080570    0.0882202573133 
  -0.0371615447303    0.1356021616949   -0.0018718693236    0.0082945462418   -0.1954402017635 
   0.0325404012829   -0.1044707395345   -0.2900758931567    0.0337039333732   -0.0544329640368 
  -0.0828998316570    0.1847144095693   -0.8054607782122   -0.0716234524606   -0.0324593846232 
  -0.0642726809261   -0.0241819725879   -0.0576838451578    0.0154853638390   -0.0455413532011 
   0.2355108376437    0.2869946080985    0.1356500566718   -0.0296024086664    0.2721936028967 
   0.0127965757694    0.1292142694813   -0.1826383515006    0.2426281467401   -0.2123116430783 
  -0.0196789189350   -0.0263742278428    0.0817165579200   -0.1135649849405    0.1403157321811 
   0.1478321596467    0.1925850279066    0.0260509587103    0.3654730100096    0.0240859825963 
   0.3698957593469    0.2536861607376   -0.1335991127624   -0.2626360367863   -0.1286299180479 
  -0.0050758939912    0.2648516938412    0.0394842856548   -0.1678972194024   -0.1382465395989 
  -0.1139061278150    0.1057210854990   -0.1253148314899   -0.0365109269576   -0.0164857047985 
  -0.1059429881700   -0.2825545147667   -0.2704684105032   -0.1082665710187    0.1653565131300 
  -0.1859588955276    0.0474007467834    0.1592342464025   -0.0740534481902    0.0583722737918 
   0.1391280710877    0.1588432694516   -0.1016548840240   -0.0354989220913    0.0045976384724 
  -0.0117462433087   -0.1613131638311   -0.1380542797036   -0.1898011906126    0.5890283489880 
   0.3792617065690    0.0192592400187    0.0451015034053    0.1300938794243   -0.1565298616491 
  -0.2755043594856    0.2008799295372   -0.1415461508189   -0.2765146372358   -0.2818191975047 
   0.2089194704422   -0.1299627983626    0.0960366315977    0.1223506088033    0.3425416983354 
  -0.2759973604541    0.0160103844212    0.1847400215240    0.0392083286184    0.0387848427296 
  -0.0653149419874   -0.2121364677262    0.0600670062876   -0.1309100285176   -0.1934858168398 
  -0.1543268292156   -0.0708450920086   -0.1177119421386    0.0318618248409    0.0395140518711 
  -2.9984184941451   -0.2219713734381   -0.5109700451611   -0.1951565443321    0.1684656064253 
  -0.6923688060060    0.6701921627759    0.3922927404934   -1.1866587397866   -1.0136337629447 
   0.4317315771488   -0.4553335793321   -0.6341139371944   -0.0085302201211   -0.2816345635096 
   1.5863306870060   -1.1634916475892   -0.1420081062411   -0.5316349414984    0.1739122410293 
   0.5079236921981   -0.6428039005527   -0.8353923924777   -0.4504111126166    0.7904524189072 
  -1.0422529523052   -1.1195544928703   -0.3904158782456    0.1061657521020    0.3941670953001 
   0.1181329198136 

