# Neural networks weights generated in PyXtal_FF 
# total_species nparams 
2 1891 

# NET ndescriptors nlayers activation_func for layer 1, number of nodes for layer 1, ..., ..., ...., 
NET 30 3 tanh 30 tanh 30 linear 1 

# Scale0 
 75512.2299947545689     30.4016900525454  -8773.7651235860776  20459.8399992317718  -5535.3861708035429 
 -6776.2194813777160  -1083.6445213280322  31430.1975623898179  -3531.7355454520903   2992.6406013639939 
  1985.2696533171816  -1684.4322810739384  -4749.7662861658391  20128.4524478371823  -4259.1604819365448 
  -577.3039003651043   3762.0247855930875   3919.0292230666500  -7590.5404938585425  -1381.1741927193109 
 25541.0173427418449  -5361.1544949986674  -1102.4517702398718   3898.9624578522635    -29.9124888585334 
   -21.9294751184575  59546.9630562402963  -1586.1661895388104   1932.6063112584748   -274.9952470318334 

# Scale1 
505365.9515123752644  74280.4780537860643  13318.7460435245266 100458.9357529768895  17330.8381161078323 
 38273.1688108083326  29319.2845595466788 139853.3881064158049  21814.9299938023505  21357.2668776318424 
 27256.1308668989259  23183.0249914930682  51830.0877194935310 147427.6069801474805  34850.6485656095028 
 26990.1250314620956  28674.9014503889048  14367.2564638140138  35703.4685081401331  31516.8082271720268 
179814.2059928550734  26832.3671007226039  28439.6898010404584  17384.7265230859557  22311.8981503540672 
 21921.7212936849137 205250.5243296089466  41675.4704701368246  23190.7566049788984  47407.4322529023484 

# Coefficients
  -0.0564130565110   -0.1882714347708   -0.2206491358092   -0.2685284141367    0.1821186806033 
  -0.1513666440473    0.0735912428690    0.2666858673159   -0.1772220461340   -0.0200233500257 
  -0.0138071094916   -0.0136877976481   -0.1166629665395   -0.2059563372188   -0.5293614040911 
  -0.3250920726825   -0.1790875400560    0.0088982478387   -0.3023740519026   -0.2104025833620 
  -0.4894199842268   -0.1327970724406   -0.0337041103308   -0.1634876134813   -0.1645665543345 
  -0.0547292732608   -0.2483194577897   -0.1534921843190    0.1909776782569   -0.0829732502269 
  -0.1594464470767    0.4032005190755    0.0955973991757   -0.3236864584898   -0.0896706553063 
  -0.0337271484141   -0.0251271025873   -0.0869340782420   -0.0114470504023   -0.1616005503215 
  -0.5050505072993    0.3200178362702   -0.3288441543509    0.1316332472561    0.1279021530213 
  -0.2752718061001   -0.2613006061937   -0.1431595425562   -0.0368830949167   -0.4618355698486 
  -0.0345661137821    0.1204654794012   -0.3163450292475   -0.4713070994198   -0.7011960918135 
  -0.7361826228137   -0.5394590876853   -0.6920534770038   -0.2065008336723   -0.0151302357696 
  -0.2042249402115    0.3365841692311    0.9188740697976    0.3190152987150    0.0316530746293 
   0.2353777182178    0.3316582912746    0.5268846077989    0.1605036554938    0.0936204128014 
   0.2241723028424    0.2727829488470    0.4498788591714    0.0560802545066    0.4440931755623 
   0.4795783621949    0.3162778163652    0.1799076547208    0.1368452295409    0.4593212984982 
  -0.1134309284161    0.2296065674683    0.2896932564982    0.0655177617228    0.0098309842238 
   0.0684109960902    0.0626124868692   -0.0699474804813    0.1395164143928    0.3821401495325 
   0.2384844450254    0.3478007153948    0.2793736391868   -0.9163406654252   -0.0797382534458 
   0.0448108832035   -0.1496592846601   -0.0568931539205   -0.2449403913301   -0.3198751880577 
  -0.0721464337227   -0.0350942643928   -0.0551997248585   -0.3197726795083    0.1210078697943 
  -0.1889372166931   -0.3925737741259   -0.0829171287508    0.0480630787118   -0.1007563348565 
  -0.1486078834640    0.2685636377530   -0.0296821655409   -0.1710777032080   -0.0103570575194 
   0.1423768867001    0.0383059867035    0.0343389360413    0.1054492141694   -0.1155877441437 
  -0.1194485513205   -0.3721913127766   -0.2954597004314   -0.2911666464748    0.7192388170672 
   0.3310416666891    0.3847040642460    0.4087305291618    0.2288573787874    0.5334578145970 
   0.3115678162334    0.3377844366047    0.3265937896136    0.3725285523756    0.2585679517568 
  -0.0000489711477    0.4916510301374    0.2186745309184    0.1659625184220    0.0417048552438 
   0.1372218635407    0.1583342536897    0.0190851343492    0.4196372851183    0.2965681679811 
   0.1904534469830    0.3872283361268   -0.1185100774447    0.3801866167286    0.0087268311549 
   0.1923478354850    0.4310275663341    0.4076166721003    0.2824125929478    0.3587284963136 
   0.9019482894300    0.3990852360556    0.0977953432243    0.1941186087912    0.4646580203358 
   0.3604586763783    0.4857843738265    0.4683755188042    0.4099854199329    0.2383830072045 
   0.6162083328384    0.3096574462331    0.4878325895713    0.2724238013221    0.3804895087557 
   0.3478802252134    0.3381426817817    0.4135943997585    0.3684603854400    0.3532090405412 
   0.2146009114721    0.1217706530943    0.1118115615081    0.3473210575582    0.2234286634512 
   0.0512720830436    0.2864469555369    0.1815930975275    0.2944892457339    0.5448286105506 
   0.4600673185064   -0.7365996821285   -0.2837879119991   -0.3299421061905   -0.2912705170826 
  -0.0275659642495   -0.4652630553359   -0.1701291948184   -0.0074094609198   -0.0817833284094 
  -0.0866435417142   -0.3917678317640    0.1973750066474   -0.3391990772858   -0.0880537066284 
  -0.1160352648233    0.1028682585113   -0.1568057848135   -0.3659348227418   -0.0325539587238 
  -0.1574572819548   -0.2985285049070    0.0545791898907   -0.0040676988536    0.0670159955169 
   0.0303169268670   -0.1562467472732    0.1414231939033   -0.0894864690485   -0.2570753167802 
  -0.2454369898029   -0.3275328918320   -0.8360348436314   -0.1432221553733   -0.1751962561336 
  -0.3959327881316   -0.1725440868121   -0.4714264851236   -0.1389774315588   -0.2116385834473 
  -0.2890069810720   -0.2162024501727   -0.3412682361872   -0.1662307957564   -0.4620042861869 
  -0.2157289977177   -0.2664261592902   -0.2216068970489   -0.3340541254505   -0.4304775030251 
  -0.1449948042632   -0.2380834186051   -0.2081553130822   -0.0532134571336   -0.3024317070294 
  -0.2721565159542   -0.2533015211094   -0.1304309263914   -0.3492031859269   -0.0536611618474 
  -0.1975273360441   -0.1966598826812   -0.4166081087950    0.6606941839069    0.2463889481171 
   0.0201794317829    0.3658686784725    0.0570097211158    0.3298146294518    0.2465799214002 
   0.0720662117439    0.1444397261137    0.3694496163729    0.1406890651357    0.0538220255284 
   0.2343710128595    0.3197790085199    0.0584895408240    0.2104954364856    0.2390054552404 
   0.1724265084190    0.2489805807123    0.2728306661627    0.0458068326622    0.1554720673298 
   0.2243659110895    0.1285546805394    0.2830317284281    0.0420866224031    0.1140476407018 
   0.1241899262643    0.2869953425344    0.1682504900395    0.2319977098965   -0.2109918080573 
   0.2649401248232   -0.1343740503700    0.6141011148426   -0.5916206778841   -0.0600806249197 
   0.0368929715642   -0.1171852181215    0.1058119566545   -0.1244804716892    0.0653019516746 
  -0.2014760620840    0.2758570331989    0.3415687039655    0.8342517196152   -0.1411554799080 
   0.0465770958888   -0.2459727326415    0.6218668766301   -0.1355559260485   -0.0416916598567 
   0.4817356403433    0.1506995342639    0.1528968195824    0.3258528575500    0.2508290102626 
   0.1246841267759   -0.0298654012416   -0.1655175066267   -0.0445103510220    0.1378913901406 
   0.9186842038763    0.3838677548718    0.2589132079561    0.2448213994216    0.4382823872363 
   0.5828123324080    0.3452292426659    0.1384206106791    0.2191933620689    0.2521923463272 
   0.3623500893974    0.0846267195114    0.3173941522788    0.4674381470534    0.2646274894401 
   0.2370191841263    0.0441504483009    0.3031717057936    0.0652400526797    0.2415697736200 
   0.3979398943709    0.1775059730056    0.2412104075531   -0.1750561079535    0.2545048672793 
  -0.0049629902441    0.1991339485469    0.1969514849817    0.1420130157308    0.2351465919230 
   0.3883801543988    1.0256853061100    0.4652303931861    0.2798924202022    0.1894043320863 
   0.4857063988413    0.1760259638020    0.8445930844575   -0.0405419338754    0.7438660452410 
   0.5065809763434    0.1081017359640   -0.1227118842128   -0.7001124385957    0.1998644248542 
   0.8907465903222    0.8467414558612    0.0218850079575   -0.5556464106082   -0.5023482022801 
  -0.8048524492662   -0.2262103454112   -0.0286335820854    0.5317034249534    0.2950154482305 
  -0.4277802406585   -1.4514198879282   -0.7965134164452   -0.3168810530290    0.0277424889919 
  -0.6936075308719   -0.0869962805443    0.9675836465087    0.3373945116609    0.3386765863569 
   0.4473897244513    0.3791352164783    0.4505384787403    0.2494438937004    0.1873445061892 
   0.3820058007531    0.2715143431999    0.2921612183272    0.2980726367953    0.2815413580354 
   0.3816619471598    0.0926567699776    0.0228840320189    0.3585657108221    0.3491048926888 
   0.2598592704793    0.2039241965429    0.2507043977163    0.1323821727623    0.2164206482428 
   0.0267789923757    0.1858017772025    0.0306829949205    0.4236581121690    0.3170968362882 
   0.2662325963991    0.3762301626225    0.4710764437025   -1.4232623914814   -0.3053742378691 
   0.0479323082130   -0.3109666256531   -0.3201641450750   -0.3374455733753   -0.2561646913869 
   0.0696010974636    0.0313567711753    0.0383811450329   -0.8385333583979    0.3371643018565 
  -0.4226354650956   -0.5173667802084    0.0667299295810    0.0056899738478    0.1983567178775 
  -0.3240879008208    0.8624740756912   -0.2539578823892   -0.2741974103469    0.2959496146521 
   0.1649685653912    0.7980780892507    0.6559140271082    0.2885570318909    0.5384738468875 
  -0.2017599502933   -0.2150376987240   -0.2352760995558   -0.4183564268017    0.7855927214486 
   0.0722729040858    0.3736771474927    0.1066875182657    0.3075558672099    0.4688186657887 
   0.3253202434405    0.1777866497460   -0.0068013480016    0.0865468397312    0.3125009661711 
   0.1001544493679    0.3827991517848    0.3163487798747    0.3155894740607    0.2185014336353 
   0.0077356867513    0.2432454925418    0.0061626853780    0.3605599867714    0.4030139575940 
   0.2006949466205    0.2952184361511    0.0560874650210    0.2900245901107    0.2482252183139 
   0.3330482944519    0.3444340841110    0.0995449076018    0.3299718905250    0.3907322852254 
  -0.6883763238945   -0.2405936585869   -0.1929485654604   -0.3958599698157   -0.2555327779059 
  -0.3158646542050   -0.1514957319517   -0.0741686800345   -0.2085907615490   -0.2163855420406 
  -0.2141648950930   -0.3217340797086   -0.2963249072317   -0.2291186751735   -0.0427049757339 
   0.0415141645795   -0.1487202740360   -0.0607976328462   -0.2622442468715   -0.0944034337417 
  -0.2852975880740   -0.0094605121543   -0.3583191247433   -0.0679199391160   -0.3303241017071 
  -0.1753324943172   -0.2365133658754   -0.1450513351863   -0.0673960403548   -0.2708940566199 
  -0.2750637337285   -0.5620809955750   -0.1137915306173   -0.1983394607126    0.3188444686335 
  -0.3258523213492    0.2711992037258    0.3883557531406   -0.0072971656924   -0.1141466623954 
   0.0109623842070    0.2788005963360    0.2684431582468    0.1190991307219    0.0109910865112 
   0.4748235944924   -0.1588409437303    0.3501635926912   -0.2612549584999    0.5029750379133 
  -0.1944719597623   -0.0566012344051    0.1263414551715    0.1512621261663    0.4636607997053 
   0.3674591891531    0.0569614343326    0.1241998634167    0.0491099378644   -0.0634824063622 
  -0.1597085279622   -0.4938914277384    1.1503916105296    0.2839451045276    0.2749038577770 
   0.5708302639971    0.3399724235324    0.5016531893985    0.3749846949015    0.3683817378305 
   0.3625628197232    0.4770983314797    0.4329878448362    0.1944459628781    0.5373461932321 
   0.4373342703135    0.2942680580556    0.2877748873823    0.4292741336343    0.4768996088430 
   0.1267678608936    0.2013644905054    0.1961859168590    0.4514058053423    0.2096073235600 
   0.0403988671016    0.3159565170410    0.3832861214947    0.1555226666292    0.4892031074729 
   0.2369212711859    0.5528056345768    0.3098200261862   -0.2793753442570   -0.0523775759056 
   0.1362737891768    0.1286261220427    0.2074139861234   -0.0768059727701   -0.2148265525887 
  -0.1067913144181    0.1325715528715   -0.0336774059603   -0.2817559955016    0.1747663124606 
  -0.2596535863332    0.0994746733504   -0.2570705263924   -0.1033093876201    0.0422318264989 
  -0.1467159303382   -0.0324197723514   -0.2963197976253   -0.0583761371553    0.1518473435929 
   0.2216029555276    0.1638578080912   -0.1408990541542    0.0700324372246    0.2931982600797 
  -0.1839142093468   -0.1567406337130   -0.2327621700513   -0.0921797832934   -0.2279160253403 
   0.2147737868079    0.0224321543704    0.0897426738364    0.3507350822714    0.0090100308936 
  -0.7184071027034   -0.2166984338483    0.3742816346445   -0.3017367687721   -0.2066457603815 
   0.0635753430666   -0.2908053772458    0.2462386305744    0.1405672851005    0.1339797205940 
  -0.1512471407050    0.4770385003298   -0.1072092260127   -0.0440549259764   -0.1122273853457 
   0.0600456348485    0.4909701466216   -0.3032304535445   -0.4608536585127    0.3885473183846 
   0.0175639691463    0.2493403359903   -0.3380410054003   -0.1058856782627   -0.1652087481992 
  -0.1737268966498   -0.3698103184009   -0.2420027214959   -0.1328202839004   -0.4510076296787 
  -0.1650892484484    0.0425796042643   -0.0259229792505   -0.0188045069638   -0.0970377795006 
   0.0379445037814   -0.0252538296759    0.0168274382728    0.0930833216086   -0.1553840313112 
  -0.1829697806851   -0.0276341036855   -0.1006279168835   -0.0757696583420    0.0488128083820 
   0.0522204989404   -0.1539962907605   -0.0758339452170   -0.1994802261413   -0.1271543819109 
  -0.0465587628667   -0.3427989478183   -0.1844249262806   -0.2290190598601    0.0006047519681 
   0.0781665534524   -0.4892007019702   -0.1854367904714   -0.2749909207393   -0.5017358674213 
  -0.1732001450571   -0.3132994611138   -0.1559905084420   -0.2194038348691   -0.1925056546907 
  -0.1861575695294   -0.2338364711330   -0.3409441859811   -0.1911624310136   -0.3503970723917 
  -0.1387640804577   -0.2961334237934   -0.0374898682400   -0.2574821701206   -0.1490284380872 
  -0.2681695675839   -0.3969670204976   -0.2099573590716   -0.4204545905310   -0.3679977480885 
  -0.2801761368297   -0.1009722739094   -0.2762001044940   -0.2495906800062   -0.4719524543690 
  -0.3273073758078   -0.3782659394078    0.4020808254797   -0.0909950309016    0.3602377414829 
  -0.3328115727425    0.1653448517972   -0.1146968993964   -0.0614960015568    0.1273413013245 
  -0.4727911455079    0.1237488990998    0.2247605350128   -0.0049937972434    0.3908480097404 
  -0.3978487397620   -0.9428156114195   -0.0466554444596   -0.0305917175913   -0.3013932537821 
  -0.1363916271054   -0.0733352644602   -0.3733480663354   -0.3892931633095   -0.0612497593743 
  -0.0752984121593    0.1491383910988   -0.5193003456215    0.0709486915780   -0.0378787994222 
   0.0226444823900   -0.1803217592367    0.1296566802702   -0.3567341985031   -0.3398418315898 
  -0.1079046683257   -0.1584693228060   -0.5820421342294    0.2487688062773   -0.1768043091452 
  -0.5715823093598   -0.3222827973152   -0.1124867333535   -0.3759131694032   -0.0470559744815 
   0.0271644599746   -0.0672575955523   -0.1695601864330   -0.3225372179387   -0.0183282953439 
  -0.3886402167923    0.1718127866604    0.3147220788461    0.3083495351459   -0.2935527930147 
  -0.0311285433118   -0.0519884255638    0.0358487033701    0.0693165734247    0.1120905491652 
  -0.3928873338368   -0.0285583128610    0.1158929346534    0.1867241298968   -0.1229592044480 
  -0.1546409403746    0.3281274842692    0.0886655496885    0.1203583568846    0.1307389019671 
  -0.0650002570987    0.0247704380562   -0.0192833807947   -0.1234645793598   -0.0155663955813 
  -0.0731148966908   -0.3237961201847    0.1522720135626   -0.3549219412754    0.3867712567310 
  -0.6816936108883    0.1946602871582    0.0951391103690    0.0555018021161   -0.4275184301424 
  -0.2025910481634   -0.0857451154529   -0.3090241279167   -0.3365888131546    0.2987528339355 
   0.0616646775699   -0.1911213497171   -0.4556259859671    0.0714768002882    0.1914223946612 
  -0.3404173304262   -0.2514856584261   -0.2438743250215   -0.1603667253977   -0.0878737198836 
  -0.1646686083263    0.1205505465759   -0.1074027470747   -0.0413575745271   -0.2923670421402 
  -0.1341925505020   -0.0478633167707   -0.3036500553089   -0.0177381219043   -0.2023013950755 
  -0.2924635641015   -0.2964335441182   -0.2185665896221   -0.2621678483990   -0.0516206819112 
  -0.1670575620412   -0.3081909852807   -0.3889250512526   -0.2546466664386   -0.0999127663787 
  -0.2957176780844   -0.1022429260261    0.0664967765215   -0.2502231582265   -0.0422102348498 
   0.0200580735904   -0.3226740405440   -0.0374602199443    0.2395271049876    0.3294824716017 
  -0.2747289669209    0.9748152404919    0.1623904895843    0.2274263277803   -0.2151729101243 
  -0.3727094264586    0.6945557866147   -0.3462774244239    0.2773696496924   -0.2248397622577 
  -0.1107269131459   -0.2692108378884    0.3450039344538   -0.1301013980716    0.1813196684461 
  -0.0388176837085    0.2074028413585    0.0938385675312    0.4208822221747    0.1832254588409 
  -0.1632302014645    0.3205543663358    0.0309396103133    0.1121211456436   -0.1505998982844 
  -0.0606562839483   -0.0308905250710    0.2558352964210   -0.4307988779659   -0.5654807430744 
  -0.3876476710707    0.1289924634327    0.3222040160665    0.4553565080514    0.2033566219949 
  -0.2520281478257   -0.3485178568849    0.3981973769797   -0.0536626591992    0.0074612980506 
   0.4467428877966   -0.5094721917273   -0.6204260070160   -0.4003359742771    0.1298187290081 
   0.2270273688761    0.7603685739860   -0.1317196179724   -0.2068191445086   -0.5041121408871 
  -0.2401742970289   -0.0443994007177   -0.1690656976793   -0.0000739364624   -0.1093960036077 
   0.0205052383886   -0.3535731580019   -0.0376511831117    1.4899669539698    0.4954717914153 
   0.2663307906335    0.3533093709330    0.4376102620436    0.7244596030430    0.2775183055017 
   0.5002202121207    0.3793745627513    0.6008391664497    0.6092437693659    0.3595098789941 
   0.8225489906956    0.7816941360013    0.4200602223625    0.3556523588984    0.4694063463503 
   0.6684599462537    0.2790756850661    0.6091231802086    0.5950522075480    0.1683956576023 
   0.3753586170137   -0.0039943885564    0.4606037361994    0.2226369725818    0.1968475814835 
   0.5566912120442    0.3151067697402    0.6618171196753    0.4698047955369    0.1968985942748 
   0.2875464832863    0.0974915314053    0.0848051833071    0.1759692477290    0.1765166649491 
  -0.0102891193858    0.3256273700865    0.0900802350004    0.1637613659108    0.1181219775152 
   0.1832706343467    0.3080847946678    0.0693479182473    0.1156900675871   -0.0264195572467 
   0.1937002122100    0.1334389978939    0.3950759013785    0.0313252146085   -0.0324642728351 
   0.4011446752646    0.1856162635040    0.3857394649411    0.1432055356676    0.1471676585718 
   0.2071867299077    0.1210423770842   -0.0043830326983    0.1184102232672   -0.1638569074319 
  -1.0026457074037   -0.1062638821056   -0.3187329461832    0.0011669257482    0.0197780066295 
  -0.2846384223184   -0.0778879045112    0.3180598131599    0.0812403734265   -0.2567363698370 
   0.0307145553680   -0.1921713389654   -0.0802067104373   -0.3713002779403    0.4790735041633 
  -0.3436175513003    0.1681875903590    0.0027343884389   -0.2016826012877    0.0980578145688 
  -0.0000578926105    0.2600367708191   -0.1092570978663    0.0484717601536   -0.1164592499381 
  -0.1470324423745    0.0537585206166   -0.2547942938193   -0.1667944510950   -0.6193754435850 
   0.2678049460713   -1.2794551836268    0.1189246301859   -0.5346215924175   -0.2842458465704 
   0.0899083471143   -0.3177799492177   -0.3519775803246    0.3934478993131    0.4638548501156 
  -0.4312619678310   -0.1430636726686   -0.1403142130109    0.1257149704577   -0.2295536707223 
   0.2452011450715   -0.4745955370542    0.1756018991942    0.0539708938929   -0.1816273969664 
   0.0961091231428    0.0717298253215    0.1350431326622   -0.1464695526133   -0.1895219055484 
   0.2366432806652   -0.0608339489393    0.3075476111276   -0.3196977294796   -0.0624076664625 
  -0.7616160147437    0.2622367502903   -1.0278824688009   -0.1004416240965   -0.5503021539642 
  -0.2721124702748    0.0511837917757   -0.1047994105037   -0.3761705637958    0.1894025628855 
   0.2734185258671   -0.3272394054039    0.1305756333932   -0.1251621895296   -0.1550792586461 
  -0.3952316357230    0.2414680289861   -0.3371384302338    0.2697899353270    0.0591132950689 
  -0.1757682194278    0.2697967031144   -0.0302976124651    0.1128960007353   -0.2349001880570 
  -0.2527374564065    0.2496794855916   -0.0484766257114    0.1666611352380   -0.4893822278852 
  -0.1285025090588   -0.5463800238751    0.0864172530592    0.0283213236853    0.2321884630961 
   0.0572264846427    0.0084107271050    0.0950360445694   -0.1157577762035    0.1032204215038 
   0.3653663557257    0.3055219481431   -0.1416986924806   -0.4334185465224    0.0640441624505 
   0.4068546712021   -0.1349739375918    0.4451607338727   -0.3156147542102    0.2249018623170 
   0.0602972060576   -0.1632400086631    0.2505614359575    0.1920003943011    0.0488483104535 
   0.1325017449000    0.1629315182855   -0.1008246526445    0.2914943056272    0.1834195289310 
  -0.2193969128208   -0.1425734094375   -0.1608625597377   -0.1845548995003   -0.4392956162465 
   0.0135006862203   -0.1449533665457    0.0035076592603   -0.0030738321605    0.0015957559078 
  -0.1666610499691    0.3137369775293    0.1148697930220   -0.2556835161974    0.1376285832692 
  -0.0821468442623    0.0659517238495   -0.1999723436558    0.1474365705594   -0.2651620071201 
   0.2282462622805    0.0684175946757   -0.0854726748150   -0.0595502319770    0.1251826378711 
   0.1609368891299   -0.0884340062545   -0.0592695317430    0.0045755163920    0.0318883154042 
   0.0878891112553   -0.0997603068196   -0.0511650507613   -0.1650709172472    0.1336150106457 
  -0.6213766492919    0.0592971929162   -0.1783281546177   -0.2341703654288   -0.0108364258487 
  -0.1123945214415   -0.1262438033930    0.3672169774214    0.1223038676901   -0.0876224823422 
  -0.2490238849661   -0.0802835016867    0.6389633379711   -0.1518598182698    0.3094833076881 
  -0.3371675005951    0.1334609448379   -0.0546056103104    0.0285135623444    0.1350167409354 
   0.0927223660884   -0.0787955825825   -0.0335479756853    0.3827543250040   -0.1298615097923 
   0.2771299496055    0.1871836328742   -0.2863565832416   -0.0637921327052   -0.2313865157046 
   0.2120976860972   -0.2294383278551   -0.2696698065597   -0.1730743904036    0.2038067655658 
  -0.2999267883700   -0.0030567581981   -0.0281090621459    0.0245020227720    0.0031953330930 
   0.1406688882551    0.3883229913161   -0.0569361997666   -0.2818404750584    0.0374194059454 
  -0.0912765350868   -0.1212545067445   -0.2554855280507    0.0024280812583    0.0503051677466 
   0.0552326231847   -0.0476908807818    0.1906693941322   -0.2940408913704   -0.4521507437759 
  -0.0671738764592   -0.0367379264671   -0.2730128118645    0.2157871222065   -0.0011483274209 
   0.1057112073433    0.1629964373655   -0.9310661763924    0.0183001835436    0.0507630206320 
  -0.4176421899491   -0.1083114546985   -0.1847134358053   -0.2662246063925   -0.1884097010124 
   0.2851103643490   -0.3399955422410    0.2448526473453   -0.0367517097073   -0.6835282068359 
  -0.2921583776174    0.3313750490337   -0.2215570014823   -0.0613369881411    0.2660855469502 
  -0.5477856346708   -0.0992873368620   -0.2341911143136    0.1347646676793    0.2524628691681 
  -0.3835754441084    0.2696040686737   -0.1727417158054   -0.0182179842269    0.3720336660862 
   0.2714278261961   -0.4705678676087    0.0565926569760    1.0352135150692   -0.1750233665757 
   0.4842712375518    0.2769317008226   -0.0147099912910    0.3058645313948    0.6226933697402 
  -0.1850672864857   -0.5875611156249    0.3527748080822    0.1846767172202    0.3144682937294 
   0.1544954014556    0.6859709574591   -0.3928123744657    0.5546443235996   -0.2730337660219 
  -0.0812980815990    0.6886526473479   -0.0389264346365   -0.1278674569968   -0.3750074876687 
  -0.3411001846721   -0.0077903070457   -0.1764199091687    0.1049892748214   -0.3723466875845 
   0.3449935176630    0.1416609176739    0.8166541609601   -0.0613348417299   -1.2683539468360 
   0.1299790174112   -0.3978639076667   -0.2854956007268    0.0364046849005   -0.3273417973093 
  -0.3744040126095    0.3109513277393    0.2005073602601   -0.3835200839450    0.1581563497171 
  -0.1871320859116    0.2227969468638   -0.2884768940237    0.2472513393624   -0.5354770541963 
   0.2023843410938   -0.0438821000175   -0.2712881413388    0.0836578985052   -0.1009695385632 
   0.2896617367166   -0.1050329412711   -0.0758162737961    0.0283790879017   -0.1465710620845 
   0.0395485552948   -0.3072341177788   -0.0792529056906   -0.7828396187489    0.2215288231420 
   1.0325480969797    0.1271618822872    0.5049700330743    0.2196638759106    0.0440174567135 
   0.2490014185574    0.1421029960225   -0.0908911111727   -0.3441931083228    0.0110458020778 
  -0.2032101367039   -0.0178612971258    0.0922433041123    0.0692580802099   -0.3126103888271 
   0.3782804801167   -0.0811102281746    0.0937406383297    0.3383188454475   -0.0247415465365 
   0.1217313768781   -0.0808191312274    0.0471895014285    0.1502888976719   -0.2941960570905 
   0.0880069421281   -0.0814809083314    0.2105832898354   -0.0317051352741    0.3956375178072 
  -0.0397196788943   -0.0548385060874    0.1747399947503   -0.3141614205483    0.3962802767865 
  -0.1564626037429    0.1811872042805    0.3360387429946    0.2021848906878   -0.0414872590200 
  -0.1728554258396   -0.5445591183356    0.0803867401349    0.3912126603234    0.0803592900300 
   0.2870446735810   -0.1009157216274   -0.1247408936017   -0.4790575050078    0.3876349125334 
   0.3916155628596    0.4103576344054   -0.2017406203021   -0.5071499671808    0.9687505452240 
  -0.6046513841190    0.4134472623699    0.0103277325156   -1.1737952202070   -0.4960322011955 
  -0.0325204227973    0.3955751842820    0.3877580721619   -0.0838086109506    0.3468240284849 
  -0.1273944515697    0.1447988206236    0.0962859003582    0.1281144234035   -0.4557040752666 
  -0.2813913195647    0.1167741270645    0.2447188226584   -0.0348041640980   -0.3858334516637 
  -0.0302373155063   -0.0843757821833    0.2207128252659   -0.1323700252032    0.1962467127798 
  -0.2476489408370   -0.0180006338763    0.1208598015960   -0.1226016311837    0.2641996233495 
  -0.3228540397961    0.1163807650472   -0.2235436231550   -0.1649752894631    0.2760173053033 
  -0.2379196552242    0.2750631582706    0.0343234937416    0.6854214055525   -0.1279025285266 
   0.2267362619380    0.0890362834412   -0.1348563222258    0.3473834133966    0.4418883395005 
  -0.2147822976350   -0.4626565625487    0.0643879064547    0.1525375426793    0.3284318687646 
   0.1382985948202    0.4570629412395   -0.2419771540638    0.2581857445629   -0.0163109673229 
   0.1167359567339    0.5260373780256   -0.2014478049614    0.0480410029793   -0.0662898624776 
  -0.2291910025919    0.1808369985675   -0.1115437888794   -0.0056890446329    0.0600485748620 
  -0.0333834974570    0.0489279368166    0.4907764532924    0.0740004464882   -0.5715337729048 
   0.0517791453037   -0.2838152096395   -0.1704870507024    0.0165444625850   -0.0379566290273 
   0.0674870994828   -0.0109691921211   -0.1068056997602   -0.0768620826838    0.2936334192678 
  -0.0348214244090   -0.2038812431991    0.0024643291690    0.1992387446397   -0.2169827530920 
  -0.1717857468770    0.1483006391106   -0.1241021857308    0.1821150056511   -0.1845747210273 
   0.2048077855162   -0.1636029443655   -0.1101453151445    0.1056957733262   -0.2324967941533 
   0.0965108288042   -0.1546478100029    0.0793252191077   -0.2806430738239    0.2622720297580 
   0.2185306742950   -0.3495102021186    0.2884993043738    0.0035615571779    0.1070349444832 
   0.4192499091575    0.1430310032228   -0.5497822396279   -0.0728418326341    0.2197428551202 
   0.3962775495701    0.0548376799322   -1.2228955723635   -0.0620920543376   -0.4075647041513 
   0.5263754503090   -0.4527828001546    0.2845406895332   -0.1203870739301   -0.0920014904015 
  -0.3565171731520    0.0356082465605    0.2773094636961   -0.3860028853751    0.5295262009805 
  -0.2667705800149   -0.3505793963027    0.5942928630761    0.2078441500253    0.3034213163602 
   0.2175225484218   -1.2219518482677    0.1399162860964   -0.5004567944755   -0.1708454876467 
   0.0139119772935   -0.1311862924334   -0.0379108626326    0.1718012208063    0.0428525730894 
  -0.3796894738699    0.0354282640501    0.1654416274455   -0.1747696793559   -0.0746838840841 
   0.2723032434382   -0.3754071012922    0.2245090098167    0.1524591369417   -0.1050282879301 
   0.0605770809503   -0.1391046737942    0.1280437384824   -0.1254774702095   -0.2825992987275 
  -0.0323495500779   -0.0311610289767   -0.0159292498768   -0.2191376542822    0.1527729108716 
  -0.4553865025193    0.2532053899752    1.1110128988366   -0.0837949791567    0.3624498067729 
   0.1729365327876   -0.1246527373586    0.1925485373276    0.2315862833992   -0.2806341912477 
  -0.4286446671628    0.1015622235351    0.1334649288569    0.1485806650506   -0.1679639983659 
   0.3389602126964   -0.3350325435232    0.3465309805967   -0.1762373002084   -0.0867198305725 
   0.1834025128234   -0.0755649905815   -0.1108052727926   -0.2489202039529    0.1049746395958 
   0.1320308519645   -0.1821755162905   -0.0222218415916   -0.1164699061442    0.1927913289170 
  -0.0544377264489    0.7263323420342   -0.1363883227337   -0.2257443092286    0.4885825670035 
  -0.2892233274383   -0.3334317184114    0.1390331844731   -0.5649174131064   -0.1768697024007 
   0.6335293666793    0.5029475358853   -0.4794530535793   -0.5297261919592   -0.1606456918566 
   0.9648103281609   -0.1986441738522    0.7871993989647   -0.4427700430695    0.6537746280337 
  -0.1289445151246    0.0328194103852    0.3882351542359    0.3683547659520   -0.3675284907980 
   0.0475272783905    0.7726349824756   -0.7421282513642    0.4098712260667    0.4475996648867 
  -0.5083625944982   -0.4148173003253   -0.3742816037499   -0.3103572010730    0.3889508559387 
   0.4519422318892    0.1323823212907   -0.0263059812791    0.1417204210136   -0.2589998673828 
   0.2778539667979    0.5916943468414    0.2798330161736   -0.4897560463650   -0.6894956773415 
  -0.0739964889866    1.2036068341734    0.0713329514387    0.4124462021106   -0.3098055357334 
   0.6279482347278   -0.2108653490862    0.2290831302658    0.0643192339007    0.2203178933487 
  -0.2060179299667   -0.1693170403303    0.8019477665195   -0.6893683432053    0.4789340887199 
   0.4930032628706   -0.7979892086444   -0.3228433182633   -0.2277881132809   -0.4379661359526 
  -0.9271090660527    0.0480963661804   -0.3130389623635    0.0181093664357   -0.0976306189018 
  -0.1617753389267   -0.0314214791258    0.3273858510965    0.1879654331378   -0.2804166539935 
   0.0601308496663    0.1191020486089    0.0032545265184   -0.3478724512787    0.2279409238530 
  -0.4472362511980    0.2072362975284    0.2154946508336   -0.2126640371038    0.2760438284192 
   0.0788173698079    0.2756088235457   -0.1013026027152    0.0054077717092    0.1810132475022 
  -0.0322755484607   -0.0649985913561   -0.2431001657488    0.0323416446193   -0.4881069816741 
   0.2829208573414    0.3603964815122   -0.0636011995947    0.0301669176954   -0.1310189966052 
  -0.1867398054564    0.1241784794759    0.0816274479783   -0.2226119148109   -0.2423195851547 
   0.2863210533567    0.2411357366718   -0.0249340470841   -0.3378507988010    0.1240001286641 
  -0.1381906378787    0.1819634845408   -0.2723966764122    0.1299915242824   -0.1147382199607 
   0.0756844571786   -0.1333251106221   -0.1068879103141    0.0705184135599   -0.1004052051175 
   0.0366727030355   -0.2309275569953   -0.0276115089742    0.2845419531053   -0.0279017038927 
   0.2634452566607   -0.0425143385427    0.9821965427525    0.0535657700412   -0.0231315310650 
   0.3804361366131   -0.4027052745562    0.1246398527026    0.4039090540582   -0.1028882852583 
  -0.5084540001522    0.2218867542503   -0.1209073695933    0.3797905468707    0.6149317226850 
   0.4609629847694   -0.0089045307520    0.3934459613792    0.0154655310663   -0.0630375669452 
   0.6818238102283   -0.0130770991564    0.1966779288333   -0.3832489887888   -0.3651724817940 
   0.2886638964654   -0.4974454400970    0.0372149846795   -0.0743740319478   -0.0595329413461 
  -0.1166574059908    0.5035866948607    0.0419987131388   -0.8500625987912    0.0711745415742 
  -0.3445727369778   -0.0473061843692   -0.0964326511520   -0.2442138787431   -0.3902977517897 
   0.0475399724905    0.2195174681491   -0.0202411306412    0.1016624399704   -0.2135702919391 
  -0.2026965270176   -0.1371938735432    0.2391575763139   -0.1872416639936    0.1281607379285 
   0.2895776240329   -0.3512924525238   -0.0358941143637    0.0016651268881    0.0964504992106 
  -0.1468083821202   -0.3080674957764    0.2334286254840   -0.3006244482130    0.2056719320385 
  -0.2568762766407    0.1065130022839   -0.4704366298713    0.2647665130210    0.2649633674721 
  -0.2355315372107    0.0492831383216   -0.0938268235850   -0.1262916119493    0.1666367540803 
   0.0600575652563   -0.2685867328477    0.0328429713745    0.1479637684997    0.1533673472576 
  -0.1160787718383   -0.2619677652743   -0.1063267829066    0.0951675001283   -0.0313181729938 
  -0.2389151538588   -0.1295701240367   -0.0315158531926   -0.0276469420206    0.0606501339252 
  -0.1422884673985   -0.0536565375319   -0.2525399496575   -0.1383398411159   -0.0691744153727 
   0.1273016901219    0.2545564200047   -0.3516061260500    0.1388715992964    0.1243401339976 
   1.1848820586778   -0.0304792150747    0.4687925198176    0.2164491692766    0.1995533204569 
   0.2204321779467    0.4065287309255   -0.4536977064819   -0.3824481557925    0.2758929553993 
   0.0510554503546    0.1166870893587   -0.0682174495724    0.1421933825922   -0.5541019162589 
   0.3991727665107   -0.2151164713424   -0.2392932200073    0.2659375127847   -0.0226257801630 
   0.0474574900629   -0.1361810033049    0.0868672842222    0.1482891517555   -0.0107768376390 
   0.0953323184234   -0.2448608591717    0.6063412252508    0.1685711917591    0.8063041400723 
  -0.1259966072958   -0.7273473754811   -0.1551260283623   -0.4168289460970   -0.1240034618896 
   0.0546527490481   -0.1350282703210   -0.2068260344498    0.2849074895614    0.3553878443415 
  -0.3619578207939    0.2445994666220   -0.2372536456816   -0.3076008634630   -0.2999013945336 
   0.2984600274322   -0.2343122209227    0.1742795993307    0.2394144610163   -0.1966633647809 
  -0.1434646535064    0.0208718402565    0.1896445064885   -0.0782092806497    0.0262426565004 
   0.1546283796632   -0.0665459203481    0.0896911024515   -0.0757401815680    0.0894186989023 
  -0.4371249701845   -0.0581395690775   -1.1316310084801    0.2252793804738   -0.5845731692461 
  -0.3359311093101   -0.0579797855981   -0.3011648930577   -0.5027421086784    0.2252308557473 
   0.5399572480085   -0.4813545024947    0.1500629882570   -0.2744976416521    0.2417161315974 
  -0.4573861964435    0.5324022132667   -0.6741480147541    0.2358354804342   -0.0124118910963 
  -0.2350632166143    0.2258769201991    0.1779951093371    0.0445572218477   -0.0386221681923 
  -0.1442979233215   -0.0320479898211    0.0369219162729    0.0594846820643   -0.5171545150050 
   0.0337023371859   -0.7379134480806    0.0098611127502   -1.4434426000192   -0.0174493115547 
  -0.7054595762695   -0.3334514198840    0.1114284799670   -0.4616322692500   -0.5489236938084 
   0.1771410501659    0.3892311741439   -0.5614918142122    0.0639681166961   -0.3434184463026 
   0.0704439161710   -0.4999242615673    0.4833525930585   -0.4873085818102    0.1357732790771 
   0.0797306254584   -0.4070436299454    0.2892047440076    0.1530482568363    0.0235390325954 
   0.0186229203817    0.0623012681438    0.3100342756963    0.0815078186356    0.3190611036464 
  -0.4711285179131    0.0477591762977   -0.9297568376420    0.1552056990632    0.1823874085274 
  -0.3189264398902    0.3011382704852   -0.1363904143033   -0.2525595436020   -0.0261259667149 
  -0.0953420334953   -0.2371437045946   -0.1995164164887   -0.0983902399198    0.3351970926644 
  -0.1152175327978   -0.5822139503265   -0.1116653120101    0.2838488050085    0.0850565182651 
  -0.1359683129704    0.1610509179890    0.0051558649972   -0.2023135341390   -0.6615463907625 
   0.1793704288489    0.1049047588289   -0.2667847201503    0.6107385185400   -0.6703909110255 
  -0.1396432596711    0.2860298239584    0.3964474585802   -0.0147442194489   -0.3081411135640 
  -6.3660020134868   -0.0938179352280    1.7548220544754    0.7840325229461   -0.3966772427035 
  -0.6233763769700   -0.8228856159705    0.6093811956974    1.5067130930827   -1.4037122931189 
   1.3160512303289   -0.5004917472123   -1.8345145757839    1.4448534649370   -0.4785311816877 
   0.1208559698774    1.0042128484569    0.0677097280636   -0.3521839344712   -1.8590578102131 
  -1.9573888204982   -0.1352906748193    1.2877437796827   -2.0870252574102    0.1237467859194 
   1.0088960367701   -0.5669999223344    0.5394159292508    0.7675512627597    2.2288844878869 
   1.4036905032021 

# Scale0 
105406.7025453283422    388.0897582517568  -3105.0624903692201   3721.1926752298614  -3489.3503970221695 
 -3714.1631193731687  -2108.3950993359354  31708.3355927804296  -4234.2335338474095  -4194.3155075970453 
  1072.3008780758269    895.4408478531834     31.0507726601329  38896.2610664907261  -3141.9913509407643 
 -3074.9022155229013  -1870.3814651854134   2941.7319702857289  -1773.7799446754721   1907.4987355437650 
 42673.3829775861304  -2132.9234212208462  -2977.9520535840252   1053.5997111674410    175.1295964401749 
   756.3058885183258  49127.1241331215788   -493.5051116820988  -1444.0703886097690  -1056.5414984603403 

# Scale1 
243735.4934875836479  25715.6824754134541   9271.4146217552134  57109.9875124302125   7218.7418779641011 
 14382.3810801055533  12613.5936111473111  70923.9529728784109  12679.3690046805696   8732.8162231568240 
  9362.2495078329212  14359.4276386222791  29287.7713676415769 125803.4376802459301  13043.4789265401669 
 17703.1836408753588  14384.3492104423240   8495.1639005353372  26292.5324212840787  18311.1338259007971 
 94792.1363125985372   9385.2130798120288  14727.3786700617566  16778.5984396948952  14012.1517034782191 
 13798.5465506918008 103031.9054354534601  13162.6189659964894  15683.0662829034700  16750.1024009068897 

# Coefficients
  -0.0564130565110   -0.1882714347708   -0.2206491358092   -0.2685284141367    0.1821186806033 
  -0.1513666440473    0.0735912428690    0.2666858673159   -0.1772220461340   -0.0200233500257 
  -0.0138071094916   -0.0136877976481   -0.1166629665395   -0.2059563372188   -0.5293614040911 
  -0.3250920726825   -0.1790875400560    0.0088982478387   -0.3023740519026   -0.2104025833620 
  -0.4894199842268   -0.1327970724406   -0.0337041103308   -0.1634876134813   -0.1645665543345 
  -0.0547292732608   -0.2483194577897   -0.1534921843190    0.1909776782569   -0.0829732502269 
  -0.1594464470767    0.4032005190755    0.0955973991757   -0.3236864584898   -0.0896706553063 
  -0.0337271484141   -0.0251271025873   -0.0869340782420   -0.0114470504023   -0.1616005503215 
  -0.5050505072993    0.3200178362702   -0.3288441543509    0.1316332472561    0.1279021530213 
  -0.2752718061001   -0.2613006061937   -0.1431595425562   -0.0368830949167   -0.4618355698486 
  -0.0345661137821    0.1204654794012   -0.3163450292475   -0.4713070994198   -0.7011960918135 
  -0.7361826228137   -0.5394590876853   -0.6920534770038   -0.2065008336723   -0.0151302357696 
  -0.2042249402115    0.3365841692311    0.9188740697976    0.3190152987150    0.0316530746293 
   0.2353777182178    0.3316582912746    0.5268846077989    0.1605036554938    0.0936204128014 
   0.2241723028424    0.2727829488470    0.4498788591714    0.0560802545066    0.4440931755623 
   0.4795783621949    0.3162778163652    0.1799076547208    0.1368452295409    0.4593212984982 
  -0.1134309284161    0.2296065674683    0.2896932564982    0.0655177617228    0.0098309842238 
   0.0684109960902    0.0626124868692   -0.0699474804813    0.1395164143928    0.3821401495325 
   0.2384844450254    0.3478007153948    0.2793736391868   -0.9163406654252   -0.0797382534458 
   0.0448108832035   -0.1496592846601   -0.0568931539205   -0.2449403913301   -0.3198751880577 
  -0.0721464337227   -0.0350942643928   -0.0551997248585   -0.3197726795083    0.1210078697943 
  -0.1889372166931   -0.3925737741259   -0.0829171287508    0.0480630787118   -0.1007563348565 
  -0.1486078834640    0.2685636377530   -0.0296821655409   -0.1710777032080   -0.0103570575194 
   0.1423768867001    0.0383059867035    0.0343389360413    0.1054492141694   -0.1155877441437 
  -0.1194485513205   -0.3721913127766   -0.2954597004314   -0.2911666464748    0.7192388170672 
   0.3310416666891    0.3847040642460    0.4087305291618    0.2288573787874    0.5334578145970 
   0.3115678162334    0.3377844366047    0.3265937896136    0.3725285523756    0.2585679517568 
  -0.0000489711477    0.4916510301374    0.2186745309184    0.1659625184220    0.0417048552438 
   0.1372218635407    0.1583342536897    0.0190851343492    0.4196372851183    0.2965681679811 
   0.1904534469830    0.3872283361268   -0.1185100774447    0.3801866167286    0.0087268311549 
   0.1923478354850    0.4310275663341    0.4076166721003    0.2824125929478    0.3587284963136 
   0.9019482894300    0.3990852360556    0.0977953432243    0.1941186087912    0.4646580203358 
   0.3604586763783    0.4857843738265    0.4683755188042    0.4099854199329    0.2383830072045 
   0.6162083328384    0.3096574462331    0.4878325895713    0.2724238013221    0.3804895087557 
   0.3478802252134    0.3381426817817    0.4135943997585    0.3684603854400    0.3532090405412 
   0.2146009114721    0.1217706530943    0.1118115615081    0.3473210575582    0.2234286634512 
   0.0512720830436    0.2864469555369    0.1815930975275    0.2944892457339    0.5448286105506 
   0.4600673185064   -0.7365996821285   -0.2837879119991   -0.3299421061905   -0.2912705170826 
  -0.0275659642495   -0.4652630553359   -0.1701291948184   -0.0074094609198   -0.0817833284094 
  -0.0866435417142   -0.3917678317640    0.1973750066474   -0.3391990772858   -0.0880537066284 
  -0.1160352648233    0.1028682585113   -0.1568057848135   -0.3659348227418   -0.0325539587238 
  -0.1574572819548   -0.2985285049070    0.0545791898907   -0.0040676988536    0.0670159955169 
   0.0303169268670   -0.1562467472732    0.1414231939033   -0.0894864690485   -0.2570753167802 
  -0.2454369898029   -0.3275328918320   -0.8360348436314   -0.1432221553733   -0.1751962561336 
  -0.3959327881316   -0.1725440868121   -0.4714264851236   -0.1389774315588   -0.2116385834473 
  -0.2890069810720   -0.2162024501727   -0.3412682361872   -0.1662307957564   -0.4620042861869 
  -0.2157289977177   -0.2664261592902   -0.2216068970489   -0.3340541254505   -0.4304775030251 
  -0.1449948042632   -0.2380834186051   -0.2081553130822   -0.0532134571336   -0.3024317070294 
  -0.2721565159542   -0.2533015211094   -0.1304309263914   -0.3492031859269   -0.0536611618474 
  -0.1975273360441   -0.1966598826812   -0.4166081087950    0.6606941839069    0.2463889481171 
   0.0201794317829    0.3658686784725    0.0570097211158    0.3298146294518    0.2465799214002 
   0.0720662117439    0.1444397261137    0.3694496163729    0.1406890651357    0.0538220255284 
   0.2343710128595    0.3197790085199    0.0584895408240    0.2104954364856    0.2390054552404 
   0.1724265084190    0.2489805807123    0.2728306661627    0.0458068326622    0.1554720673298 
   0.2243659110895    0.1285546805394    0.2830317284281    0.0420866224031    0.1140476407018 
   0.1241899262643    0.2869953425344    0.1682504900395    0.2319977098965   -0.2109918080573 
   0.2649401248232   -0.1343740503700    0.6141011148426   -0.5916206778841   -0.0600806249197 
   0.0368929715642   -0.1171852181215    0.1058119566545   -0.1244804716892    0.0653019516746 
  -0.2014760620840    0.2758570331989    0.3415687039655    0.8342517196152   -0.1411554799080 
   0.0465770958888   -0.2459727326415    0.6218668766301   -0.1355559260485   -0.0416916598567 
   0.4817356403433    0.1506995342639    0.1528968195824    0.3258528575500    0.2508290102626 
   0.1246841267759   -0.0298654012416   -0.1655175066267   -0.0445103510220    0.1378913901406 
   0.9186842038763    0.3838677548718    0.2589132079561    0.2448213994216    0.4382823872363 
   0.5828123324080    0.3452292426659    0.1384206106791    0.2191933620689    0.2521923463272 
   0.3623500893974    0.0846267195114    0.3173941522788    0.4674381470534    0.2646274894401 
   0.2370191841263    0.0441504483009    0.3031717057936    0.0652400526797    0.2415697736200 
   0.3979398943709    0.1775059730056    0.2412104075531   -0.1750561079535    0.2545048672793 
  -0.0049629902441    0.1991339485469    0.1969514849817    0.1420130157308    0.2351465919230 
   0.3883801543988    1.0256853061100    0.4652303931861    0.2798924202022    0.1894043320863 
   0.4857063988413    0.1760259638020    0.8445930844575   -0.0405419338754    0.7438660452410 
   0.5065809763434    0.1081017359640   -0.1227118842128   -0.7001124385957    0.1998644248542 
   0.8907465903222    0.8467414558612    0.0218850079575   -0.5556464106082   -0.5023482022801 
  -0.8048524492662   -0.2262103454112   -0.0286335820854    0.5317034249534    0.2950154482305 
  -0.4277802406585   -1.4514198879282   -0.7965134164452   -0.3168810530290    0.0277424889919 
  -0.6936075308719   -0.0869962805443    0.9675836465087    0.3373945116609    0.3386765863569 
   0.4473897244513    0.3791352164783    0.4505384787403    0.2494438937004    0.1873445061892 
   0.3820058007531    0.2715143431999    0.2921612183272    0.2980726367953    0.2815413580354 
   0.3816619471598    0.0926567699776    0.0228840320189    0.3585657108221    0.3491048926888 
   0.2598592704793    0.2039241965429    0.2507043977163    0.1323821727623    0.2164206482428 
   0.0267789923757    0.1858017772025    0.0306829949205    0.4236581121690    0.3170968362882 
   0.2662325963991    0.3762301626225    0.4710764437025   -1.4232623914814   -0.3053742378691 
   0.0479323082130   -0.3109666256531   -0.3201641450750   -0.3374455733753   -0.2561646913869 
   0.0696010974636    0.0313567711753    0.0383811450329   -0.8385333583979    0.3371643018565 
  -0.4226354650956   -0.5173667802084    0.0667299295810    0.0056899738478    0.1983567178775 
  -0.3240879008208    0.8624740756912   -0.2539578823892   -0.2741974103469    0.2959496146521 
   0.1649685653912    0.7980780892507    0.6559140271082    0.2885570318909    0.5384738468875 
  -0.2017599502933   -0.2150376987240   -0.2352760995558   -0.4183564268017    0.7855927214486 
   0.0722729040858    0.3736771474927    0.1066875182657    0.3075558672099    0.4688186657887 
   0.3253202434405    0.1777866497460   -0.0068013480016    0.0865468397312    0.3125009661711 
   0.1001544493679    0.3827991517848    0.3163487798747    0.3155894740607    0.2185014336353 
   0.0077356867513    0.2432454925418    0.0061626853780    0.3605599867714    0.4030139575940 
   0.2006949466205    0.2952184361511    0.0560874650210    0.2900245901107    0.2482252183139 
   0.3330482944519    0.3444340841110    0.0995449076018    0.3299718905250    0.3907322852254 
  -0.6883763238945   -0.2405936585869   -0.1929485654604   -0.3958599698157   -0.2555327779059 
  -0.3158646542050   -0.1514957319517   -0.0741686800345   -0.2085907615490   -0.2163855420406 
  -0.2141648950930   -0.3217340797086   -0.2963249072317   -0.2291186751735   -0.0427049757339 
   0.0415141645795   -0.1487202740360   -0.0607976328462   -0.2622442468715   -0.0944034337417 
  -0.2852975880740   -0.0094605121543   -0.3583191247433   -0.0679199391160   -0.3303241017071 
  -0.1753324943172   -0.2365133658754   -0.1450513351863   -0.0673960403548   -0.2708940566199 
  -0.2750637337285   -0.5620809955750   -0.1137915306173   -0.1983394607126    0.3188444686335 
  -0.3258523213492    0.2711992037258    0.3883557531406   -0.0072971656924   -0.1141466623954 
   0.0109623842070    0.2788005963360    0.2684431582468    0.1190991307219    0.0109910865112 
   0.4748235944924   -0.1588409437303    0.3501635926912   -0.2612549584999    0.5029750379133 
  -0.1944719597623   -0.0566012344051    0.1263414551715    0.1512621261663    0.4636607997053 
   0.3674591891531    0.0569614343326    0.1241998634167    0.0491099378644   -0.0634824063622 
  -0.1597085279622   -0.4938914277384    1.1503916105296    0.2839451045276    0.2749038577770 
   0.5708302639971    0.3399724235324    0.5016531893985    0.3749846949015    0.3683817378305 
   0.3625628197232    0.4770983314797    0.4329878448362    0.1944459628781    0.5373461932321 
   0.4373342703135    0.2942680580556    0.2877748873823    0.4292741336343    0.4768996088430 
   0.1267678608936    0.2013644905054    0.1961859168590    0.4514058053423    0.2096073235600 
   0.0403988671016    0.3159565170410    0.3832861214947    0.1555226666292    0.4892031074729 
   0.2369212711859    0.5528056345768    0.3098200261862   -0.2793753442570   -0.0523775759056 
   0.1362737891768    0.1286261220427    0.2074139861234   -0.0768059727701   -0.2148265525887 
  -0.1067913144181    0.1325715528715   -0.0336774059603   -0.2817559955016    0.1747663124606 
  -0.2596535863332    0.0994746733504   -0.2570705263924   -0.1033093876201    0.0422318264989 
  -0.1467159303382   -0.0324197723514   -0.2963197976253   -0.0583761371553    0.1518473435929 
   0.2216029555276    0.1638578080912   -0.1408990541542    0.0700324372246    0.2931982600797 
  -0.1839142093468   -0.1567406337130   -0.2327621700513   -0.0921797832934   -0.2279160253403 
   0.2147737868079    0.0224321543704    0.0897426738364    0.3507350822714    0.0090100308936 
  -0.7184071027034   -0.2166984338483    0.3742816346445   -0.3017367687721   -0.2066457603815 
   0.0635753430666   -0.2908053772458    0.2462386305744    0.1405672851005    0.1339797205940 
  -0.1512471407050    0.4770385003298   -0.1072092260127   -0.0440549259764   -0.1122273853457 
   0.0600456348485    0.4909701466216   -0.3032304535445   -0.4608536585127    0.3885473183846 
   0.0175639691463    0.2493403359903   -0.3380410054003   -0.1058856782627   -0.1652087481992 
  -0.1737268966498   -0.3698103184009   -0.2420027214959   -0.1328202839004   -0.4510076296787 
  -0.1650892484484    0.0425796042643   -0.0259229792505   -0.0188045069638   -0.0970377795006 
   0.0379445037814   -0.0252538296759    0.0168274382728    0.0930833216086   -0.1553840313112 
  -0.1829697806851   -0.0276341036855   -0.1006279168835   -0.0757696583420    0.0488128083820 
   0.0522204989404   -0.1539962907605   -0.0758339452170   -0.1994802261413   -0.1271543819109 
  -0.0465587628667   -0.3427989478183   -0.1844249262806   -0.2290190598601    0.0006047519681 
   0.0781665534524   -0.4892007019702   -0.1854367904714   -0.2749909207393   -0.5017358674213 
  -0.1732001450571   -0.3132994611138   -0.1559905084420   -0.2194038348691   -0.1925056546907 
  -0.1861575695294   -0.2338364711330   -0.3409441859811   -0.1911624310136   -0.3503970723917 
  -0.1387640804577   -0.2961334237934   -0.0374898682400   -0.2574821701206   -0.1490284380872 
  -0.2681695675839   -0.3969670204976   -0.2099573590716   -0.4204545905310   -0.3679977480885 
  -0.2801761368297   -0.1009722739094   -0.2762001044940   -0.2495906800062   -0.4719524543690 
  -0.3273073758078   -0.3782659394078    0.4020808254797   -0.0909950309016    0.3602377414829 
  -0.3328115727425    0.1653448517972   -0.1146968993964   -0.0614960015568    0.1273413013245 
  -0.4727911455079    0.1237488990998    0.2247605350128   -0.0049937972434    0.3908480097404 
  -0.3978487397620   -0.9428156114195   -0.0466554444596   -0.0305917175913   -0.3013932537821 
  -0.1363916271054   -0.0733352644602   -0.3733480663354   -0.3892931633095   -0.0612497593743 
  -0.0752984121593    0.1491383910988   -0.5193003456215    0.0709486915780   -0.0378787994222 
   0.0226444823900   -0.1803217592367    0.1296566802702   -0.3567341985031   -0.3398418315898 
  -0.1079046683257   -0.1584693228060   -0.5820421342294    0.2487688062773   -0.1768043091452 
  -0.5715823093598   -0.3222827973152   -0.1124867333535   -0.3759131694032   -0.0470559744815 
   0.0271644599746   -0.0672575955523   -0.1695601864330   -0.3225372179387   -0.0183282953439 
  -0.3886402167923    0.1718127866604    0.3147220788461    0.3083495351459   -0.2935527930147 
  -0.0311285433118   -0.0519884255638    0.0358487033701    0.0693165734247    0.1120905491652 
  -0.3928873338368   -0.0285583128610    0.1158929346534    0.1867241298968   -0.1229592044480 
  -0.1546409403746    0.3281274842692    0.0886655496885    0.1203583568846    0.1307389019671 
  -0.0650002570987    0.0247704380562   -0.0192833807947   -0.1234645793598   -0.0155663955813 
  -0.0731148966908   -0.3237961201847    0.1522720135626   -0.3549219412754    0.3867712567310 
  -0.6816936108883    0.1946602871582    0.0951391103690    0.0555018021161   -0.4275184301424 
  -0.2025910481634   -0.0857451154529   -0.3090241279167   -0.3365888131546    0.2987528339355 
   0.0616646775699   -0.1911213497171   -0.4556259859671    0.0714768002882    0.1914223946612 
  -0.3404173304262   -0.2514856584261   -0.2438743250215   -0.1603667253977   -0.0878737198836 
  -0.1646686083263    0.1205505465759   -0.1074027470747   -0.0413575745271   -0.2923670421402 
  -0.1341925505020   -0.0478633167707   -0.3036500553089   -0.0177381219043   -0.2023013950755 
  -0.2924635641015   -0.2964335441182   -0.2185665896221   -0.2621678483990   -0.0516206819112 
  -0.1670575620412   -0.3081909852807   -0.3889250512526   -0.2546466664386   -0.0999127663787 
  -0.2957176780844   -0.1022429260261    0.0664967765215   -0.2502231582265   -0.0422102348498 
   0.0200580735904   -0.3226740405440   -0.0374602199443    0.2395271049876    0.3294824716017 
  -0.2747289669209    0.9748152404919    0.1623904895843    0.2274263277803   -0.2151729101243 
  -0.3727094264586    0.6945557866147   -0.3462774244239    0.2773696496924   -0.2248397622577 
  -0.1107269131459   -0.2692108378884    0.3450039344538   -0.1301013980716    0.1813196684461 
  -0.0388176837085    0.2074028413585    0.0938385675312    0.4208822221747    0.1832254588409 
  -0.1632302014645    0.3205543663358    0.0309396103133    0.1121211456436   -0.1505998982844 
  -0.0606562839483   -0.0308905250710    0.2558352964210   -0.4307988779659   -0.5654807430744 
  -0.3876476710707    0.1289924634327    0.3222040160665    0.4553565080514    0.2033566219949 
  -0.2520281478257   -0.3485178568849    0.3981973769797   -0.0536626591992    0.0074612980506 
   0.4467428877966   -0.5094721917273   -0.6204260070160   -0.4003359742771    0.1298187290081 
   0.2270273688761    0.7603685739860   -0.1317196179724   -0.2068191445086   -0.5041121408871 
  -0.2401742970289   -0.0443994007177   -0.1690656976793   -0.0000739364624   -0.1093960036077 
   0.0205052383886   -0.3535731580019   -0.0376511831117    1.4899669539698    0.4954717914153 
   0.2663307906335    0.3533093709330    0.4376102620436    0.7244596030430    0.2775183055017 
   0.5002202121207    0.3793745627513    0.6008391664497    0.6092437693659    0.3595098789941 
   0.8225489906956    0.7816941360013    0.4200602223625    0.3556523588984    0.4694063463503 
   0.6684599462537    0.2790756850661    0.6091231802086    0.5950522075480    0.1683956576023 
   0.3753586170137   -0.0039943885564    0.4606037361994    0.2226369725818    0.1968475814835 
   0.5566912120442    0.3151067697402    0.6618171196753    0.4698047955369    0.1968985942748 
   0.2875464832863    0.0974915314053    0.0848051833071    0.1759692477290    0.1765166649491 
  -0.0102891193858    0.3256273700865    0.0900802350004    0.1637613659108    0.1181219775152 
   0.1832706343467    0.3080847946678    0.0693479182473    0.1156900675871   -0.0264195572467 
   0.1937002122100    0.1334389978939    0.3950759013785    0.0313252146085   -0.0324642728351 
   0.4011446752646    0.1856162635040    0.3857394649411    0.1432055356676    0.1471676585718 
   0.2071867299077    0.1210423770842   -0.0043830326983    0.1184102232672   -0.1638569074319 
  -1.0026457074037   -0.1062638821056   -0.3187329461832    0.0011669257482    0.0197780066295 
  -0.2846384223184   -0.0778879045112    0.3180598131599    0.0812403734265   -0.2567363698370 
   0.0307145553680   -0.1921713389654   -0.0802067104373   -0.3713002779403    0.4790735041633 
  -0.3436175513003    0.1681875903590    0.0027343884389   -0.2016826012877    0.0980578145688 
  -0.0000578926105    0.2600367708191   -0.1092570978663    0.0484717601536   -0.1164592499381 
  -0.1470324423745    0.0537585206166   -0.2547942938193   -0.1667944510950   -0.6193754435850 
   0.2678049460713   -1.2794551836268    0.1189246301859   -0.5346215924175   -0.2842458465704 
   0.0899083471143   -0.3177799492177   -0.3519775803246    0.3934478993131    0.4638548501156 
  -0.4312619678310   -0.1430636726686   -0.1403142130109    0.1257149704577   -0.2295536707223 
   0.2452011450715   -0.4745955370542    0.1756018991942    0.0539708938929   -0.1816273969664 
   0.0961091231428    0.0717298253215    0.1350431326622   -0.1464695526133   -0.1895219055484 
   0.2366432806652   -0.0608339489393    0.3075476111276   -0.3196977294796   -0.0624076664625 
  -0.7616160147437    0.2622367502903   -1.0278824688009   -0.1004416240965   -0.5503021539642 
  -0.2721124702748    0.0511837917757   -0.1047994105037   -0.3761705637958    0.1894025628855 
   0.2734185258671   -0.3272394054039    0.1305756333932   -0.1251621895296   -0.1550792586461 
  -0.3952316357230    0.2414680289861   -0.3371384302338    0.2697899353270    0.0591132950689 
  -0.1757682194278    0.2697967031144   -0.0302976124651    0.1128960007353   -0.2349001880570 
  -0.2527374564065    0.2496794855916   -0.0484766257114    0.1666611352380   -0.4893822278852 
  -0.1285025090588   -0.5463800238751    0.0864172530592    0.0283213236853    0.2321884630961 
   0.0572264846427    0.0084107271050    0.0950360445694   -0.1157577762035    0.1032204215038 
   0.3653663557257    0.3055219481431   -0.1416986924806   -0.4334185465224    0.0640441624505 
   0.4068546712021   -0.1349739375918    0.4451607338727   -0.3156147542102    0.2249018623170 
   0.0602972060576   -0.1632400086631    0.2505614359575    0.1920003943011    0.0488483104535 
   0.1325017449000    0.1629315182855   -0.1008246526445    0.2914943056272    0.1834195289310 
  -0.2193969128208   -0.1425734094375   -0.1608625597377   -0.1845548995003   -0.4392956162465 
   0.0135006862203   -0.1449533665457    0.0035076592603   -0.0030738321605    0.0015957559078 
  -0.1666610499691    0.3137369775293    0.1148697930220   -0.2556835161974    0.1376285832692 
  -0.0821468442623    0.0659517238495   -0.1999723436558    0.1474365705594   -0.2651620071201 
   0.2282462622805    0.0684175946757   -0.0854726748150   -0.0595502319770    0.1251826378711 
   0.1609368891299   -0.0884340062545   -0.0592695317430    0.0045755163920    0.0318883154042 
   0.0878891112553   -0.0997603068196   -0.0511650507613   -0.1650709172472    0.1336150106457 
  -0.6213766492919    0.0592971929162   -0.1783281546177   -0.2341703654288   -0.0108364258487 
  -0.1123945214415   -0.1262438033930    0.3672169774214    0.1223038676901   -0.0876224823422 
  -0.2490238849661   -0.0802835016867    0.6389633379711   -0.1518598182698    0.3094833076881 
  -0.3371675005951    0.1334609448379   -0.0546056103104    0.0285135623444    0.1350167409354 
   0.0927223660884   -0.0787955825825   -0.0335479756853    0.3827543250040   -0.1298615097923 
   0.2771299496055    0.1871836328742   -0.2863565832416   -0.0637921327052   -0.2313865157046 
   0.2120976860972   -0.2294383278551   -0.2696698065597   -0.1730743904036    0.2038067655658 
  -0.2999267883700   -0.0030567581981   -0.0281090621459    0.0245020227720    0.0031953330930 
   0.1406688882551    0.3883229913161   -0.0569361997666   -0.2818404750584    0.0374194059454 
  -0.0912765350868   -0.1212545067445   -0.2554855280507    0.0024280812583    0.0503051677466 
   0.0552326231847   -0.0476908807818    0.1906693941322   -0.2940408913704   -0.4521507437759 
  -0.0671738764592   -0.0367379264671   -0.2730128118645    0.2157871222065   -0.0011483274209 
   0.1057112073433    0.1629964373655   -0.9310661763924    0.0183001835436    0.0507630206320 
  -0.4176421899491   -0.1083114546985   -0.1847134358053   -0.2662246063925   -0.1884097010124 
   0.2851103643490   -0.3399955422410    0.2448526473453   -0.0367517097073   -0.6835282068359 
  -0.2921583776174    0.3313750490337   -0.2215570014823   -0.0613369881411    0.2660855469502 
  -0.5477856346708   -0.0992873368620   -0.2341911143136    0.1347646676793    0.2524628691681 
  -0.3835754441084    0.2696040686737   -0.1727417158054   -0.0182179842269    0.3720336660862 
   0.2714278261961   -0.4705678676087    0.0565926569760    1.0352135150692   -0.1750233665757 
   0.4842712375518    0.2769317008226   -0.0147099912910    0.3058645313948    0.6226933697402 
  -0.1850672864857   -0.5875611156249    0.3527748080822    0.1846767172202    0.3144682937294 
   0.1544954014556    0.6859709574591   -0.3928123744657    0.5546443235996   -0.2730337660219 
  -0.0812980815990    0.6886526473479   -0.0389264346365   -0.1278674569968   -0.3750074876687 
  -0.3411001846721   -0.0077903070457   -0.1764199091687    0.1049892748214   -0.3723466875845 
   0.3449935176630    0.1416609176739    0.8166541609601   -0.0613348417299   -1.2683539468360 
   0.1299790174112   -0.3978639076667   -0.2854956007268    0.0364046849005   -0.3273417973093 
  -0.3744040126095    0.3109513277393    0.2005073602601   -0.3835200839450    0.1581563497171 
  -0.1871320859116    0.2227969468638   -0.2884768940237    0.2472513393624   -0.5354770541963 
   0.2023843410938   -0.0438821000175   -0.2712881413388    0.0836578985052   -0.1009695385632 
   0.2896617367166   -0.1050329412711   -0.0758162737961    0.0283790879017   -0.1465710620845 
   0.0395485552948   -0.3072341177788   -0.0792529056906   -0.7828396187489    0.2215288231420 
   1.0325480969797    0.1271618822872    0.5049700330743    0.2196638759106    0.0440174567135 
   0.2490014185574    0.1421029960225   -0.0908911111727   -0.3441931083228    0.0110458020778 
  -0.2032101367039   -0.0178612971258    0.0922433041123    0.0692580802099   -0.3126103888271 
   0.3782804801167   -0.0811102281746    0.0937406383297    0.3383188454475   -0.0247415465365 
   0.1217313768781   -0.0808191312274    0.0471895014285    0.1502888976719   -0.2941960570905 
   0.0880069421281   -0.0814809083314    0.2105832898354   -0.0317051352741    0.3956375178072 
  -0.0397196788943   -0.0548385060874    0.1747399947503   -0.3141614205483    0.3962802767865 
  -0.1564626037429    0.1811872042805    0.3360387429946    0.2021848906878   -0.0414872590200 
  -0.1728554258396   -0.5445591183356    0.0803867401349    0.3912126603234    0.0803592900300 
   0.2870446735810   -0.1009157216274   -0.1247408936017   -0.4790575050078    0.3876349125334 
   0.3916155628596    0.4103576344054   -0.2017406203021   -0.5071499671808    0.9687505452240 
  -0.6046513841190    0.4134472623699    0.0103277325156   -1.1737952202070   -0.4960322011955 
  -0.0325204227973    0.3955751842820    0.3877580721619   -0.0838086109506    0.3468240284849 
  -0.1273944515697    0.1447988206236    0.0962859003582    0.1281144234035   -0.4557040752666 
  -0.2813913195647    0.1167741270645    0.2447188226584   -0.0348041640980   -0.3858334516637 
  -0.0302373155063   -0.0843757821833    0.2207128252659   -0.1323700252032    0.1962467127798 
  -0.2476489408370   -0.0180006338763    0.1208598015960   -0.1226016311837    0.2641996233495 
  -0.3228540397961    0.1163807650472   -0.2235436231550   -0.1649752894631    0.2760173053033 
  -0.2379196552242    0.2750631582706    0.0343234937416    0.6854214055525   -0.1279025285266 
   0.2267362619380    0.0890362834412   -0.1348563222258    0.3473834133966    0.4418883395005 
  -0.2147822976350   -0.4626565625487    0.0643879064547    0.1525375426793    0.3284318687646 
   0.1382985948202    0.4570629412395   -0.2419771540638    0.2581857445629   -0.0163109673229 
   0.1167359567339    0.5260373780256   -0.2014478049614    0.0480410029793   -0.0662898624776 
  -0.2291910025919    0.1808369985675   -0.1115437888794   -0.0056890446329    0.0600485748620 
  -0.0333834974570    0.0489279368166    0.4907764532924    0.0740004464882   -0.5715337729048 
   0.0517791453037   -0.2838152096395   -0.1704870507024    0.0165444625850   -0.0379566290273 
   0.0674870994828   -0.0109691921211   -0.1068056997602   -0.0768620826838    0.2936334192678 
  -0.0348214244090   -0.2038812431991    0.0024643291690    0.1992387446397   -0.2169827530920 
  -0.1717857468770    0.1483006391106   -0.1241021857308    0.1821150056511   -0.1845747210273 
   0.2048077855162   -0.1636029443655   -0.1101453151445    0.1056957733262   -0.2324967941533 
   0.0965108288042   -0.1546478100029    0.0793252191077   -0.2806430738239    0.2622720297580 
   0.2185306742950   -0.3495102021186    0.2884993043738    0.0035615571779    0.1070349444832 
   0.4192499091575    0.1430310032228   -0.5497822396279   -0.0728418326341    0.2197428551202 
   0.3962775495701    0.0548376799322   -1.2228955723635   -0.0620920543376   -0.4075647041513 
   0.5263754503090   -0.4527828001546    0.2845406895332   -0.1203870739301   -0.0920014904015 
  -0.3565171731520    0.0356082465605    0.2773094636961   -0.3860028853751    0.5295262009805 
  -0.2667705800149   -0.3505793963027    0.5942928630761    0.2078441500253    0.3034213163602 
   0.2175225484218   -1.2219518482677    0.1399162860964   -0.5004567944755   -0.1708454876467 
   0.0139119772935   -0.1311862924334   -0.0379108626326    0.1718012208063    0.0428525730894 
  -0.3796894738699    0.0354282640501    0.1654416274455   -0.1747696793559   -0.0746838840841 
   0.2723032434382   -0.3754071012922    0.2245090098167    0.1524591369417   -0.1050282879301 
   0.0605770809503   -0.1391046737942    0.1280437384824   -0.1254774702095   -0.2825992987275 
  -0.0323495500779   -0.0311610289767   -0.0159292498768   -0.2191376542822    0.1527729108716 
  -0.4553865025193    0.2532053899752    1.1110128988366   -0.0837949791567    0.3624498067729 
   0.1729365327876   -0.1246527373586    0.1925485373276    0.2315862833992   -0.2806341912477 
  -0.4286446671628    0.1015622235351    0.1334649288569    0.1485806650506   -0.1679639983659 
   0.3389602126964   -0.3350325435232    0.3465309805967   -0.1762373002084   -0.0867198305725 
   0.1834025128234   -0.0755649905815   -0.1108052727926   -0.2489202039529    0.1049746395958 
   0.1320308519645   -0.1821755162905   -0.0222218415916   -0.1164699061442    0.1927913289170 
  -0.0544377264489    0.7263323420342   -0.1363883227337   -0.2257443092286    0.4885825670035 
  -0.2892233274383   -0.3334317184114    0.1390331844731   -0.5649174131064   -0.1768697024007 
   0.6335293666793    0.5029475358853   -0.4794530535793   -0.5297261919592   -0.1606456918566 
   0.9648103281609   -0.1986441738522    0.7871993989647   -0.4427700430695    0.6537746280337 
  -0.1289445151246    0.0328194103852    0.3882351542359    0.3683547659520   -0.3675284907980 
   0.0475272783905    0.7726349824756   -0.7421282513642    0.4098712260667    0.4475996648867 
  -0.5083625944982   -0.4148173003253   -0.3742816037499   -0.3103572010730    0.3889508559387 
   0.4519422318892    0.1323823212907   -0.0263059812791    0.1417204210136   -0.2589998673828 
   0.2778539667979    0.5916943468414    0.2798330161736   -0.4897560463650   -0.6894956773415 
  -0.0739964889866    1.2036068341734    0.0713329514387    0.4124462021106   -0.3098055357334 
   0.6279482347278   -0.2108653490862    0.2290831302658    0.0643192339007    0.2203178933487 
  -0.2060179299667   -0.1693170403303    0.8019477665195   -0.6893683432053    0.4789340887199 
   0.4930032628706   -0.7979892086444   -0.3228433182633   -0.2277881132809   -0.4379661359526 
  -0.9271090660527    0.0480963661804   -0.3130389623635    0.0181093664357   -0.0976306189018 
  -0.1617753389267   -0.0314214791258    0.3273858510965    0.1879654331378   -0.2804166539935 
   0.0601308496663    0.1191020486089    0.0032545265184   -0.3478724512787    0.2279409238530 
  -0.4472362511980    0.2072362975284    0.2154946508336   -0.2126640371038    0.2760438284192 
   0.0788173698079    0.2756088235457   -0.1013026027152    0.0054077717092    0.1810132475022 
  -0.0322755484607   -0.0649985913561   -0.2431001657488    0.0323416446193   -0.4881069816741 
   0.2829208573414    0.3603964815122   -0.0636011995947    0.0301669176954   -0.1310189966052 
  -0.1867398054564    0.1241784794759    0.0816274479783   -0.2226119148109   -0.2423195851547 
   0.2863210533567    0.2411357366718   -0.0249340470841   -0.3378507988010    0.1240001286641 
  -0.1381906378787    0.1819634845408   -0.2723966764122    0.1299915242824   -0.1147382199607 
   0.0756844571786   -0.1333251106221   -0.1068879103141    0.0705184135599   -0.1004052051175 
   0.0366727030355   -0.2309275569953   -0.0276115089742    0.2845419531053   -0.0279017038927 
   0.2634452566607   -0.0425143385427    0.9821965427525    0.0535657700412   -0.0231315310650 
   0.3804361366131   -0.4027052745562    0.1246398527026    0.4039090540582   -0.1028882852583 
  -0.5084540001522    0.2218867542503   -0.1209073695933    0.3797905468707    0.6149317226850 
   0.4609629847694   -0.0089045307520    0.3934459613792    0.0154655310663   -0.0630375669452 
   0.6818238102283   -0.0130770991564    0.1966779288333   -0.3832489887888   -0.3651724817940 
   0.2886638964654   -0.4974454400970    0.0372149846795   -0.0743740319478   -0.0595329413461 
  -0.1166574059908    0.5035866948607    0.0419987131388   -0.8500625987912    0.0711745415742 
  -0.3445727369778   -0.0473061843692   -0.0964326511520   -0.2442138787431   -0.3902977517897 
   0.0475399724905    0.2195174681491   -0.0202411306412    0.1016624399704   -0.2135702919391 
  -0.2026965270176   -0.1371938735432    0.2391575763139   -0.1872416639936    0.1281607379285 
   0.2895776240329   -0.3512924525238   -0.0358941143637    0.0016651268881    0.0964504992106 
  -0.1468083821202   -0.3080674957764    0.2334286254840   -0.3006244482130    0.2056719320385 
  -0.2568762766407    0.1065130022839   -0.4704366298713    0.2647665130210    0.2649633674721 
  -0.2355315372107    0.0492831383216   -0.0938268235850   -0.1262916119493    0.1666367540803 
   0.0600575652563   -0.2685867328477    0.0328429713745    0.1479637684997    0.1533673472576 
  -0.1160787718383   -0.2619677652743   -0.1063267829066    0.0951675001283   -0.0313181729938 
  -0.2389151538588   -0.1295701240367   -0.0315158531926   -0.0276469420206    0.0606501339252 
  -0.1422884673985   -0.0536565375319   -0.2525399496575   -0.1383398411159   -0.0691744153727 
   0.1273016901219    0.2545564200047   -0.3516061260500    0.1388715992964    0.1243401339976 
   1.1848820586778   -0.0304792150747    0.4687925198176    0.2164491692766    0.1995533204569 
   0.2204321779467    0.4065287309255   -0.4536977064819   -0.3824481557925    0.2758929553993 
   0.0510554503546    0.1166870893587   -0.0682174495724    0.1421933825922   -0.5541019162589 
   0.3991727665107   -0.2151164713424   -0.2392932200073    0.2659375127847   -0.0226257801630 
   0.0474574900629   -0.1361810033049    0.0868672842222    0.1482891517555   -0.0107768376390 
   0.0953323184234   -0.2448608591717    0.6063412252508    0.1685711917591    0.8063041400723 
  -0.1259966072958   -0.7273473754811   -0.1551260283623   -0.4168289460970   -0.1240034618896 
   0.0546527490481   -0.1350282703210   -0.2068260344498    0.2849074895614    0.3553878443415 
  -0.3619578207939    0.2445994666220   -0.2372536456816   -0.3076008634630   -0.2999013945336 
   0.2984600274322   -0.2343122209227    0.1742795993307    0.2394144610163   -0.1966633647809 
  -0.1434646535064    0.0208718402565    0.1896445064885   -0.0782092806497    0.0262426565004 
   0.1546283796632   -0.0665459203481    0.0896911024515   -0.0757401815680    0.0894186989023 
  -0.4371249701845   -0.0581395690775   -1.1316310084801    0.2252793804738   -0.5845731692461 
  -0.3359311093101   -0.0579797855981   -0.3011648930577   -0.5027421086784    0.2252308557473 
   0.5399572480085   -0.4813545024947    0.1500629882570   -0.2744976416521    0.2417161315974 
  -0.4573861964435    0.5324022132667   -0.6741480147541    0.2358354804342   -0.0124118910963 
  -0.2350632166143    0.2258769201991    0.1779951093371    0.0445572218477   -0.0386221681923 
  -0.1442979233215   -0.0320479898211    0.0369219162729    0.0594846820643   -0.5171545150050 
   0.0337023371859   -0.7379134480806    0.0098611127502   -1.4434426000192   -0.0174493115547 
  -0.7054595762695   -0.3334514198840    0.1114284799670   -0.4616322692500   -0.5489236938084 
   0.1771410501659    0.3892311741439   -0.5614918142122    0.0639681166961   -0.3434184463026 
   0.0704439161710   -0.4999242615673    0.4833525930585   -0.4873085818102    0.1357732790771 
   0.0797306254584   -0.4070436299454    0.2892047440076    0.1530482568363    0.0235390325954 
   0.0186229203817    0.0623012681438    0.3100342756963    0.0815078186356    0.3190611036464 
  -0.4711285179131    0.0477591762977   -0.9297568376420    0.1552056990632    0.1823874085274 
  -0.3189264398902    0.3011382704852   -0.1363904143033   -0.2525595436020   -0.0261259667149 
  -0.0953420334953   -0.2371437045946   -0.1995164164887   -0.0983902399198    0.3351970926644 
  -0.1152175327978   -0.5822139503265   -0.1116653120101    0.2838488050085    0.0850565182651 
  -0.1359683129704    0.1610509179890    0.0051558649972   -0.2023135341390   -0.6615463907625 
   0.1793704288489    0.1049047588289   -0.2667847201503    0.6107385185400   -0.6703909110255 
  -0.1396432596711    0.2860298239584    0.3964474585802   -0.0147442194489   -0.3081411135640 
  -6.3660020134868   -0.0938179352280    1.7548220544754    0.7840325229461   -0.3966772427035 
  -0.6233763769700   -0.8228856159705    0.6093811956974    1.5067130930827   -1.4037122931189 
   1.3160512303289   -0.5004917472123   -1.8345145757839    1.4448534649370   -0.4785311816877 
   0.1208559698774    1.0042128484569    0.0677097280636   -0.3521839344712   -1.8590578102131 
  -1.9573888204982   -0.1352906748193    1.2877437796827   -2.0870252574102    0.1237467859194 
   1.0088960367701   -0.5669999223344    0.5394159292508    0.7675512627597    2.2288844878869 
   1.4036905032021 

