# Neural networks weights generated in PyXtal_FF 
# total_species nparams 
1 541 

# NET ndescriptors nlayers activation_func for layer 1, number of nodes for layer 1, ..., ..., ...., 
NET 30 3 tanh 12 tanh 12 linear 1 

# Scale0 
    74.1889045269710      0.0000000000000      0.0000000000000      1.7363912465488      1.0034490362162 
  -232.9853663298454    -24.0028270463451    -16.9216547454564    -19.2894563264785    -25.2164053962900 
     0.0000000143797      0.0000000000000      0.0000000000000      0.0937990755039      0.0137486109283 
  -125.4895703759053    -23.5979183541608    -24.9485971069069    -40.4816130527830    -32.4658384549095 
   -11.7779922100124    -12.9425255273739    -13.9350385172506    -19.4514232146081    -13.2799520337007 
     0.0002718294029      0.0000000000000      0.0000000000000      0.0067794884734      0.0389976272967 

# Scale1 
   822.4684979376452    108.3039524641969    111.3255949631240    182.1431198257511    159.0941866436310 
   312.5047240591913     67.7061547338490     66.1152842811577     92.0121839975993     67.8840530765752 
    99.5270151067600     42.7975967681139     56.6932995071894     53.7141935850101     27.0182068001609 
   130.6957198617751     25.5265053572204     25.9248322764778     40.9864060734685     32.8425506373231 
    29.0297028934516     15.4003334922208     14.9510639355989     20.7919126093484     14.9985097264441 
    17.5623247987454      5.9994981022201      6.5974551941048      8.9918196817734      7.4992974832201 

# Coefficients (Si)
  -0.0212255773708    0.0212091246508    0.0887812810151   -0.1735805185301    0.0622109792354 
  -0.1070004537215   -0.1101085102144   -0.1756024935374    0.0081249185364   -0.1024298117409 
  -0.1909318570201   -0.0420271923039   -0.2121599274183    0.0379588922076   -0.0417677828233 
   0.0197366208971   -0.1568354808915    0.0451752284561   -0.0492911431605   -0.0682899038755 
  -0.2554093005409    0.1667325252673   -0.1426897489840    0.1322157105335   -0.1045291719850 
  -0.0330048583175    0.1598579569395    0.1874426455650   -0.1054176801581   -0.0394954980131 
   0.1307007021770   -0.1731693561790   -0.2426541063233   -0.2192365564782   -0.0461549367401 
   0.1822525172751   -0.0417444560221   -0.1691810145935   -0.2046586580737    0.0126010985776 
  -0.1816677982245   -0.1564162824380   -0.2313719548122    0.0668245133342   -0.0494231604495 
  -0.1852007406039   -0.3869784460519   -0.3556538028616   -0.1713490010638   -0.1218160524969 
  -0.2594102825976   -0.2076861428040   -0.1282168143513   -0.2209536555054   -0.1942749166073 
  -0.1390313572267   -0.0088212814494   -0.0159848465261   -0.0179854534543   -0.2401338013905 
   0.0590175528743   -0.1553302605853   -0.1699814340795   -0.0372962861563    0.1032256023762 
  -0.0063810123521   -0.1848726968435   -0.0286512042144    0.0263852051203   -0.0628517698381 
   0.0379793190897   -0.1426727515994   -0.0543649910105    0.1090900434053    0.1984958692123 
  -0.0414114795734    0.1678448377377   -0.0327287796121    0.0013080916798    0.0581610530199 
   0.0740020290120    0.0638622377703   -0.1996448428837   -0.2411992533855   -0.2139159019975 
  -0.1853939664806    0.0636937496638   -0.2191045754110   -0.2168867476864   -0.0478397590387 
   0.0041766942510   -0.1091778918179    0.0541192975737   -0.1306917539618   -0.6727301062650 
   0.0079758696426   -0.0566347649681   -0.4575580106111   -0.1826082879732    0.6597200004005 
   0.1550235714457    0.0909893853212    0.1042480708745    0.2318172236470   -0.3367008389898 
  -0.1500037712756    0.0120441790254    0.6360613369328   -0.1793906781422    0.6265300069492 
  -0.1190851191861   -0.0421228353696   -0.0910443253898    0.0346104659853   -0.5385632260629 
   0.2069376346347    0.3026505234156    0.0157551133894   -0.1148218358791   -0.7304414079455 
   0.1065628102741    0.2389247608292   -0.1183470007418   -0.2588935606768    0.1568133075404 
   1.1651073623865    0.3192147030090   -0.1083574250350   -1.2934645373896   -0.8833090312766 
   0.2660821956606   -0.1488301770867   -0.2042591966156    0.8169205533598    0.2642468169336 
   0.4518368066810    0.2028577042551   -0.3157813242026   -0.3563921488651    0.0844870484552 
  -0.3880332518152   -0.2118072332444   -0.0320277418256    0.2076520280834    0.7751752530357 
   0.1542051612578    0.7546101891840    0.2606709216567    0.5170324068485   -0.1430450292602 
   0.3107923217737    0.4308064606320    1.0107578609712   -0.0682144365830    0.6750195528004 
   0.4329120201578    0.7053573423611   -0.1666240419538   -0.1881584819742    0.3171197737474 
  -0.0200077194471   -0.6124802585032    0.0304022007312    0.2391782303992   -0.0516048697959 
  -0.1867345467656    0.4013352178724   -0.0463548889745   -0.2008125137683   -0.1336257164513 
   0.2239320927853   -0.2570955909910   -0.1491485997055    0.2132040648450    0.2786487846984 
  -0.1168864548380    0.9570403537760   -0.0984075921552   -0.0478358041368   -0.0403371903835 
   0.3732193083718    0.8802603825236    0.3525770599744    0.3208263329265    0.3531917906880 
   0.2675665959417   -0.1063230793226   -0.2544712040635    0.0479931814855   -0.0796627231640 
  -0.2246203430246   -0.1101714823812   -0.0373582603561   -0.0089730592273   -0.1356222829279 
  -0.0969608878652   -0.2088582636761   -0.0729896226260    0.0328500239327   -0.0888043720301 
   0.0885197561952   -0.0640037184952   -0.0648576442215   -0.0277808877711   -0.1227361895766 
  -0.1110060075572   -0.0683440656094   -0.3731647255569   -0.0096979164384    0.0133139351472 
  -0.1736705619620   -0.0222807724584   -0.2448311914118   -0.0438569703078    0.0384477967086 
   0.0290063000594   -0.0955587333914   -0.0483910249191    0.6699590100426   -0.3215525450120 
  -0.3263915690997   -0.1341889487222   -0.0027495942119    0.0190657592773    0.2022601792079 
   0.2049649831045   -0.1650756974723   -0.1380104164427   -0.0582872120792    0.0703602994745 
  -0.0320382369484    0.0434234764292    0.2649530070674   -0.4535827394588   -0.0602473210818 
   0.3710834776602   -0.0224846757172    0.0885977151792    0.1883632244270   -0.1565991214340 
  -0.1177587815864    0.4560847467697   -0.1648367811720    0.5024913924667    0.1315616733760 
  -0.0151400273107    0.0342099940115   -0.0287468228551   -0.4345193513244    0.3673748175061 
  -0.2892724096697   -0.3877654446271   -0.0051763534560    0.2620764479385    0.3378882607072 
   0.2226260455349    0.0137124553468    0.0745708649429   -0.0160760293048   -0.3011819260368 
   0.0967886516352    0.2831455189642    0.4653598508399    0.1937189684810   -0.1696522889454 
  -0.1548095054651    0.1536472988777   -0.4011852350708    0.0547887952227   -0.5059930304026 
   0.2587136284479    0.2520197527222    0.3455172978811   -0.1739489462763   -0.1789457473751 
   0.0515645789996    0.0120774111694   -0.2975246420325   -0.5194412172840   -0.0677078362211 
   0.0609006291564   -0.2858761368816   -0.0495716029093    0.8433373527681    0.0408832513914 
  -0.1212408982939   -0.1140390512943   -0.0244147454348   -0.0172559820420   -0.5086870645542 
  -0.0157516549369   -0.1900809870794    0.3529201356339   -0.1507072118389    0.0598008404033 
  -0.1139983397513   -0.0454597077690    0.0235567501241   -0.4457652187704   -0.3039437511196 
   0.0230198620489   -0.0309359689436   -0.1304068705263   -0.2223515352800    0.3111519132931 
  -0.0758286678308   -0.0126112079249   -0.3234004009400    0.1750618297671    0.0328181716106 
   0.4533317046547    0.1107903230506   -0.0196078378389    0.1628772326888    0.0836642659557 
   0.2230336792940    0.0596168231686    0.2163835968358    0.1222878993381    0.2653537370318 
   0.1515637651043    0.1524712745022    0.0412013841487   -0.0461347727350    0.1008602424947 
  -0.1344020177332    0.2502096738858    0.2932465609947    0.2513474785124    0.2334378705426 
   0.1998350094743    0.1908023241521    0.1227162919662    0.2570495870729    0.0410435053426 
   0.2402314182812    0.0235406488901    0.0902184849687    0.0756211800272    0.1064368890390 
  -0.0111452560673    0.6857934620758   -0.1803436231190    0.6635411362767    0.4964016915846 
  -0.1680413001932   -0.1779927979299   -0.4056989813858   -0.1640779945356   -0.2803843163283 
  -0.2658647157006    0.1456648750903    0.1706233889589   -0.1147158826653   -0.2975712220243 
  -0.1634947714761    0.2714412150060    0.3568514376270    0.0127724666070    0.1330379946775 
   0.8750548268618    0.3406387113128    0.6064884408736   -0.7164175302847   -0.0069318924945 
  -0.2084227479793   -0.1378704257120    0.5539930391074   -0.0366960664779   -0.0180040100742 
   0.4660055556971    0.3906570328427   -0.0062480809851    0.1889802909544    0.0580711946027 
   0.1743072647779    0.2412069767092   -0.1109517560333    0.1608399357933    0.1225436605371 
  -0.0727740182530    0.1077921643081    0.1323360203126   -0.2437752324578    0.1306003267250 
  -0.4926544448477   -0.1139602224187    0.2665108533745    0.0590414035697    0.2332081326366 
   0.7763378744344   -0.5132423559895   -0.0435867529739   -0.3587627056152   -0.0546151031670 
  -0.5486965150786   -0.1762934424497    0.2080749701879    0.1645952044992    0.0328934414447 
  -0.1229208560010    0.0918893463903    0.1148682392340   -0.2837040927118   -0.1457043983148 
   0.1900480819248    0.0087719535591    0.1424006762312   -0.1909792487242   -0.0973463863791 
  -0.0193285772625    0.1806250668529   -0.0054382981404   -0.0073139060614   -0.1433362201344 
   0.3060525363532   -0.3041171449679    0.1686007136841   -0.0269306102309   -0.3124947101423 
  -0.2296718346256    0.2355168867380   -0.0786469850387    0.2950592748494   -0.4231552555235 
  -0.0526224652199   -0.0884258573300    0.2893797957798    0.2766808642815    0.2595566645869 
  -0.3429315382633    0.1148757577943   -0.4743499688137   -0.1893036065180   -0.1420109447130 
  -0.2192816192245   -0.0074815312787   -0.3692741929247   -0.3381075238117   -0.0179988514782 
   0.2966003307712   -0.0873679759680    0.1983481746969   -0.2621605087511   -0.1511216241802 
   0.0821666544280    0.2833114526604    0.0734631701388   -0.2667591700267   -0.0549758066561 
  -0.0370884955973    0.0482152937164    0.0529069571168    0.0640681040706    0.0982271260543 
  -0.4350210311260    0.1243342536871   -0.1397825042267   -0.1558394033229   -0.2031846940320 
   0.1488338811005    0.1211881161069    0.3528884017396    0.4221841422981   -0.0246157087154 
  -0.0773526870560   -0.0276499135151   -0.3363303071241   -0.2820948882846    0.2497793520318 
  -0.1452691184286    0.1517768318733   -0.3883681947591   -0.1505304129646    0.0891011768284 
   0.2343684850073   -0.2407512235893   -0.1856727271229    0.0169914524257   -0.0777367414740 
  -0.0003927764731    0.1227080914891   -0.2430137136429   -0.3638926537183    0.3749117011544 
   0.5600954183469    0.3657076744698   -0.3014883952143   -0.6344469864927   -0.1094898928334 
  -0.3903548279469    0.0970221449643    0.0359457409584    0.1555846120442    0.4256658538534 
  -0.3237848317004   -0.1980297237599    0.0192503489004    0.0452751975995   -0.1209894389659 
  -0.1885937294125   -0.1940839990350    0.3517789705567   -0.1029368332967    0.0866574237906 
  -0.0809731532197   -0.2194765323210   -0.4380645039447    0.4229914424164   -0.1451856395854 
   0.3776287625347   -0.1067018762164    0.2015729850334    0.2614786429983   -0.0669985574661 
  -0.2418231578046    0.1969671264470   -0.0342226345049    0.2191796475019   -0.4821506230447 
   0.2420879120859    0.3103999765106    0.1236667568239    0.6077471617270    0.2643551555634 
  -0.3301100729909   -0.2172648478369    0.0770761399437   -1.7441280035487   -0.0959339399927 
   1.0533427358452   -0.0959542813012   -0.6722289851550    0.7403751249441    0.6722409087024 
  -0.4239191983965   -0.8912243319753    1.0543325167604    0.7668280664618   -0.6499344439720 
   0.6072570538216 

