# Neural networks weights generated in PyXtal_FF 
# total_species nparams 
1 785 

# NET ndescriptors nlayers activation_func for layer 1, number of nodes for layer 1, ..., ..., ...., 
NET 30 3 tanh 16 tanh 16 linear 1 

# Scale0 
   882.1455698558184      0.0000000000000      0.0000000000000      5.8841777702371      5.7517799958383 
 -3238.9045671946642   -251.4215568867158   -178.2481266736228   -179.1034402268287   -221.9598950116207 
    90.0327111887464      0.0000000000000      0.0000000000000      1.0415952549641      2.1678474306880 
  -322.3587241302986    -75.7646415488627    -76.7145786721378   -129.0677794487796   -112.8987161484017 
  -245.1898929301280    -74.2072298868271    -80.7839875646899    -88.2638908840287    -72.5147728162335 
     0.0000000611830      0.0000000000000      0.0000000000000      0.8210754495092      0.8535996334201 

# Scale1 
  5596.5949073820930    631.6650003257006    507.4436535576392    526.9938853932412    578.4408280351018 
  2946.1154148172673    387.1899445036270    289.3330986716401    400.3133327930956    344.7757780648306 
  1791.3334649717744    229.6824470442407    282.7126942391381    295.8232977577057    213.4074061628525 
   702.0628109646157    116.5739852500949     94.8723519732492    161.8196514838781    125.3225027894728 
   336.8056307932885     81.6558752026350     86.1654467256720     94.0311967431067     81.3402101281388 
    36.4668951370478     29.7270744697909     30.5640947358207     43.8634527339667     37.3463021205072 

# Coefficients (Si)
   0.2940277661173   -0.4854723586623   -0.0524858949083   -0.0871916218562    0.1029665816732 
  -0.2171993431225   -0.1707675097946   -0.5208094657895   -0.2040125991064    0.0426098486630 
  -0.0071974085012    0.5937546303693   -0.3646928219716   -0.2983309799835   -0.1842792615282 
  -0.3454878762576   -0.7029067964775    0.0136451204184    0.1248740255106    0.2615232333620 
   0.4894845360617    0.8054064308813   -0.6326116182637   -0.5175166059313   -0.6851492003784 
  -0.4173705358865    0.1173604675588   -0.1275094432271   -0.1872884631179   -0.2427304524534 
   0.2256165083048   -0.1927679495997    0.8947530346375    0.3767338505258    0.3010337167607 
  -0.5178021957127   -1.0223946249834    0.3036331543794    0.2818954840711    0.0249697400018 
   0.0786772121417    0.5500835072195   -0.0807968661429   -0.0169633091507    0.5419829969789 
  -0.2616154614345    0.2051726651459   -0.0687357403493    0.2088560194708    0.0398195883772 
   0.4707393807076   -0.0940406583789   -0.0096211257832    0.4540314837281    0.1836116953711 
   0.3167539381186    0.5029153812860   -0.6261847093831    0.5396112189614    0.1636929693838 
   0.2198441190977    0.1624870805612   -0.4801449203476   -0.0465614194348   -0.0172633585694 
   0.0205180201377   -0.0567857863093    0.0184367019312   -0.2821989884765   -0.2858801680485 
  -0.0887198763700   -0.0782070869805   -0.0045587798650   -0.3158865639648    0.2067590250194 
   0.0832331365205    0.1434903161453    0.1698746091273   -0.3180974131723   -0.3000956028966 
  -0.3371948082352   -0.1649421460956   -0.2812650934992   -0.2495402574303   -0.2189065123607 
  -0.3326568467673   -0.1880876714063   -0.3994584940050   -0.1355115131555    0.1539434399979 
  -0.1060620595876   -0.2660029883904   -0.1902971940187    1.1853312823357   -1.1082301633132 
   0.0348484905249   -0.1240982708761   -0.7191098436067   -0.2483874352489    0.1352594796834 
  -0.2428361139650   -0.3361133731126   -0.3761398311910    0.4185651470491    1.2160416369574 
  -0.2460747515279   -0.4862013062198    0.0161758984661   -0.1111829257707   -0.1485609142578 
   0.2157690779315    0.0037292502124    0.6688293626773    0.6406055928829    1.0026782689571 
  -0.4229286167676   -0.0879195121598   -0.0338809573731    0.0852875787779    0.1972321347494 
  -0.2347038540252    0.1571717151487   -0.3175652877279    0.3577532658568    0.7847917158414 
  -0.7803234818108   -0.1336646025750   -0.0308626323983    0.5145490480193    0.2409137607217 
   0.1042220997198   -0.4914903033808    0.0415098204595    0.6566441727042    0.2216338944678 
   0.1713028687884   -0.1657191418006    0.1930937716727    0.0515342886887   -0.2338042163425 
   0.0973852540641   -0.2180454363881   -0.3681140463102   -0.3927507591332   -0.1700254836961 
   0.7744032032278   -0.3939470594428   -0.2953388391952   -0.4411531735897   -0.0190997170719 
  -0.0091439041802   -0.0166298204691   -0.2019775793548   -0.3455720033587    0.0361003648756 
   0.2200098801470   -0.2637362803999    0.0233179154544    0.0306319455689   -0.0421217992185 
  -0.0081953746569   -0.2058307155245    0.0550281706479    0.0476761435057    0.1072521269541 
   0.0001727701410    0.2694280080758   -0.2599533481639   -0.1525820665694    0.0415526559845 
   0.1498406685855    0.0113594198018   -0.2077312389536   -0.2019227464633   -0.1591049445540 
  -0.1773219698836    0.3170374808395   -0.2858433030878   -0.2301270629782   -0.2259616768059 
   0.1153020901230   -0.0729489931408   -0.1117376367090   -0.2055414051414   -0.3892399466371 
   0.1611024218195    0.8950360472056    0.7093056964089   -0.1493715221806   -0.2038204508951 
   0.3027061711362    0.4620750109722   -0.3512887626422    0.2606722897957    0.0329567713560 
   0.4416796353913    0.5719069161850    0.4212350608548    0.0338520409095   -0.1126850518676 
  -0.1475400156723   -0.1749946137068   -0.6573300671655   -0.0882639620980    0.4681830474990 
   0.0389651020424    0.3649116660471    1.1536311742272   -0.3504765886174   -0.0097005550969 
  -0.1684268898125   -0.3091220708336   -0.2474158048989    0.2014937398010   -0.2481998443109 
   0.3934605140713    0.4480578088295   -1.1862977853207    0.1286692057381   -0.0030754962254 
  -0.0949256289301   -0.2101798926579   -0.2557268629425    0.7255983156550    0.2740261048057 
   0.1091378277838    0.4789227719353    0.1359370556742   -1.6914978187859    0.0061031851329 
   0.1599429483266    0.6509376571794   -0.0063822105698    0.2581847326579    0.5879768920275 
   0.1614600665164    0.0436611931406   -0.2096924137977   -1.0647629628889    0.3308318033517 
   0.4513619617402   -0.0562532125471   -0.2305680415573   -0.1505806285941    0.4181238341521 
   0.3248897938833   -0.6795131363008   -0.1628234588303    0.0609268495596    0.1342975141096 
  -0.1647354980249    0.0840872814411    0.3392198501317    0.1155137906700   -0.2855348046576 
  -0.1091759878679   -0.2984281894679    0.4680382756297   -0.1715673161566    0.3864378954721 
  -0.3306958100726   -0.3122690327918    0.2450132551260    0.1479201766148    0.3594720664685 
  -0.1114696487589   -0.1283868097550   -0.6084707178646   -0.3020787316430   -0.0619548511966 
  -0.1348383569478   -0.1230632158096   -0.1860145975088    0.0286094265906   -0.2308353222045 
   0.0973064302392   -0.0058879786746   -0.2391684690183   -0.1082594176429    0.0953975212915 
  -0.7249561191881    0.1646179442570   -0.1377888270698    0.5275077550304    0.5149244459281 
  -0.0940138124620   -0.2810224361645   -0.5888364118490    0.0661338299722    0.2184190396217 
   0.3009940226182   -0.1582170731738   -0.2984334151922    0.3126964977039    0.0288528120430 
   0.5547572198881   -0.2492983272162   -0.0428632167104   -0.9092385747961   -0.6286427283550 
  -0.1856029492673   -0.1723001489435    0.0170534420335   -0.0524414756315   -0.0039926308885 
  -0.0359863813628   -0.2084664492802    0.0114927723736   -0.3701662874934   -0.3926766769827 
  -0.0898586523456    0.4006876182696    0.1817845024296    0.2826654220677   -0.1252291016269 
  -0.3745559363915   -0.0717038849810    0.1369713621468    0.0275296664374   -0.0979918633033 
   0.0048358080198    0.2851595822993    0.0714413984590    0.2104286134713    0.1882967312517 
   0.1120219363908    0.3879802497193   -0.1873940728176   -0.1162894083487   -0.0035345095577 
   0.0997875346496   -0.2922053594501    0.3523523913921    0.2465098485885    0.1926480854731 
   0.2998514019272    0.2941425846294    0.0112475528548    0.0560227347553   -0.1976590194791 
  -0.2607517332954    0.4860445891461    0.2585178164494   -0.1324466566475    0.0664068230026 
  -0.1320441492491    0.2353638255069   -0.1487128256595   -0.0446222619257    0.0561228778053 
  -0.2812099453135    0.1681050666685    0.4793627260637   -0.1183938736981    0.0441659450736 
  -0.3173918685484    0.0263652006837   -0.0671592963014    0.2485776638612    0.0445442894415 
   0.1572148575607    0.3206549657249    0.3090116569918    0.0179403455810    0.1216206298637 
   0.3432955073897   -0.0940967835121   -0.2388871523719   -0.0920084912316    0.2157627740402 
  -0.0041716385809    0.3365173322677    0.2272717866187   -0.5825970342495   -0.1044151329147 
   0.2030735598220   -0.3767553742834   -0.0269746662887    0.1226220914887   -0.4839994943856 
   0.0202636786536   -0.0824446791291   -0.2101374645663    0.4114156688259   -0.1219840711111 
  -0.0708666253087    0.0968604743574   -0.3777169372324   -0.7595150480298   -0.0288733905306 
  -0.2703292355069    0.3336028953203    0.4752725528306    0.9691788411272   -0.5355238414207 
  -0.3612498381879   -0.5938484457173   -0.4135741979702   -0.0548277971920   -0.1038053300541 
  -0.2624140393803   -0.1330430928134    0.3162323016563   -0.5327945831026   -0.3249753138724 
   0.1203488597230   -0.0456359179849    0.0903482455874   -0.1996982589524   -0.0962093071845 
  -0.0942289486118   -0.1170012448170   -0.2959025524317   -0.2592401630973   -0.4181396211937 
   0.0209921574361    0.1540534795135   -0.0869356163247   -0.0010533506961    0.0957078808609 
  -0.1505063015197   -0.2857100033242   -0.1537164248841   -0.1807755180473   -0.6062011611724 
  -0.0409601443397    0.0278140023655    0.0754195454509   -0.1287105815200   -0.0770061793288 
  -0.1261575364558   -0.0173643560630   -0.2989936344012   -0.3782089773421   -0.3451341978840 
  -0.2359233850573    0.0338347295142    0.1171465768310   -0.2568989286960    0.0191721517807 
  -0.1521969906031   -0.0000302369621   -0.0406807555582   -0.1717424350077   -0.2686802609330 
   0.0203092630002   -0.1408536869295    0.0520999669169   -0.1799181450565   -0.0963912483396 
  -0.1904043033823   -0.1399425469107   -0.0909363850712   -0.2379375143417   -0.2130292791641 
  -0.2285563351098   -0.0406059058262   -0.1246175396087   -0.1333190265635   -0.0521017481090 
   0.1214360193134   -0.0474862482510   -0.1264110392260   -0.1245524881220   -0.0111464032091 
   0.4064330427889   -0.2239764106838   -0.1361815137369   -0.0774852115459   -0.1885622173714 
  -0.2186598952813   -0.1266440457607   -0.2147613790856    0.0799781511422   -0.0194733384866 
  -0.0473550587214    0.3761002829901   -0.0976612777169    0.0488280534210   -0.0593782288788 
  -0.1127768146050   -0.2811368699269   -0.1366659129405   -0.0221379471385    0.1863835880958 
   0.2404681356908    0.7158096749470   -0.3006093733899   -0.1389401229595   -0.2468109956519 
  -0.1939025965600    0.2085587613785   -0.0767401407975    0.0231310224077   -0.1435737393039 
   0.2281035812350    0.3254395224537    0.0921276435629    0.0437604870227   -0.1875216668227 
   0.1014989726053    0.0589019885222   -0.1982090438740   -0.0391775427818   -0.0726629962227 
   0.1376286177264   -0.1109959061213    0.0585585059948   -0.1019814579776   -0.0289975560273 
  -0.0728456950997   -0.0522998364662    0.1023391662451   -0.2702146433928   -0.0169955795273 
   0.1550162632529    0.1315132023736   -0.1655606908621   -0.0516705168352    0.0023158181519 
  -0.1606879909668   -0.0733876690690   -0.2313842143632   -0.4589999431129   -0.0324822894275 
   0.0600860037766   -0.1436657534668    0.0528222586495   -0.0498047155926   -0.0531708554589 
  -0.0472641686111   -0.1926103588573    0.3675474256008    0.2044733377854    0.0018801547060 
   0.1175329422924   -0.1222351396753    0.1618795992222   -0.0189706840243   -0.1066065556937 
  -0.3700393171987   -0.0613330380307    0.1977949221755   -0.1920584051040   -0.1839598427069 
  -0.0848888409461    0.1550313775446    0.1097662629286    0.0098749191194   -0.1298908683693 
  -0.1126205750082    0.0728741455823    0.0116743400702    0.1527153476487    0.0321325841005 
   0.1964571124535    0.1462467102783    0.3289573726446    0.1037324361415    0.0449459942358 
   0.1432949467766   -0.1162731349339    0.1625608977053   -0.0329193889096   -0.1957175976897 
  -0.0120749523559    0.1013698698994    0.2115306587851   -0.2316031140551   -0.1675108200037 
  -0.1590837283589    0.0324987758285   -0.0480641700716   -0.0294222109531    0.1786287210531 
   0.0820220325329   -0.1927152702770   -0.0656600310757   -0.0206239475265   -0.1561275097226 
  -0.0296290226293   -0.5844746034694   -0.4401705447709    0.3978196327918    0.4634557094007 
  -0.6798346026014   -0.4995359571177   -0.5537403543489   -0.4170724234998    0.3038426289312 
  -0.1550708916552   -0.2705432518887   -0.0464713138705   -0.2460954551165   -0.3660476136905 
   0.0601660011949    0.0278755763564   -0.3591443974869   -0.4374262568056    0.0270824478961 
  -0.0278002628542    0.3244191172204   -0.0499756440132    0.1374957247460   -0.0582142142910 
  -0.1711493816708    0.2017471039182   -0.2005305566343   -0.0820701087215   -0.2146519275302 
  -0.1375749579405    0.2347714171057   -0.1448879629231   -0.0971963061520   -0.2392243834061 
  -0.2032778788950   -0.2066385547234    0.0539231213072    0.1756855390430    0.0912770227916 
  -0.1942181574936   -0.1635027713221    0.2205843020075   -0.0787467745698    0.1925563335147 
  -0.0214301874922   -0.0524788776397   -0.1331861203346    0.0505279235461    0.2142937345818 
   0.1012940350664   -0.0127785947055   -0.4956515207432   -0.2895689265584    0.2475218852723 
   0.1835628838254   -0.4504636228520   -0.1851516415974   -0.2329354610532   -0.1581856666632 
   0.5168414972609    0.0593609622135   -0.1968919302701   -0.2426860490942    0.0013775352967 
  -0.3364572717066    0.1503397360158    0.0487809230273   -0.1123213969629    0.3295158617729 
   0.1801067909438   -0.1621926128667   -0.2240641679372    0.1101964131577    0.2763632134153 
   0.1081143102564    0.3507174720384   -0.3747382118625    0.5063116298662    0.5280100222015 
   0.1321634819267   -0.0850615429185    0.2057600085310    0.0079868048464    0.0785451309073 
   0.0565376426260   -0.2118101360261   -0.1875491820393    0.2204958210895    0.3557670880605 
  -0.1390421397360   -0.2723834032994   -0.0154623950194   -0.3566634113234    0.2615654982435 
  -0.1566683501915   -0.3241514835972    0.0883409822917   -0.2050837434240   -0.1817461106197 
   0.1867325383313    0.1118594752071    0.0493066696258   -0.4663069200044   -0.1614880473988 
   0.1016722123395    0.0522817341964   -0.2227837971989    0.2718060839696    0.1264015254146 
  -0.1275782588707    0.5741671215672    0.1382538612811    0.1278883805733   -0.1231109249135 
  -0.1032689137847    0.2106889657622    0.3117379495876    0.0416117353240   -0.1037987517672 
  -0.3179064083690   -0.0083452723778   -0.0179657282651    0.1815108059401    0.0009191617014 
   0.0049712776155   -0.0572473918687   -0.0474367601907    0.0732523391082   -0.0106050863520 
  -0.2031425767649   -0.0218386503903   -0.2488055515439    0.1814859054266   -0.0629791983394 
  -0.0033233263748   -0.2510309601490   -0.2551980440795    0.0149383900360    0.0606638522484 
  -0.0917268064862   -0.2444604130795   -0.2276490347046   -0.3132398830873   -0.2381192619607 
   0.1578001167956   -0.3533414859573   -0.2237384093535   -0.1122109191836   -0.1044877865208 
  -0.0486755088648    0.1756958241274    0.0172312150401   -0.2248010267776   -0.2203409105010 
  -0.3609121762656    0.3595435369615    0.2556054227181   -0.7484375496776    0.2861202183849 
  -0.2366820369468    0.0044428141997    0.7695991311906    0.1372770968761    0.0253999571662 
  -0.2296016003678   -0.1957395227542    0.0029986065911   -0.0276133742163    0.1176005326927 
  -0.5289275556214   -0.3922109190775    0.0242399067098    0.1459497046378    0.2748663620882 
  -0.0283330310262   -0.4134494294763   -0.4519065968265   -0.2880219767446    0.0558237644012 
  -0.4798126331326   -0.5418211219848   -0.1197735870020    0.0046323706507   -0.1182812486732 
   0.0700804749830    0.0461729069180   -0.1261715987258   -1.9514160201347   -0.0808862271577 
   0.2643375510588    0.2208543966882   -0.2461342650543    0.1042730346303    1.1184836076841 
   0.5571098756608   -0.0400615751344    0.9079388121248   -0.7772354182414    0.4253072350713 
   0.7051107694629    0.1494762301433    0.5252831593244    0.9886110085202    0.9683176518928 

