# Neural networks weights generated in PyXtal_FF 
# total_species nparams 
1 785 

# NET ndescriptors nlayers activation_func for layer 1, number of nodes for layer 1, ..., ..., ...., 
NET 30 3 tanh 16 tanh 16 linear 1 

# Scale0 
   882.1455698558184      0.0000000000000      0.0000000000000      5.8841777702371      5.7517799958383 
 -3238.9045671946642   -251.4215568867158   -178.2481266736228   -179.1034402268287   -221.9598950116207 
    90.0327111887464      0.0000000000000      0.0000000000000      1.0415952549641      2.1678474306880 
  -322.3587241302986    -75.7646415488627    -76.7145786721378   -129.0677794487796   -112.8987161484017 
  -245.1898929301280    -74.2072298868271    -80.7839875646899    -88.2638908840287    -72.5147728162335 
     0.0000000611830      0.0000000000000      0.0000000000000      0.8210754495092      0.8535996334201 

# Scale1 
  5596.5949073820930    631.6650003257006    507.4436535576392    526.9938853932412    578.4408280351018 
  2946.1154148172673    387.1899445036270    289.3330986716401    400.3133327930956    344.7757780648306 
  1791.3334649717744    229.6824470442407    282.7126942391381    295.8232977577057    213.4074061628525 
   702.0628109646157    116.5739852500949     94.8723519732492    161.8196514838781    125.3225027894728 
   336.8056307932885     81.6558752026350     86.1654467256720     94.0311967431067     81.3402101281388 
    36.4668951370478     29.7270744697909     30.5640947358207     43.8634527339667     37.3463021205072 

# Coefficients
   0.2904096858354   -0.4866303847278   -0.0556226804999   -0.0846868843253    0.1023021868653 
  -0.2190434093297   -0.1720919497595   -0.5225350284641   -0.2077666916162    0.0415288606024 
  -0.0060928501146    0.5923202116882   -0.3682869180071   -0.3007490807592   -0.1854406553494 
  -0.3509347350464   -0.7084016280545    0.0139716578966    0.1225779313551    0.2607365741198 
   0.4891606772405    0.8068127978497   -0.6379287364465   -0.5203471901278   -0.6892725459237 
  -0.4195758263631    0.1168651690670   -0.1271619185462   -0.1882044471539   -0.2424815350696 
   0.2248812265464   -0.1972947798505    0.8879358360807    0.3803292391787    0.3053881166890 
  -0.5197961163688   -1.0168758729668    0.3085564983893    0.2769907567509    0.0207666544813 
   0.0827971062759    0.5456139367788   -0.0907779331759   -0.0170634109673    0.5383223778214 
  -0.2596897541021    0.2099508837860   -0.0720996729435    0.2091854325287    0.0332442807626 
   0.4678350705209   -0.0979740307948   -0.0093742681358    0.4540604712505    0.1841762956313 
   0.3133126528829    0.4983002758047   -0.6313158493842    0.5370381418905    0.1640179952734 
   0.2110992929353    0.1573705993223   -0.4796706460831   -0.0468515209867   -0.0176283915015 
   0.0206927508802   -0.0570628595686    0.0187332120217   -0.2823805643134   -0.2861462986753 
  -0.0883090247419   -0.0783994062494   -0.0043799750804   -0.3168054160628    0.2071684140304 
   0.0835922075826    0.1437681969130    0.1700423946363   -0.3190701160202   -0.3007211889548 
  -0.3382265035412   -0.1652801239840   -0.2821359717011   -0.2495014437987   -0.2190102181499 
  -0.3334294000549   -0.1884759247954   -0.4001337518489   -0.1359216351552    0.1541640658875 
  -0.1061620693270   -0.2663311331380   -0.1904723599303    1.1759753761851   -1.1134781898199 
   0.0394218637295   -0.1186528858086   -0.7023757966076   -0.2603695322420    0.1345410858230 
  -0.2483605930646   -0.3285732372045   -0.3881106658862    0.4078915388358    1.2130835701664 
  -0.2526529155594   -0.4997777023644    0.0023024836877   -0.1049405946162   -0.1415036511226 
   0.2059930491234    0.0008177376034    0.6684075759689    0.6532718583576    0.9923575180395 
  -0.4271994101533   -0.0940182729697   -0.0316253529935    0.0839244652941    0.1935812339842 
  -0.2437547914370    0.1546403123581   -0.3106456030165    0.3603586947278    0.7764209632277 
  -0.7709418241349   -0.1381786389442   -0.0308293901307    0.5261531574227    0.2396300880084 
   0.0986972540434   -0.4967252947516    0.0491222909000    0.6616739808999    0.2244491572141 
   0.1705165616196   -0.1737034391920    0.1957723711579    0.0398627454676   -0.2448205163845 
   0.0911329811237   -0.2177922854113   -0.3770984553507   -0.3984308585695   -0.1668261171881 
   0.7741630019237   -0.3895584254580   -0.2948938469322   -0.4262713379217   -0.0096225816440 
  -0.0183215485378   -0.0129056447883   -0.2069139621299   -0.3440678421921    0.0375105662763 
   0.2121980263551   -0.2561430149814    0.0272689110656    0.0307764490300   -0.0402774766360 
  -0.0050134694181   -0.2111353929891    0.0528124238899    0.0494288348281    0.1134216920669 
   0.0010553519235    0.2678098701898   -0.2644115136622   -0.1445452192059    0.0422078265255 
   0.1527104303492    0.0108144477070   -0.2081907426294   -0.2021948225268   -0.1630216756653 
  -0.1798653517661    0.3108466614063   -0.2874344197249   -0.2353466327540   -0.2239160006006 
   0.1170652702657   -0.0745706440348   -0.1071065902147   -0.2104192517527   -0.3876076200307 
   0.1632724106856    0.8917008881623    0.7081372678702   -0.1510049523674   -0.2035881560365 
   0.3090766145512    0.4646472548385   -0.3524907710407    0.2563956446085    0.0313257174983 
   0.4405009576078    0.5688484940318    0.4201928771726    0.0375408855371   -0.1150182897540 
  -0.1481784766084   -0.1738413621041   -0.6619845096295   -0.0869614108524    0.4689553068341 
   0.0345056387633    0.3650401988510    1.1553952452926   -0.3548718656447   -0.0100531614284 
  -0.1693276992088   -0.3129870691864   -0.2482025446404    0.2015137566270   -0.2529527779926 
   0.3943332465765    0.4492847399098   -1.1738377252100    0.0989187220967   -0.0122577283731 
  -0.1005103451195   -0.2003362444672   -0.2582096813194    0.7396345713900    0.2759371786537 
   0.1173628414260    0.4669710750318    0.1272208930296   -1.6903246278064    0.0078458059840 
   0.1671746707075    0.6442084940132   -0.0025028800599    0.2644181847630    0.5885055377122 
   0.1557517774580    0.0374068659011   -0.2165805137528   -1.0605244929329    0.3405364126788 
   0.4590111958954   -0.0397984373154   -0.2230695062639   -0.1556717896481    0.4202828897085 
   0.3118992012044   -0.6900042838238   -0.1637287553195    0.0548665473338    0.1255647634958 
  -0.1576380132149    0.0853747896201    0.3372076937773    0.1241349154110   -0.2733435488622 
  -0.1104693452096   -0.2859104867578    0.4674600071266   -0.1770200323541    0.3721571499489 
  -0.3362885073566   -0.3053497298305    0.2352444636923    0.1515854271461    0.3496626175582 
  -0.1180814661998   -0.1355843702019   -0.6091409486280   -0.3068321735824   -0.0583645117840 
  -0.1323213154475   -0.1275370110431   -0.1774406805254    0.0312650618438   -0.2426807213382 
   0.0984193656477   -0.0168861379532   -0.2392045011406   -0.1010239021038    0.0903633075543 
  -0.7204401134386    0.1661301060305   -0.1345550517521    0.5284291322448    0.5133528485283 
  -0.0985831111958   -0.2836189128333   -0.5824892109726    0.0582432413359    0.2070822160708 
   0.3049475982814   -0.1544837687702   -0.2933499845196    0.3127217088214    0.0267326848575 
   0.5489175465470   -0.2560472319018   -0.0492386597569   -0.9134428378370   -0.6234317158230 
  -0.1890566708672   -0.1759278340631    0.0089726774216   -0.0629287999831   -0.0009190745733 
  -0.0284163851288   -0.2115145491788    0.0091281806457   -0.3502288168544   -0.3882689929323 
  -0.0921237283039    0.3996913855607    0.1782878034035    0.2846686631869   -0.1222347197348 
  -0.3718401745680   -0.0687536200128    0.1375429050365    0.0271802203680   -0.0953134227084 
   0.0022698648389    0.2823386476657    0.0684793125278    0.2057013566519    0.1850664788956 
   0.1073503336219    0.3870227971058   -0.1847558643802   -0.1184730370890   -0.0093771414080 
   0.1020558471052   -0.2932599431188    0.3521803953069    0.2475293815398    0.1914158448186 
   0.3072421269590    0.2907898139553    0.0109264515441    0.0589686057810   -0.1882262629357 
  -0.2668362632118    0.4888973157562    0.2616840626115   -0.1322785381960    0.0682010898534 
  -0.1295379197544    0.2383813897479   -0.1473579352613   -0.0418897280131    0.0589790537168 
  -0.2772837502787    0.1715138138770    0.4812887282607   -0.1188209863542    0.0431549626339 
  -0.3133773967846    0.0256788296572   -0.0631434934159    0.2509486469879    0.0471785229939 
   0.1571448746698    0.3235827197349    0.3096245176514    0.0200371618469    0.1255182148139 
   0.3405733274597   -0.0912223959047   -0.2354237018368   -0.0919038886955    0.2157150695763 
   0.0021558701887    0.3376195068997    0.2232349745535   -0.5774947174777   -0.1070256472798 
   0.2061279250926   -0.3768169820818   -0.0330934645316    0.1168947441867   -0.4878183827535 
   0.0176341973023   -0.0829065728950   -0.2107958610475    0.4132333060778   -0.1296033403295 
  -0.0726924640937    0.0950301989380   -0.3828179488194   -0.7656736003555   -0.0260530655495 
  -0.2740835733089    0.3312476015446    0.4802157267973    0.9702699733134   -0.5372663912239 
  -0.3640519476172   -0.5964063322253   -0.4153509993585   -0.0539181541552   -0.1054174553258 
  -0.2624414235281   -0.1305280926105    0.3131450107613   -0.5326701709299   -0.3259801891938 
   0.1208027356214   -0.0460092997600    0.0902909213472   -0.2002709197022   -0.0961894339850 
  -0.0942577807030   -0.1173736508347   -0.2965397700998   -0.2596751754608   -0.4194297504012 
   0.0208887474874    0.1543907329648   -0.0870926975289   -0.0010373726562    0.0960924005379 
  -0.1510694881246   -0.2862154802655   -0.1540403863182   -0.1814660077879   -0.6076541705544 
  -0.0408612416807    0.0280740997825    0.0754435047642   -0.1290048771045   -0.0773575322318 
  -0.1265337718874   -0.0175474436208   -0.2997045037223   -0.3791845991686   -0.3447869715545 
  -0.2364400996008    0.0339856206230    0.1175605684836   -0.2577041175706    0.0192671741906 
  -0.1523904728237    0.0001643505761   -0.0406322036619   -0.1721661003959   -0.2691227742403 
   0.0204359382481   -0.1410625124552    0.0522239771208   -0.1803544026039   -0.0964748458953 
  -0.1908347452632   -0.1402557707164   -0.0911294024261   -0.2382254088939   -0.2134799361819 
  -0.2287573819202   -0.0405960197349   -0.1247358824007   -0.1334427342157   -0.0521745505621 
   0.1215836709177   -0.0474053350928   -0.1265540499735   -0.1249727175515   -0.0110302073826 
   0.4012300604876   -0.2188274127512   -0.1377395853827   -0.0742506490719   -0.1833949477957 
  -0.2137306996791   -0.1243935630022   -0.2167190558567    0.0799085018066   -0.0152077813454 
  -0.0408158903911    0.3691257510888   -0.0960687094774    0.0514518438267   -0.0572177094343 
  -0.1106960875823   -0.2829711258947   -0.1328315643961   -0.0194103935023    0.1842453086783 
   0.2381638947231    0.7142299865727   -0.3031735039011   -0.1380031078599   -0.2433041982305 
  -0.1952446507842    0.2096956110345   -0.0730119754639    0.0177047073095   -0.1411571807660 
   0.2330365335298    0.3254464227353    0.0922632722682    0.0439445395121   -0.1880092479699 
   0.1015184335321    0.0589367903404   -0.1988728739812   -0.0391966304575   -0.0727913001728 
   0.1379489285533   -0.1115665950849    0.0589534464403   -0.1023358755799   -0.0291923516306 
  -0.0730566773126   -0.0524557120448    0.1022457682770   -0.2698703318990   -0.0173676362831 
   0.1553320416456    0.1315181258440   -0.1637398899344   -0.0500990818369    0.0030911367837 
  -0.1611264450192   -0.0737084674674   -0.2293025955614   -0.4592088201443   -0.0319726752969 
   0.0611733962978   -0.1444572386698    0.0526291084353   -0.0500971423023   -0.0521355396075 
  -0.0469923474813   -0.1934274672258    0.3683500035063    0.2047043405643    0.0029525782277 
   0.1189241706111   -0.1225639089720    0.1624811947247   -0.0185943023531   -0.1064758793467 
  -0.3708314337574   -0.0614145077249    0.1987711034652   -0.1929445572809   -0.1847307404475 
  -0.0853790229503    0.1553975598978    0.1090500489143    0.0105793973333   -0.1302024441351 
  -0.1122030531236    0.0712385212332    0.0094394729096    0.1527301769109    0.0317837049749 
   0.1971106393040    0.1446515490982    0.3289720778777    0.1034676647602    0.0438385184587 
   0.1441522365698   -0.1158964850110    0.1634974859733   -0.0336806857417   -0.1955209760604 
  -0.0122103903380    0.1017722007207    0.2118735574462   -0.2314672084528   -0.1676945833490 
  -0.1593481747748    0.0326382421277   -0.0487235842192   -0.0290551219356    0.1793636665951 
   0.0822192923615   -0.1928147898922   -0.0660221508362   -0.0208562015827   -0.1566552579805 
  -0.0292949817767   -0.5878580590117   -0.4362883337114    0.3980074083634    0.4681395173810 
  -0.6692265004284   -0.4969764120231   -0.5480417289719   -0.4230902876869    0.2949039365315 
  -0.1571025045512   -0.2706521786527   -0.0472211265688   -0.2464167453897   -0.3608322977179 
   0.0637655389463    0.0325135889525   -0.3482076692636   -0.4381519879970    0.0281986499132 
  -0.0293642404029    0.3260357933248   -0.0503859906485    0.1377029229894   -0.0566017929210 
  -0.1725664347696    0.2027816084344   -0.1995879441070   -0.0805963521095   -0.2150581424672 
  -0.1378980864665    0.2371760530978   -0.1444192875926   -0.0965636450320   -0.2366536791820 
  -0.2033613372651   -0.2070769415673    0.0540023654872    0.1762082226115    0.0911473695341 
  -0.1951529560347   -0.1640606301445    0.2211119631334   -0.0787118561933    0.1925921443591 
  -0.0215884627040   -0.0527902546139   -0.1336779370857    0.0507770677025    0.2149147609230 
   0.1015782252249   -0.0129339065972   -0.4977855794400   -0.2864747722976    0.2446238585767 
   0.1863041307489   -0.4464013432357   -0.1794043553037   -0.2282092877422   -0.1615759512738 
   0.5148480390842    0.0587807477765   -0.1952256301183   -0.2439157016012    0.0021471731959 
  -0.3308494665644    0.1531560232039    0.0518262185577   -0.1023907222455    0.3289436454584 
   0.1812203245785   -0.1616794832391   -0.2242046028948    0.1089248130744    0.2824699798675 
   0.1082703274622    0.3519825499551   -0.3752568409291    0.5010643779018    0.5249378977809 
   0.1282887669088   -0.0874789109799    0.2085293749418    0.0084448457837    0.0789730580106 
   0.0528846626044   -0.2121172984144   -0.1872889316284    0.2217852253151    0.3570283912928 
  -0.1386794762873   -0.2714919206126   -0.0138450016300   -0.3585676069890    0.2594407839380 
  -0.1563098047817   -0.3245713049771    0.0873043106722   -0.2053916029972   -0.1809702971958 
   0.1875659910997    0.1128689799393    0.0523304439741   -0.4664142568136   -0.1616414004843 
   0.1007250510131    0.0525350985169   -0.2228438753506    0.2722494759400    0.1273311676265 
  -0.1280377838521    0.5737675781124    0.1391312737959    0.1287696233897   -0.1227695616518 
  -0.1026936594471    0.2119782129997    0.3126789762057    0.0419100748240   -0.1024722761740 
  -0.3180923611169   -0.0080926900972   -0.0182798449159    0.1821668834650    0.0012691683111 
   0.0052050676797   -0.0568953769428   -0.0478674564334    0.0732314230761   -0.0097693775984 
  -0.2030071343836   -0.0218793945033   -0.2493382759764    0.1822759925224   -0.0629436930093 
  -0.0030766851044   -0.2507877581955   -0.2558508608601    0.0159997395208    0.0603888031612 
  -0.0912145281108   -0.2424849143245   -0.2276334190392   -0.3114366411437   -0.2402393733394 
   0.1569654015474   -0.3515802012651   -0.2226117719681   -0.1127685799482   -0.1043853110427 
  -0.0475268268511    0.1769087161919    0.0183996780490   -0.2209219611489   -0.2221856871454 
  -0.3586598129296    0.3511408875183    0.2581949973812   -0.7440405955061    0.2902108400869 
  -0.2331057465374    0.0027383044127    0.7664819719871    0.1403637177739    0.0307087148671 
  -0.2279985672733   -0.1932758115119    0.0084146970696   -0.0256435170087    0.1200842514454 
  -0.5210446095087   -0.3947439525215    0.0278228013040    0.1468346653668    0.2784059422209 
  -0.0292840723484   -0.4189466514924   -0.4492810789553   -0.2926601181861    0.0616812431693 
  -0.4774447835784   -0.5376504222518   -0.1209708594438    0.0033728677320   -0.1142637026044 
   0.0729922921358    0.0494373517956   -0.1158652181434   -1.9491556155383   -0.0787115727270 
   0.2616152938536    0.2232543033078   -0.2452435517842    0.1009661018438    1.1056924758194 
   0.5551082324998   -0.0409655860740    0.9019732490678   -0.7721132573106    0.4220161492200 
   0.7042856366303    0.1462499916700    0.5183697766481    0.9794763482239    0.9635833277287 

