# Neural networks weights generated in PyXtal_FF 
nn 

# total_species nparams 
1 785 

# NET species# ndescriptors nlayers activation_func for layer 1, number of nodes for layer 1, ..., ..., ...., 
NET 1 30 3 tanh 16 tanh 16 linear 1 

# Scale0 
    27.5044113490885      0.0000231927987     -2.7794947607182      2.0127188870576     -5.6931199345794 
    -5.3512428565099     -2.7032459700143     11.0688842435704     -6.6083857887065     -5.3720337828579 
    -0.6381813953800      0.1160800431134      1.0048022244088     25.7960308030662     -4.9081426536666 
    -1.2247223989103     -0.1899397905172      5.9901108466303     -1.4763262035507      3.8370087695539 
    22.7445655914480     -5.1447131487505     -2.0109553508872      3.5773355020465     -0.0962313585731 
     0.9341151890502     23.7410389452925     -3.6478792516615      1.3764942261771     -0.7898661504241 

# Scale1 
   272.3256616792672     18.4132584031954      5.1650476265954     32.9655164702493      8.6848341902428 
    11.4255854303038     12.6012342151183     77.0744039747520     12.3560371755877     14.6800359588283 
    11.8059238695187     18.4466110725879     30.0460607034814    144.3070081029436     15.7964174378799 
    14.9030246414363     13.0736645589684     13.1622875584920     43.4867058119536     39.6531009390502 
   165.6748740672574     16.9944908181793     20.7183677230469     17.5835860777735     32.2360716248913 
    33.9443658682333    162.1181650759409     15.3970697399297     27.7279829528339     31.2349919130139 

# Coefficients
   0.1470556737787   -0.0091053883326    0.1082079232660    0.0301919232018   -0.0594922959453 
  -0.0319803528800   -0.0797773074854    0.1477845602797    0.0004970033823   -0.0801304331711 
   0.1451657831530    0.0420282733812    0.1100396152216   -0.0584218935435    0.2491604037808 
   0.0742801282864    0.0771616283088    0.0580670678467    0.2529174622315   -0.1297118180372 
   0.1513992003060    0.0506489730253    0.0539761932646    0.2428993251097    0.0841525958192 
   0.3109839743212   -0.1501720525470    0.1987036572673    0.1292795747102   -0.0202207939948 
   0.0104325841844    0.1024272705445   -0.0212835583443    0.2503853606639    0.1664382313777 
   0.0425854376911    0.2233237674922   -0.0621148083565    0.2135130028404    0.2149847384648 
   0.0837817074749    0.0077838781135    0.0787925809669    0.0180606116631    0.0153848766926 
   0.0768708400261    0.0246194974100    0.0627796595551   -0.0246037020773    0.1595933237423 
   0.0720882894630    0.1592168350409   -0.0082033566999    0.0654378264672    0.2648418851487 
   0.0652322322878   -0.0676734776286    0.0568826066480   -0.0618949185450    0.2961942891491 
   0.0421015319248    0.0397967801169   -0.3748500345390   -0.4005280442811   -0.1095158786890 
  -0.1385277360584   -0.1322173512876   -0.3150875363867   -0.3393232048381   -0.0583962578136 
  -0.3033562550746   -0.2606074749116   -0.0354437685509   -0.1566626010999   -0.2868772050091 
  -0.3396598055109    0.0136410845924    0.0992145507289   -0.0554609024368   -0.0562384636292 
  -0.1868093602494   -0.1796320522891   -0.0973821959356   -0.3094906304929   -0.0458246675024 
  -0.3049881810998   -0.2723024034264   -0.1613583916553   -0.0000325468630   -0.1913018241369 
  -0.2102314727431   -0.2866467549124    0.0296824647782    0.0338279651128    0.0485147988765 
  -0.0871438675298    0.0620291651903    0.1778170041575   -0.0412965862237    0.0894823796830 
  -0.0053100575970    0.0787385866933    0.1091715577597    0.1722122671002   -0.0541716474575 
   0.1312086227976    0.0702942311268   -0.0362971264044    0.1576236873907    0.2511030662359 
   0.1989279945988    0.0189801747951    0.0813002964424   -0.0567920918964    0.0051883869344 
   0.1365162357718    0.0758273599236    0.0658802562742    0.1024471250542   -0.0296653638494 
   0.0060402218763    0.1205369808580   -0.0746207589252   -0.0757244688149    0.1366359946903 
   0.3251732491063    0.0367572310680    0.1258858935070   -0.4058349150266    0.1512273951913 
  -0.1822725103545   -0.0471588917510   -0.0162410525691    0.2106360112728    0.5494724809495 
   0.1838192475377    0.1369517567748    0.3893145588912    0.0345968049051   -0.1596386635193 
   0.3827544770117   -0.1481059449037   -0.1460239579010    0.0168932173617    0.0117466406954 
   0.5515204515294   -0.0720453615458   -0.0032682906492   -0.0421962976986   -0.2086664821373 
   0.4324070256206    0.5197938265836   -0.1604916193196   -0.2032413721625   -0.0233123484322 
   1.1511906506442   -0.1835205559163    0.3336657554599    0.1916841501662   -0.0467391176933 
  -0.5743916015217   -0.2124135454425   -0.5966131123201   -0.1413410963140   -0.4109960064339 
  -0.1328369320011   -0.1191686857445    0.3656291386933    0.2387070702208   -0.4593228292917 
  -0.2150352116062   -0.0064828758007   -0.1182510837999   -0.0852807744903    0.7402136201074 
   0.4050408272521   -0.2575295612735    0.0717278925646   -0.2935709907479    0.0436266150992 
   0.4106981707002   -0.1211257246846   -0.0230490889942   -0.2557272015265    0.0646040384967 
  -0.1241062862933    0.0036465740147   -0.0135376965924    0.0603442428200    0.1117026978923 
   0.1699189763229    0.2844120706520    0.0535160983910    0.0193267949377   -0.0446987917041 
   0.0451770141734   -0.0434457438552    0.1150560631470    0.2739903725463    0.0141736566453 
  -0.0020400344107    0.1145799215079    0.1425813057175    0.1995881319170    0.0775730868447 
   0.2546584985714   -0.1180736145195   -0.0662340961416    0.0330998122290    0.1297266738202 
   0.3912252311324    0.1306727925061   -0.1293257972622   -0.0338740229152    0.0423637463181 
  -0.0036687432984    0.0511371741408    0.2012887923164   -0.1311771256516   -0.1853706417786 
   0.1004774824783   -0.2530986012078   -0.1617090992626    0.1769079146598   -0.1964242901691 
  -0.2599770018397   -0.1679829329845   -0.0528643821126   -0.1663098603672   -0.0240355459600 
  -0.0484877996815   -0.1338020547235    0.0139208401299    0.1587368658308   -0.1144561301069 
  -0.3459058863236    0.0072932716376   -0.1268446187611    0.2037979325933   -0.0332063491178 
  -0.3452494934589   -0.3748711396329   -0.1549154889370    0.2109923353407    0.1606319492824 
  -0.1940969164049   -0.1988546647193    0.0527589787017   -0.5504332692458    0.3522136352380 
   0.0296719414988   -0.0283295416379   -0.1213677670790    0.4223791750978    0.5348093713545 
   0.3268265301303    0.4931059349543    0.4370331155667    1.1787048194534    0.3072041752012 
   0.1074343678852   -0.0933325567958    0.3992349617158    0.3024535452567   -0.1269831354726 
   0.0530808139417   -0.8095939702031   -0.3500729397167   -0.2957619911486    0.2760889463439 
   0.0437601486647   -0.3212057437753   -0.3710796973725   -0.5804304880344   -0.0381868195640 
   0.0110000040741   -0.0386685772114   -0.0940736631532   -0.3371426728484    0.0849227781097 
   0.2699221009592   -0.0818779787519    0.0431210342879    0.1759215670268    0.2236233667500 
  -0.0496702499014    0.0780704926284    0.3660470210617    0.3100576121689    0.1914735180054 
   0.3112300571052   -0.2441206649874    0.0149215405283    0.1308236467731    0.0150112088969 
   0.2046912315729    0.0444529061386   -0.0438787230554   -0.1612976939895    0.0893408337423 
   0.1325570739764    0.1791367403694    0.1125449132366   -0.0122502170130   -0.1624279014329 
   0.1122041590333    0.2013443738443    0.0234145786080   -0.1399063709899   -0.1825452501175 
   0.2920245222001    0.0660014067722   -0.0404424560346    0.3462455581998    0.1919947566192 
   0.1556084547074    0.2911384953465    0.1379898096765    0.3339552127671    0.0316899818683 
  -0.0525963668632   -0.1050601481139    0.0773390312641    0.1393866838629    0.1264284119613 
   0.0897439255635    0.0283560291915    0.2090704700207    0.2038896195051    0.1440925712011 
   0.0510886328666    0.2010409157272    0.1984412006170   -0.0799442904670    0.1842339870377 
   0.0339207494978    0.1875579556472    0.2589990118727    0.2327953686666    0.2715699884045 
   0.1474234793720   -0.1031980615146   -0.1673415249991    0.0887411572254    0.0223183485720 
  -0.0993326904627   -0.2074423200425   -0.1520859961143   -0.1347515566212   -0.1596267107523 
  -0.2766418450752   -0.2215591811631   -0.2026540606038   -0.2394075020583   -0.2323759177936 
   0.0331367570380    0.0111413770355   -0.0982767608587   -0.2469100195333   -0.0336379438683 
  -0.0672609057318   -0.2111201272370   -0.1505737686230   -0.0358276599922   -0.0949117254582 
  -0.0084490283042    0.0179984864488   -0.0146765571185   -0.0891363391606    0.0263167477593 
   0.0507814854352    0.1023823114598    0.3915124471588    0.0262972134164   -0.0860683378078 
  -0.1485270891504   -0.1398308402055   -0.0895076478064   -0.2878312745861   -0.3570249022490 
  -0.1335626946955    0.1067448542901    0.1106388058322   -0.1078598414216   -0.3305917338990 
  -0.0734593827881   -0.2151092991527   -0.0994528977898   -0.0265623768235   -0.0511816727662 
  -0.2460916872441   -0.3674266404275    0.0594491166085    0.1799258969735    0.0321289578653 
   0.1539447212888    0.1828820247364    0.0101477278342    0.3064546228916    0.2758158927836 
   0.1828650336009   -0.1773209034409   -0.2802928772859   -0.2509184468396   -0.2337360493679 
  -0.0741504407987   -0.0610459220473   -0.1987365195402   -0.0961188457093   -0.2096742667432 
  -0.0411810155030   -0.4155340190719   -0.0240773525979    0.1063830662171   -0.0223503445433 
  -0.3772506562824   -0.2674154953287   -0.3058044142559   -0.1329611327763   -0.1320603347714 
   0.1058469453918   -0.0187352962683   -0.2006568446935    0.0139747780755   -0.1472379981232 
  -0.2196751653498   -0.0070066678118   -0.2816567977459   -0.3558652066387   -0.0470764038651 
  -0.3679568618339   -0.0781722508253   -0.1529311213877   -0.0944925580317   -0.4981289506964 
   0.0880231408304   -0.0259323643147    0.1396213956047   -0.1392042307635    0.3335850915734 
  -0.0946346095499   -0.0966241735084    0.0715022527440    0.3235865534225    0.5166598450025 
   0.1131733523656    0.2151591698967    0.0833050001550    0.2870192457228   -0.1358303334611 
   0.3184588503389   -0.1084919664584   -0.2988736573307   -0.1941205277257    0.0345986950403 
   0.4362160153738   -0.0554879075271    0.1087168468555   -0.0524822416704   -0.1757575322769 
   0.0963562367620    0.3143516249055    0.1727815168041   -0.1218963820743   -0.1865754747665 
   0.0620285772159   -0.2106542613597   -0.1597799083034   -0.0745041645334   -0.1695015779609 
  -0.3018224316616   -0.1878197903314   -0.0410150984436   -0.1781366336374   -0.2936063825385 
  -0.4497801795519    0.1057122484079   -0.0037887109665   -0.1561341801376   -0.0424898446592 
  -0.0188775420583   -0.2068962459072   -0.0694482525482    0.0991401536236    0.0569016834547 
   0.1003014227954   -0.1202930161796   -0.1355868553293    0.1221564202002    0.0071280148181 
   0.4542540995019   -0.0817636244622    0.0223714966490    0.1674907510084    0.3693704344989 
  -0.0737819259197   -0.4318149954816    0.0676708155956   -0.1015749846181    0.4042103237036 
   0.2079577417660    0.0534961471468   -0.4448356757665   -0.0676092672341   -0.2869285857344 
   0.5422487089537    0.1821085221576   -0.1522782801129    0.0222764642192   -0.0426404019274 
   0.3057619840732    0.0639427486147    0.0022448373220   -0.6016803252151    0.2347745074059 
   0.0068211600627    0.3793136292631    0.1257888912865    0.4920189547299   -0.0404823547799 
   0.1049303315991   -0.4757174227267    0.0165783984576    0.0356721929785   -0.0803888915720 
   0.0515250373609   -0.5084537140983    0.3783436051836    0.3898363487030   -0.2426848431531 
  -0.3127135272258    0.0677662003925    0.2640549605878    0.2914547911545    0.1435991968421 
   0.3170118063047   -0.0558871926520    0.0499533634603   -0.1970989043347   -0.0321020306864 
   0.1976583271481    0.0322240476370    0.0848720696707   -0.1356598082740    0.2667276436770 
   0.3098953725110   -0.2703336311066    0.2107979619301   -0.1606158928704    0.0182993989775 
   0.0290080344390   -0.0250159291058   -0.3385316012154   -0.1009428990196   -0.1591193081929 
  -0.0271166065120   -0.1014251948352   -0.2437249717090    0.1703256205213    0.0337549482957 
   0.0586605064624   -0.2952589457807   -0.3320893572897    0.0112807146640    0.2909189892275 
   0.0109168598497    0.0389632639960   -0.2708959360604   -0.1553806445463   -0.1540350952843 
  -0.1481510194683   -0.2050305118506    0.2141818109848   -0.0381146412136    0.2391579640993 
  -0.1857202468031    0.1483000874537    0.2306695465398   -0.1815767446392   -0.1071722766510 
   0.0596723020027    0.6710781001629    0.0402674320429    0.1114095235124   -0.2701297636838 
   0.2174938448427    0.0290078452572    0.4630988391322    0.0954780319482   -0.0827118485912 
  -0.2420850404159    0.1263339624345    0.2974924249564    0.2022069205866   -0.1923555195819 
  -0.2725286229753    0.0017009932269   -0.0749018640101    0.9496119702412   -0.1155608779467 
  -0.3279828108728   -0.3170154506101    0.0229970573768    0.0095901564982    0.4419950250542 
  -0.2792650450657    0.3298596873363   -0.5280581612846    0.0012902688185    0.3586292501929 
   0.0934889711772    0.3046423878475   -0.3526107838886   -0.4434177840410    0.1986787006882 
   0.2470256265514   -0.2234971327274    0.1680167870094   -0.0829113049122    0.1880761654200 
   0.0102721149634   -0.2772793095561   -0.2143070023469   -0.2076976796610    0.1561789346216 
   0.1376485508699    0.0497048939374    0.1414199820505    0.0215811233181    0.1180904454527 
   0.1187828423246   -0.2164248687410   -0.2314687657162    0.2160363370988   -0.2067260550243 
   0.2131733104051    0.0107383182810    0.2145532364999   -0.3546420893098   -0.0476398076482 
  -0.1538251459874    0.0450453410003   -0.1421170662237   -0.2007564392762    0.0097875859298 
  -0.0760230426007    0.1921124499807   -0.0580174640909    0.1782111641811    0.2756107091306 
  -0.0059049893426   -0.0879970618896    0.1182554365413   -0.0032215228136   -0.4864113747789 
   0.0592435711431   -0.1213301800224   -0.0946216777311    0.1051585623582   -0.1447319034881 
   0.1343687599102    0.1733731778895    0.2139171869220   -0.3061743828517   -0.2017127545410 
   0.0703925000829    0.3526183125046    0.0127989121203   -0.1465230635366   -0.3697744222470 
  -0.0380317986578    0.0775205736898    0.1869085576301    0.0460483979871   -0.1143425140064 
  -0.1532163006578   -0.2325927737622    0.2987249694291   -0.1004793810380   -0.0611607015480 
  -0.0548144155109    0.1346278773036    0.0751674927218   -0.6973781016004    0.1380103748363 
   0.1997076283041    0.2304553188179    0.3037259577700    0.1842428657021   -0.2582028895437 
   0.2753663116525   -0.2677250819718    0.2835994700136    0.2068211671114   -0.2715779322306 
  -0.0042967245890   -0.2668811288782    0.4057463679154    0.1570998621272   -0.1402320202956 
   0.5790966402021   -0.0601622382435    0.1266635235537   -0.2312144025759   -0.0361765125634 
   0.1204300027055    0.1648022527256    0.1498431330290    0.1514364486513    0.0119849348905 
   0.0521107965697   -0.0049224138757   -0.2163458756837   -0.1725765926373   -0.0117931428794 
  -0.1625439949267    0.0623948801540    0.2522556869490    0.2863752912388    0.0668033686966 
  -0.0226991264601    0.1378202348795    0.0002774112530   -0.0672913567183   -0.0783472138407 
  -0.1944755452900   -0.1846059941876   -0.0232010020729   -0.0461143210891   -0.0333356387275 
  -0.0734286516943   -0.0605278928012   -0.0315734392596   -0.1737850167148   -0.2999726658523 
  -0.0312591994964    0.2054084753597   -0.1722408630963    0.1127684462043   -0.1766973717939 
  -0.0505946287428    0.0557663564300   -0.0905511411007   -0.1984462629261    0.0672717309268 
   0.1525074203456    0.1978898931587   -0.1179195176810    0.0456114165762    0.2538687858068 
  -0.1687289523527   -0.0765578379047   -0.1172534991903   -0.1035688834201    0.0341897618266 
   0.0156309164905   -0.1939182555923   -0.1662767667947    0.0137173267418    0.0480763189578 
   0.0266340960849    0.0823117999018    0.1665690907491    0.0216418354540   -0.0763080978973 
   0.2762859550086   -0.2239566972242   -0.0083450939209   -2.9519544212711    0.5404375661659 
   1.2807522992612    0.6097895298455   -0.4870509681907   -0.6435994976686   -0.7909640708925 
  -1.3454554890755   -0.0860460525218    0.3375177020225   -0.6360514840475   -0.2425410401797 
   1.0695682697815   -0.1989770929844    0.4000892561872    0.1795927688333   -0.2797259792626 

